{
  "feature_type": "hamming_rr_ii",
  "alpha": "half_ones_leading",
  "setup": {
    "n": 12,
    "channel_type": "depolarizing",
    "strength": 0.1,
    "run_name": "n12_depolarizing_p0p1_fsfe10419a68ae4e9e_nps287e86c8b509fd7e"
  },
  "source": {
    "run_path": "/gpfs/home1/ypatel/data1/shadow-qml-ml/feat_data_all/feat_data/exp_s1_features_hamming_rr_ii_fsfe10419a68ae4e9e_fixed_alpha_half_ones_leading_fixed_y_all_zeros_q_5_14/runs/n12_depolarizing_p0p1_fsfe10419a68ae4e9e_nps287e86c8b509fd7e",
    "dataset_ref": "/gpfs/home1/ypatel/data1/shadow-qml-ml/feat_data_all/feat_data/exp_s1_features_hamming_rr_ii_fsfe10419a68ae4e9e_fixed_alpha_half_ones_leading_fixed_y_all_zeros_q_5_14/datasets/dataset_348b74f067dd70ca.npz"
  },
  "train_config": {
    "val_frac": 0.2,
    "batch_size": 128,
    "epochs": 180,
    "lr": 0.009739828014781909,
    "l2": 0.0003110860885177623,
    "n_independent_runs": 10,
    "init_mode": "random_normal",
    "init_scale": 0.0028569424932669363,
    "vary_split": true,
    "vary_batch_order": true,
    "vary_init": true
  },
  "k_grid_requested": [
    0.8,
    0.9,
    1.0,
    1.1,
    1.2,
    1.3,
    1.4,
    1.5,
    1.6,
    1.7,
    1.8,
    1.9,
    2.0,
    2.1,
    2.2,
    2.3,
    2.4
  ],
  "k_match_mode": "offby1",
  "k_nearest_max_abs_delta": 1,
  "per_nps_selected": [
    {
      "nps": 114104,
      "baseline_cent_sign": {
        "train_acc": 0.491666704416275,
        "val_acc": 0.44583335518836975
      },
      "logreg": {
        "train": {
          "acc": 0.534375011920929,
          "nll": 0.6867185235023499
        },
        "val": {
          "acc": 0.5250000357627869,
          "nll": 0.6951971054077148
        },
        "params": {
          "w": [
            -0.008631640113890171,
            0.038290686905384064,
            0.01662629097700119,
            -0.06851736456155777,
            0.014441427774727345,
            -0.04189867153763771,
            0.01325400173664093,
            -0.052437104284763336,
            -0.005387051030993462,
            -0.02425689622759819,
            0.0489010363817215,
            -0.022569864988327026,
            0.04644882306456566,
            0.04039813205599785,
            -0.04433147981762886,
            -0.02273475006222725,
            -0.03293117508292198,
            0.0004945937544107437,
            0.002579440362751484,
            -0.010896915569901466,
            0.020185459405183792,
            -0.018311211839318275,
            0.016113603487610817,
            -0.06297492980957031,
            0.07807710021734238
          ],
          "b": -0.0020465836860239506
        },
        "standardize": {
          "mu": [
            1.6888155937194824,
            1.2272433042526245,
            0.9358495473861694,
            -1.0909900665283203,
            -2.0251412391662598,
            0.1851581335067749,
            -0.39990663528442383,
            0.027576161548495293,
            -0.9830511808395386,
            1.8805509805679321,
            1.2327089309692383,
            -1.266036033630371,
            4.538703441619873,
            6.183999061584473,
            3.1741816997528076,
            -0.742088258266449,
            -1.2023649215698242,
            0.8565506339073181,
            0.16218408942222595,
            -0.5117316842079163,
            0.9016444087028503,
            -0.6837942004203796,
            1.4047625064849854,
            -1.9377745389938354,
            25.905698776245117
          ],
          "sd": [
            11.778488159179688,
            12.472057342529297,
            29.321165084838867,
            92.48596954345703,
            50.807472229003906,
            33.46330261230469,
            27.434999465942383,
            28.874452590942383,
            31.766159057617188,
            42.520530700683594,
            61.608551025390625,
            112.37679290771484,
            246.9977569580078,
            702.7026977539062,
            92.00313568115234,
            50.72842788696289,
            33.38145065307617,
            29.282583236694336,
            28.091144561767578,
            31.145483016967773,
            41.46726989746094,
            63.9953498840332,
            113.85395812988281,
            251.33055114746094,
            700.9498901367188
          ]
        },
        "init": {
          "mode": "random_normal",
          "scale": 0.0028569424932669363
        },
        "seeds": {
          "split_seed": 704042,
          "init_seed": 904042,
          "batch_seed": 804042
        }
      },
      "independent_runs": {
        "per_run": [
          {
            "baseline_cent_sign": {
              "train_acc": 0.491666704416275,
              "val_acc": 0.44583335518836975
            },
            "logreg": {
              "train": {
                "acc": 0.534375011920929,
                "nll": 0.6867185235023499
              },
              "val": {
                "acc": 0.5250000357627869,
                "nll": 0.6951971054077148
              },
              "params": {
                "w": [
                  -0.008631640113890171,
                  0.038290686905384064,
                  0.01662629097700119,
                  -0.06851736456155777,
                  0.014441427774727345,
                  -0.04189867153763771,
                  0.01325400173664093,
                  -0.052437104284763336,
                  -0.005387051030993462,
                  -0.02425689622759819,
                  0.0489010363817215,
                  -0.022569864988327026,
                  0.04644882306456566,
                  0.04039813205599785,
                  -0.04433147981762886,
                  -0.02273475006222725,
                  -0.03293117508292198,
                  0.0004945937544107437,
                  0.002579440362751484,
                  -0.010896915569901466,
                  0.020185459405183792,
                  -0.018311211839318275,
                  0.016113603487610817,
                  -0.06297492980957031,
                  0.07807710021734238
                ],
                "b": -0.0020465836860239506
              },
              "standardize": {
                "mu": [
                  1.6888155937194824,
                  1.2272433042526245,
                  0.9358495473861694,
                  -1.0909900665283203,
                  -2.0251412391662598,
                  0.1851581335067749,
                  -0.39990663528442383,
                  0.027576161548495293,
                  -0.9830511808395386,
                  1.8805509805679321,
                  1.2327089309692383,
                  -1.266036033630371,
                  4.538703441619873,
                  6.183999061584473,
                  3.1741816997528076,
                  -0.742088258266449,
                  -1.2023649215698242,
                  0.8565506339073181,
                  0.16218408942222595,
                  -0.5117316842079163,
                  0.9016444087028503,
                  -0.6837942004203796,
                  1.4047625064849854,
                  -1.9377745389938354,
                  25.905698776245117
                ],
                "sd": [
                  11.778488159179688,
                  12.472057342529297,
                  29.321165084838867,
                  92.48596954345703,
                  50.807472229003906,
                  33.46330261230469,
                  27.434999465942383,
                  28.874452590942383,
                  31.766159057617188,
                  42.520530700683594,
                  61.608551025390625,
                  112.37679290771484,
                  246.9977569580078,
                  702.7026977539062,
                  92.00313568115234,
                  50.72842788696289,
                  33.38145065307617,
                  29.282583236694336,
                  28.091144561767578,
                  31.145483016967773,
                  41.46726989746094,
                  63.9953498840332,
                  113.85395812988281,
                  251.33055114746094,
                  700.9498901367188
                ]
              },
              "init": {
                "mode": "random_normal",
                "scale": 0.0028569424932669363
              },
              "seeds": {
                "split_seed": 704042,
                "init_seed": 904042,
                "batch_seed": 804042
              }
            },
            "run_id": 0,
            "seed": 1004042,
            "randomness": {
              "split_seed": 704042,
              "batch_seed": 804042,
              "init_seed": 904042
            }
          },
          {
            "baseline_cent_sign": {
              "train_acc": 0.4843750298023224,
              "val_acc": 0.4750000238418579
            },
            "logreg": {
              "train": {
                "acc": 0.5375000238418579,
                "nll": 0.687658965587616
              },
              "val": {
                "acc": 0.4833333492279053,
                "nll": 0.6982484459877014
              },
              "params": {
                "w": [
                  0.014916721731424332,
                  0.0066568502224981785,
                  -0.02911798469722271,
                  -0.018408233299851418,
                  0.02231072075664997,
                  -0.03723476454615593,
                  0.012283315882086754,
                  -0.02066926285624504,
                  -0.0016840973403304815,
                  -0.03097938373684883,
                  -0.0006005656905472279,
                  -0.006260968744754791,
                  0.02651812508702278,
                  0.016305681318044662,
                  -0.01952335424721241,
                  -0.046578116714954376,
                  -0.010585001669824123,
                  -0.03654629737138748,
                  -0.03336659073829651,
                  0.03220681846141815,
                  0.011780512519180775,
                  0.038533419370651245,
                  -0.029203958809375763,
                  -0.03220831975340843,
                  0.04183273762464523
                ],
                "b": 0.012613465078175068
              },
              "standardize": {
                "mu": [
                  1.1589667797088623,
                  1.6387865543365479,
                  1.6566853523254395,
                  0.010105006396770477,
                  -1.8865392208099365,
                  -0.8635170459747314,
                  -0.23838794231414795,
                  0.08890915662050247,
                  -0.09952227771282196,
                  1.6147314310073853,
                  1.0418763160705566,
                  -0.7363309860229492,
                  -6.364345550537109,
                  7.401124477386475,
                  3.769827127456665,
                  -0.9004837274551392,
                  -1.0516258478164673,
                  1.111384391784668,
                  1.1061886548995972,
                  0.13356541097164154,
                  0.9210809469223022,
                  -1.0521705150604248,
                  1.554922103881836,
                  2.4679689407348633,
                  13.478324890136719
                ],
                "sd": [
                  11.833642959594727,
                  12.043542861938477,
                  28.732704162597656,
                  92.44293212890625,
                  49.38985061645508,
                  33.213314056396484,
                  27.76339340209961,
                  29.080059051513672,
                  31.895004272460938,
                  42.213233947753906,
                  62.10187530517578,
                  112.5334243774414,
                  248.51055908203125,
                  715.588134765625,
                  92.00724792480469,
                  51.316829681396484,
                  33.54951477050781,
                  28.745769500732422,
                  28.21476173400879,
                  31.333295822143555,
                  40.796661376953125,
                  63.522010803222656,
                  113.29853057861328,
                  244.01138305664062,
                  707.7892456054688
                ]
              },
              "init": {
                "mode": "random_normal",
                "scale": 0.0028569424932669363
              },
              "seeds": {
                "split_seed": 704043,
                "init_seed": 904043,
                "batch_seed": 804043
              }
            },
            "run_id": 1,
            "seed": 1004043,
            "randomness": {
              "split_seed": 704043,
              "batch_seed": 804043,
              "init_seed": 904043
            }
          },
          {
            "baseline_cent_sign": {
              "train_acc": 0.476041704416275,
              "val_acc": 0.5083333849906921
            },
            "logreg": {
              "train": {
                "acc": 0.5520833730697632,
                "nll": 0.6867080330848694
              },
              "val": {
                "acc": 0.46250003576278687,
                "nll": 0.7010937333106995
              },
              "params": {
                "w": [
                  0.0077858553268015385,
                  0.007611628621816635,
                  -0.017440002411603928,
                  -0.02869984693825245,
                  0.014610111713409424,
                  -0.01779790408909321,
                  0.006253834348171949,
                  -0.04371519759297371,
                  -0.02863573096692562,
                  -0.03319024667143822,
                  0.02884494699537754,
                  -0.0028521795757114887,
                  0.047932323068380356,
                  0.011952021159231663,
                  0.014013279229402542,
                  -0.059123773127794266,
                  -0.02180631086230278,
                  -0.017349541187286377,
                  -0.010992178693413734,
                  0.02815476432442665,
                  0.022227460518479347,
                  0.0057993787340819836,
                  -0.029650749638676643,
                  -0.032551851123571396,
                  0.03459644317626953
                ],
                "b": 0.016030970960855484
              },
              "standardize": {
                "mu": [
                  1.4770948886871338,
                  1.2821485996246338,
                  0.9388448596000671,
                  -1.302884578704834,
                  -3.222379684448242,
                  -0.8952930569648743,
                  0.21876727044582367,
                  0.2049793154001236,
                  -0.6288297176361084,
                  2.6446590423583984,
                  0.014342880807816982,
                  -0.6954034566879272,
                  -0.10285238176584244,
                  8.86629867553711,
                  6.354020118713379,
                  -1.1891252994537354,
                  -1.3065515756607056,
                  0.25471585988998413,
                  1.2606227397918701,
                  -0.06474418938159943,
                  1.322558879852295,
                  -3.638462781906128,
                  3.0555343627929688,
                  -7.436814785003662,
                  24.934669494628906
                ],
                "sd": [
                  11.797284126281738,
                  12.164483070373535,
                  29.402267456054688,
                  89.59031677246094,
                  50.509273529052734,
                  33.48686218261719,
                  27.764638900756836,
                  28.860929489135742,
                  32.668983459472656,
                  41.74315643310547,
                  61.91777420043945,
                  114.14201354980469,
                  250.2477569580078,
                  720.1110229492188,
                  91.79666900634766,
                  50.7884521484375,
                  33.94813919067383,
                  29.208393096923828,
                  27.69718360900879,
                  30.920995712280273,
                  40.66954040527344,
                  62.63280487060547,
                  112.9028549194336,
                  249.15162658691406,
                  707.1414184570312
                ]
              },
              "init": {
                "mode": "random_normal",
                "scale": 0.0028569424932669363
              },
              "seeds": {
                "split_seed": 704044,
                "init_seed": 904044,
                "batch_seed": 804044
              }
            },
            "run_id": 2,
            "seed": 1004044,
            "randomness": {
              "split_seed": 704044,
              "batch_seed": 804044,
              "init_seed": 904044
            }
          },
          {
            "baseline_cent_sign": {
              "train_acc": 0.476041704416275,
              "val_acc": 0.5083333849906921
            },
            "logreg": {
              "train": {
                "acc": 0.5510417222976685,
                "nll": 0.6871247887611389
              },
              "val": {
                "acc": 0.46666669845581055,
                "nll": 0.7058804035186768
              },
              "params": {
                "w": [
                  -0.03244679048657417,
                  0.06219682842493057,
                  -0.012038098648190498,
                  -0.030371950939297676,
                  -0.013771440833806992,
                  -0.027349987998604774,
                  -0.020714502781629562,
                  -0.003547386731952429,
                  0.014254370704293251,
                  -0.018652090802788734,
                  0.037105537950992584,
                  0.042616911232471466,
                  0.03952644020318985,
                  -0.00813459511846304,
                  -0.024782946333289146,
                  0.01608595810830593,
                  0.001921260729432106,
                  -0.01696513406932354,
                  0.015264974907040596,
                  -0.013137809932231903,
                  0.0007853336865082383,
                  0.04274701327085495,
                  0.029436049982905388,
                  -0.036479461938142776,
                  -0.0013706672471016645
                ],
                "b": -0.03148170933127403
              },
              "standardize": {
                "mu": [
                  1.4985268115997314,
                  1.4532347917556763,
                  1.2494268417358398,
                  2.000131845474243,
                  -2.599461317062378,
                  -0.6318602561950684,
                  -0.71320641040802,
                  0.37093260884284973,
                  -0.5038642883300781,
                  1.9684197902679443,
                  0.5740264058113098,
                  -2.094738483428955,
                  -0.9479589462280273,
                  5.651483535766602,
                  4.5429792404174805,
                  -1.156951665878296,
                  -1.6944856643676758,
                  1.0149415731430054,
                  0.22027398645877838,
                  -0.2871696650981903,
                  1.0240329504013062,
                  -2.4372670650482178,
                  1.759567141532898,
                  3.9849071502685547,
                  15.937673568725586
                ],
                "sd": [
                  11.818933486938477,
                  12.264009475708008,
                  29.177061080932617,
                  91.05220794677734,
                  50.23065185546875,
                  32.7341423034668,
                  27.461780548095703,
                  28.804763793945312,
                  32.47605514526367,
                  41.73081588745117,
                  62.14458465576172,
                  113.2073745727539,
                  250.5706329345703,
                  702.2384643554688,
                  91.62915802001953,
                  50.92184066772461,
                  33.46576690673828,
                  29.09902000427246,
                  27.909643173217773,
                  30.979257583618164,
                  41.09996032714844,
                  64.59877014160156,
                  110.30565643310547,
                  247.02874755859375,
                  708.9892578125
                ]
              },
              "init": {
                "mode": "random_normal",
                "scale": 0.0028569424932669363
              },
              "seeds": {
                "split_seed": 704045,
                "init_seed": 904045,
                "batch_seed": 804045
              }
            },
            "run_id": 3,
            "seed": 1004045,
            "randomness": {
              "split_seed": 704045,
              "batch_seed": 804045,
              "init_seed": 904045
            }
          },
          {
            "baseline_cent_sign": {
              "train_acc": 0.47812503576278687,
              "val_acc": 0.5
            },
            "logreg": {
              "train": {
                "acc": 0.5489583611488342,
                "nll": 0.6862234473228455
              },
              "val": {
                "acc": 0.5041667222976685,
                "nll": 0.6929268836975098
              },
              "params": {
                "w": [
                  -0.038062684237957,
                  0.08281131088733673,
                  -0.030294202268123627,
                  -0.052827320992946625,
                  0.0009477747371420264,
                  -0.09171312302350998,
                  -0.0031929181423038244,
                  -0.06020700931549072,
                  -0.02442796900868416,
                  -0.028845850378274918,
                  0.0492766872048378,
                  -0.0530693493783474,
                  0.09524045884609222,
                  0.03998345509171486,
                  -0.019545283168554306,
                  -0.07919743657112122,
                  -0.031189722940325737,
                  -0.05743779242038727,
                  -0.037208180874586105,
                  0.011672459542751312,
                  0.0436444953083992,
                  0.0012210342101752758,
                  -0.023457739502191544,
                  -0.07120804488658905,
                  0.020699894055724144
                ],
                "b": -0.011856723576784134
              },
              "standardize": {
                "mu": [
                  1.5413830280303955,
                  1.1693851947784424,
                  1.0505456924438477,
                  -1.301984190940857,
                  -2.319366693496704,
                  -0.9400387406349182,
                  0.08012133091688156,
                  0.7275595664978027,
                  -0.5278480648994446,
                  2.3998348712921143,
                  -0.1278400421142578,
                  -0.6850788593292236,
                  2.5249664783477783,
                  10.862625122070312,
                  1.7189878225326538,
                  -1.1147098541259766,
                  -1.1313899755477905,
                  0.22210147976875305,
                  1.1671501398086548,
                  -0.1420535296201706,
                  1.053486704826355,
                  -1.0115160942077637,
                  3.730175495147705,
                  0.6672627925872803,
                  20.684612274169922
                ],
                "sd": [
                  11.819210052490234,
                  12.312681198120117,
                  29.144428253173828,
                  90.44132232666016,
                  50.039710998535156,
                  34.10893249511719,
                  27.22542381286621,
                  28.583364486694336,
                  32.497135162353516,
                  42.50555419921875,
                  61.289669036865234,
                  112.82852935791016,
                  253.65713500976562,
                  714.5875244140625,
                  90.36420440673828,
                  51.255306243896484,
                  34.15605926513672,
                  29.233871459960938,
                  28.42777442932129,
                  31.299209594726562,
                  40.60306930541992,
                  62.72569274902344,
                  112.05702209472656,
                  248.46630859375,
                  699.1299438476562
                ]
              },
              "init": {
                "mode": "random_normal",
                "scale": 0.0028569424932669363
              },
              "seeds": {
                "split_seed": 704046,
                "init_seed": 904046,
                "batch_seed": 804046
              }
            },
            "run_id": 4,
            "seed": 1004046,
            "randomness": {
              "split_seed": 704046,
              "batch_seed": 804046,
              "init_seed": 904046
            }
          },
          {
            "baseline_cent_sign": {
              "train_acc": 0.4802083671092987,
              "val_acc": 0.491666704416275
            },
            "logreg": {
              "train": {
                "acc": 0.5552083849906921,
                "nll": 0.6859548687934875
              },
              "val": {
                "acc": 0.47083336114883423,
                "nll": 0.7052334547042847
              },
              "params": {
                "w": [
                  -0.008298613131046295,
                  0.02138162963092327,
                  -0.008819356560707092,
                  -0.011340012773871422,
                  -0.00013707391917705536,
                  -0.02481582947075367,
                  0.01900644041597843,
                  -0.012233210727572441,
                  -0.007104436866939068,
                  -0.0188298299908638,
                  0.046337611973285675,
                  -0.04008479043841362,
                  0.0630856528878212,
                  0.047575753182172775,
                  -0.04797111451625824,
                  -0.021517379209399223,
                  -0.016186177730560303,
                  -0.0564175508916378,
                  0.031155074015259743,
                  -0.03131081908941269,
                  0.01719786785542965,
                  0.007182119879871607,
                  0.012442536652088165,
                  -0.03140012547373772,
                  -0.018502335995435715
                ],
                "b": -0.023260708898305893
              },
              "standardize": {
                "mu": [
                  1.4077706336975098,
                  1.4457952976226807,
                  1.2736173868179321,
                  1.089268684387207,
                  -2.442958116531372,
                  -0.8008508086204529,
                  0.24506795406341553,
                  0.6650721430778503,
                  -0.7605853080749512,
                  2.3271100521087646,
                  1.4259486198425293,
                  -1.0589948892593384,
                  5.167469024658203,
                  -8.524736404418945,
                  4.457828044891357,
                  -2.4203593730926514,
                  -1.19606614112854,
                  0.3757500648498535,
                  0.05732082203030586,
                  0.488071471452713,
                  1.3949843645095825,
                  -1.1188344955444336,
                  -1.712406039237976,
                  -10.41365909576416,
                  1.6766846179962158
                ],
                "sd": [
                  11.513427734375,
                  12.271127700805664,
                  29.4006290435791,
                  89.94355010986328,
                  49.886192321777344,
                  33.17292404174805,
                  27.64289093017578,
                  28.631641387939453,
                  31.964603424072266,
                  42.2695426940918,
                  61.82353591918945,
                  112.6139144897461,
                  248.17974853515625,
                  719.207275390625,
                  91.7184829711914,
                  50.17267608642578,
                  33.529415130615234,
                  29.39081573486328,
                  27.766460418701172,
                  30.089223861694336,
                  40.71814727783203,
                  62.39687728881836,
                  108.44249725341797,
                  249.70223999023438,
                  707.786865234375
                ]
              },
              "init": {
                "mode": "random_normal",
                "scale": 0.0028569424932669363
              },
              "seeds": {
                "split_seed": 704047,
                "init_seed": 904047,
                "batch_seed": 804047
              }
            },
            "run_id": 5,
            "seed": 1004047,
            "randomness": {
              "split_seed": 704047,
              "batch_seed": 804047,
              "init_seed": 904047
            }
          },
          {
            "baseline_cent_sign": {
              "train_acc": 0.48229169845581055,
              "val_acc": 0.4833333492279053
            },
            "logreg": {
              "train": {
                "acc": 0.5510417222976685,
                "nll": 0.6865925192832947
              },
              "val": {
                "acc": 0.5208333730697632,
                "nll": 0.6948280334472656
              },
              "params": {
                "w": [
                  -0.026707686483860016,
                  0.07033644616603851,
                  -0.0126832015812397,
                  -0.05779161676764488,
                  0.006066071800887585,
                  -0.025963669642806053,
                  -0.00804451946169138,
                  -0.04042387008666992,
                  -0.04824633151292801,
                  -0.009351500310003757,
                  0.03132393956184387,
                  -0.005643064621835947,
                  0.02124842442572117,
                  0.002889462746679783,
                  -0.017541872337460518,
                  -0.047935135662555695,
                  -0.01239189226180315,
                  -0.048172928392887115,
                  0.04202345013618469,
                  -0.01863805763423443,
                  -0.006168636959046125,
                  0.02527187205851078,
                  0.021451756358146667,
                  -0.03679056465625763,
                  0.04284132272005081
                ],
                "b": 0.006477945949882269
              },
              "standardize": {
                "mu": [
                  1.4103684425354004,
                  1.647986650466919,
                  0.7634779810905457,
                  -2.2393929958343506,
                  -3.782655954360962,
                  -1.0561527013778687,
                  -0.521073579788208,
                  0.3715573847293854,
                  0.44760388135910034,
                  1.1954798698425293,
                  0.0644788146018982,
                  0.9048696160316467,
                  2.4361484050750732,
                  3.2123963832855225,
                  5.748405456542969,
                  -0.8540419340133667,
                  -1.1151037216186523,
                  -0.17263934016227722,
                  0.3562203347682953,
                  0.6791728138923645,
                  0.4242743253707886,
                  -0.4041946530342102,
                  1.5334975719451904,
                  -0.39541131258010864,
                  21.758460998535156
                ],
                "sd": [
                  11.724263191223145,
                  12.032583236694336,
                  29.544029235839844,
                  91.35438537597656,
                  49.37704849243164,
                  33.409420013427734,
                  27.55221939086914,
                  28.813007354736328,
                  32.17301559448242,
                  41.92803192138672,
                  61.25328826904297,
                  113.53813934326172,
                  250.32830810546875,
                  714.5270385742188,
                  90.21804809570312,
                  51.67593002319336,
                  33.7573127746582,
                  29.31328582763672,
                  27.68637466430664,
                  31.387676239013672,
                  40.89054489135742,
                  64.63311767578125,
                  111.50236511230469,
                  250.3486328125,
                  709.3873901367188
                ]
              },
              "init": {
                "mode": "random_normal",
                "scale": 0.0028569424932669363
              },
              "seeds": {
                "split_seed": 704048,
                "init_seed": 904048,
                "batch_seed": 804048
              }
            },
            "run_id": 6,
            "seed": 1004048,
            "randomness": {
              "split_seed": 704048,
              "batch_seed": 804048,
              "init_seed": 904048
            }
          },
          {
            "baseline_cent_sign": {
              "train_acc": 0.48645836114883423,
              "val_acc": 0.46666669845581055
            },
            "logreg": {
              "train": {
                "acc": 0.5562500357627869,
                "nll": 0.688083291053772
              },
              "val": {
                "acc": 0.4750000238418579,
                "nll": 0.6970402598381042
              },
              "params": {
                "w": [
                  -0.03348225727677345,
                  0.05934419482946396,
                  -0.0042028967291116714,
                  -0.03562894091010094,
                  -0.0018911679508164525,
                  -0.051454607397317886,
                  -0.015912948176264763,
                  -0.007086742669343948,
                  0.03465272858738899,
                  0.0004849969409406185,
                  0.04267061874270439,
                  0.03670811653137207,
                  0.008984637446701527,
                  -0.0016306708566844463,
                  -0.01001063920557499,
                  -0.051084455102682114,
                  -0.024263082072138786,
                  -0.011209983378648758,
                  -0.0028660050593316555,
                  -0.02419656328856945,
                  0.004775965586304665,
                  0.01302233524620533,
                  0.016158169135451317,
                  -0.035427276045084,
                  0.011111689731478691
                ],
                "b": -0.011092145927250385
              },
              "standardize": {
                "mu": [
                  1.2520235776901245,
                  1.7545621395111084,
                  0.654353678226471,
                  -0.5557635426521301,
                  -3.9149482250213623,
                  -0.18644575774669647,
                  -0.34572985768318176,
                  1.1597273349761963,
                  0.31305816769599915,
                  2.523526191711426,
                  0.858904242515564,
                  0.10966454446315765,
                  3.3210854530334473,
                  -5.70871114730835,
                  4.365222930908203,
                  -1.9522361755371094,
                  -0.11541847139596939,
                  1.2331362962722778,
                  1.5455626249313354,
                  0.5236596465110779,
                  -0.738847017288208,
                  -1.2993309497833252,
                  -0.8561111688613892,
                  -0.8209737539291382,
                  -2.195098876953125
                ],
                "sd": [
                  11.711941719055176,
                  12.154197692871094,
                  29.163358688354492,
                  91.98574829101562,
                  49.19926071166992,
                  33.57067108154297,
                  28.125457763671875,
                  29.138938903808594,
                  32.502872467041016,
                  42.238250732421875,
                  61.41512680053711,
                  114.39307403564453,
                  246.73031616210938,
                  713.14990234375,
                  92.8702621459961,
                  50.233463287353516,
                  33.783790588378906,
                  28.948802947998047,
                  27.741153717041016,
                  30.11890411376953,
                  40.75372314453125,
                  63.3386116027832,
                  112.53917694091797,
                  250.4651641845703,
                  696.4447021484375
                ]
              },
              "init": {
                "mode": "random_normal",
                "scale": 0.0028569424932669363
              },
              "seeds": {
                "split_seed": 704049,
                "init_seed": 904049,
                "batch_seed": 804049
              }
            },
            "run_id": 7,
            "seed": 1004049,
            "randomness": {
              "split_seed": 704049,
              "batch_seed": 804049,
              "init_seed": 904049
            }
          },
          {
            "baseline_cent_sign": {
              "train_acc": 0.48229169845581055,
              "val_acc": 0.4833333492279053
            },
            "logreg": {
              "train": {
                "acc": 0.5510417222976685,
                "nll": 0.6895550489425659
              },
              "val": {
                "acc": 0.5125000476837158,
                "nll": 0.6932856440544128
              },
              "params": {
                "w": [
                  -0.020274654030799866,
                  0.03972765430808067,
                  0.018209757283329964,
                  -0.030632050707936287,
                  -0.020431214943528175,
                  -0.034150466322898865,
                  -0.004561234265565872,
                  -0.024129001423716545,
                  -0.006934980861842632,
                  -0.002741584787145257,
                  0.0003028516657650471,
                  -0.015185855329036713,
                  0.04278086498379707,
                  0.018558332696557045,
                  -0.0250533577054739,
                  -0.006677787750959396,
                  -0.01178993284702301,
                  -0.009390405379235744,
                  0.0033454911317676306,
                  -0.004681847058236599,
                  0.015261363238096237,
                  0.002852056408300996,
                  -0.008688738569617271,
                  -0.0020212556701153517,
                  0.009314125403761864
                ],
                "b": -0.024998294189572334
              },
              "standardize": {
                "mu": [
                  1.4143857955932617,
                  1.8295081853866577,
                  1.4479765892028809,
                  -0.05624288320541382,
                  -3.5750784873962402,
                  -0.647695779800415,
                  -0.7353444695472717,
                  1.0934805870056152,
                  -1.0844764709472656,
                  2.5322425365448,
                  -0.5205181241035461,
                  -0.6964612603187561,
                  -2.646164894104004,
                  -1.993428349494934,
                  3.2136049270629883,
                  -1.3696181774139404,
                  -0.6599357724189758,
                  0.7916769981384277,
                  0.7132666110992432,
                  0.026948358863592148,
                  0.8739043474197388,
                  -1.0025981664657593,
                  2.563953161239624,
                  4.925400257110596,
                  3.6059815883636475
                ],
                "sd": [
                  11.748332023620605,
                  12.09939193725586,
                  28.838956832885742,
                  92.01052856445312,
                  51.229698181152344,
                  33.74169158935547,
                  27.417682647705078,
                  28.842988967895508,
                  32.41680908203125,
                  42.703556060791016,
                  62.35503005981445,
                  112.62620544433594,
                  248.44879150390625,
                  716.4006958007812,
                  91.90050506591797,
                  50.126007080078125,
                  33.44892883300781,
                  29.396217346191406,
                  27.96461296081543,
                  31.08600616455078,
                  41.50349426269531,
                  64.60079956054688,
                  108.36616516113281,
                  251.35150146484375,
                  702.2056884765625
                ]
              },
              "init": {
                "mode": "random_normal",
                "scale": 0.0028569424932669363
              },
              "seeds": {
                "split_seed": 704050,
                "init_seed": 904050,
                "batch_seed": 804050
              }
            },
            "run_id": 8,
            "seed": 1004050,
            "randomness": {
              "split_seed": 704050,
              "batch_seed": 804050,
              "init_seed": 904050
            }
          },
          {
            "baseline_cent_sign": {
              "train_acc": 0.4750000238418579,
              "val_acc": 0.5125000476837158
            },
            "logreg": {
              "train": {
                "acc": 0.5489583611488342,
                "nll": 0.6882883906364441
              },
              "val": {
                "acc": 0.4833333492279053,
                "nll": 0.7017126083374023
              },
              "params": {
                "w": [
                  -0.00144853419624269,
                  -0.002984781051054597,
                  -0.04283827170729637,
                  0.005778237711638212,
                  0.011313729919493198,
                  -0.05250297486782074,
                  -0.028066128492355347,
                  -0.03187230974435806,
                  0.00952456146478653,
                  -0.036012474447488785,
                  0.034470442682504654,
                  -0.014164465479552746,
                  0.020488280802965164,
                  0.025282595306634903,
                  -0.012833564542233944,
                  -0.03421924263238907,
                  0.003044950310140848,
                  -0.010395248420536518,
                  -0.028152018785476685,
                  -0.006282380316406488,
                  0.034256160259246826,
                  -0.003505116095766425,
                  -0.0156635120511055,
                  0.00869223102927208,
                  0.027562642470002174
                ],
                "b": -0.037836384028196335
              },
              "standardize": {
                "mu": [
                  1.4823558330535889,
                  1.621168851852417,
                  1.306365728378296,
                  -0.3861740529537201,
                  -3.342294692993164,
                  -0.8652840256690979,
                  -1.6582701206207275,
                  0.0677352324128151,
                  -0.825455367565155,
                  2.2786152362823486,
                  1.2213259935379028,
                  -3.094344139099121,
                  2.7926971912384033,
                  -4.935041427612305,
                  5.470713138580322,
                  -1.6795514822006226,
                  -0.5524563193321228,
                  0.5441855192184448,
                  1.0659884214401245,
                  -0.2717890441417694,
                  0.9596221446990967,
                  -1.4624507427215576,
                  1.3254677057266235,
                  5.355044841766357,
                  12.459881782531738
                ],
                "sd": [
                  11.66586971282959,
                  12.140863418579102,
                  29.300962448120117,
                  91.27481079101562,
                  49.181514739990234,
                  32.7713508605957,
                  27.446735382080078,
                  28.239900588989258,
                  31.859655380249023,
                  42.0258674621582,
                  61.600826263427734,
                  113.2515640258789,
                  247.3350830078125,
                  693.1358032226562,
                  91.4944076538086,
                  51.085227966308594,
                  33.38597106933594,
                  28.928449630737305,
                  27.85895538330078,
                  31.540315628051758,
                  41.084449768066406,
                  64.94049835205078,
                  112.33589172363281,
                  250.9453887939453,
                  705.4485473632812
                ]
              },
              "init": {
                "mode": "random_normal",
                "scale": 0.0028569424932669363
              },
              "seeds": {
                "split_seed": 704051,
                "init_seed": 904051,
                "batch_seed": 804051
              }
            },
            "run_id": 9,
            "seed": 1004051,
            "randomness": {
              "split_seed": 704051,
              "batch_seed": 804051,
              "init_seed": 904051
            }
          }
        ],
        "summary": {
          "n_runs": 10,
          "baseline_cent_sign": {
            "train_acc": {
              "mean": 0.4812500327825546,
              "std": 0.0050173312394953175,
              "min": 0.4750000238418579,
              "max": 0.491666704416275
            },
            "val_acc": {
              "mean": 0.4875000298023224,
              "std": 0.02006933176408616,
              "min": 0.44583335518836975,
              "max": 0.5125000476837158
            }
          },
          "logreg": {
            "train_acc": {
              "mean": 0.5486458718776703,
              "std": 0.006767638216781999,
              "min": 0.534375011920929,
              "max": 0.5562500357627869
            },
            "val_acc": {
              "mean": 0.49041669964790346,
              "std": 0.02205187059491493,
              "min": 0.46250003576278687,
              "max": 0.5250000357627869
            },
            "train_nll": {
              "mean": 0.6872907876968384,
              "std": 0.0010484190767235395,
              "min": 0.6859548687934875,
              "max": 0.6895550489425659
            },
            "val_nll": {
              "mean": 0.6985446572303772,
              "std": 0.00449081101305035,
              "min": 0.6929268836975098,
              "max": 0.7058804035186768
            }
          }
        },
        "randomness_config": {
          "vary_split": true,
          "vary_batch_order": true,
          "vary_init": true
        }
      },
      "k": 1.4,
      "nps_target": 114105,
      "nps_match_mode": "offby1"
    },
    {
      "nps": 262144,
      "baseline_cent_sign": {
        "train_acc": 0.4677083492279053,
        "val_acc": 0.5250000357627869
      },
      "logreg": {
        "train": {
          "acc": 0.5614583492279053,
          "nll": 0.6842442154884338
        },
        "val": {
          "acc": 0.46250003576278687,
          "nll": 0.6996492147445679
        },
        "params": {
          "w": [
            0.032509695738554,
            -0.003224660875275731,
            -0.04850666597485542,
            -0.020924875512719154,
            -0.040993478149175644,
            0.04197387769818306,
            0.005792497657239437,
            0.03534495458006859,
            0.03210986405611038,
            0.00033434154465794563,
            -0.05735102668404579,
            0.02077515982091427,
            -0.04148807376623154,
            0.011202415451407433,
            0.029248656705021858,
            0.0193342175334692,
            -0.035000741481781006,
            -0.02987518534064293,
            -0.031910963356494904,
            -0.029653195291757584,
            -0.002404509112238884,
            -0.0482807531952858,
            0.023028992116451263,
            0.010112193413078785,
            -0.017275141552090645
          ],
          "b": 0.010333424434065819
        },
        "standardize": {
          "mu": [
            1.0193848609924316,
            1.2696412801742554,
            -0.28587642312049866,
            1.463913083076477,
            -1.016175389289856,
            0.02086830325424671,
            0.10605397820472717,
            -0.23960474133491516,
            -0.17563897371292114,
            -1.2848265171051025,
            -0.05731344595551491,
            -1.4043172597885132,
            0.361389696598053,
            4.596991539001465,
            0.7456405758857727,
            0.6249513030052185,
            -0.06141295284032822,
            0.5438202619552612,
            0.30671387910842896,
            0.10227599740028381,
            -0.924808919429779,
            -0.5937153100967407,
            -1.9999111890792847,
            -0.6902883052825928,
            -18.33218765258789
          ],
          "sd": [
            7.851959228515625,
            7.936995029449463,
            19.520854949951172,
            40.4651985168457,
            20.777755737304688,
            14.310916900634766,
            11.923273086547852,
            12.107319831848145,
            14.17470932006836,
            18.192785263061523,
            27.340421676635742,
            48.67930603027344,
            109.53480529785156,
            300.5782165527344,
            39.130184173583984,
            21.663625717163086,
            14.240145683288574,
            12.141648292541504,
            11.69869327545166,
            14.293822288513184,
            18.576250076293945,
            27.238525390625,
            50.21086883544922,
            110.23551177978516,
            311.74462890625
          ]
        },
        "init": {
          "mode": "random_normal",
          "scale": 0.0028569424932669363
        },
        "seeds": {
          "split_seed": 714042,
          "init_seed": 914042,
          "batch_seed": 814042
        }
      },
      "independent_runs": {
        "per_run": [
          {
            "baseline_cent_sign": {
              "train_acc": 0.4677083492279053,
              "val_acc": 0.5250000357627869
            },
            "logreg": {
              "train": {
                "acc": 0.5614583492279053,
                "nll": 0.6842442154884338
              },
              "val": {
                "acc": 0.46250003576278687,
                "nll": 0.6996492147445679
              },
              "params": {
                "w": [
                  0.032509695738554,
                  -0.003224660875275731,
                  -0.04850666597485542,
                  -0.020924875512719154,
                  -0.040993478149175644,
                  0.04197387769818306,
                  0.005792497657239437,
                  0.03534495458006859,
                  0.03210986405611038,
                  0.00033434154465794563,
                  -0.05735102668404579,
                  0.02077515982091427,
                  -0.04148807376623154,
                  0.011202415451407433,
                  0.029248656705021858,
                  0.0193342175334692,
                  -0.035000741481781006,
                  -0.02987518534064293,
                  -0.031910963356494904,
                  -0.029653195291757584,
                  -0.002404509112238884,
                  -0.0482807531952858,
                  0.023028992116451263,
                  0.010112193413078785,
                  -0.017275141552090645
                ],
                "b": 0.010333424434065819
              },
              "standardize": {
                "mu": [
                  1.0193848609924316,
                  1.2696412801742554,
                  -0.28587642312049866,
                  1.463913083076477,
                  -1.016175389289856,
                  0.02086830325424671,
                  0.10605397820472717,
                  -0.23960474133491516,
                  -0.17563897371292114,
                  -1.2848265171051025,
                  -0.05731344595551491,
                  -1.4043172597885132,
                  0.361389696598053,
                  4.596991539001465,
                  0.7456405758857727,
                  0.6249513030052185,
                  -0.06141295284032822,
                  0.5438202619552612,
                  0.30671387910842896,
                  0.10227599740028381,
                  -0.924808919429779,
                  -0.5937153100967407,
                  -1.9999111890792847,
                  -0.6902883052825928,
                  -18.33218765258789
                ],
                "sd": [
                  7.851959228515625,
                  7.936995029449463,
                  19.520854949951172,
                  40.4651985168457,
                  20.777755737304688,
                  14.310916900634766,
                  11.923273086547852,
                  12.107319831848145,
                  14.17470932006836,
                  18.192785263061523,
                  27.340421676635742,
                  48.67930603027344,
                  109.53480529785156,
                  300.5782165527344,
                  39.130184173583984,
                  21.663625717163086,
                  14.240145683288574,
                  12.141648292541504,
                  11.69869327545166,
                  14.293822288513184,
                  18.576250076293945,
                  27.238525390625,
                  50.21086883544922,
                  110.23551177978516,
                  311.74462890625
                ]
              },
              "init": {
                "mode": "random_normal",
                "scale": 0.0028569424932669363
              },
              "seeds": {
                "split_seed": 714042,
                "init_seed": 914042,
                "batch_seed": 814042
              }
            },
            "run_id": 0,
            "seed": 1014042,
            "randomness": {
              "split_seed": 714042,
              "batch_seed": 814042,
              "init_seed": 914042
            }
          },
          {
            "baseline_cent_sign": {
              "train_acc": 0.4791666865348816,
              "val_acc": 0.4791666865348816
            },
            "logreg": {
              "train": {
                "acc": 0.5541666746139526,
                "nll": 0.6867145299911499
              },
              "val": {
                "acc": 0.5166667103767395,
                "nll": 0.6964813470840454
              },
              "params": {
                "w": [
                  -0.001255878247320652,
                  -0.019017623737454414,
                  -0.005401902832090855,
                  -0.024959739297628403,
                  -0.017188910394906998,
                  0.007509331684559584,
                  -0.005394075997173786,
                  0.031703464686870575,
                  0.03583098202943802,
                  -0.03813645616173744,
                  -0.004201141186058521,
                  0.03564636781811714,
                  -0.03440309315919876,
                  0.03771612420678139,
                  0.01611160673201084,
                  0.03267332538962364,
                  -0.04466233402490616,
                  0.007724480703473091,
                  -0.0010034177685156465,
                  -0.03737026825547218,
                  -0.007513248827308416,
                  0.01858258992433548,
                  0.024604853242635727,
                  -8.350377902388573e-05,
                  -0.02199828438460827
                ],
                "b": -0.003969558048993349
              },
              "standardize": {
                "mu": [
                  0.8384841680526733,
                  1.1674838066101074,
                  0.02139047533273697,
                  1.6036690473556519,
                  -0.6255757808685303,
                  -0.01186711061745882,
                  -0.2843979001045227,
                  -0.12760043144226074,
                  -0.44727206230163574,
                  -1.1257604360580444,
                  -0.6279212236404419,
                  -1.4838097095489502,
                  4.730235576629639,
                  10.514766693115234,
                  -0.4307066798210144,
                  0.4968159794807434,
                  -0.4207942485809326,
                  0.5512847900390625,
                  0.35315829515457153,
                  0.0818994864821434,
                  -0.9293806552886963,
                  -0.8142731189727783,
                  -0.9995062351226807,
                  -0.41744717955589294,
                  -9.032590866088867
                ],
                "sd": [
                  7.84745454788208,
                  8.006608963012695,
                  19.243379592895508,
                  39.341041564941406,
                  20.724700927734375,
                  14.44595718383789,
                  12.201491355895996,
                  11.779217720031738,
                  13.837638854980469,
                  18.280681610107422,
                  27.173721313476562,
                  47.91737365722656,
                  109.14772033691406,
                  297.3235778808594,
                  39.55750274658203,
                  21.344961166381836,
                  14.385980606079102,
                  12.205442428588867,
                  11.638640403747559,
                  14.328936576843262,
                  18.312532424926758,
                  27.78135108947754,
                  49.94268798828125,
                  109.72695922851562,
                  309.4994812011719
                ]
              },
              "init": {
                "mode": "random_normal",
                "scale": 0.0028569424932669363
              },
              "seeds": {
                "split_seed": 714043,
                "init_seed": 914043,
                "batch_seed": 814043
              }
            },
            "run_id": 1,
            "seed": 1014043,
            "randomness": {
              "split_seed": 714043,
              "batch_seed": 814043,
              "init_seed": 914043
            }
          },
          {
            "baseline_cent_sign": {
              "train_acc": 0.4906250238418579,
              "val_acc": 0.4333333671092987
            },
            "logreg": {
              "train": {
                "acc": 0.5489583611488342,
                "nll": 0.688474178314209
              },
              "val": {
                "acc": 0.491666704416275,
                "nll": 0.6951004266738892
              },
              "params": {
                "w": [
                  0.04364557936787605,
                  -0.023502547293901443,
                  -0.03698058798909187,
                  -0.013586455956101418,
                  -0.05495231971144676,
                  0.00047764694318175316,
                  0.002911526709794998,
                  0.045320309698581696,
                  0.003640899434685707,
                  -0.030614303424954414,
                  -0.03860066831111908,
                  0.029894566163420677,
                  -0.021598653867840767,
                  -0.004718341398984194,
                  0.0056197866797447205,
                  0.056137409061193466,
                  0.00044036097824573517,
                  0.03368792682886124,
                  -0.045086655765771866,
                  -0.02100409008562565,
                  -0.032970260828733444,
                  -0.038879964500665665,
                  -0.00854438729584217,
                  0.0269766952842474,
                  0.01003271248191595
                ],
                "b": 0.04866482689976692
              },
              "standardize": {
                "mu": [
                  0.9369146823883057,
                  0.9095076322555542,
                  0.08630368113517761,
                  1.1499193906784058,
                  -0.9424138069152832,
                  -0.2563597857952118,
                  0.2562812268733978,
                  -0.43942752480506897,
                  -0.7353912591934204,
                  -1.8192261457443237,
                  -0.8492783904075623,
                  -1.2900971174240112,
                  -0.17049841582775116,
                  9.09790325164795,
                  0.5719922780990601,
                  -0.038400936871767044,
                  -0.5192620158195496,
                  0.2251957654953003,
                  0.19907774031162262,
                  0.29855701327323914,
                  -1.4340307712554932,
                  -0.27704328298568726,
                  -2.407539129257202,
                  2.4691219329833984,
                  -16.45377540588379
                ],
                "sd": [
                  7.769059181213379,
                  8.037867546081543,
                  19.18231773376465,
                  39.79969787597656,
                  20.48775291442871,
                  14.659788131713867,
                  11.83419132232666,
                  12.043333053588867,
                  13.980403900146484,
                  18.05010223388672,
                  27.847063064575195,
                  48.67659378051758,
                  108.38581085205078,
                  293.981201171875,
                  39.11424255371094,
                  21.395191192626953,
                  14.402941703796387,
                  12.086370468139648,
                  11.65772819519043,
                  14.164159774780273,
                  18.136507034301758,
                  27.811309814453125,
                  50.46662139892578,
                  109.42057800292969,
                  304.42877197265625
                ]
              },
              "init": {
                "mode": "random_normal",
                "scale": 0.0028569424932669363
              },
              "seeds": {
                "split_seed": 714044,
                "init_seed": 914044,
                "batch_seed": 814044
              }
            },
            "run_id": 2,
            "seed": 1014044,
            "randomness": {
              "split_seed": 714044,
              "batch_seed": 814044,
              "init_seed": 914044
            }
          },
          {
            "baseline_cent_sign": {
              "train_acc": 0.4739583432674408,
              "val_acc": 0.5
            },
            "logreg": {
              "train": {
                "acc": 0.5447916984558105,
                "nll": 0.6859949827194214
              },
              "val": {
                "acc": 0.46250003576278687,
                "nll": 0.6990697383880615
              },
              "params": {
                "w": [
                  0.038593046367168427,
                  -0.005869647487998009,
                  -0.0442812405526638,
                  -0.023127160966396332,
                  -0.01587880402803421,
                  -0.005952454637736082,
                  -0.035837724804878235,
                  0.03452964872121811,
                  -0.005310468841344118,
                  -0.04198925197124481,
                  -0.03166452422738075,
                  -0.0040513137355446815,
                  -0.07358743250370026,
                  0.006953793577849865,
                  -0.01720241643488407,
                  0.022090701386332512,
                  -0.03601653128862381,
                  -0.038917094469070435,
                  0.013335228897631168,
                  -0.00900321640074253,
                  0.010877610184252262,
                  -0.021590346470475197,
                  0.03679082170128822,
                  -0.005700993351638317,
                  -0.06013556197285652
                ],
                "b": -0.021817522123456
              },
              "standardize": {
                "mu": [
                  0.8847382068634033,
                  1.1896835565567017,
                  0.2739955484867096,
                  1.9259079694747925,
                  -0.10624342411756516,
                  -0.08808641880750656,
                  -0.19385145604610443,
                  -0.27556079626083374,
                  -0.21522751450538635,
                  -1.8572860956192017,
                  0.005818049423396587,
                  -2.9400813579559326,
                  1.0408093929290771,
                  12.02797794342041,
                  0.18246950209140778,
                  -0.4234203100204468,
                  -0.23699507117271423,
                  0.35727694630622864,
                  0.23387272655963898,
                  -0.06496528536081314,
                  -1.254731297492981,
                  0.1267135590314865,
                  -2.28916072845459,
                  1.6957507133483887,
                  -13.602171897888184
                ],
                "sd": [
                  7.890707969665527,
                  7.852190971374512,
                  19.457569122314453,
                  39.579647064208984,
                  20.532562255859375,
                  14.488288879394531,
                  12.179548263549805,
                  11.980829238891602,
                  13.638433456420898,
                  18.39864158630371,
                  27.30038070678711,
                  48.60554504394531,
                  108.40792846679688,
                  293.7911376953125,
                  39.28416061401367,
                  21.03974723815918,
                  14.583353996276855,
                  12.11773681640625,
                  11.739595413208008,
                  14.146440505981445,
                  18.650217056274414,
                  27.435436248779297,
                  50.10495376586914,
                  110.08795166015625,
                  310.8101806640625
                ]
              },
              "init": {
                "mode": "random_normal",
                "scale": 0.0028569424932669363
              },
              "seeds": {
                "split_seed": 714045,
                "init_seed": 914045,
                "batch_seed": 814045
              }
            },
            "run_id": 3,
            "seed": 1014045,
            "randomness": {
              "split_seed": 714045,
              "batch_seed": 814045,
              "init_seed": 914045
            }
          },
          {
            "baseline_cent_sign": {
              "train_acc": 0.47291669249534607,
              "val_acc": 0.5041667222976685
            },
            "logreg": {
              "train": {
                "acc": 0.5489583611488342,
                "nll": 0.6879340410232544
              },
              "val": {
                "acc": 0.5208333730697632,
                "nll": 0.6921309232711792
              },
              "params": {
                "w": [
                  -0.002012531738728285,
                  0.013565240427851677,
                  -0.04603837430477142,
                  -0.025059152394533157,
                  -0.05782349407672882,
                  -0.008149782195687294,
                  -0.04566405713558197,
                  0.014833896420896053,
                  0.02072663977742195,
                  0.005310996435582638,
                  -0.025805965065956116,
                  0.012750445865094662,
                  -0.05642669275403023,
                  0.015085749328136444,
                  0.004469181410968304,
                  0.003941475413739681,
                  0.002051048679277301,
                  -0.011853107251226902,
                  -0.013463422656059265,
                  -0.02909017540514469,
                  -0.01295822486281395,
                  -0.020112942904233932,
                  0.027346400544047356,
                  -0.006844640243798494,
                  -0.04359976574778557
                ],
                "b": 0.0032131988555192947
              },
              "standardize": {
                "mu": [
                  0.6306717395782471,
                  1.0208412408828735,
                  0.22013412415981293,
                  0.25811418890953064,
                  -0.521327018737793,
                  -0.0651152953505516,
                  0.06212189793586731,
                  -0.14944306015968323,
                  -0.3591509163379669,
                  -1.4876124858856201,
                  -0.05414314568042755,
                  -0.9433684349060059,
                  0.8840417265892029,
                  17.132465362548828,
                  0.7112189531326294,
                  1.0121057033538818,
                  -0.11038150638341904,
                  0.33385106921195984,
                  0.5526328086853027,
                  -0.011723058298230171,
                  -1.1652113199234009,
                  -0.7614798545837402,
                  0.39171361923217773,
                  2.3449454307556152,
                  -13.204803466796875
                ],
                "sd": [
                  7.921507358551025,
                  7.982194423675537,
                  19.348941802978516,
                  40.08112335205078,
                  20.91996192932129,
                  14.712474822998047,
                  11.99616813659668,
                  12.111270904541016,
                  13.993508338928223,
                  18.21036720275879,
                  27.183273315429688,
                  48.39212417602539,
                  109.26277160644531,
                  297.79962158203125,
                  39.48604202270508,
                  21.530183792114258,
                  14.471446990966797,
                  11.775423049926758,
                  11.772418975830078,
                  14.38375473022461,
                  18.38677215576172,
                  27.215999603271484,
                  49.07232666015625,
                  107.92522430419922,
                  303.0041198730469
                ]
              },
              "init": {
                "mode": "random_normal",
                "scale": 0.0028569424932669363
              },
              "seeds": {
                "split_seed": 714046,
                "init_seed": 914046,
                "batch_seed": 814046
              }
            },
            "run_id": 4,
            "seed": 1014046,
            "randomness": {
              "split_seed": 714046,
              "batch_seed": 814046,
              "init_seed": 914046
            }
          },
          {
            "baseline_cent_sign": {
              "train_acc": 0.48229169845581055,
              "val_acc": 0.46666669845581055
            },
            "logreg": {
              "train": {
                "acc": 0.5333333611488342,
                "nll": 0.6871292591094971
              },
              "val": {
                "acc": 0.5708333849906921,
                "nll": 0.681638240814209
              },
              "params": {
                "w": [
                  0.0653037577867508,
                  -0.038290638476610184,
                  -0.047292158007621765,
                  -0.0582503080368042,
                  -0.03993891924619675,
                  0.018619483336806297,
                  -0.021227926015853882,
                  0.054252997040748596,
                  0.07160335034132004,
                  -0.005678517743945122,
                  -0.07094723731279373,
                  0.02950012870132923,
                  -0.03663085028529167,
                  0.041385725140571594,
                  0.030709434300661087,
                  -0.0074746618047356606,
                  -0.06705379486083984,
                  0.020497560501098633,
                  -0.018862847238779068,
                  -0.08491846919059753,
                  -0.001549011329188943,
                  -0.02778119035065174,
                  0.04055091738700867,
                  0.05394234135746956,
                  -0.03655022755265236
                ],
                "b": 0.013734173029661179
              },
              "standardize": {
                "mu": [
                  0.7924076318740845,
                  0.9639430642127991,
                  -0.25249189138412476,
                  1.3613191843032837,
                  -0.5154085159301758,
                  0.03277960792183876,
                  0.09799154847860336,
                  -0.055294785648584366,
                  0.0839574784040451,
                  -1.548965573310852,
                  0.05533015355467796,
                  -2.23745059967041,
                  1.8054208755493164,
                  10.195216178894043,
                  -0.1640947461128235,
                  0.13933344185352325,
                  -0.11285150051116943,
                  0.5141120553016663,
                  0.34314969182014465,
                  0.3090054392814636,
                  -1.5200865268707275,
                  -0.14626561105251312,
                  -1.5317366123199463,
                  0.1392953246831894,
                  -22.40349769592285
                ],
                "sd": [
                  7.820786952972412,
                  8.046676635742188,
                  19.093975067138672,
                  39.35515213012695,
                  20.665956497192383,
                  14.377224922180176,
                  11.919775009155273,
                  11.938217163085938,
                  14.221501350402832,
                  18.243751525878906,
                  27.43864631652832,
                  48.26368713378906,
                  109.53244018554688,
                  297.1851806640625,
                  39.08041000366211,
                  21.30817222595215,
                  14.3082275390625,
                  12.103775024414062,
                  11.82291030883789,
                  14.381623268127441,
                  18.60123634338379,
                  27.791736602783203,
                  50.82482147216797,
                  108.28620910644531,
                  311.2505798339844
                ]
              },
              "init": {
                "mode": "random_normal",
                "scale": 0.0028569424932669363
              },
              "seeds": {
                "split_seed": 714047,
                "init_seed": 914047,
                "batch_seed": 814047
              }
            },
            "run_id": 5,
            "seed": 1014047,
            "randomness": {
              "split_seed": 714047,
              "batch_seed": 814047,
              "init_seed": 914047
            }
          },
          {
            "baseline_cent_sign": {
              "train_acc": 0.4739583432674408,
              "val_acc": 0.5
            },
            "logreg": {
              "train": {
                "acc": 0.5479167103767395,
                "nll": 0.6844644546508789
              },
              "val": {
                "acc": 0.46250003576278687,
                "nll": 0.7031238675117493
              },
              "params": {
                "w": [
                  0.039528537541627884,
                  -0.03677882254123688,
                  -0.03240029886364937,
                  -0.01350015215575695,
                  -0.004644223488867283,
                  0.023591218516230583,
                  -0.003259520046412945,
                  -0.0023331213742494583,
                  0.03714124113321304,
                  0.0002965388703159988,
                  -0.06583530455827713,
                  0.024281393736600876,
                  -0.010221656411886215,
                  0.03130228817462921,
                  -0.025026574730873108,
                  0.007566314656287432,
                  -0.029153456911444664,
                  -0.029219532385468483,
                  -0.014226801693439484,
                  -0.03922482579946518,
                  0.016234325245022774,
                  -0.010572319850325584,
                  0.041831180453300476,
                  0.02306172251701355,
                  -0.047512736171483994
                ],
                "b": -0.026897970587015152
              },
              "standardize": {
                "mu": [
                  0.8705111742019653,
                  1.077872395515442,
                  -0.2623835504055023,
                  2.426600217819214,
                  -0.8452388048171997,
                  0.30631181597709656,
                  0.18800197541713715,
                  0.29931044578552246,
                  -0.24953770637512207,
                  -1.662410020828247,
                  0.19871363043785095,
                  -0.5304479002952576,
                  1.1936142444610596,
                  9.306056022644043,
                  0.36062711477279663,
                  0.31955376267433167,
                  -0.05285220593214035,
                  0.5400300025939941,
                  0.3728714883327484,
                  0.046480752527713776,
                  -1.0187900066375732,
                  0.5886741876602173,
                  -2.271394968032837,
                  0.41165411472320557,
                  -16.87303352355957
                ],
                "sd": [
                  7.850274562835693,
                  7.942089557647705,
                  19.175443649291992,
                  39.835933685302734,
                  20.729406356811523,
                  14.314682006835938,
                  12.030967712402344,
                  12.008787155151367,
                  13.899955749511719,
                  18.85363006591797,
                  27.509496688842773,
                  48.82130813598633,
                  108.36338806152344,
                  304.9180603027344,
                  38.79848098754883,
                  21.337385177612305,
                  14.361593246459961,
                  12.320415496826172,
                  11.797797203063965,
                  14.143664360046387,
                  18.724605560302734,
                  27.571622848510742,
                  50.265419006347656,
                  108.8054428100586,
                  303.4544982910156
                ]
              },
              "init": {
                "mode": "random_normal",
                "scale": 0.0028569424932669363
              },
              "seeds": {
                "split_seed": 714048,
                "init_seed": 914048,
                "batch_seed": 814048
              }
            },
            "run_id": 6,
            "seed": 1014048,
            "randomness": {
              "split_seed": 714048,
              "batch_seed": 814048,
              "init_seed": 914048
            }
          },
          {
            "baseline_cent_sign": {
              "train_acc": 0.4854166805744171,
              "val_acc": 0.4541666805744171
            },
            "logreg": {
              "train": {
                "acc": 0.5427083373069763,
                "nll": 0.6889157891273499
              },
              "val": {
                "acc": 0.5375000238418579,
                "nll": 0.690012514591217
              },
              "params": {
                "w": [
                  0.018990708515048027,
                  0.008219319395720959,
                  -0.036223702132701874,
                  -0.01566363126039505,
                  -0.032048214226961136,
                  0.0151880644261837,
                  -0.005434246268123388,
                  0.046896591782569885,
                  0.030255991965532303,
                  -0.00874064676463604,
                  -0.031115887686610222,
                  -0.005688047967851162,
                  -0.01193619892001152,
                  -0.008407365530729294,
                  0.02499694935977459,
                  -0.023238522931933403,
                  -0.033692892640829086,
                  -0.009431790560483932,
                  -0.013113738037645817,
                  -0.04521951079368591,
                  0.002646962646394968,
                  0.0074110557325184345,
                  0.018131747841835022,
                  0.003237855387851596,
                  -0.028611375018954277
                ],
                "b": -0.00608956441283226
              },
              "standardize": {
                "mu": [
                  0.9205359220504761,
                  0.8841265439987183,
                  -0.31288835406303406,
                  0.2405470758676529,
                  -0.48259663581848145,
                  0.00830494612455368,
                  -0.05656272917985916,
                  -0.11820819228887558,
                  0.06543919444084167,
                  -1.8659909963607788,
                  -0.1490989774465561,
                  -1.4892081022262573,
                  -0.3608380854129791,
                  19.607955932617188,
                  0.8257938027381897,
                  0.49462807178497314,
                  -0.39008381962776184,
                  0.2581806778907776,
                  0.48142197728157043,
                  0.026004347950220108,
                  -1.6958922147750854,
                  -0.12114407867193222,
                  -2.0725700855255127,
                  0.9911307096481323,
                  -21.052223205566406
                ],
                "sd": [
                  7.9720354080200195,
                  7.978951930999756,
                  19.281461715698242,
                  39.03970718383789,
                  20.71034812927246,
                  14.351088523864746,
                  11.967076301574707,
                  11.88497257232666,
                  14.02333927154541,
                  18.27581787109375,
                  27.071012496948242,
                  47.28838348388672,
                  108.33719635009766,
                  295.9151916503906,
                  39.39877700805664,
                  21.089948654174805,
                  14.21718692779541,
                  12.075000762939453,
                  11.797130584716797,
                  14.3340425491333,
                  18.630767822265625,
                  28.07852554321289,
                  50.327205657958984,
                  107.36939239501953,
                  303.4162292480469
                ]
              },
              "init": {
                "mode": "random_normal",
                "scale": 0.0028569424932669363
              },
              "seeds": {
                "split_seed": 714049,
                "init_seed": 914049,
                "batch_seed": 814049
              }
            },
            "run_id": 7,
            "seed": 1014049,
            "randomness": {
              "split_seed": 714049,
              "batch_seed": 814049,
              "init_seed": 914049
            }
          },
          {
            "baseline_cent_sign": {
              "train_acc": 0.4739583432674408,
              "val_acc": 0.5
            },
            "logreg": {
              "train": {
                "acc": 0.5666667222976685,
                "nll": 0.6852516531944275
              },
              "val": {
                "acc": 0.4833333492279053,
                "nll": 0.7032030820846558
              },
              "params": {
                "w": [
                  0.02991422452032566,
                  -0.034215278923511505,
                  -0.0385391041636467,
                  -0.01996212638914585,
                  -0.021949509158730507,
                  0.01701403222978115,
                  0.029673311859369278,
                  0.01656871661543846,
                  0.0552709698677063,
                  -0.026863563805818558,
                  -0.015395460650324821,
                  0.032546672970056534,
                  -0.023518331348896027,
                  0.0424104705452919,
                  -0.04415733739733696,
                  0.04316940903663635,
                  -0.03718307614326477,
                  -0.03564358875155449,
                  -0.0012178064789623022,
                  -0.061878979206085205,
                  0.027924541383981705,
                  -0.01738126389682293,
                  0.008318283595144749,
                  0.016285650432109833,
                  -0.023752951994538307
                ],
                "b": 0.032311391085386276
              },
              "standardize": {
                "mu": [
                  0.9638932943344116,
                  0.9810932278633118,
                  -0.7906902432441711,
                  1.825554609298706,
                  -0.0873485580086708,
                  -0.0665772333741188,
                  -0.21873116493225098,
                  -0.3401193618774414,
                  -0.4361226558685303,
                  -1.471401572227478,
                  -0.18288969993591309,
                  -0.7312831282615662,
                  2.197390079498291,
                  8.966780662536621,
                  1.0649100542068481,
                  0.7546127438545227,
                  0.010149304755032063,
                  0.2807709276676178,
                  0.10114257037639618,
                  0.2038903534412384,
                  -0.7508412599563599,
                  0.22734402120113373,
                  -0.9220959544181824,
                  -1.9015341997146606,
                  -20.888200759887695
                ],
                "sd": [
                  7.788140296936035,
                  7.938772678375244,
                  19.30388069152832,
                  39.081111907958984,
                  20.479076385498047,
                  14.2625150680542,
                  12.105121612548828,
                  12.083257675170898,
                  13.945093154907227,
                  17.914207458496094,
                  27.63996124267578,
                  49.12359619140625,
                  111.71017456054688,
                  299.70343017578125,
                  38.8837776184082,
                  21.526369094848633,
                  14.713340759277344,
                  12.069554328918457,
                  11.738041877746582,
                  13.896828651428223,
                  18.41924476623535,
                  27.96479034423828,
                  50.879058837890625,
                  108.37615966796875,
                  308.7388916015625
                ]
              },
              "init": {
                "mode": "random_normal",
                "scale": 0.0028569424932669363
              },
              "seeds": {
                "split_seed": 714050,
                "init_seed": 914050,
                "batch_seed": 814050
              }
            },
            "run_id": 8,
            "seed": 1014050,
            "randomness": {
              "split_seed": 714050,
              "batch_seed": 814050,
              "init_seed": 914050
            }
          },
          {
            "baseline_cent_sign": {
              "train_acc": 0.47812503576278687,
              "val_acc": 0.4833333492279053
            },
            "logreg": {
              "train": {
                "acc": 0.5552083849906921,
                "nll": 0.6861708164215088
              },
              "val": {
                "acc": 0.5333333611488342,
                "nll": 0.6939181089401245
              },
              "params": {
                "w": [
                  0.017057834193110466,
                  -0.003108691656962037,
                  -0.04496859759092331,
                  -0.05265400558710098,
                  -0.010780823417007923,
                  -0.007940147072076797,
                  -0.017343571409583092,
                  0.008807990700006485,
                  0.027366679161787033,
                  -0.02008139342069626,
                  -0.060619886964559555,
                  0.030345959588885307,
                  -0.05909697711467743,
                  0.03913205489516258,
                  -0.041155021637678146,
                  0.03985754773020744,
                  -0.017137527465820312,
                  0.017571697011590004,
                  -0.006558901630342007,
                  -0.031696148216724396,
                  0.007006978150457144,
                  -0.014180446043610573,
                  -0.01529889926314354,
                  0.02872454561293125,
                  -0.04145671799778938
                ],
                "b": 0.007933050394058228
              },
              "standardize": {
                "mu": [
                  0.8452150821685791,
                  1.0900487899780273,
                  0.1254723072052002,
                  1.383508324623108,
                  -0.4951155483722687,
                  0.18791186809539795,
                  -0.16612613201141357,
                  -0.3081749379634857,
                  -0.2569447457790375,
                  -0.8446633815765381,
                  -0.2892312705516815,
                  -1.011008858680725,
                  0.07427571713924408,
                  13.917105674743652,
                  -0.38330385088920593,
                  0.6486400961875916,
                  0.08888190984725952,
                  0.36552438139915466,
                  0.5278112888336182,
                  0.2669829726219177,
                  -1.3934274911880493,
                  -0.7810146808624268,
                  -1.3036034107208252,
                  0.7564470171928406,
                  -9.958086013793945
                ],
                "sd": [
                  7.837311267852783,
                  8.032206535339355,
                  19.25481605529785,
                  39.288028717041016,
                  20.609708786010742,
                  14.455256462097168,
                  12.027239799499512,
                  12.1581449508667,
                  14.026651382446289,
                  18.32870101928711,
                  27.495330810546875,
                  48.83045959472656,
                  109.83308410644531,
                  300.49835205078125,
                  39.149871826171875,
                  21.148441314697266,
                  14.318943977355957,
                  12.020020484924316,
                  11.518146514892578,
                  14.483988761901855,
                  18.67076301574707,
                  27.973953247070312,
                  48.79450988769531,
                  109.74085235595703,
                  305.49267578125
                ]
              },
              "init": {
                "mode": "random_normal",
                "scale": 0.0028569424932669363
              },
              "seeds": {
                "split_seed": 714051,
                "init_seed": 914051,
                "batch_seed": 814051
              }
            },
            "run_id": 9,
            "seed": 1014051,
            "randomness": {
              "split_seed": 714051,
              "batch_seed": 814051,
              "init_seed": 914051
            }
          }
        ],
        "summary": {
          "n_runs": 10,
          "baseline_cent_sign": {
            "train_acc": {
              "mean": 0.47781251966953275,
              "std": 0.006438986055961797,
              "min": 0.4677083492279053,
              "max": 0.4906250238418579
            },
            "val_acc": {
              "mean": 0.48458335399627683,
              "std": 0.025755931206398155,
              "min": 0.4333333671092987,
              "max": 0.5250000357627869
            }
          },
          "logreg": {
            "train_acc": {
              "mean": 0.5504166960716248,
              "std": 0.00903552551659899,
              "min": 0.5333333611488342,
              "max": 0.5666667222976685
            },
            "val_acc": {
              "mean": 0.5041667014360428,
              "std": 0.035551217783860035,
              "min": 0.46250003576278687,
              "max": 0.5708333849906921
            },
            "train_nll": {
              "mean": 0.6865293920040131,
              "std": 0.0015289546980026838,
              "min": 0.6842442154884338,
              "max": 0.6889157891273499
            },
            "val_nll": {
              "mean": 0.6954327464103699,
              "std": 0.006201703284187141,
              "min": 0.681638240814209,
              "max": 0.7032030820846558
            }
          }
        },
        "randomness_config": {
          "vary_split": true,
          "vary_batch_order": true,
          "vary_init": true
        }
      },
      "k": 1.5,
      "nps_target": 262144,
      "nps_match_mode": "offby1"
    },
    {
      "nps": 602248,
      "baseline_cent_sign": {
        "train_acc": 0.4947916865348816,
        "val_acc": 0.4750000238418579
      },
      "logreg": {
        "train": {
          "acc": 0.5593750476837158,
          "nll": 0.6835137605667114
        },
        "val": {
          "acc": 0.4958333671092987,
          "nll": 0.6954721212387085
        },
        "params": {
          "w": [
            0.008059179410338402,
            -0.05015810206532478,
            -0.03522126004099846,
            0.037485793232917786,
            -0.00425055343657732,
            -0.04229743406176567,
            -0.05179997906088829,
            -0.07052730023860931,
            0.004185748286545277,
            -0.07259973883628845,
            -0.06677127629518509,
            -0.053691137582063675,
            0.09386220574378967,
            0.022830018773674965,
            0.07580620795488358,
            0.06804970651865005,
            0.029255375266075134,
            -0.06827941536903381,
            0.05804745852947235,
            0.0644979476928711,
            -0.005360315553843975,
            0.1028938814997673,
            0.014196290634572506,
            0.03749783709645271,
            0.003582198405638337
          ],
          "b": 0.010004495270550251
        },
        "standardize": {
          "mu": [
            0.9340793490409851,
            0.9060201644897461,
            -0.10247528553009033,
            -0.8881285786628723,
            -0.1407785713672638,
            -0.26473599672317505,
            0.13404102623462677,
            -0.01196304988116026,
            -0.19196206331253052,
            0.01532947737723589,
            0.08081433922052383,
            -0.5055160522460938,
            -0.452530175447464,
            -8.233476638793945,
            -0.632629930973053,
            0.09899929910898209,
            -0.06979988515377045,
            0.08952157944440842,
            -0.07379774749279022,
            -0.050391294062137604,
            0.2901603877544403,
            -0.32036444544792175,
            0.30459800362586975,
            0.9408174157142639,
            1.7029976844787598
          ],
          "sd": [
            5.179144859313965,
            5.352834701538086,
            12.473814964294434,
            16.3219051361084,
            9.308112144470215,
            6.494094371795654,
            5.116295337677002,
            5.236868858337402,
            5.86526346206665,
            7.72178840637207,
            11.945365905761719,
            22.16844367980957,
            50.072227478027344,
            130.45909118652344,
            16.889907836914062,
            9.787637710571289,
            6.459880352020264,
            5.3514533042907715,
            5.250953674316406,
            5.8789520263671875,
            8.108086585998535,
            12.093907356262207,
            22.744089126586914,
            47.253173828125,
            128.8872528076172
          ]
        },
        "init": {
          "mode": "random_normal",
          "scale": 0.0028569424932669363
        },
        "seeds": {
          "split_seed": 724042,
          "init_seed": 924042,
          "batch_seed": 824042
        }
      },
      "independent_runs": {
        "per_run": [
          {
            "baseline_cent_sign": {
              "train_acc": 0.4947916865348816,
              "val_acc": 0.4750000238418579
            },
            "logreg": {
              "train": {
                "acc": 0.5593750476837158,
                "nll": 0.6835137605667114
              },
              "val": {
                "acc": 0.4958333671092987,
                "nll": 0.6954721212387085
              },
              "params": {
                "w": [
                  0.008059179410338402,
                  -0.05015810206532478,
                  -0.03522126004099846,
                  0.037485793232917786,
                  -0.00425055343657732,
                  -0.04229743406176567,
                  -0.05179997906088829,
                  -0.07052730023860931,
                  0.004185748286545277,
                  -0.07259973883628845,
                  -0.06677127629518509,
                  -0.053691137582063675,
                  0.09386220574378967,
                  0.022830018773674965,
                  0.07580620795488358,
                  0.06804970651865005,
                  0.029255375266075134,
                  -0.06827941536903381,
                  0.05804745852947235,
                  0.0644979476928711,
                  -0.005360315553843975,
                  0.1028938814997673,
                  0.014196290634572506,
                  0.03749783709645271,
                  0.003582198405638337
                ],
                "b": 0.010004495270550251
              },
              "standardize": {
                "mu": [
                  0.9340793490409851,
                  0.9060201644897461,
                  -0.10247528553009033,
                  -0.8881285786628723,
                  -0.1407785713672638,
                  -0.26473599672317505,
                  0.13404102623462677,
                  -0.01196304988116026,
                  -0.19196206331253052,
                  0.01532947737723589,
                  0.08081433922052383,
                  -0.5055160522460938,
                  -0.452530175447464,
                  -8.233476638793945,
                  -0.632629930973053,
                  0.09899929910898209,
                  -0.06979988515377045,
                  0.08952157944440842,
                  -0.07379774749279022,
                  -0.050391294062137604,
                  0.2901603877544403,
                  -0.32036444544792175,
                  0.30459800362586975,
                  0.9408174157142639,
                  1.7029976844787598
                ],
                "sd": [
                  5.179144859313965,
                  5.352834701538086,
                  12.473814964294434,
                  16.3219051361084,
                  9.308112144470215,
                  6.494094371795654,
                  5.116295337677002,
                  5.236868858337402,
                  5.86526346206665,
                  7.72178840637207,
                  11.945365905761719,
                  22.16844367980957,
                  50.072227478027344,
                  130.45909118652344,
                  16.889907836914062,
                  9.787637710571289,
                  6.459880352020264,
                  5.3514533042907715,
                  5.250953674316406,
                  5.8789520263671875,
                  8.108086585998535,
                  12.093907356262207,
                  22.744089126586914,
                  47.253173828125,
