{
  "feature_type": "hamming_rr_ii",
  "alpha": "half_ones_leading",
  "setup": {
    "n": 9,
    "channel_type": "depolarizing",
    "strength": 0.01,
    "run_name": "n9_depolarizing_p0p01_fsfe10419a68ae4e9e_npsc212c24f26feaf8b"
  },
  "source": {
    "run_path": "/gpfs/home1/ypatel/data1/shadow-qml-ml/feat_data_all/feat_data/exp_s1_features_hamming_rr_ii_fsfe10419a68ae4e9e_fixed_alpha_half_ones_leading_fixed_y_all_zeros_q_5_14/runs/n9_depolarizing_p0p01_fsfe10419a68ae4e9e_npsc212c24f26feaf8b",
    "dataset_ref": "/gpfs/home1/ypatel/data1/shadow-qml-ml/feat_data_all/feat_data/exp_s1_features_hamming_rr_ii_fsfe10419a68ae4e9e_fixed_alpha_half_ones_leading_fixed_y_all_zeros_q_5_14/datasets/dataset_80f1e9d57220db69.npz"
  },
  "train_config": {
    "val_frac": 0.2,
    "batch_size": 128,
    "epochs": 180,
    "lr": 0.009739828014781909,
    "l2": 0.0003110860885177623,
    "n_independent_runs": 10,
    "init_mode": "random_normal",
    "init_scale": 0.0028569424932669363,
    "vary_split": true,
    "vary_batch_order": true,
    "vary_init": true
  },
  "k_grid_requested": [
    0.8,
    0.9,
    1.0,
    1.1,
    1.2,
    1.3,
    1.4,
    1.5,
    1.6,
    1.7,
    1.8,
    1.9,
    2.0,
    2.1,
    2.2,
    2.3,
    2.4
  ],
  "k_match_mode": "offby1",
  "k_nearest_max_abs_delta": 1,
  "per_nps_selected": [
    {
      "nps": 6208,
      "baseline_cent_sign": {
        "train_acc": 0.45625001192092896,
        "val_acc": 0.44583335518836975
      },
      "logreg": {
        "train": {
          "acc": 0.581250011920929,
          "nll": 0.675037682056427
        },
        "val": {
          "acc": 0.5416666865348816,
          "nll": 0.6770117282867432
        },
        "params": {
          "w": [
            -0.06934580951929092,
            -0.0417766235768795,
            -0.1755479872226715,
            -0.03399687260389328,
            -0.12453217804431915,
            -0.049350518733263016,
            -0.21369905769824982,
            -0.17125561833381653,
            0.014644788578152657,
            -0.045372121036052704,
            0.011413885280489922,
            0.026714112609624863,
            -0.05192305147647858,
            -0.016595983877778053,
            0.009549848735332489,
            -0.01425994373857975,
            -0.07019440084695816,
            -0.01696208491921425,
            0.005750150419771671
          ],
          "b": -0.017708687111735344
        },
        "standardize": {
          "mu": [
            1.0722997188568115,
            0.9237558245658875,
            0.20765064656734467,
            -0.1266765594482422,
            -0.258649617433548,
            -0.06531950831413269,
            0.08276288211345673,
            0.35461193323135376,
            1.1269453763961792,
            2.8358781337738037,
            -1.2234653234481812,
            0.33920466899871826,
            -0.08451370149850845,
            0.2648002803325653,
            0.1402224898338318,
            -0.5529155135154724,
            0.4049835503101349,
            -1.8810462951660156,
            0.18022093176841736
          ],
          "sd": [
            6.417201519012451,
            6.7739458084106445,
            10.657649040222168,
            21.64056396484375,
            13.224075317382812,
            11.623674392700195,
            11.465510368347168,
            14.421612739562988,
            22.36808204650879,
            40.94667434692383,
            98.86044311523438,
            20.638023376464844,
            12.7462158203125,
            11.216822624206543,
            11.584019660949707,
            14.389009475708008,
            23.095245361328125,
            41.276206970214844,
            101.30594635009766
          ]
        },
        "init": {
          "mode": "random_normal",
          "scale": 0.0028569424932669363
        },
        "seeds": {
          "split_seed": 647042,
          "init_seed": 847042,
          "batch_seed": 747042
        }
      },
      "independent_runs": {
        "per_run": [
          {
            "baseline_cent_sign": {
              "train_acc": 0.45625001192092896,
              "val_acc": 0.44583335518836975
            },
            "logreg": {
              "train": {
                "acc": 0.581250011920929,
                "nll": 0.675037682056427
              },
              "val": {
                "acc": 0.5416666865348816,
                "nll": 0.6770117282867432
              },
              "params": {
                "w": [
                  -0.06934580951929092,
                  -0.0417766235768795,
                  -0.1755479872226715,
                  -0.03399687260389328,
                  -0.12453217804431915,
                  -0.049350518733263016,
                  -0.21369905769824982,
                  -0.17125561833381653,
                  0.014644788578152657,
                  -0.045372121036052704,
                  0.011413885280489922,
                  0.026714112609624863,
                  -0.05192305147647858,
                  -0.016595983877778053,
                  0.009549848735332489,
                  -0.01425994373857975,
                  -0.07019440084695816,
                  -0.01696208491921425,
                  0.005750150419771671
                ],
                "b": -0.017708687111735344
              },
              "standardize": {
                "mu": [
                  1.0722997188568115,
                  0.9237558245658875,
                  0.20765064656734467,
                  -0.1266765594482422,
                  -0.258649617433548,
                  -0.06531950831413269,
                  0.08276288211345673,
                  0.35461193323135376,
                  1.1269453763961792,
                  2.8358781337738037,
                  -1.2234653234481812,
                  0.33920466899871826,
                  -0.08451370149850845,
                  0.2648002803325653,
                  0.1402224898338318,
                  -0.5529155135154724,
                  0.4049835503101349,
                  -1.8810462951660156,
                  0.18022093176841736
                ],
                "sd": [
                  6.417201519012451,
                  6.7739458084106445,
                  10.657649040222168,
                  21.64056396484375,
                  13.224075317382812,
                  11.623674392700195,
                  11.465510368347168,
                  14.421612739562988,
                  22.36808204650879,
                  40.94667434692383,
                  98.86044311523438,
                  20.638023376464844,
                  12.7462158203125,
                  11.216822624206543,
                  11.584019660949707,
                  14.389009475708008,
                  23.095245361328125,
                  41.276206970214844,
                  101.30594635009766
                ]
              },
              "init": {
                "mode": "random_normal",
                "scale": 0.0028569424932669363
              },
              "seeds": {
                "split_seed": 647042,
                "init_seed": 847042,
                "batch_seed": 747042
              }
            },
            "run_id": 0,
            "seed": 947042,
            "randomness": {
              "split_seed": 647042,
              "batch_seed": 747042,
              "init_seed": 847042
            }
          },
          {
            "baseline_cent_sign": {
              "train_acc": 0.4531250298023224,
              "val_acc": 0.4583333432674408
            },
            "logreg": {
              "train": {
                "acc": 0.5885416865348816,
                "nll": 0.6732298731803894
              },
              "val": {
                "acc": 0.5708333849906921,
                "nll": 0.6825023889541626
              },
              "params": {
                "w": [
                  0.0007529102731496096,
                  -0.048980046063661575,
                  -0.17948229610919952,
                  -0.12149985134601593,
                  -0.08507630228996277,
                  -0.019018685445189476,
                  -0.2461438924074173,
                  -0.15049542486667633,
                  0.028818661347031593,
                  -0.03406069055199623,
                  0.0018190538976341486,
                  0.057368431240320206,
                  0.04005403444170952,
                  -0.0363924466073513,
                  0.043909408152103424,
                  0.03624252602458,
                  -0.06700459867715836,
                  -0.02496924251317978,
                  0.0012319760862737894
                ],
                "b": -0.03839045763015747
              },
              "standardize": {
                "mu": [
                  1.3180605173110962,
                  1.1452317237854004,
                  0.19635985791683197,
                  0.11165660619735718,
                  -0.12502649426460266,
                  -0.2474692463874817,
                  -0.024355456233024597,
                  0.29758238792419434,
                  1.9694119691848755,
                  1.7722039222717285,
                  -0.2882953882217407,
                  0.5803133249282837,
                  -0.48781538009643555,
                  0.3512217104434967,
                  0.3233150243759155,
                  -0.13047374784946442,
                  1.4503810405731201,
                  -1.9511585235595703,
                  2.1314854621887207
                ],
                "sd": [
                  6.491151332855225,
                  6.614683151245117,
                  10.628979682922363,
                  21.565216064453125,
                  13.152496337890625,
                  11.453620910644531,
                  11.640214920043945,
                  14.702913284301758,
                  22.186830520629883,
                  42.191917419433594,
                  100.66648864746094,
                  20.196460723876953,
                  12.571709632873535,
                  11.039966583251953,
                  11.520973205566406,
                  14.420672416687012,
                  23.32880210876465,
                  40.964813232421875,
                  100.36495208740234
                ]
              },
              "init": {
                "mode": "random_normal",
                "scale": 0.0028569424932669363
              },
              "seeds": {
                "split_seed": 647043,
                "init_seed": 847043,
                "batch_seed": 747043
              }
            },
            "run_id": 1,
            "seed": 947043,
            "randomness": {
              "split_seed": 647043,
              "batch_seed": 747043,
              "init_seed": 847043
            }
          },
          {
            "baseline_cent_sign": {
              "train_acc": 0.4531250298023224,
              "val_acc": 0.4583333432674408
            },
            "logreg": {
              "train": {
                "acc": 0.5843750238418579,
                "nll": 0.6734032034873962
              },
              "val": {
                "acc": 0.5833333730697632,
                "nll": 0.6780510544776917
              },
              "params": {
                "w": [
                  -0.011148855090141296,
                  -0.0788581371307373,
                  -0.18652749061584473,
                  -0.07191090285778046,
                  -0.15809665620326996,
                  -0.13029862940311432,
                  -0.20537810027599335,
                  -0.13763706386089325,
                  0.02975832298398018,
                  -0.10185625404119492,
                  -0.012926243245601654,
                  0.050636112689971924,
                  0.033250775188207626,
                  -0.019552787765860558,
                  0.0927959457039833,
                  0.02342856302857399,
                  -0.026233017444610596,
                  -0.02625589445233345,
                  -0.007745846174657345
                ],
                "b": -0.029589880257844925
              },
              "standardize": {
                "mu": [
                  1.1137149333953857,
                  1.010300636291504,
                  0.242767795920372,
                  0.026077620685100555,
                  -0.13941997289657593,
                  -0.1147872805595398,
                  -0.27213039994239807,
                  -0.30370885133743286,
                  1.653074026107788,
                  2.124807834625244,
                  -0.8746019005775452,
                  0.22653374075889587,
                  -0.1441081315279007,
                  0.1853828728199005,
                  0.15103119611740112,
                  -0.26050877571105957,
                  0.9653839468955994,
                  -1.93141770362854,
                  0.3617246747016907
                ],
                "sd": [
                  6.455564975738525,
                  6.824132919311523,
                  10.596941947937012,
                  21.31237030029297,
                  13.254996299743652,
                  11.582023620605469,
                  11.284167289733887,
                  14.760677337646484,
                  22.25234031677246,
                  41.86161422729492,
                  99.44979858398438,
                  20.485300064086914,
                  12.606308937072754,
                  11.015707969665527,
                  11.758156776428223,
                  14.53079891204834,
                  22.64144515991211,
                  41.04106903076172,
                  101.6919937133789
                ]
              },
              "init": {
                "mode": "random_normal",
                "scale": 0.0028569424932669363
              },
              "seeds": {
                "split_seed": 647044,
                "init_seed": 847044,
                "batch_seed": 747044
              }
            },
            "run_id": 2,
            "seed": 947044,
            "randomness": {
              "split_seed": 647044,
              "batch_seed": 747044,
              "init_seed": 847044
            }
          },
          {
            "baseline_cent_sign": {
              "train_acc": 0.45000001788139343,
              "val_acc": 0.47083336114883423
            },
            "logreg": {
              "train": {
                "acc": 0.5833333730697632,
                "nll": 0.6750703454017639
              },
              "val": {
                "acc": 0.6000000238418579,
                "nll": 0.6734357476234436
              },
              "params": {
                "w": [
                  -0.008703147992491722,
                  -0.07184531539678574,
                  -0.1742851585149765,
                  -0.0833883136510849,
                  -0.15981429815292358,
                  -0.07919169217348099,
                  -0.17846626043319702,
                  -0.10413704067468643,
                  0.023256946355104446,
                  -0.016043771058321,
                  -0.025209063664078712,
                  0.04948419705033302,
                  0.006505575031042099,
                  -0.07077311724424362,
                  0.06449415534734726,
                  -0.009091518819332123,
                  -0.11059355735778809,
                  -0.03639526665210724,
                  -0.05368153378367424
                ],
                "b": 0.013082853518426418
              },
              "standardize": {
                "mu": [
                  1.0515202283859253,
                  1.037329077720642,
                  0.10081779956817627,
                  0.2958565354347229,
                  -0.5363420844078064,
                  -0.45209214091300964,
                  -0.18196815252304077,
                  0.2857895493507385,
                  1.576008915901184,
                  0.8324753046035767,
                  0.07627633959054947,
                  -0.09572000056505203,
                  -0.5539295673370361,
                  0.06020938977599144,
                  0.5110734701156616,
                  -0.2840863764286041,
                  1.0700476169586182,
                  -1.4492768049240112,
                  1.539480447769165
                ],
                "sd": [
                  6.578380584716797,
                  6.6798787117004395,
                  10.553528785705566,
                  21.656761169433594,
                  13.380227088928223,
                  11.441142082214355,
                  11.318927764892578,
                  14.185087203979492,
                  21.678964614868164,
                  42.748207092285156,
                  98.90032196044922,
                  20.315628051757812,
                  12.800929069519043,
                  11.171121597290039,
                  11.890702247619629,
                  14.507878303527832,
                  23.193035125732422,
                  41.98115539550781,
                  101.1104965209961
                ]
              },
              "init": {
                "mode": "random_normal",
                "scale": 0.0028569424932669363
              },
              "seeds": {
                "split_seed": 647045,
                "init_seed": 847045,
                "batch_seed": 747045
              }
            },
            "run_id": 3,
            "seed": 947045,
            "randomness": {
              "split_seed": 647045,
              "batch_seed": 747045,
              "init_seed": 847045
            }
          },
          {
            "baseline_cent_sign": {
              "train_acc": 0.45104169845581055,
              "val_acc": 0.46666669845581055
            },
            "logreg": {
              "train": {
                "acc": 0.5750000476837158,
                "nll": 0.6733179092407227
              },
              "val": {
                "acc": 0.5708333849906921,
                "nll": 0.6816282272338867
              },
              "params": {
                "w": [
                  -0.06408242136240005,
                  -0.03615560755133629,
                  -0.23382917046546936,
                  -0.07157536596059799,
                  -0.08114751428365707,
                  -0.09149089455604553,
                  -0.23319602012634277,
                  -0.12288836389780045,
                  -0.029968610033392906,
                  -0.04885183274745941,
                  0.006739361211657524,
                  0.09905717521905899,
                  0.00797933991998434,
                  -0.012491470202803612,
                  0.08524559438228607,
                  -0.022416645660996437,
                  -0.036961864680051804,
                  -0.02703261934220791,
                  -0.02219117432832718
                ],
                "b": 0.002128672320395708
              },
              "standardize": {
                "mu": [
                  1.1454076766967773,
                  0.9821522235870361,
                  -0.06451704353094101,
                  0.24614518880844116,
                  -0.30421197414398193,
                  -0.5314053297042847,
                  -0.19682878255844116,
                  0.38441190123558044,
                  1.1668169498443604,
                  1.291380763053894,
                  -1.4592167139053345,
                  -0.06511202454566956,
                  -0.48089730739593506,
                  0.22748753428459167,
                  -0.09339555352926254,
                  -0.35345152020454407,
                  0.6664953827857971,
                  -0.797537624835968,
                  -0.15099768340587616
                ],
                "sd": [
                  6.530614376068115,
                  6.607178211212158,
                  10.695106506347656,
                  21.785858154296875,
                  13.549382209777832,
                  11.393083572387695,
                  11.639571189880371,
                  14.817976951599121,
                  22.00045394897461,
                  41.77729415893555,
                  100.04840850830078,
                  20.43598747253418,
                  12.448070526123047,
                  11.186670303344727,
                  11.836124420166016,
                  14.556769371032715,
                  23.27326011657715,
                  41.06882858276367,
                  100.0147933959961
                ]
              },
              "init": {
                "mode": "random_normal",
                "scale": 0.0028569424932669363
              },
              "seeds": {
                "split_seed": 647046,
                "init_seed": 847046,
                "batch_seed": 747046
              }
            },
            "run_id": 4,
            "seed": 947046,
            "randomness": {
              "split_seed": 647046,
              "batch_seed": 747046,
              "init_seed": 847046
            }
          },
          {
            "baseline_cent_sign": {
              "train_acc": 0.4541666805744171,
              "val_acc": 0.4541666805744171
            },
            "logreg": {
              "train": {
                "acc": 0.5718750357627869,
                "nll": 0.672695517539978
              },
              "val": {
                "acc": 0.5666667222976685,
                "nll": 0.6788181662559509
              },
              "params": {
                "w": [
                  -0.045137692242860794,
                  -0.05822102725505829,
                  -0.20310214161872864,
                  -0.017208755016326904,
                  -0.12339163571596146,
                  -0.06563905626535416,
                  -0.2399939000606537,
                  -0.140564426779747,
                  0.02669503726065159,
                  -0.08224675059318542,
                  -0.0294447410851717,
                  0.03337182477116585,
                  0.0235902052372694,
                  -0.012753266841173172,
                  0.053802285343408585,
                  -0.003748818300664425,
                  -0.07544261962175369,
                  0.02157430537045002,
                  -0.002439436037093401
                ],
                "b": 0.026502592489123344
              },
              "standardize": {
                "mu": [
                  1.1784709692001343,
                  0.9853755831718445,
                  0.21650294959545135,
                  0.4038362205028534,
                  -0.29261714220046997,
                  -0.10772977769374847,
                  -0.46292874217033386,
                  0.5395092368125916,
                  1.3407355546951294,
                  1.5427066087722778,
                  -0.9132147431373596,
                  0.16689510643482208,
                  -0.17463195323944092,
                  0.11499947309494019,
                  0.25535517930984497,
                  -0.3083525598049164,
                  0.67408686876297,
                  -1.5665873289108276,
                  1.8287550210952759
                ],
                "sd": [
                  6.613664627075195,
                  6.745344638824463,
                  10.432735443115234,
                  21.813631057739258,
                  12.891819953918457,
                  11.534582138061523,
                  11.680127143859863,
                  14.482677459716797,
                  22.54810333251953,
                  42.950538635253906,
                  102.01863861083984,
                  20.340097427368164,
                  12.849652290344238,
                  11.361461639404297,
                  11.561588287353516,
                  14.553864479064941,
                  22.7215518951416,
                  41.01771926879883,
                  103.60660552978516
                ]
              },
              "init": {
                "mode": "random_normal",
                "scale": 0.0028569424932669363
              },
              "seeds": {
                "split_seed": 647047,
                "init_seed": 847047,
                "batch_seed": 747047
              }
            },
            "run_id": 5,
            "seed": 947047,
            "randomness": {
              "split_seed": 647047,
              "batch_seed": 747047,
              "init_seed": 847047
            }
          },
          {
            "baseline_cent_sign": {
              "train_acc": 0.46145835518836975,
              "val_acc": 0.42500001192092896
            },
            "logreg": {
              "train": {
                "acc": 0.5864583849906921,
                "nll": 0.6807264089584351
              },
              "val": {
                "acc": 0.5166667103767395,
                "nll": 0.6921157836914062
              },
              "params": {
                "w": [
                  -0.01738109439611435,
                  -0.05832818150520325,
                  -0.04174736142158508,
                  -0.03670038282871246,
                  -0.058109600096940994,
                  0.0008822046220302582,
                  -0.06494331359863281,
                  -0.056565169245004654,
                  0.03738678619265556,
                  -0.022244563326239586,
                  -0.0049186768010258675,
                  0.006925005931407213,
                  0.027482187375426292,
                  -0.005434134975075722,
                  0.045873820781707764,
                  0.005019691772758961,
                  -0.016865169629454613,
                  0.0015246912371367216,
                  -0.004011246375739574
                ],
                "b": 0.03762326389551163
              },
              "standardize": {
                "mu": [
                  1.1041606664657593,
                  1.0132769346237183,
                  0.4141157269477844,
                  0.06357867270708084,
                  -0.09225764870643616,
                  -0.30087319016456604,
                  -0.20294776558876038,
                  0.5593678951263428,
                  0.9180383682250977,
                  1.3689560890197754,
                  -1.2232110500335693,
                  -0.10517025738954544,
                  -0.4200208783149719,
                  0.10760498046875,
                  -0.06323167681694031,
                  -0.12325023859739304,
                  1.1741056442260742,
                  -1.3228641748428345,
                  1.1237361431121826
                ],
                "sd": [
                  6.618885040283203,
                  6.63802433013916,
                  10.34814739227295,
                  21.4393253326416,
                  13.26786994934082,
                  11.299356460571289,
                  11.588985443115234,
                  14.636258125305176,
                  22.14569664001465,
                  42.229835510253906,
                  99.7114028930664,
                  19.906320571899414,
                  12.89503002166748,
                  11.179465293884277,
                  11.867753982543945,
                  14.594900131225586,
                  22.8006649017334,
                  40.99796676635742,
                  101.72705078125
                ]
              },
              "init": {
                "mode": "random_normal",
                "scale": 0.0028569424932669363
              },
              "seeds": {
                "split_seed": 647048,
                "init_seed": 847048,
                "batch_seed": 747048
              }
            },
            "run_id": 6,
            "seed": 947048,
            "randomness": {
              "split_seed": 647048,
              "batch_seed": 747048,
              "init_seed": 847048
            }
          },
          {
            "baseline_cent_sign": {
              "train_acc": 0.4739583432674408,
              "val_acc": 0.3750000298023224
            },
            "logreg": {
              "train": {
                "acc": 0.5718750357627869,
                "nll": 0.6744261980056763
              },
              "val": {
                "acc": 0.5750000476837158,
                "nll": 0.6765485405921936
              },
              "params": {
                "w": [
                  -0.02733800932765007,
                  -0.047816455364227295,
                  -0.20419564843177795,
                  -0.07838267832994461,
                  -0.10432017594575882,
                  -0.11122988164424896,
                  -0.20180834829807281,
                  -0.1458512544631958,
                  -0.03840363398194313,
                  -0.08076117187738419,
                  -0.017472293227910995,
                  0.058831240981817245,
                  0.03120848722755909,
                  -0.09471427649259567,
                  0.0650319755077362,
                  0.08253804594278336,
                  -0.07661843299865723,
                  0.0229507926851511,
                  -0.009708473458886147
                ],
                "b": -0.007452475838363171
              },
              "standardize": {
                "mu": [
                  1.0391193628311157,
                  1.239485502243042,
                  0.25036272406578064,
                  0.2894205152988434,
                  0.09842614084482193,
                  -0.24758215248584747,
                  0.0742897242307663,
                  0.30386754870414734,
                  1.4363844394683838,
                  1.5114752054214478,
                  -0.6369633078575134,
                  -0.4151473343372345,
                  -0.06512467563152313,
                  0.1930578052997589,
                  0.16282586753368378,
                  -0.5290354490280151,
                  0.6529289484024048,
                  -1.2389355897903442,
                  2.2739460468292236
                ],
                "sd": [
                  6.519753456115723,
                  6.758169174194336,
                  10.79712963104248,
                  21.532470703125,
                  13.08812427520752,
                  11.410543441772461,
                  11.431414604187012,
                  14.499688148498535,
                  21.97715187072754,
                  42.59078598022461,
                  97.45189666748047,
                  20.17206382751465,
                  12.686707496643066,
                  10.917619705200195,
                  11.542977333068848,
                  14.463544845581055,
                  22.823266983032227,
                  41.7760009765625,
                  100.43544006347656
                ]
              },
              "init": {
                "mode": "random_normal",
                "scale": 0.0028569424932669363
              },
              "seeds": {
                "split_seed": 647049,
                "init_seed": 847049,
                "batch_seed": 747049
              }
            },
            "run_id": 7,
            "seed": 947049,
            "randomness": {
              "split_seed": 647049,
              "batch_seed": 747049,
              "init_seed": 847049
            }
          },
          {
            "baseline_cent_sign": {
              "train_acc": 0.4583333432674408,
              "val_acc": 0.4375000298023224
            },
            "logreg": {
              "train": {
                "acc": 0.5802083611488342,
                "nll": 0.6789786219596863
              },
              "val": {
                "acc": 0.5583333373069763,
                "nll": 0.6915873289108276
              },
              "params": {
                "w": [
                  0.02156088873744011,
                  -0.03507181257009506,
                  -0.06456606835126877,
                  -0.038244135677814484,
                  -0.0690198466181755,
                  -0.03204335644841194,
                  -0.06460154056549072,
                  -0.062432970851659775,
                  0.005194623023271561,
                  -0.01966238021850586,
                  -0.0005968559999018908,
                  0.021312711760401726,
                  0.02896471694111824,
                  -0.03534764051437378,
                  0.02218787558376789,
                  0.014132280834019184,
                  -0.058281827718019485,
                  -0.020120617002248764,
                  0.012511481530964375
                ],
                "b": -0.0325094535946846
              },
              "standardize": {
                "mu": [
                  1.2190754413604736,
                  1.080090045928955,
                  0.0015617967583239079,
                  0.08513117581605911,
                  -0.49411740899086,
                  -0.07791107147932053,
                  -0.07804052531719208,
                  0.2829512059688568,
                  1.5838042497634888,
                  1.6457457542419434,
                  -1.8144142627716064,
                  0.45103514194488525,
                  -0.3868582248687744,
                  0.2987579107284546,
                  0.0923708975315094,
                  -0.2312767654657364,
                  0.47463369369506836,
                  -1.9378881454467773,
                  -3.5883684158325195
                ],
                "sd": [
                  6.5314531326293945,
                  6.668130874633789,
                  10.458694458007812,
                  21.14235496520996,
                  12.983916282653809,
                  11.471851348876953,
                  11.806449890136719,
                  14.242728233337402,
                  22.25027084350586,
                  41.5017204284668,
                  99.19335174560547,
                  20.337190628051758,
                  12.89502239227295,
                  11.084491729736328,
                  11.942876815795898,
                  14.13121509552002,
                  22.941015243530273,
                  40.749549865722656,
                  101.78874206542969
                ]
              },
              "init": {
                "mode": "random_normal",
                "scale": 0.0028569424932669363
              },
              "seeds": {
                "split_seed": 647050,
                "init_seed": 847050,
                "batch_seed": 747050
              }
            },
            "run_id": 8,
            "seed": 947050,
            "randomness": {
              "split_seed": 647050,
              "batch_seed": 747050,
              "init_seed": 847050
            }
          },
          {
            "baseline_cent_sign": {
              "train_acc": 0.44166669249534607,
              "val_acc": 0.5041667222976685
            },
            "logreg": {
              "train": {
                "acc": 0.5729166865348816,
                "nll": 0.6806400418281555
              },
              "val": {
                "acc": 0.4958333671092987,
                "nll": 0.6961517333984375
              },
              "params": {
                "w": [
                  0.023532666265964508,
                  -0.0602269321680069,
                  -0.06141749024391174,
                  -0.059712816029787064,
                  -0.05191697180271149,
                  -0.005333643406629562,
                  -0.06373369693756104,
                  -0.06276014447212219,
                  0.02881288342177868,
                  -0.008014306426048279,
                  -0.032880108803510666,
                  0.020582640543580055,
                  -0.0030204439535737038,
                  0.023223549127578735,
                  -0.005434019491076469,
                  -0.01085161603987217,
                  0.009060397744178772,
                  8.598784916102886e-06,
                  -0.023302728310227394
                ],
                "b": -0.009633257985115051
              },
              "standardize": {
                "mu": [
                  1.1511234045028687,
                  0.7577702403068542,
                  0.30959266424179077,
                  0.37984195351600647,
                  -0.27832281589508057,
                  -0.2630266845226288,
                  -0.13924114406108856,
                  0.07905464619398117,
                  1.2380120754241943,
                  0.8489313721656799,
                  -0.9009239673614502,
                  0.308653324842453,
                  -0.3846997022628784,
                  0.21481046080589294,
                  0.04446371644735336,
                  -0.3205258548259735,
                  0.6594250798225403,
                  -1.1465727090835571,
                  2.761357545852661
                ],
                "sd": [
                  6.443039417266846,
                  6.6859941482543945,
                  10.614664077758789,
                  21.89786148071289,
                  13.490555763244629,
                  11.364581108093262,
                  11.523866653442383,
                  14.190936088562012,
                  22.28557586669922,
                  41.503013610839844,
                  100.7770004272461,
                  20.27314567565918,
                  12.735398292541504,
                  11.019231796264648,
                  11.783214569091797,
                  14.33338451385498,
                  22.647796630859375,
                  40.8590202331543,
                  98.09561157226562
                ]
              },
              "init": {
                "mode": "random_normal",
                "scale": 0.0028569424932669363
              },
              "seeds": {
                "split_seed": 647051,
                "init_seed": 847051,
                "batch_seed": 747051
              }
            },
            "run_id": 9,
            "seed": 947051,
            "randomness": {
              "split_seed": 647051,
              "batch_seed": 747051,
              "init_seed": 847051
            }
          }
        ],
        "summary": {
          "n_runs": 10,
          "baseline_cent_sign": {
            "train_acc": {
              "mean": 0.4553125202655792,
              "std": 0.007993726654236631,
              "min": 0.44166669249534607,
              "max": 0.4739583432674408
            },
            "val_acc": {
              "mean": 0.4495833575725555,
              "std": 0.03197492960757616,
              "min": 0.3750000298023224,
              "max": 0.5041667222976685
            }
          },
          "logreg": {
            "train_acc": {
              "mean": 0.579583364725113,
              "std": 0.005932928369342212,
              "min": 0.5718750357627869,
              "max": 0.5885416865348816
            },
            "val_acc": {
              "mean": 0.5579167038202286,
              "std": 0.029898556766343336,
              "min": 0.4958333671092987,
              "max": 0.6000000238418579
            },
            "train_nll": {
              "mean": 0.675752580165863,
              "std": 0.002982051122180199,
              "min": 0.672695517539978,
              "max": 0.6807264089584351
            },
            "val_nll": {
              "mean": 0.6827850699424743,
              "std": 0.007364853663609373,
              "min": 0.6734357476234436,
              "max": 0.6961517333984375
            }
          }
        },
        "randomness_config": {
          "vary_split": true,
          "vary_batch_order": true,
          "vary_init": true
        }
      },
      "k": 1.4,
      "nps_target": 6208,
      "nps_match_mode": "offby1"
    },
    {
      "nps": 11585,
      "baseline_cent_sign": {
        "train_acc": 0.4489583671092987,
        "val_acc": 0.4833333492279053
      },
      "logreg": {
        "train": {
          "acc": 0.6479166746139526,
          "nll": 0.6415863633155823
        },
        "val": {
          "acc": 0.612500011920929,
          "nll": 0.6611771583557129
        },
        "params": {
          "w": [
            0.04062005504965782,
            -0.03028670698404312,
            -0.18537725508213043,
            -0.09211117029190063,
            -0.15564650297164917,
            -0.18102721869945526,
            -0.1839725524187088,
            -0.1634238362312317,
            -0.05724360793828964,
            -0.13047322630882263,
            -0.11520712822675705,
            0.04175879806280136,
            0.08219116926193237,
            0.02812638133764267,
            -0.015162387862801552,
            -0.012670360505580902,
            0.06727457046508789,
            -0.05773479864001274,
            -0.04289333522319794
          ],
          "b": 0.036559730768203735
        },
        "standardize": {
          "mu": [
            0.7587481737136841,
            1.0965303182601929,
            -0.33647897839546204,
            -0.004938093945384026,
            -0.15506960451602936,
            -0.27754461765289307,
            -0.10065918415784836,
            0.40851646661758423,
            -0.6279911994934082,
            -0.35181355476379395,
            0.11553860455751419,
            -0.006324021145701408,
            -0.24401389062404633,
            0.14990323781967163,
            0.2580544352531433,
            -0.5135491490364075,
            0.28628966212272644,
            -0.5221324563026428,
            1.4218899011611938
          ],
          "sd": [
            5.075888633728027,
            4.84448766708374,
            7.726210117340088,
            10.958271026611328,
            7.30881404876709,
            5.979487419128418,
            6.290297031402588,
            7.752810478210449,
            11.620498657226562,
            21.802082061767578,
            53.633060455322266,
            11.227736473083496,
            7.1251325607299805,
            6.060255527496338,
            6.293730735778809,
            7.764077186584473,
            12.198368072509766,
            23.16600799560547,
            53.93174362182617
          ]
        },
        "init": {
          "mode": "random_normal",
          "scale": 0.0028569424932669363
        },
        "seeds": {
          "split_seed": 657042,
          "init_seed": 857042,
          "batch_seed": 757042
        }
      },
      "independent_runs": {
        "per_run": [
          {
            "baseline_cent_sign": {
              "train_acc": 0.4489583671092987,
              "val_acc": 0.4833333492279053
            },
            "logreg": {
              "train": {
                "acc": 0.6479166746139526,
                "nll": 0.6415863633155823
              },
              "val": {
                "acc": 0.612500011920929,
                "nll": 0.6611771583557129
              },
              "params": {
                "w": [
                  0.04062005504965782,
                  -0.03028670698404312,
                  -0.18537725508213043,
                  -0.09211117029190063,
                  -0.15564650297164917,
                  -0.18102721869945526,
                  -0.1839725524187088,
                  -0.1634238362312317,
                  -0.05724360793828964,
                  -0.13047322630882263,
                  -0.11520712822675705,
                  0.04175879806280136,
                  0.08219116926193237,
                  0.02812638133764267,
                  -0.015162387862801552,
                  -0.012670360505580902,
                  0.06727457046508789,
                  -0.05773479864001274,
                  -0.04289333522319794
                ],
                "b": 0.036559730768203735
              },
              "standardize": {
                "mu": [
                  0.7587481737136841,
                  1.0965303182601929,
                  -0.33647897839546204,
                  -0.004938093945384026,
                  -0.15506960451602936,
                  -0.27754461765289307,
                  -0.10065918415784836,
                  0.40851646661758423,
                  -0.6279911994934082,
                  -0.35181355476379395,
                  0.11553860455751419,
                  -0.006324021145701408,
                  -0.24401389062404633,
                  0.14990323781967163,
                  0.2580544352531433,
                  -0.5135491490364075,
                  0.28628966212272644,
                  -0.5221324563026428,
                  1.4218899011611938
                ],
                "sd": [
                  5.075888633728027,
                  4.84448766708374,
                  7.726210117340088,
                  10.958271026611328,
                  7.30881404876709,
                  5.979487419128418,
                  6.290297031402588,
                  7.752810478210449,
                  11.620498657226562,
                  21.802082061767578,
                  53.633060455322266,
                  11.227736473083496,
                  7.1251325607299805,
                  6.060255527496338,
                  6.293730735778809,
                  7.764077186584473,
                  12.198368072509766,
                  23.16600799560547,
                  53.93174362182617
                ]
              },
              "init": {
                "mode": "random_normal",
                "scale": 0.0028569424932669363
              },
              "seeds": {
                "split_seed": 657042,
                "init_seed": 857042,
                "batch_seed": 757042
              }
            },
            "run_id": 0,
            "seed": 957042,
            "randomness": {
              "split_seed": 657042,
              "batch_seed": 757042,
              "init_seed": 857042
            }
          },
          {
            "baseline_cent_sign": {
              "train_acc": 0.45104169845581055,
              "val_acc": 0.4750000238418579
            },
            "logreg": {
              "train": {
                "acc": 0.6427083611488342,
                "nll": 0.6378752589225769
              },
              "val": {
                "acc": 0.6625000238418579,
                "nll": 0.6530030965805054
              },
              "params": {
                "w": [
                  0.011536398902535439,
                  -0.045880552381277084,
                  -0.17040611803531647,
                  -0.12986554205417633,
                  -0.19102180004119873,
                  -0.1974085569381714,
                  -0.2534920573234558,
                  -0.2046857327222824,
                  -0.09156322479248047,
                  -0.1677890121936798,
                  -0.12293772399425507,
                  -0.01886368729174137,
                  0.09266503155231476,
                  0.03452291712164879,
                  0.010208861902356148,
                  -0.01383392233401537,
                  0.07464071363210678,
                  -0.07762648910284042,
                  -0.0028360364958643913
                ],
                "b": 0.011338189244270325
              },
              "standardize": {
                "mu": [
                  0.74961918592453,
                  1.1794980764389038,
                  -0.42405545711517334,
                  -0.1755908578634262,
                  -0.032193996012210846,
                  -0.18751710653305054,
                  -0.11929383873939514,
                  0.5281246900558472,
                  -0.22575843334197998,
                  -0.2599087357521057,
                  1.1384491920471191,
                  0.07482209801673889,
                  -0.0036722025834023952,
                  0.08477535098791122,
                  0.07718347758054733,
                  -0.7215897440910339,
                  0.45550087094306946,
                  -0.9632441997528076,
                  1.1806517839431763
                ],
                "sd": [
                  4.916879653930664,
                  4.800848960876465,
                  7.683709144592285,
                  10.920087814331055,
                  7.577109336853027,
                  5.919824600219727,
                  6.189115524291992,
                  7.617590427398682,
                  11.432511329650879,
                  22.035446166992188,
                  54.96221923828125,
                  11.201104164123535,
                  6.932646751403809,
                  5.87125301361084,
                  6.24268913269043,
                  7.770147800445557,
                  11.968538284301758,
                  23.06206512451172,
                  54.168418884277344
                ]
              },
              "init": {
                "mode": "random_normal",
                "scale": 0.0028569424932669363
              },
              "seeds": {
                "split_seed": 657043,
                "init_seed": 857043,
                "batch_seed": 757043
              }
            },
            "run_id": 1,
            "seed": 957043,
            "randomness": {
              "split_seed": 657043,
              "batch_seed": 757043,
              "init_seed": 857043
            }
          },
          {
            "baseline_cent_sign": {
              "train_acc": 0.46145835518836975,
              "val_acc": 0.4333333671092987
            },
            "logreg": {
              "train": {
                "acc": 0.6427083611488342,
                "nll": 0.6409612894058228
              },
              "val": {
                "acc": 0.6000000238418579,
                "nll": 0.6567079424858093
              },
              "params": {
                "w": [
                  0.002392409136518836,
                  -0.0391211099922657,
                  -0.15090738236904144,
                  -0.14108894765377045,
                  -0.16083848476409912,
                  -0.19529522955417633,
                  -0.19083885848522186,
                  -0.14994795620441437,
                  -0.10744369029998779,
                  -0.09149893373250961,
                  -0.09167192876338959,
                  -0.011573835276067257,
                  0.0630190372467041,
                  0.06345272809267044,
                  -0.015856904909014702,
                  0.011667277663946152,
                  0.06965014338493347,
                  -0.0662282332777977,
                  -0.02861105650663376
                ],
                "b": 0.029759002849459648
              },
              "standardize": {
                "mu": [
                  0.8820124864578247,
                  1.2335493564605713,
                  -0.4059063196182251,
                  -0.29019829630851746,
                  -0.15584653615951538,
                  -0.2408641278743744,
                  -0.19602042436599731,
                  0.34290677309036255,
                  -0.7641267776489258,
                  -0.4216727018356323,
                  0.28249794244766235,
                  0.27684760093688965,
                  -0.12435710430145264,
                  0.033256616443395615,
                  0.36686599254608154,
                  -0.5493270754814148,
                  0.5678824782371521,
                  -0.4838363230228424,
                  1.1456414461135864
                ],
                "sd": [
                  4.9640607833862305,
                  4.855589866638184,
                  7.838321685791016,
                  10.92028522491455,
                  7.4296088218688965,
                  5.976873874664307,
                  6.105082988739014,
                  7.671448230743408,
                  11.573967933654785,
                  21.73421287536621,
                  53.241764068603516,
                  11.254470825195312,
                  6.987748146057129,
                  5.965946674346924,
                  6.440375804901123,
                  7.90659236907959,
                  11.939690589904785,
                  23.378149032592773,
                  53.11054992675781
                ]
              },
              "init": {
                "mode": "random_normal",
                "scale": 0.0028569424932669363
              },
              "seeds": {
                "split_seed": 657044,
                "init_seed": 857044,
                "batch_seed": 757044
              }
            },
            "run_id": 2,
            "seed": 957044,
            "randomness": {
              "split_seed": 657044,
              "batch_seed": 757044,
              "init_seed": 857044
            }
          },
          {
            "baseline_cent_sign": {
              "train_acc": 0.460416704416275,
              "val_acc": 0.4375000298023224
            },
            "logreg": {
              "train": {
                "acc": 0.6447917222976685,
                "nll": 0.6369066834449768
              },
              "val": {
                "acc": 0.6166666746139526,
                "nll": 0.6502219438552856
              },
              "params": {
                "w": [
                  0.01307265181094408,
                  -0.0203721821308136,
                  -0.1853291541337967,
                  -0.1670382171869278,
                  -0.23769508302211761,
                  -0.27034732699394226,
                  -0.26970911026000977,
                  -0.19419312477111816,
                  -0.1300763338804245,
                  -0.12803621590137482,
                  -0.15799695253372192,
                  -0.028347499668598175,
                  0.08326637744903564,
                  0.07960102707147598,
                  -0.02280173823237419,
                  -0.022699380293488503,
                  0.08561079204082489,
                  -0.06519237905740738,
                  -0.03123578242957592
                ],
                "b": 0.02524557150900364
              },
              "standardize": {
                "mu": [
                  0.7571974992752075,
                  1.089576005935669,
                  -0.36974087357521057,
                  -0.20426702499389648,
                  -0.18424813449382782,
                  -0.2452956736087799,
                  -0.03253742307424545,
                  0.3768967390060425,
                  -0.35186323523521423,
                  0.04311046749353409,
                  2.8231208324432373,
                  0.4609615206718445,
                  -0.2506776750087738,
                  0.13959941267967224,
                  0.11123411357402802,
                  -0.5753836631774902,
                  0.4344637095928192,
                  -0.4347253441810608,
                  2.518991708755493
                ],
                "sd": [
                  5.039351463317871,
                  4.932333469390869,
                  7.6034979820251465,
                  10.957317352294922,
                  7.41880464553833,
                  6.031588077545166,
                  6.207752227783203,
                  7.673503398895264,
                  11.843256950378418,
                  21.689973831176758,
                  54.08642578125,
                  11.314467430114746,
                  6.988722801208496,
                  6.029970645904541,
                  6.263604640960693,
                  7.787067890167236,
                  11.842411994934082,
                  22.841899871826172,
                  52.64952850341797
                ]
              },
              "init": {
                "mode": "random_normal",
                "scale": 0.0028569424932669363
              },
              "seeds": {
                "split_seed": 657045,
                "init_seed": 857045,
                "batch_seed": 757045
              }
            },
            "run_id": 3,
            "seed": 957045,
            "randomness": {
              "split_seed": 657045,
              "batch_seed": 757045,
              "init_seed": 857045
            }
          },
          {
            "baseline_cent_sign": {
              "train_acc": 0.44687503576278687,
              "val_acc": 0.491666704416275
            },
            "logreg": {
              "train": {
                "acc": 0.6447917222976685,
                "nll": 0.6606606245040894
              },
              "val": {
                "acc": 0.5625,
                "nll": 0.6855278611183167
              },
              "params": {
                "w": [
                  0.007040129508823156,
                  -0.02643500827252865,
                  -0.06817054748535156,
                  -0.0500635951757431,
                  -0.06743083149194717,
                  -0.07082436978816986,
                  -0.07755883038043976,
                  -0.06949560344219208,
                  -0.02761230617761612,
                  -0.06768324226140976,
                  -0.03858425095677376,
                  -0.007141886744648218,
                  0.0375087633728981,
                  0.05456121638417244,
                  -0.0016814307309687138,
                  0.02739807590842247,
                  0.03784631937742233,
                  -0.054176390171051025,
                  0.023939022794365883
                ],
                "b": 0.01729128696024418
              },
              "standardize": {
                "mu": [
                  0.6367449760437012,
                  1.067643165588379,
                  -0.3782253563404083,
                  -0.3636714518070221,
                  -0.0662476047873497,
                  -0.35056665539741516,
                  -0.0769076719880104,
                  0.23007890582084656,
                  -0.5502811670303345,
                  -0.8042235374450684,
                  1.3772659301757812,
                  0.43669384717941284,
                  -0.10932715982198715,
                  -0.05780085176229477,
                  0.15946875512599945,
                  -0.5801392197608948,
                  0.32900679111480713,
                  -0.8206323385238647,
                  1.0472408533096313
                ],
                "sd": [
                  4.952427387237549,
                  4.701956748962402,
                  7.804518699645996,
                  10.9234037399292,
                  7.496057987213135,
                  5.939384460449219,
                  6.163881301879883,
                  7.505329608917236,
                  11.701258659362793,
                  22.096921920776367,
                  52.40206527709961,
                  11.222146987915039,
                  7.067253112792969,
                  5.946438312530518,
                  6.4489030838012695,
                  8.001402854919434,
                  11.824684143066406,
                  23.450580596923828,
                  53.165462493896484
                ]
              },
              "init": {
                "mode": "random_normal",
                "scale": 0.0028569424932669363
              },
              "seeds": {
                "split_seed": 657046,
                "init_seed": 857046,
                "batch_seed": 757046
              }
            },
            "run_id": 4,
            "seed": 957046,
            "randomness": {
              "split_seed": 657046,
              "batch_seed": 757046,
              "init_seed": 857046
            }
          },
          {
            "baseline_cent_sign": {
              "train_acc": 0.45000001788139343,
              "val_acc": 0.4791666865348816
            },
            "logreg": {
              "train": {
                "acc": 0.643750011920929,
                "nll": 0.6424136757850647
              },
              "val": {
                "acc": 0.6000000238418579,
                "nll": 0.6609978675842285
              },
              "params": {
                "w": [
                  0.024163808673620224,
                  0.019329095259308815,
                  -0.1555355191230774,
                  -0.11281570792198181,
                  -0.1318114846944809,
                  -0.19954295456409454,
                  -0.19333407282829285,
                  -0.135521799325943,
                  -0.10166706144809723,
                  -0.10722657293081284,
                  -0.1355048567056656,
                  0.0028417313005775213,
                  0.1259572058916092,
                  0.07252723723649979,
                  -0.00031123391818255186,
                  0.012085101567208767,
                  0.007235537748783827,
                  -0.10161572694778442,
                  0.027587570250034332
                ],
                "b": 0.024802066385746002
              },
              "standardize": {
                "mu": [
                  0.7962884902954102,
                  1.1543365716934204,
                  -0.1286364495754242,
                  -0.22961245477199554,
                  -0.08908084779977798,
                  -0.18716149032115936,
                  -0.29353493452072144,
                  0.37674155831336975,
                  -0.31603923439979553,
                  -0.36056631803512573,
                  1.0394840240478516,
                  0.3985723555088043,
                  -0.16333356499671936,
                  -0.018162274733185768,
                  0.15684230625629425,
                  -0.6541150212287903,
                  0.8218062520027161,
                  -0.7101225256919861,
                  0.9096159934997559
                ],
                "sd": [
                  4.988238334655762,
                  4.847149848937988,
                  7.829015254974365,
                  11.011604309082031,
                  7.651157379150391,
                  5.907003879547119,
                  6.105040550231934,
                  7.616419792175293,
                  11.378988265991211,
                  21.59077262878418,
                  54.65029525756836,
                  11.449331283569336,
                  7.18907356262207,
                  5.923095226287842,
                  6.4227375984191895,
                  7.936636447906494,
                  12.145735740661621,
                  23.19171905517578,
                  53.912994384765625
                ]
              },
              "init": {
                "mode": "random_normal",
                "scale": 0.0028569424932669363
              },
              "seeds": {
                "split_seed": 657047,
                "init_seed": 857047,
                "batch_seed": 757047
              }
            },
            "run_id": 5,
            "seed": 957047,
            "randomness": {
              "split_seed": 657047,
              "batch_seed": 757047,
              "init_seed": 857047
            }
          },
          {
            "baseline_cent_sign": {
              "train_acc": 0.444791704416275,
              "val_acc": 0.5
            },
            "logreg": {
              "train": {
                "acc": 0.6489583849906921,
                "nll": 0.6618252396583557
              },
              "val": {
                "acc": 0.5833333730697632,
                "nll": 0.68272465467453
              },
              "params": {
                "w": [
                  0.04335087537765503,
                  -0.03647772967815399,
                  -0.06599292159080505,
                  -0.04945632070302963,
                  -0.07136047631502151,
                  -0.07169237732887268,
                  -0.06576518714427948,
                  -0.06108847260475159,
                  -0.04582676291465759,
                  -0.0641828253865242,
                  -0.055409904569387436,
                  0.007987805642187595,
                  0.03997752070426941,
                  0.031091656535863876,
                  -0.01295061968266964,
                  0.004155862145125866,
                  0.04006316140294075,
                  -0.038713615387678146,
                  0.007094708736985922
                ],
                "b": -0.01800241880118847
              },
              "standardize": {
                "mu": [
                  0.7143892049789429,
                  1.0174188613891602,
                  -0.18757830560207367,
                  -0.3825475871562958,
                  -0.0932067334651947,
                  -0.21786217391490936,
                  0.07174840569496155,
                  0.465219646692276,
                  -0.709122896194458,
                  -0.3264998197555542,
                  2.051938533782959,
                  0.4747300148010254,
                  -0.020353691652417183,
                  0.19406116008758545,
                  0.21811558306217194,
                  -0.5741532444953918,
                  0.495705783367157,
                  -0.23252275586128235,
                  2.700258731842041
                ],
                "sd": [
                  4.980692386627197,
                  4.844330787658691,
                  7.739252090454102,
                  10.93895149230957,
                  7.639188289642334,
                  5.964425563812256,
                  6.230559349060059,
                  7.646821022033691,
                  11.672614097595215,
                  22.235305786132812,
                  54.170814514160156,
                  11.178018569946289,
                  6.894979000091553,
                  5.969998836517334,
                  6.297147750854492,
                  7.80910062789917,
                  12.033599853515625,
                  23.003307342529297,
                  53.58095169067383
                ]
              },
              "init": {
                "mode": "random_normal",
                "scale": 0.0028569424932669363
              },
              "seeds": {
                "split_seed": 657048,
                "init_seed": 857048,
                "batch_seed": 757048
              }
            },
            "run_id": 6,
            "seed": 957048,
            "randomness": {
              "split_seed": 657048,
              "batch_seed": 757048,
              "init_seed": 857048
            }
          },
          {
            "baseline_cent_sign": {
              "train_acc": 0.4645833671092987,
              "val_acc": 0.4208333492279053
            },
            "logreg": {
              "train": {
                "acc": 0.6250000596046448,
                "nll": 0.6387251615524292
              },
              "val": {
                "acc": 0.6458333730697632,
                "nll": 0.6396476030349731
              },
              "params": {
                "w": [
                  0.02181071601808071,
                  -0.09801804274320602,
                  -0.13449779152870178,
                  -0.19558018445968628,
                  -0.22096775472164154,
                  -0.3274289071559906,
                  -0.2973214387893677,
                  -0.25555020570755005,
                  -0.04864434525370598,
                  -0.14552822709083557,
                  -0.14539432525634766,
                  -0.021814929321408272,
                  0.12126089632511139,
                  0.04693245515227318,
                  -0.009080425836145878,
                  -0.013463588431477547,
                  0.020123803988099098,
                  -0.11551685631275177,
                  -0.0050529795698821545
                ],
                "b": 0.0015868486370891333
              },
              "standardize": {
                "mu": [
                  0.7844648361206055,
                  1.0268580913543701,
                  -0.4317152798175812,
                  -0.26102912425994873,
                  0.00991916749626398,
                  -0.21780836582183838,
                  -0.10298668593168259,
                  0.27658411860466003,
                  -0.9775739908218384,
                  -0.47971111536026,
                  1.4299038648605347,
                  0.26406240463256836,
                  -0.11514578014612198,
                  0.14169669151306152,
                  0.06102653965353966,
                  -0.46310389041900635,
                  0.536963701248169,
                  -0.6361515522003174,
                  1.871303915977478
                ],
                "sd": [
                  5.006364345550537,
                  4.7560648918151855,
                  7.638734817504883,
                  10.934622764587402,
                  7.509741306304932,
                  5.956693649291992,
                  6.244176387786865,
                  7.785496711730957,
                  11.735100746154785,
                  22.5572452545166,
                  54.531436920166016,
                  11.277183532714844,
                  7.142806053161621,
                  6.042056560516357,
                  6.245556354522705,
                  7.69688081741333,
                  12.031123161315918,
                  23.234712600708008,
                  52.98825454711914
                ]
              },
              "init": {
                "mode": "random_normal",
                "scale": 0.0028569424932669363
              },
              "seeds": {
                "split_seed": 657049,
                "init_seed": 857049,
                "batch_seed": 757049
              }
            },
            "run_id": 7,
            "seed": 957049,
            "randomness": {
              "split_seed": 657049,
              "batch_seed": 757049,
              "init_seed": 857049
            }
          },
          {
            "baseline_cent_sign": {
              "train_acc": 0.4520833492279053,
              "val_acc": 0.47083336114883423
            },
            "logreg": {
              "train": {
                "acc": 0.6364583373069763,
                "nll": 0.6411907076835632
              },
              "val": {
                "acc": 0.6375000476837158,
                "nll": 0.6377841234207153
              },
              "params": {
                "w": [
                  -0.018081948161125183,
                  -0.04795026779174805,
                  -0.16009600460529327,
                  -0.1787138432264328,
                  -0.24493727087974548,
                  -0.24596276879310608,
                  -0.31625550985336304,
                  -0.16213959455490112,
                  -0.14530520141124725,
                  -0.1628986895084381,
                  -0.194924458861351,
                  0.016619648784399033,
                  0.13925442099571228,
                  0.08232665061950684,
                  -0.008952297270298004,
                  -0.018005067482590675,
                  0.1016840711236,
                  -0.06727387756109238,
                  -0.013095882721245289
                ],
                "b": 0.0002212230465374887
              },
              "standardize": {
                "mu": [
                  0.7003227472305298,
                  1.1326937675476074,
                  -0.4553588926792145,
                  -0.10296078771352768,
                  -0.1920575350522995,
                  -0.3057512938976288,
                  -0.11986075341701508,
                  0.5421313047409058,
                  -0.6098446249961853,
                  -0.4232128858566284,
                  0.5251136422157288,
                  0.504275381565094,
                  -0.17367202043533325,
                  0.13954110443592072,
                  0.02232850156724453,
                  -0.5180522203445435,
                  0.061423543840646744,
                  -0.7769486904144287,
                  1.20546293258667
                ],
                "sd": [
                  4.929972171783447,
                  4.863683223724365,
                  7.669918537139893,
                  11.062732696533203,
                  7.444501876831055,
                  5.9482340812683105,
                  6.272061824798584,
                  7.709677696228027,
                  11.58848762512207,
                  22.3353214263916,
                  54.279476165771484,
                  11.078200340270996,
                  6.995097637176514,
                  5.963295936584473,
                  6.373620986938477,
                  7.796458721160889,
                  12.080368995666504,
                  23.28123664855957,
                  53.776065826416016
                ]
              },
              "init": {
                "mode": "random_normal",
                "scale": 0.0028569424932669363
              },
              "seeds": {
                "split_seed": 657050,
                "init_seed": 857050,
                "batch_seed": 757050
              }
            },
            "run_id": 8,
            "seed": 957050,
            "randomness": {
              "split_seed": 657050,
              "batch_seed": 757050,
              "init_seed": 857050
            }
          },
          {
            "baseline_cent_sign": {
              "train_acc": 0.46562501788139343,
              "val_acc": 0.4166666865348816
            },
            "logreg": {
              "train": {
                "acc": 0.659375011920929,
                "nll": 0.6388486623764038
              },
              "val": {
                "acc": 0.5666667222976685,
                "nll": 0.6647997498512268
              },
              "params": {
                "w": [
                  -0.014977416954934597,
                  -0.09712530672550201,
                  -0.1314779818058014,
                  -0.13424576818943024,
                  -0.17648129165172577,
                  -0.18050171434879303,
                  -0.2129071205854416,
                  -0.15610091388225555,
                  -0.06587809324264526,
                  -0.13827669620513916,
                  -0.07038183510303497,
                  -0.052675869315862656,
                  0.07953257113695145,
                  0.04716474562883377,
                  0.00648467568680644,
                  -0.02967313677072525,
                  0.06192368268966675,
                  -0.07862068712711334,
                  -0.04876153543591499
                ],
                "b": -0.006319605745375156
              },
              "standardize": {
                "mu": [
                  0.8090230822563171,
                  0.9506281018257141,
                  -0.49451929330825806,
                  -0.13318058848381042,
                  0.03932930901646614,
                  -0.26882657408714294,
                  -0.07482124865055084,
                  0.45932674407958984,
                  -0.36220794916152954,
                  -0.6350772976875305,
                  1.7643907070159912,
                  0.22730694711208344,
                  -0.09445394575595856,
                  0.21241821348667145,
                  0.06003045663237572,
                  -0.5394304990768433,
                  0.559715211391449,
                  -0.2955748438835144,
                  0.9166709780693054
                ],
                "sd": [
                  4.88054084777832,
                  4.8219075202941895,
                  7.509799480438232,
                  10.800390243530273,
                  7.575418472290039,
                  5.969681262969971,
                  6.248896598815918,
                  7.633872032165527,
                  11.645281791687012,
                  21.968570709228516,
                  54.31434631347656,
                  11.241456031799316,
                  7.0018630027771,
                  6.047447681427002,
                  6.200755596160889,
                  7.904088497161865,
                  12.11726188659668,
                  23.115381240844727,
                  53.28595733642578
                ]
              },
              "init": {
                "mode": "random_normal",
                "scale": 0.0028569424932669363
              },
              "seeds": {
                "split_seed": 657051,
                "init_seed": 857051,
                "batch_seed": 757051
              }
            },
            "run_id": 9,
            "seed": 957051,
            "randomness": {
              "split_seed": 657051,
              "batch_seed": 757051,
              "init_seed": 857051
            }
          }
        ],
        "summary": {
          "n_runs": 10,
          "baseline_cent_sign": {
            "train_acc": {
              "mean": 0.4545833617448807,
              "std": 0.0072797499190689185,
              "min": 0.444791704416275,
              "max": 0.46562501788139343
            },
            "val_acc": {
              "mean": 0.4608333557844162,
              "std": 0.029119006499367318,
              "min": 0.4166666865348816,
              "max": 0.5
            }
          },
          "logreg": {
            "train_acc": {
              "mean": 0.6436458647251129,
              "std": 0.008352185407820055,
              "min": 0.6250000596046448,
              "max": 0.659375011920929
            },
            "val_acc": {
              "mean": 0.6087500274181366,
              "std": 0.03142727643562,
              "min": 0.5625,
              "max": 0.6625000238418579
            },
            "train_nll": {
              "mean": 0.6440993666648864,
              "std": 0.008734257755140244,
              "min": 0.6369066834449768,
              "max": 0.6618252396583557
            },
            "val_nll": {
              "mean": 0.6592592000961304,
              "std": 0.015003941932162711,
              "min": 0.6377841234207153,
              "max": 0.6855278611183167
            }
          }
        },
        "randomness_config": {
          "vary_split": true,
          "vary_batch_order": true,
          "vary_init": true
        }
      },
      "k": 1.5,
      "nps_target": 11585,
      "nps_match_mode": "offby1"
    },
    {
      "nps": 21618,
      "baseline_cent_sign": {
        "train_acc": 0.39895835518836975,
        "val_acc": 0.4125000238418579
      },
      "logreg": {
        "train": {
          "acc": 0.7302083969116211,
          "nll": 0.5721770524978638
        },
        "val": {
          "acc": 0.6416667103767395,
          "nll": 0.6039328575134277
        },
        "params": {
          "w": [
            -0.030659886077046394,
            -0.05522824078798294,
            -0.3226247727870941,
            -0.1410505622625351,
            -0.3535698652267456,
            -0.31205543875694275,
            -0.3565262258052826,
            -0.3357645273208618,
            -0.2735229432582855,
            -0.0785384401679039,
            -0.0642976239323616,
            -0.039322808384895325,
            0.05834437534213066,
            0.04508358985185623,
            -0.104843869805336,
            -0.020530886948108673,
            0.08022695779800415,
            0.056958749890327454,
            -0.07796989381313324
          ],
          "b": 0.0063664261251688
        },
        "standardize": {
          "mu": [
            0.8211752772331238,
            1.0059847831726074,
            -0.17880791425704956,
            0.1593337208032608,
            -0.003958412446081638,
            0.1909535974264145,
            0.10683980584144592,
            0.08755213767290115,
            -0.05662654712796211,
            0.8210979700088501,
            -0.08544985949993134,
            -0.10588064044713974,
            -0.12219558656215668,
            -0.047168854624032974,
            0.13322441279888153,
            -0.1415068507194519,
            -0.023349223658442497,
            0.4873022437095642,
            1.2997689247131348
          ],
          "sd": [
            3.501884937286377,
            3.4310317039489746,
            5.42228364944458,
            6.165795803070068,
            3.8676884174346924,
            3.507108211517334,
            3.439251184463501,
            4.299168586730957,
            6.563612937927246,
            12.277958869934082,
            28.89856719970703,
            6.006103515625,
            3.8729746341705322,
            3.1398298740386963,
            3.3393759727478027,
            4.01366662979126,
            6.448172569274902,
            11.656902313232422,
            28.91490936279297
          ]
        },
        "init": {
          "mode": "random_normal",
          "scale": 0.0028569424932669363
        },
        "seeds": {
          "split_seed": 667042,
          "init_seed": 867042,
          "batch_seed": 767042
        }
      },
      "independent_runs": {
        "per_run": [
          {
            "baseline_cent_sign": {
              "train_acc": 0.39895835518836975,
              "val_acc": 0.4125000238418579
            },
            "logreg": {
              "train": {
                "acc": 0.7302083969116211,
                "nll": 0.5721770524978638
              },
              "val": {
                "acc": 0.6416667103767395,
                "nll": 0.6039328575134277
              },
              "params": {
                "w": [
                  -0.030659886077046394,
                  -0.05522824078798294,
                  -0.3226247727870941,
                  -0.1410505622625351,
                  -0.3535698652267456,
                  -0.31205543875694275,
                  -0.3565262258052826,
                  -0.3357645273208618,
                  -0.2735229432582855,
                  -0.0785384401679039,
                  -0.0642976239323616,
                  -0.039322808384895325,
                  0.05834437534213066,
                  0.04508358985185623,
                  -0.104843869805336,
                  -0.020530886948108673,
                  0.08022695779800415,
                  0.056958749890327454,
                  -0.07796989381313324
                ],
                "b": 0.0063664261251688
              },
              "standardize": {
                "mu": [
                  0.8211752772331238,
                  1.0059847831726074,
                  -0.17880791425704956,
                  0.1593337208032608,
                  -0.003958412446081638,
                  0.1909535974264145,
                  0.10683980584144592,
                  0.08755213767290115,
                  -0.05662654712796211,
                  0.8210979700088501,
                  -0.08544985949993134,
                  -0.10588064044713974,
                  -0.12219558656215668,
                  -0.047168854624032974,
                  0.13322441279888153,
                  -0.1415068507194519,
                  -0.023349223658442497,
                  0.4873022437095642,
                  1.2997689247131348
                ],
                "sd": [
                  3.501884937286377,
                  3.4310317039489746,
                  5.42228364944458,
                  6.165795803070068,
                  3.8676884174346924,
                  3.507108211517334,
                  3.439251184463501,
                  4.299168586730957,
                  6.563612937927246,
                  12.277958869934082,
                  28.89856719970703,
                  6.006103515625,
                  3.8729746341705322,
                  3.1398298740386963,
                  3.3393759727478027,
                  4.01366662979126,
                  6.448172569274902,
                  11.656902313232422,
                  28.91490936279297
                ]
              },
              "init": {
                "mode": "random_normal",
                "scale": 0.0028569424932669363
              },
              "seeds": {
                "split_seed": 667042,
                "init_seed": 867042,
                "batch_seed": 767042
              }
            },
            "run_id": 0,
            "seed": 967042,
            "randomness": {
              "split_seed": 667042,
              "batch_seed": 767042,
              "init_seed": 867042
            }
          },
          {
            "baseline_cent_sign": {
              "train_acc": 0.41041669249534607,
              "val_acc": 0.36666667461395264
            },
            "logreg": {
              "train": {
                "acc": 0.7072917222976685,
                "nll": 0.5774335265159607
              },
              "val": {
                "acc": 0.7125000357627869,
                "nll": 0.5575057864189148
              },
              "params": {
                "w": [
                  0.051555003970861435,
                  -0.009874920360744,
                  -0.3608829379081726,
                  -0.14025186002254486,
                  -0.4934452176094055,
                  -0.431454598903656,
                  -0.4385553002357483,
                  -0.37981951236724854,
                  -0.2904359698295593,
                  -0.04414594545960426,
                  -0.008250037208199501,
                  0.0062200045213103294,
                  0.020236724987626076,
                  0.1309979408979416,
                  -0.12001095712184906,
                  -0.024698007851839066,
                  0.08415712416172028,
                  0.02359962835907936,
                  -0.09830336272716522
                ],
                "b": -0.00806695781648159
              },
              "standardize": {
                "mu": [
                  1.0027357339859009,
                  1.0780562162399292,
                  -0.042796120047569275,
                  0.16578705608844757,
                  0.07817993313074112,
                  0.08944801241159439,
                  0.048771120607852936,
                  0.13819745182991028,
                  -0.04865178465843201,
                  1.1240184307098389,
                  0.5450893640518188,
                  -0.04722827300429344,
                  -0.022561145946383476,
                  0.050733670592308044,
                  0.1356593817472458,
                  -0.12025619298219681,
                  0.1686263382434845,
                  0.6394221186637878,
                  1.3719998598098755
                ],
                "sd": [
                  3.5527706146240234,
                  3.477536678314209,
                  5.409178733825684,
                  6.105347633361816,
                  3.899653911590576,
                  3.5330357551574707,
                  3.485316276550293,
                  4.327690124511719,
                  6.350814342498779,
                  12.328219413757324,
                  29.405826568603516,
                  5.926464080810547,
                  3.9156699180603027,
                  3.131648063659668,
                  3.300886392593384,
                  3.993579387664795,
                  6.465971946716309,
                  11.559147834777832,
                  28.62553596496582
                ]
              },
              "init": {
                "mode": "random_normal",
                "scale": 0.0028569424932669363
              },
              "seeds": {
                "split_seed": 667043,
                "init_seed": 867043,
                "batch_seed": 767043
              }
            },
            "run_id": 1,
            "seed": 967043,
            "randomness": {
              "split_seed": 667043,
              "batch_seed": 767043,
              "init_seed": 867043
            }
          },
          {
            "baseline_cent_sign": {
              "train_acc": 0.40937501192092896,
              "val_acc": 0.3708333671092987
            },
            "logreg": {
              "train": {
                "acc": 0.6989583969116211,
                "nll": 0.5792548656463623
              },
              "val": {
                "acc": 0.7291666865348816,
                "nll": 0.5488460659980774
              },
              "params": {
                "w": [
                  0.013645818457007408,
                  -0.012874477542936802,
                  -0.40658053755760193,
                  -0.08980309963226318,
                  -0.49849531054496765,
                  -0.405739963054657,
                  -0.44089218974113464,
                  -0.33231455087661743,
                  -0.31387007236480713,
                  -0.07945776730775833,
                  -0.0165703147649765,
                  -0.009893709793686867,
                  0.020297357812523842,
                  0.05925040692090988,
                  -0.08189060539007187,
                  -0.010460629127919674,
                  0.0549786239862442,
                  0.061942558735609055,
                  -0.12505468726158142
                ],
                "b": 0.021277301013469696
              },
              "standardize": {
                "mu": [
                  0.9708072543144226,
                  1.0358821153640747,
                  -0.24034878611564636,
                  0.15278580784797668,
                  -0.03161032870411873,
                  0.1865423172712326,
                  0.04108760878443718,
                  0.08216705918312073,
                  -0.10842715203762054,
                  0.49144044518470764,
                  -0.4268936812877655,
                  -0.24405893683433533,
                  -0.17929965257644653,
                  0.09074553102254868,
                  0.019307781010866165,
                  -0.16806632280349731,
                  -0.1379946768283844,
                  0.4471871554851532,
                  1.5530133247375488
                ],
                "sd": [
                  3.571970224380493,
                  3.4658193588256836,
                  5.473938941955566,
                  6.149576663970947,
                  3.894397735595703,
                  3.5279417037963867,
                  3.449838638305664,
                  4.388816833496094,
                  6.561240196228027,
                  12.359841346740723,
                  29.54459571838379,
                  6.012056350708008,
                  3.9362716674804688,
                  3.1898398399353027,
                  3.304124355316162,
                  4.109808444976807,
                  6.401821136474609,
                  11.43785572052002,
                  28.91860008239746
                ]
              },
              "init": {
                "mode": "random_normal",
                "scale": 0.0028569424932669363
              },
              "seeds": {
                "split_seed": 667044,
                "init_seed": 867044,
                "batch_seed": 767044
              }
            },
            "run_id": 2,
            "seed": 967044,
            "randomness": {
              "split_seed": 667044,
              "batch_seed": 767044,
              "init_seed": 867044
            }
          },
          {
            "baseline_cent_sign": {
              "train_acc": 0.4010416865348816,
              "val_acc": 0.40416669845581055
            },
            "logreg": {
              "train": {
                "acc": 0.7072917222976685,
                "nll": 0.565824031829834
              },
              "val": {
                "acc": 0.6708333492279053,
                "nll": 0.6063230037689209
              },
              "params": {
                "w": [
                  0.037018727511167526,
                  -0.05378055199980736,
                  -0.4123815596103668,
                  -0.1839514672756195,
                  -0.4743691086769104,
                  -0.48222747445106506,
                  -0.48940351605415344,
                  -0.42184776067733765,
                  -0.2502264678478241,
                  -0.061224110424518585,
                  0.033576998859643936,
                  -0.04795730486512184,
                  0.04302143678069115,
                  0.07795922458171844,
                  -0.06977027654647827,
                  -0.05186804383993149,
                  0.008349819108843803,
                  0.06523604691028595,
                  -0.038345690816640854
                ],
                "b": -0.043151549994945526
              },
              "standardize": {
                "mu": [
                  0.9290675520896912,
                  1.0040854215621948,
                  -0.12027543783187866,
                  0.13318520784378052,
                  -0.004146957769989967,
                  0.24299125373363495,
                  0.06477110832929611,
                  -0.029111573472619057,
                  -0.2345607429742813,
                  0.5390031337738037,
                  0.21024984121322632,
                  -0.28439661860466003,
                  -0.1386738419532776,
                  0.037086956202983856,
                  0.07907967269420624,
                  -0.1301691234111786,
                  -0.25968095660209656,
                  0.5910487174987793,
                  1.3883389234542847
                ],
                "sd": [
                  3.4879469871520996,
                  3.4762802124023438,
                  5.5044264793396,
                  6.072807312011719,
                  3.8899269104003906,
                  3.5753254890441895,
                  3.4750208854675293,
                  4.3533430099487305,
                  6.509398460388184,
                  12.424598693847656,
                  28.874065399169922,
                  5.8822102546691895,
                  3.897987127304077,
                  3.140949249267578,
                  3.2909533977508545,
                  4.065886497497559,
                  6.319458484649658,
                  11.545929908752441,
                  28.40414047241211
                ]
              },
              "init": {
                "mode": "random_normal",
                "scale": 0.0028569424932669363
              },
              "seeds": {
                "split_seed": 667045,
                "init_seed": 867045,
                "batch_seed": 767045
              }
            },
            "run_id": 3,
            "seed": 967045,
            "randomness": {
              "split_seed": 667045,
              "batch_seed": 767045,
              "init_seed": 867045
            }
          },
          {
            "baseline_cent_sign": {
              "train_acc": 0.39895835518836975,
              "val_acc": 0.4125000238418579
            },
            "logreg": {
              "train": {
                "acc": 0.7104166746139526,
                "nll": 0.5741288065910339
              },
              "val": {
                "acc": 0.7000000476837158,
                "nll": 0.570509135723114
              },
              "params": {
                "w": [
                  0.0224476158618927,
                  0.010607652366161346,
                  -0.4596150517463684,
                  -0.1446937769651413,
                  -0.5087249875068665,
                  -0.38736194372177124,
                  -0.5089516639709473,
                  -0.39363783597946167,
                  -0.286092609167099,
                  -0.06956614553928375,
                  -0.009999750182032585,
                  0.012755656614899635,
                  0.028098082169890404,
                  0.054814375936985016,
                  -0.08542662858963013,
                  -0.08447191119194031,
                  0.0845186710357666,
                  0.059490688145160675,
                  -0.14754675328731537
                ],
                "b": -0.018247734755277634
              },
              "standardize": {
                "mu": [
                  0.96259605884552,
                  1.009955883026123,
                  -0.2020505964756012,
                  0.1279832422733307,
                  -0.019174883142113686,
                  0.11579043418169022,
                  0.1010521650314331,
                  0.00013880729966331273,
                  -0.27485451102256775,
                  0.8210576772689819,
                  -0.3375372886657715,
                  -0.08310417085886002,
                  -0.046619679778814316,
                  0.06434792280197144,
                  0.08604072034358978,
                  0.007378427777439356,
                  -0.17349602282047272,
                  0.2984094023704529,
                  0.6301418542861938
                ],
                "sd": [
                  3.557103395462036,
                  3.4379258155822754,
                  5.451574802398682,
                  6.175002574920654,
                  3.8789310455322266,
                  3.5287795066833496,
                  3.604891300201416,
                  4.37512731552124,
                  6.497920989990234,
                  12.35387897491455,
                  28.767871856689453,
                  6.004839897155762,
                  3.826658010482788,
                  3.208146572113037,
                  3.274799346923828,
                  3.994631767272949,
                  6.3705925941467285,
                  11.631406784057617,
                  29.01542091369629
                ]
              },
              "init": {
                "mode": "random_normal",
                "scale": 0.0028569424932669363
              },
              "seeds": {
                "split_seed": 667046,
                "init_seed": 867046,
                "batch_seed": 767046
              }
            },
            "run_id": 4,
            "seed": 967046,
            "randomness": {
              "split_seed": 667046,
              "batch_seed": 767046,
              "init_seed": 867046
            }
          },
          {
            "baseline_cent_sign": {
              "train_acc": 0.4020833671092987,
              "val_acc": 0.40000003576278687
            },
            "logreg": {
              "train": {
                "acc": 0.7114583849906921,
                "nll": 0.5687054991722107
              },
              "val": {
                "acc": 0.6958333849906921,
                "nll": 0.5981667041778564
              },
              "params": {
                "w": [
                  -0.010087033733725548,
                  0.032417915761470795,
                  -0.3624603748321533,
                  -0.16067393124103546,
                  -0.4247610867023468,
                  -0.37127602100372314,
                  -0.412043958902359,
                  -0.3552788197994232,
                  -0.2968207895755768,
                  -0.06145603954792023,
                  0.0558210164308548,
                  0.03809564933180809,
                  0.0013524433597922325,
                  0.030250834301114082,
                  -0.08697108179330826,
                  -0.03249208256602287,
                  0.057872798293828964,
                  0.04962414875626564,
                  -0.11284135282039642
                ],
                "b": 0.01171460933983326
              },
              "standardize": {
                "mu": [
                  0.974637508392334,
                  1.0823038816452026,
                  -0.10399733483791351,
                  -0.0061777993105351925,
                  -0.07271994650363922,
                  0.0954999327659607,
                  0.09437334537506104,
                  -0.004790612496435642,
                  -0.13877511024475098,
                  0.9026508927345276,
                  0.44466620683670044,
                  -0.0998990461230278,
                  -0.17276926338672638,
                  -0.125649094581604,
                  0.0740741416811943,
                  -0.18318623304367065,
                  -0.1561599224805832,
                  0.17834581434726715,
                  1.4822320938110352
                ],
                "sd": [
                  3.4575555324554443,
                  3.4260094165802,
                  5.439813613891602,
