{
  "feature_type": "hamming_baseline",
  "alpha": "all_ones",
  "setup": {
    "n": 15,
    "channel_type": "depolarizing",
    "strength": 0.05,
    "run_name": "n15_depolarizing_p0p05_fseaf7cc9c88492915_nps7db04a43d4415a69"
  },
  "source": {
    "run_path": "/gpfs/home1/ypatel/data1/shadow-qml-ml/feat_data_all/feat_data/exp_s1_features_hamming_baseline_fseaf7cc9c88492915_fixed_alpha_all_ones_fixed_y_all_zeros_q_15_15/runs/n15_depolarizing_p0p05_fseaf7cc9c88492915_nps7db04a43d4415a69",
    "dataset_ref": "/gpfs/home1/ypatel/data1/shadow-qml-ml/feat_data_all/feat_data/exp_s1_features_hamming_baseline_fseaf7cc9c88492915_fixed_alpha_all_ones_fixed_y_all_zeros_q_15_15/datasets/dataset_2a6199fcc8c91001.npz"
  },
  "train_config": {
    "val_frac": 0.2,
    "batch_size": 128,
    "epochs": 160,
    "lr": 0.023062905530795298,
    "l2": 0.0009140906016731205,
    "n_independent_runs": 10,
    "init_mode": "random_normal",
    "init_scale": 0.001966005664489474,
    "vary_split": true,
    "vary_batch_order": true,
    "vary_init": true
  },
  "k_grid_requested": [
    0.8,
    0.9,
    1.0,
    1.1,
    1.2,
    1.3,
    1.4,
    1.5,
    1.6,
    1.7,
    1.8,
    1.9,
    2.0,
    2.1,
    2.2,
    2.3,
    2.4
  ],
  "k_match_mode": "offby1",
  "k_nearest_max_abs_delta": 1,
  "per_nps_selected": [
    {
      "nps": 4096,
      "baseline_cent_sign": {
        "train_acc": 0.5041667222976685,
        "val_acc": 0.48750001192092896
      },
      "logreg": {
        "train": {
          "acc": 0.5385416746139526,
          "nll": 0.6886799335479736
        },
        "val": {
          "acc": 0.4791666865348816,
          "nll": 0.6980829238891602
        },
        "params": {
          "w": [
            -0.0008149805944412947,
            0.005425961222499609,
            0.009987816214561462,
            0.006566445343196392,
            0.03764265775680542,
            -0.14272840321063995,
            0.03760657086968422,
            -0.03028532862663269,
            -0.0076970625668764114,
            0.010976199060678482,
            -0.039402034133672714,
            0.07137198001146317,
            -0.009553410112857819,
            0.0509752482175827,
            -0.03375356271862984,
            -0.051909759640693665,
            -0.0204057265073061
          ],
          "b": 0.03335978835821152
        },
        "standardize": {
          "mu": [
            5.918015480041504,
            24.26795768737793,
            62.3875846862793,
            30300.056640625,
            6262.32373046875,
            1663.7113037109375,
            -3153.2333984375,
            2742.874267578125,
            -226.34681701660156,
            935.8928833007812,
            70.29661560058594,
            2878.496337890625,
            1166.417724609375,
            -106.36385345458984,
            -2080.017333984375,
            8132.6982421875,
            20843.87109375
          ],
          "sd": [
            526.6400756835938,
            517.5305786132812,
            7364.23095703125,
            702068.6875,
            269095.0,
            129953.8515625,
            75778.1796875,
            50971.29296875,
            38854.59765625,
            34868.26953125,
            33674.0234375,
            38236.22265625,
            52156.27734375,
            74382.2890625,
            132042.171875,
            257258.0,
            682020.6875
          ]
        },
        "init": {
          "mode": "random_normal",
          "scale": 0.001966005664489474
        },
        "seeds": {
          "split_seed": 185042,
          "init_seed": 385042,
          "batch_seed": 285042
        }
      },
      "independent_runs": {
        "per_run": [
          {
            "baseline_cent_sign": {
              "train_acc": 0.5041667222976685,
              "val_acc": 0.48750001192092896
            },
            "logreg": {
              "train": {
                "acc": 0.5385416746139526,
                "nll": 0.6886799335479736
              },
              "val": {
                "acc": 0.4791666865348816,
                "nll": 0.6980829238891602
              },
              "params": {
                "w": [
                  -0.0008149805944412947,
                  0.005425961222499609,
                  0.009987816214561462,
                  0.006566445343196392,
                  0.03764265775680542,
                  -0.14272840321063995,
                  0.03760657086968422,
                  -0.03028532862663269,
                  -0.0076970625668764114,
                  0.010976199060678482,
                  -0.039402034133672714,
                  0.07137198001146317,
                  -0.009553410112857819,
                  0.0509752482175827,
                  -0.03375356271862984,
                  -0.051909759640693665,
                  -0.0204057265073061
                ],
                "b": 0.03335978835821152
              },
              "standardize": {
                "mu": [
                  5.918015480041504,
                  24.26795768737793,
                  62.3875846862793,
                  30300.056640625,
                  6262.32373046875,
                  1663.7113037109375,
                  -3153.2333984375,
                  2742.874267578125,
                  -226.34681701660156,
                  935.8928833007812,
                  70.29661560058594,
                  2878.496337890625,
                  1166.417724609375,
                  -106.36385345458984,
                  -2080.017333984375,
                  8132.6982421875,
                  20843.87109375
                ],
                "sd": [
                  526.6400756835938,
                  517.5305786132812,
                  7364.23095703125,
                  702068.6875,
                  269095.0,
                  129953.8515625,
                  75778.1796875,
                  50971.29296875,
                  38854.59765625,
                  34868.26953125,
                  33674.0234375,
                  38236.22265625,
                  52156.27734375,
                  74382.2890625,
                  132042.171875,
                  257258.0,
                  682020.6875
                ]
              },
              "init": {
                "mode": "random_normal",
                "scale": 0.001966005664489474
              },
              "seeds": {
                "split_seed": 185042,
                "init_seed": 385042,
                "batch_seed": 285042
              }
            },
            "run_id": 0,
            "seed": 485042,
            "randomness": {
              "split_seed": 185042,
              "batch_seed": 285042,
              "init_seed": 385042
            }
          },
          {
            "baseline_cent_sign": {
              "train_acc": 0.503125011920929,
              "val_acc": 0.491666704416275
            },
            "logreg": {
              "train": {
                "acc": 0.5437500476837158,
                "nll": 0.6859442591667175
              },
              "val": {
                "acc": 0.4750000238418579,
                "nll": 0.707465648651123
              },
              "params": {
                "w": [
                  0.005025810096412897,
                  0.0037873529363423586,
                  0.04363345727324486,
                  -0.010965430177748203,
                  -0.03173133358359337,
                  -0.10184750705957413,
                  0.05439722165465355,
                  0.03380646929144859,
                  -0.03656255826354027,
                  -0.025432152673602104,
                  -0.0605410598218441,
                  0.10931564122438431,
                  -0.0727909505367279,
                  0.12037357687950134,
                  -0.059635505080223083,
                  -0.022075438871979713,
                  -0.04921258985996246
                ],
                "b": -0.043108340352773666
              },
              "standardize": {
                "mu": [
                  -2.8991074562072754,
                  4.687829971313477,
                  -129.55517578125,
                  23017.193359375,
                  3994.379150390625,
                  -1286.1629638671875,
                  -2341.307373046875,
                  2948.54931640625,
                  606.9076538085938,
                  1951.0418701171875,
                  -201.27386474609375,
                  1482.7701416015625,
                  1745.56689453125,
                  1447.8724365234375,
                  -5345.33251953125,
                  3075.235595703125,
                  17454.947265625
                ],
                "sd": [
                  518.0542602539062,
                  507.3443908691406,
                  7425.666015625,
                  740056.0,
                  266201.09375,
                  131744.4375,
                  75867.09375,
                  51250.87890625,
                  38813.25390625,
                  34824.734375,
                  34356.69921875,
                  38186.36328125,
                  50937.05859375,
                  73112.6953125,
                  131547.546875,
                  263236.6875,
                  680097.5
                ]
              },
              "init": {
                "mode": "random_normal",
                "scale": 0.001966005664489474
              },
              "seeds": {
                "split_seed": 185043,
                "init_seed": 385043,
                "batch_seed": 285043
              }
            },
            "run_id": 1,
            "seed": 485043,
            "randomness": {
              "split_seed": 185043,
              "batch_seed": 285043,
              "init_seed": 385043
            }
          },
          {
            "baseline_cent_sign": {
              "train_acc": 0.5020833611488342,
              "val_acc": 0.4958333671092987
            },
            "logreg": {
              "train": {
                "acc": 0.5427083373069763,
                "nll": 0.6890608668327332
              },
              "val": {
                "acc": 0.5125000476837158,
                "nll": 0.6921589374542236
              },
              "params": {
                "w": [
                  0.0325121209025383,
                  -0.04684770852327347,
                  -0.009514113888144493,
                  -0.028825169429183006,
                  -0.037051863968372345,
                  -0.1009322851896286,
                  0.030341945588588715,
                  -0.024992933496832848,
                  -0.03308812156319618,
                  0.010174510069191456,
                  -0.04255274310708046,
                  0.04087637737393379,
                  -0.033118125051259995,
                  0.07516571134328842,
                  -0.034313250333070755,
                  -0.017672022804617882,
                  -0.07113481312990189
                ],
                "b": -0.004900838248431683
              },
              "standardize": {
                "mu": [
                  -4.175363540649414,
                  18.313133239746094,
                  -53.247047424316406,
                  39526.890625,
                  6441.78173828125,
                  -2948.095458984375,
                  -3492.48193359375,
                  1275.8336181640625,
                  -556.62744140625,
                  990.7750244140625,
                  -1042.4720458984375,
                  2985.20947265625,
                  1926.299072265625,
                  -1850.3609619140625,
                  -9679.3212890625,
                  7231.01318359375,
                  31613.4765625
                ],
                "sd": [
                  523.50830078125,
                  510.0560607910156,
                  7331.9423828125,
                  717945.3125,
                  273540.5,
                  133423.203125,
                  74752.578125,
                  50376.3515625,
                  38821.88671875,
                  35141.63671875,
                  34052.9765625,
                  38203.2578125,
                  52278.67578125,
                  74715.5390625,
                  132978.359375,
                  260913.734375,
                  691219.6875
                ]
              },
              "init": {
                "mode": "random_normal",
                "scale": 0.001966005664489474
              },
              "seeds": {
                "split_seed": 185044,
                "init_seed": 385044,
                "batch_seed": 285044
              }
            },
            "run_id": 2,
            "seed": 485044,
            "randomness": {
              "split_seed": 185044,
              "batch_seed": 285044,
              "init_seed": 385044
            }
          },
          {
            "baseline_cent_sign": {
              "train_acc": 0.5,
              "val_acc": 0.5041667222976685
            },
            "logreg": {
              "train": {
                "acc": 0.5416666865348816,
                "nll": 0.6870906352996826
              },
              "val": {
                "acc": 0.5083333849906921,
                "nll": 0.7024598717689514
              },
              "params": {
                "w": [
                  -0.009339977987110615,
                  -0.03046487085521221,
                  0.052498236298561096,
                  -0.024384165182709694,
                  -0.03965214267373085,
                  -0.11075679212808609,
                  0.030716992914676666,
                  -0.05470364913344383,
                  -0.004550503101199865,
                  -0.013438990339636803,
                  -0.03432431444525719,
                  0.06981869041919708,
                  -0.04259335622191429,
                  0.05134598910808563,
                  -0.05284867435693741,
                  -0.03525177389383316,
                  -0.09457416832447052
                ],
                "b": -0.03279269114136696
              },
              "standardize": {
                "mu": [
                  -0.32606610655784607,
                  1.2980988025665283,
                  -112.1098861694336,
                  21130.296875,
                  9761.490234375,
                  -5240.9736328125,
                  224.58204650878906,
                  3455.145751953125,
                  1015.4795532226562,
                  466.7502136230469,
                  15.472657203674316,
                  2811.369873046875,
                  2015.828857421875,
                  -1339.0474853515625,
                  -6460.845703125,
                  5972.166015625,
                  26204.63671875
                ],
                "sd": [
                  521.3272094726562,
                  504.74273681640625,
                  7405.53564453125,
                  717890.9375,
                  265022.78125,
                  132329.3125,
                  73887.4765625,
                  51020.20703125,
                  38578.734375,
                  35450.21484375,
                  33663.17578125,
                  38267.8984375,
                  51488.02734375,
                  75560.2578125,
                  135489.15625,
                  260066.046875,
                  682361.0
                ]
              },
              "init": {
                "mode": "random_normal",
                "scale": 0.001966005664489474
              },
              "seeds": {
                "split_seed": 185045,
                "init_seed": 385045,
                "batch_seed": 285045
              }
            },
            "run_id": 3,
            "seed": 485045,
            "randomness": {
              "split_seed": 185045,
              "batch_seed": 285045,
              "init_seed": 385045
            }
          },
          {
            "baseline_cent_sign": {
              "train_acc": 0.49687501788139343,
              "val_acc": 0.5166667103767395
            },
            "logreg": {
              "train": {
                "acc": 0.5354167222976685,
                "nll": 0.6887421011924744
              },
              "val": {
                "acc": 0.5291666984558105,
                "nll": 0.6953092217445374
              },
              "params": {
                "w": [
                  0.02744474820792675,
                  0.01391160860657692,
                  -0.009290334768593311,
                  0.0053181117400527,
                  -0.00010143546387553215,
                  -0.08941950649023056,
                  0.019291117787361145,
                  -0.039863470941782,
                  -0.04447712004184723,
                  -0.0212930366396904,
                  -0.06160105764865875,
                  0.09828418493270874,
                  0.016185887157917023,
                  0.07816633582115173,
                  -0.0012972122058272362,
                  -0.0024169108364731073,
                  -0.04092578962445259
                ],
                "b": 0.018135301768779755
              },
              "standardize": {
                "mu": [
                  -6.78358268737793,
                  17.272628784179688,
                  -129.1697235107422,
                  19735.9609375,
                  6608.35498046875,
                  -3481.883056640625,
                  -2183.998046875,
                  1966.385009765625,
                  -111.25098419189453,
                  1674.494384765625,
                  201.0150604248047,
                  2617.0224609375,
                  644.468017578125,
                  -77.73138427734375,
                  -4803.10546875,
                  11365.435546875,
                  21408.2890625
                ],
                "sd": [
                  518.8585205078125,
                  517.4508666992188,
                  7445.9580078125,
                  700072.8125,
                  269944.5,
                  130412.625,
                  74977.8046875,
                  51087.96875,
                  39021.38671875,
                  34886.3984375,
                  33899.98046875,
                  38194.92578125,
                  51394.16015625,
                  75818.78125,
                  132090.359375,
                  264841.25,
                  682292.0625
                ]
              },
              "init": {
                "mode": "random_normal",
                "scale": 0.001966005664489474
              },
              "seeds": {
                "split_seed": 185046,
                "init_seed": 385046,
                "batch_seed": 285046
              }
            },
            "run_id": 4,
            "seed": 485046,
            "randomness": {
              "split_seed": 185046,
              "batch_seed": 285046,
              "init_seed": 385046
            }
          },
          {
            "baseline_cent_sign": {
              "train_acc": 0.5041667222976685,
              "val_acc": 0.48750001192092896
            },
            "logreg": {
              "train": {
                "acc": 0.5458333492279053,
                "nll": 0.686664879322052
              },
              "val": {
                "acc": 0.4791666865348816,
                "nll": 0.7021058797836304
              },
              "params": {
                "w": [
                  0.005621687043458223,
                  -0.03234154358506203,
                  0.016584308817982674,
                  -0.0005463259294629097,
                  -0.019344424828886986,
                  -0.11535963416099548,
                  0.035843703895807266,
                  -0.008862558752298355,
                  -0.044693514704704285,
                  0.04086999222636223,
                  -0.08037829399108887,
                  0.06777776032686234,
                  0.011435644701123238,
                  0.05700162798166275,
                  -0.055293601006269455,
                  0.021112101152539253,
                  -0.08278435468673706
                ],
                "b": -0.00780629925429821
              },
              "standardize": {
                "mu": [
                  -3.782653570175171,
                  8.682101249694824,
                  83.07879638671875,
                  44340.515625,
                  11349.58984375,
                  -593.925048828125,
                  -1973.277587890625,
                  1930.3946533203125,
                  -131.85867309570312,
                  1729.490478515625,
                  66.05501556396484,
                  2691.275634765625,
                  503.5392761230469,
                  531.69091796875,
                  -1439.2620849609375,
                  9435.2548828125,
                  3417.23974609375
                ],
                "sd": [
                  525.06689453125,
                  507.9659118652344,
                  7419.27392578125,
                  729926.0,
                  265454.65625,
                  131681.125,
                  75430.203125,
                  52211.67578125,
                  38365.515625,
                  34991.0390625,
                  33638.484375,
                  38448.67578125,
                  52022.78515625,
                  74598.953125,
                  130988.9453125,
                  258240.875,
                  687038.3125
                ]
              },
              "init": {
                "mode": "random_normal",
                "scale": 0.001966005664489474
              },
              "seeds": {
                "split_seed": 185047,
                "init_seed": 385047,
                "batch_seed": 285047
              }
            },
            "run_id": 5,
            "seed": 485047,
            "randomness": {
              "split_seed": 185047,
              "batch_seed": 285047,
              "init_seed": 385047
            }
          },
          {
            "baseline_cent_sign": {
              "train_acc": 0.5062500238418579,
              "val_acc": 0.4791666865348816
            },
            "logreg": {
              "train": {
                "acc": 0.5395833849906921,
                "nll": 0.6882670521736145
              },
              "val": {
                "acc": 0.4750000238418579,
                "nll": 0.6947212815284729
              },
              "params": {
                "w": [
                  0.006012325640767813,
                  -0.0012249820865690708,
                  0.028457466512918472,
                  -0.01264129113405943,
                  -0.024735331535339355,
                  -0.06269274652004242,
                  0.05728819593787193,
                  -0.017128845676779747,
                  -0.030200989916920662,
                  -0.022089120000600815,
                  -0.07636159658432007,
                  0.06357015669345856,
                  0.0059179216623306274,
                  0.1309293657541275,
                  -0.05656961724162102,
                  1.705515751382336e-05,
                  -0.1018952876329422
                ],
                "b": 0.023467667400836945
              },
              "standardize": {
                "mu": [
                  1.2211540937423706,
                  17.158273696899414,
                  -189.03778076171875,
                  32228.005859375,
                  4612.69287109375,
                  -3199.61572265625,
                  -3470.190185546875,
                  1416.70947265625,
                  260.05950927734375,
                  1403.0635986328125,
                  -1166.546875,
                  3192.05517578125,
                  1638.3228759765625,
                  752.6573486328125,
                  -3642.010009765625,
                  10679.1376953125,
                  27655.064453125
                ],
                "sd": [
                  524.7189331054688,
                  507.4211730957031,
                  7167.4833984375,
                  731978.375,
                  273449.09375,
                  129945.65625,
                  76001.171875,
                  51276.71484375,
                  38725.6484375,
                  34942.48828125,
                  34214.78515625,
                  38030.82421875,
                  50552.1796875,
                  75757.7265625,
                  130868.9921875,
                  261999.34375,
                  689986.875
                ]
              },
              "init": {
                "mode": "random_normal",
                "scale": 0.001966005664489474
              },
              "seeds": {
                "split_seed": 185048,
                "init_seed": 385048,
                "batch_seed": 285048
              }
            },
            "run_id": 6,
            "seed": 485048,
            "randomness": {
              "split_seed": 185048,
              "batch_seed": 285048,
              "init_seed": 385048
            }
          },
          {
            "baseline_cent_sign": {
              "train_acc": 0.4989583492279053,
              "val_acc": 0.5083333849906921
            },
            "logreg": {
              "train": {
                "acc": 0.5437500476837158,
                "nll": 0.6870337128639221
              },
              "val": {
                "acc": 0.4833333492279053,
                "nll": 0.7033126950263977
              },
              "params": {
                "w": [
                  -0.016448907554149628,
                  -0.03923580422997475,
                  0.017950035631656647,
                  -0.009634485468268394,
                  -0.033570222556591034,
                  -0.11537554115056992,
                  0.015065518207848072,
                  -0.00311087048612535,
                  -0.03422601893544197,
                  -0.003267871681600809,
                  -0.05255528539419174,
                  0.04434695467352867,
                  -0.04661659523844719,
                  0.07789991050958633,
                  -0.10225772112607956,
                  -0.011412504129111767,
                  -0.08761326968669891
                ],
                "b": -0.04969950392842293
              },
              "standardize": {
                "mu": [
                  3.4729690551757812,
                  1.152599811553955,
                  -120.58607482910156,
                  37835.34375,
                  2970.640869140625,
                  -146.14036560058594,
                  -2189.74365234375,
                  3197.474365234375,
                  -922.5741577148438,
                  1510.99853515625,
                  -614.4911499023438,
                  2197.430419921875,
                  387.6106262207031,
                  -992.6254272460938,
                  -9695.857421875,
                  9847.4345703125,
                  22644.931640625
                ],
                "sd": [
                  523.3943481445312,
                  508.3321838378906,
                  7368.15380859375,
                  708541.125,
                  270830.1875,
                  132725.625,
                  75556.8984375,
                  50524.51171875,
                  39157.30078125,
                  34983.9375,
                  34027.609375,
                  38157.3515625,
                  52320.15234375,
                  73892.9609375,
                  130242.5546875,
                  256397.03125,
                  699443.625
                ]
              },
              "init": {
                "mode": "random_normal",
                "scale": 0.001966005664489474
              },
              "seeds": {
                "split_seed": 185049,
                "init_seed": 385049,
                "batch_seed": 285049
              }
            },
            "run_id": 7,
            "seed": 485049,
            "randomness": {
              "split_seed": 185049,
              "batch_seed": 285049,
              "init_seed": 385049
            }
          },
          {
            "baseline_cent_sign": {
              "train_acc": 0.5052083730697632,
              "val_acc": 0.4833333492279053
            },
            "logreg": {
              "train": {
                "acc": 0.5552083849906921,
                "nll": 0.685382604598999
              },
              "val": {
                "acc": 0.44166669249534607,
                "nll": 0.7114601731300354
              },
              "params": {
                "w": [
                  0.005177353974431753,
                  0.011157174594700336,
                  0.04047056660056114,
                  0.018323581665754318,
                  -0.014372147619724274,
                  -0.11358990520238876,
                  0.03614991158246994,
                  -0.04608212038874626,
                  0.024692868813872337,
                  0.059893690049648285,
                  -0.0821429118514061,
                  0.10858545452356339,
                  0.0003834357485175133,
                  0.1072421744465828,
                  -0.07309470325708389,
                  -0.03309231996536255,
                  -0.10353255271911621
                ],
                "b": 0.018287215381860733
              },
              "standardize": {
                "mu": [
                  11.374435424804688,
                  0.10076701641082764,
                  -42.5205192565918,
                  6236.880859375,
                  1998.90478515625,
                  -2693.596435546875,
                  -2971.143310546875,
                  2009.8277587890625,
                  491.6438293457031,
                  730.4091796875,
                  -482.8810729980469,
                  2013.389404296875,
                  1200.7252197265625,
                  -1372.4261474609375,
                  -1893.9910888671875,
                  7003.1357421875,
                  23805.634765625
                ],
                "sd": [
                  519.5620727539062,
                  512.6292724609375,
                  7151.740234375,
                  724084.1875,
                  272241.125,
                  131614.46875,
                  75524.359375,
                  51169.59375,
                  38374.51953125,
                  34658.49609375,
                  33644.30859375,
                  38216.7421875,
                  51899.671875,
                  74233.8984375,
                  131935.984375,
                  258771.9375,
                  693135.75
                ]
              },
              "init": {
                "mode": "random_normal",
                "scale": 0.001966005664489474
              },
              "seeds": {
                "split_seed": 185050,
                "init_seed": 385050,
                "batch_seed": 285050
              }
            },
            "run_id": 8,
            "seed": 485050,
            "randomness": {
              "split_seed": 185050,
              "batch_seed": 285050,
              "init_seed": 385050
            }
          },
          {
            "baseline_cent_sign": {
              "train_acc": 0.5125000476837158,
              "val_acc": 0.4541666805744171
            },
            "logreg": {
              "train": {
                "acc": 0.5479167103767395,
                "nll": 0.6881816387176514
              },
              "val": {
                "acc": 0.44166669249534607,
                "nll": 0.7000452876091003
              },
              "params": {
                "w": [
                  0.023647937923669815,
                  0.039934348315000534,
                  0.04082729294896126,
                  0.01559279952198267,
                  0.018330823630094528,
                  -0.054419104009866714,
                  0.06021402031183243,
                  0.018552865833044052,
                  -0.027159804478287697,
                  0.034670647233724594,
                  -0.06547863781452179,
                  0.06962864845991135,
                  -0.0806049033999443,
                  0.05774720758199692,
                  -0.07113391160964966,
                  0.009073212742805481,
                  -0.06081538647413254
                ],
                "b": 0.045392923057079315
              },
              "standardize": {
                "mu": [
                  8.611223220825195,
                  14.977425575256348,
                  -21.588876724243164,
                  22800.240234375,
                  4342.24365234375,
                  -4355.3134765625,
                  -4284.205078125,
                  1808.2900390625,
                  -443.85052490234375,
                  382.8771667480469,
                  -656.997802734375,
                  2851.543701171875,
                  1484.1165771484375,
                  -1612.536376953125,
                  -4383.97607421875,
                  3211.031005859375,
                  13202.6279296875
                ],
                "sd": [
                  531.9411010742188,
                  507.11737060546875,
                  7367.9365234375,
                  715476.4375,
                  270635.40625,
                  129429.5390625,
                  74850.53125,
                  50960.30078125,
                  39343.98828125,
                  35004.765625,
                  33930.5859375,
                  37769.8046875,
                  52104.0,
                  73761.7265625,
                  130749.0390625,
                  266375.84375,
                  687634.625
                ]
              },
              "init": {
                "mode": "random_normal",
                "scale": 0.001966005664489474
              },
              "seeds": {
                "split_seed": 185051,
                "init_seed": 385051,
                "batch_seed": 285051
              }
            },
            "run_id": 9,
            "seed": 485051,
            "randomness": {
              "split_seed": 185051,
              "batch_seed": 285051,
              "init_seed": 385051
            }
          }
        ],
        "summary": {
          "n_runs": 10,
          "baseline_cent_sign": {
            "train_acc": {
              "mean": 0.5033333629369736,
              "std": 0.0041353095122821995,
              "min": 0.49687501788139343,
              "max": 0.5125000476837158
            },
            "val_acc": {
              "mean": 0.49083336293697355,
              "std": 0.01654120666936485,
              "min": 0.4541666805744171,
              "max": 0.5166667103767395
            }
          },
          "logreg": {
            "train_acc": {
              "mean": 0.543437534570694,
              "std": 0.00520937776428516,
              "min": 0.5354167222976685,
              "max": 0.5552083849906921
            },
            "val_acc": {
              "mean": 0.4825000286102295,
              "std": 0.026861275290636685,
              "min": 0.44166669249534607,
              "max": 0.5291666984558105
            },
            "train_nll": {
              "mean": 0.687504768371582,
              "std": 0.0012004273966665165,
              "min": 0.685382604598999,
              "max": 0.6890608668327332
            },
            "val_nll": {
              "mean": 0.7007121920585633,
              "std": 0.005643462702658122,
              "min": 0.6921589374542236,
              "max": 0.7114601731300354
            }
          }
        },
        "randomness_config": {
          "vary_split": true,
          "vary_batch_order": true,
          "vary_init": true
        }
      },
      "k": 0.8,
      "nps_target": 4096,
      "nps_match_mode": "offby1"
    },
    {
      "nps": 11585,
      "baseline_cent_sign": {
        "train_acc": 0.49375003576278687,
        "val_acc": 0.5250000357627869
      },
      "logreg": {
        "train": {
          "acc": 0.565625011920929,
          "nll": 0.6819421648979187
        },
        "val": {
          "acc": 0.5375000238418579,
          "nll": 0.7005130648612976
        },
        "params": {
          "w": [
            0.10134465247392654,
            -0.00274861603975296,
            -0.01801423542201519,
            0.020929280668497086,
            0.06924843788146973,
            0.08460578322410583,
            0.09395678341388702,
            0.0632161870598793,
            -0.010399962775409222,
            0.1405244916677475,
            0.011625876650214195,
            -0.06241614744067192,
            0.10114222019910812,
            0.17337267100811005,
            0.03468415513634682,
            -0.029706548899412155,
            0.03018294833600521
          ],
          "b": -0.0329715758562088
        },
        "standardize": {
          "mu": [
            4.44487190246582,
            16.89370346069336,
            -218.00595092773438,
            7624.16162109375,
            1910.0211181640625,
            1383.3834228515625,
            -822.00830078125,
            -67.08413696289062,
            -1123.9720458984375,
            -466.5673522949219,
            53.76040267944336,
            -552.2823486328125,
            215.87901306152344,
            947.5488891601562,
            -82.33265686035156,
            3304.906982421875,
            -9875.7294921875
          ],
          "sd": [
            297.4019470214844,
            306.2253723144531,
            4661.83642578125,
            250021.484375,
            94798.9375,
            45121.26171875,
            26596.77734375,
            18277.5703125,
            13684.52734375,
            12267.69140625,
            11823.984375,
            13865.3935546875,
            17859.8046875,
            26611.658203125,
            46264.0625,
            95413.0859375,
            264443.4375
          ]
        },
        "init": {
          "mode": "random_normal",
          "scale": 0.001966005664489474
        },
        "seeds": {
          "split_seed": 195042,
          "init_seed": 395042,
          "batch_seed": 295042
        }
      },
      "independent_runs": {
        "per_run": [
          {
            "baseline_cent_sign": {
              "train_acc": 0.49375003576278687,
              "val_acc": 0.5250000357627869
            },
            "logreg": {
              "train": {
                "acc": 0.565625011920929,
                "nll": 0.6819421648979187
              },
              "val": {
                "acc": 0.5375000238418579,
                "nll": 0.7005130648612976
              },
              "params": {
                "w": [
                  0.10134465247392654,
                  -0.00274861603975296,
                  -0.01801423542201519,
                  0.020929280668497086,
                  0.06924843788146973,
                  0.08460578322410583,
                  0.09395678341388702,
                  0.0632161870598793,
                  -0.010399962775409222,
                  0.1405244916677475,
                  0.011625876650214195,
                  -0.06241614744067192,
                  0.10114222019910812,
                  0.17337267100811005,
                  0.03468415513634682,
                  -0.029706548899412155,
                  0.03018294833600521
                ],
                "b": -0.0329715758562088
              },
              "standardize": {
                "mu": [
                  4.44487190246582,
                  16.89370346069336,
                  -218.00595092773438,
                  7624.16162109375,
                  1910.0211181640625,
                  1383.3834228515625,
                  -822.00830078125,
                  -67.08413696289062,
                  -1123.9720458984375,
                  -466.5673522949219,
                  53.76040267944336,
                  -552.2823486328125,
                  215.87901306152344,
                  947.5488891601562,
                  -82.33265686035156,
                  3304.906982421875,
                  -9875.7294921875
                ],
                "sd": [
                  297.4019470214844,
                  306.2253723144531,
                  4661.83642578125,
                  250021.484375,
                  94798.9375,
                  45121.26171875,
                  26596.77734375,
                  18277.5703125,
                  13684.52734375,
                  12267.69140625,
                  11823.984375,
                  13865.3935546875,
                  17859.8046875,
                  26611.658203125,
                  46264.0625,
                  95413.0859375,
                  264443.4375
                ]
              },
              "init": {
                "mode": "random_normal",
                "scale": 0.001966005664489474
              },
              "seeds": {
                "split_seed": 195042,
                "init_seed": 395042,
                "batch_seed": 295042
              }
            },
            "run_id": 0,
            "seed": 495042,
            "randomness": {
              "split_seed": 195042,
              "batch_seed": 295042,
              "init_seed": 395042
            }
          },
          {
            "baseline_cent_sign": {
              "train_acc": 0.48645836114883423,
              "val_acc": 0.5541666746139526
            },
            "logreg": {
              "train": {
                "acc": 0.5614583492279053,
                "nll": 0.6842025518417358
              },
              "val": {
                "acc": 0.5583333373069763,
                "nll": 0.6890690326690674
              },
              "params": {
                "w": [
                  0.10307687520980835,
                  -0.01087956316769123,
                  -0.03458484634757042,
                  0.0740034431219101,
                  0.05847431719303131,
                  0.05596218258142471,
                  0.040101006627082825,
                  0.04526824131608009,
                  0.007752102799713612,
                  0.12244918197393417,
                  -0.012618434615433216,
                  -0.06254158169031143,
                  0.08891758322715759,
                  0.15374472737312317,
                  0.026576688513159752,
                  0.031692102551460266,
                  0.05820959061384201
                ],
                "b": -0.0032333461567759514
              },
              "standardize": {
                "mu": [
                  1.1121572256088257,
                  4.879194259643555,
                  -159.29396057128906,
                  3112.137451171875,
                  387.94219970703125,
                  1553.2545166015625,
                  -427.5971374511719,
                  -131.79446411132812,
                  -927.9193725585938,
                  -550.566650390625,
                  383.7516174316406,
                  -561.439208984375,
                  552.4510498046875,
                  264.93963623046875,
                  -1210.901611328125,
                  5796.6201171875,
                  -7469.93359375
                ],
                "sd": [
                  296.433837890625,
                  306.23809814453125,
                  4776.36767578125,
                  251247.25,
                  95549.1015625,
                  44625.02734375,
                  26311.93359375,
                  17934.587890625,
                  13770.9013671875,
                  12354.9658203125,
                  11848.828125,
                  13752.767578125,
                  17466.306640625,
                  26764.77734375,
                  46417.66015625,
                  94309.484375,
                  261909.75
                ]
              },
              "init": {
                "mode": "random_normal",
                "scale": 0.001966005664489474
              },
              "seeds": {
                "split_seed": 195043,
                "init_seed": 395043,
                "batch_seed": 295043
              }
            },
            "run_id": 1,
            "seed": 495043,
            "randomness": {
              "split_seed": 195043,
              "batch_seed": 295043,
              "init_seed": 395043
            }
          },
          {
            "baseline_cent_sign": {
              "train_acc": 0.5083333849906921,
              "val_acc": 0.46666669845581055
            },
            "logreg": {
              "train": {
                "acc": 0.5802083611488342,
                "nll": 0.6821696758270264
              },
              "val": {
                "acc": 0.5041667222976685,
                "nll": 0.7067403793334961
              },
              "params": {
                "w": [
                  0.1080598309636116,
                  -0.039347343146800995,
                  0.03515526279807091,
                  0.03939135745167732,
                  0.06453970819711685,
                  0.03056873008608818,
                  0.036717552691698074,
                  0.03529133275151253,
                  0.015146302059292793,
                  0.10843539237976074,
                  0.06737423688173294,
                  -0.02314876765012741,
                  0.047656528651714325,
                  0.0967315286397934,
                  0.04572732001543045,
                  -0.00801575742661953,
                  -0.04375194385647774
                ],
                "b": 0.059226665645837784
              },
              "standardize": {
                "mu": [
                  7.891456604003906,
                  8.962301254272461,
                  -128.76170349121094,
                  7646.4951171875,
                  -858.74169921875,
                  1631.3929443359375,
                  -221.68438720703125,
                  105.18041229248047,
                  -901.8094482421875,
                  -523.8255004882812,
                  322.01129150390625,
                  -922.4790649414062,
                  58.38763427734375,
                  124.31660461425781,
                  141.2010040283203,
                  6697.7802734375,
                  -5831.89208984375
                ],
                "sd": [
                  292.8185119628906,
                  301.6767578125,
                  4602.859375,
                  254765.484375,
                  94637.2109375,
                  44985.62890625,
                  26563.810546875,
                  18294.19921875,
                  13835.6943359375,
                  12091.3076171875,
                  11889.072265625,
                  14076.9248046875,
                  17668.267578125,
                  26934.708984375,
                  45944.55078125,
                  95590.9765625,
                  266956.9375
                ]
              },
              "init": {
                "mode": "random_normal",
                "scale": 0.001966005664489474
              },
              "seeds": {
                "split_seed": 195044,
                "init_seed": 395044,
                "batch_seed": 295044
              }
            },
            "run_id": 2,
            "seed": 495044,
            "randomness": {
              "split_seed": 195044,
              "batch_seed": 295044,
              "init_seed": 395044
            }
          },
          {
            "baseline_cent_sign": {
              "train_acc": 0.49687501788139343,
              "val_acc": 0.5125000476837158
            },
            "logreg": {
              "train": {
                "acc": 0.5593750476837158,
                "nll": 0.6828938722610474
              },
              "val": {
                "acc": 0.4791666865348816,
                "nll": 0.6991931200027466
              },
              "params": {
                "w": [
                  0.13581082224845886,
                  -0.0055877575650811195,
                  -0.03726683184504509,
                  0.029132220894098282,
                  0.032859254628419876,
                  0.06553995609283447,
                  0.0009071049280464649,
                  0.06335106492042542,
                  -0.012946605682373047,
                  0.10659045726060867,
                  0.034028925001621246,
                  -0.029470669105648994,
                  0.1457315981388092,
                  0.10977686196565628,
                  0.07018708437681198,
                  -0.013339648023247719,
                  0.048031069338321686
                ],
                "b": -0.02214573137462139
              },
              "standardize": {
                "mu": [
                  0.11764323711395264,
                  17.432371139526367,
                  -171.28564453125,
                  7156.85986328125,
                  979.7401733398438,
                  1190.0009765625,
                  -677.5543212890625,
                  457.4631042480469,
                  -844.9759521484375,
                  -575.0725708007812,
                  210.95806884765625,
                  -534.4392700195312,
                  -55.918785095214844,
                  171.1758270263672,
                  127.98129272460938,
                  2174.525634765625,
                  -4329.7919921875
                ],
                "sd": [
                  295.7768249511719,
                  305.86395263671875,
                  4691.5390625,
                  254764.453125,
                  94288.9453125,
                  45103.8203125,
                  26172.544921875,
                  18114.361328125,
                  13480.87890625,
                  12253.65234375,
                  11707.4599609375,
                  14159.02734375,
                  18032.841796875,
                  25941.884765625,
                  46044.1015625,
                  93296.4296875,
                  261046.703125
                ]
              },
              "init": {
                "mode": "random_normal",
                "scale": 0.001966005664489474
              },
              "seeds": {
                "split_seed": 195045,
                "init_seed": 395045,
                "batch_seed": 295045
              }
            },
            "run_id": 3,
            "seed": 495045,
            "randomness": {
              "split_seed": 195045,
              "batch_seed": 295045,
              "init_seed": 395045
            }
          },
          {
            "baseline_cent_sign": {
              "train_acc": 0.5072916746139526,
              "val_acc": 0.47083336114883423
            },
            "logreg": {
              "train": {
                "acc": 0.5572916865348816,
                "nll": 0.6848694086074829
              },
              "val": {
                "acc": 0.5791667103767395,
                "nll": 0.6854670643806458
              },
              "params": {
                "w": [
                  0.06930026412010193,
                  -0.0081162815913558,
                  0.02716841734945774,
                  0.048247478902339935,
                  0.05613086372613907,
                  0.02536904253065586,
                  0.022335512563586235,
                  0.045946117490530014,
                  0.023551303893327713,
                  0.15795153379440308,
                  0.05187610536813736,
                  -0.07229762524366379,
                  0.09208457171916962,
                  0.1245058923959732,
                  0.05928687006235123,
                  -0.0029158832039684057,
                  0.059664286673069
                ],
                "b": -0.014318127185106277
              },
              "standardize": {
                "mu": [
                  -6.911196231842041,
                  15.49897575378418,
                  -243.11863708496094,
                  8069.78759765625,
                  -57.093231201171875,
                  921.8265380859375,
                  -396.81494140625,
                  4.089746475219727,
                  -640.9518432617188,
                  -474.4171142578125,
                  277.416015625,
                  -581.4540405273438,
                  -237.74111938476562,
                  -424.243408203125,
                  -237.49545288085938,
                  744.7315673828125,
                  1242.485107421875
                ],
                "sd": [
                  292.33050537109375,
                  301.2729797363281,
                  4775.86328125,
                  253706.140625,
                  94618.2734375,
                  44804.25,
                  26038.06640625,
                  18406.921875,
                  13672.5830078125,
                  12162.390625,
                  11500.7470703125,
                  14052.021484375,
                  17787.83984375,
                  26688.826171875,
                  46596.234375,
                  95941.3828125,
                  262051.09375
                ]
              },
              "init": {
                "mode": "random_normal",
                "scale": 0.001966005664489474
              },
              "seeds": {
                "split_seed": 195046,
                "init_seed": 395046,
                "batch_seed": 295046
              }
            },
            "run_id": 4,
            "seed": 495046,
            "randomness": {
              "split_seed": 195046,
              "batch_seed": 295046,
              "init_seed": 395046
            }
          },
          {
            "baseline_cent_sign": {
              "train_acc": 0.5,
              "val_acc": 0.5
            },
            "logreg": {
              "train": {
                "acc": 0.5510417222976685,
                "nll": 0.6816864609718323
              },
              "val": {
                "acc": 0.4750000238418579,
                "nll": 0.7030397057533264
              },
              "params": {
                "w": [
                  0.07458804547786713,
                  -0.036331694573163986,
                  -0.026586752384901047,
                  0.06501424312591553,
                  0.03557085990905762,
                  0.005231989081948996,
                  0.008169840089976788,
                  0.03675829991698265,
                  0.010430470108985901,
                  0.1025875061750412,
                  0.046220991760492325,
                  -0.0580587238073349,
                  0.01734311133623123,
                  0.13412228226661682,
                  0.0502137690782547,
                  0.05490390956401825,
                  0.06579098850488663
                ],
                "b": 0.015564567409455776
              },
              "standardize": {
                "mu": [
                  -6.201091766357422,
                  17.32480239868164,
                  -292.4399108886719,
                  6040.15771484375,
                  -684.2427978515625,
                  546.4911499023438,
                  -1022.7072143554688,
                  353.8108215332031,
                  -1071.9547119140625,
                  -519.8528442382812,
                  -61.2756233215332,
                  -952.7596435546875,
                  62.915042877197266,
                  488.3151550292969,
                  1617.9775390625,
                  2951.650634765625,
                  -7022.11279296875
                ],
                "sd": [
                  293.0696716308594,
                  307.9766845703125,
                  4718.3837890625,
                  253885.203125,
                  93254.1484375,
                  45081.9296875,
                  26213.73828125,
                  18174.220703125,
                  13607.025390625,
                  12062.572265625,
                  11782.6240234375,
                  14197.0888671875,
                  17622.48828125,
                  26581.080078125,
                  46588.0859375,
                  95057.2421875,
                  260401.9375
                ]
              },
              "init": {
                "mode": "random_normal",
                "scale": 0.001966005664489474
              },
              "seeds": {
                "split_seed": 195047,
                "init_seed": 395047,
                "batch_seed": 295047
              }
            },
            "run_id": 5,
            "seed": 495047,
            "randomness": {
              "split_seed": 195047,
              "batch_seed": 295047,
              "init_seed": 395047
            }
          },
          {
            "baseline_cent_sign": {
              "train_acc": 0.5072916746139526,
              "val_acc": 0.47083336114883423
            },
            "logreg": {
              "train": {
                "acc": 0.5552083849906921,
                "nll": 0.6871004104614258
              },
              "val": {
                "acc": 0.5,
                "nll": 0.697553277015686
              },
              "params": {
                "w": [
                  0.00876113772392273,
                  -0.05066795274615288,
                  0.01576957106590271,
                  0.042768824845552444,
                  0.024022240191698074,
                  0.019380295649170876,
                  0.04794769734144211,
                  -0.03617104887962341,
                  0.05587107688188553,
                  0.12285268306732178,
                  0.009815998375415802,
                  -0.09328126162290573,
                  0.07215264439582825,
                  0.0766097828745842,
                  -0.012865420430898666,
                  0.06977813690900803,
                  -0.005621874704957008
                ],
                "b": -0.047078199684619904
              },
              "standardize": {
                "mu": [
                  0.5958389639854431,
                  14.615074157714844,
                  -168.9810333251953,
                  5845.4501953125,
                  1099.9886474609375,
                  694.6309814453125,
                  -410.92626953125,
                  480.5752258300781,
                  -892.3456420898438,
                  -493.8955993652344,
                  243.92959594726562,
                  -926.2452392578125,
                  471.0260009765625,
                  287.4054260253906,
                  -259.3851623535156,
                  4268.2548828125,
                  -3178.407958984375
                ],
                "sd": [
                  300.2367858886719,
                  305.22955322265625,
                  4701.2236328125,
                  254621.96875,
                  94273.9609375,
                  44011.12109375,
                  26320.783203125,
                  18091.26171875,
                  13799.0654296875,
                  12247.6640625,
                  11717.4150390625,
                  14071.8515625,
                  17785.001953125,
                  26601.271484375,
                  45684.83984375,
                  95182.6953125,
                  261747.578125
                ]
              },
              "init": {
                "mode": "random_normal",
                "scale": 0.001966005664489474
              },
              "seeds": {
                "split_seed": 195048,
                "init_seed": 395048,
                "batch_seed": 295048
              }
            },
            "run_id": 6,
            "seed": 495048,
            "randomness": {
              "split_seed": 195048,
              "batch_seed": 295048,
              "init_seed": 395048
            }
          },
          {
            "baseline_cent_sign": {
              "train_acc": 0.4989583492279053,
              "val_acc": 0.5041667222976685
            },
            "logreg": {
              "train": {
                "acc": 0.5729166865348816,
                "nll": 0.6810782551765442
              },
              "val": {
                "acc": 0.5291666984558105,
                "nll": 0.7092252373695374
              },
              "params": {
                "w": [
                  0.11389631778001785,
                  0.04077593982219696,
                  -0.046908099204301834,
                  -0.01994742639362812,
                  0.09079020470380783,
                  0.05808038264513016,
                  0.054537106305360794,
                  0.021582454442977905,
                  0.054471295326948166,
                  0.12633100152015686,
                  0.0864640399813652,
                  -0.0905250534415245,
                  0.11902553588151932,
                  0.15187107026576996,
                  0.08586879819631577,
                  0.025330733507871628,
                  0.034516774117946625
                ],
                "b": 0.03402167931199074
              },
              "standardize": {
                "mu": [
                  -2.743896722793579,
                  10.968803405761719,
                  -176.13955688476562,
                  9524.876953125,
                  -2885.618408203125,
                  1467.026123046875,
                  26.894451141357422,
                  255.84014892578125,
                  -1022.7860107421875,
                  -400.59332275390625,
                  -39.80985641479492,
                  -808.0336303710938,
                  114.4065170288086,
                  328.925537109375,
                  -31.71784019470215,
                  5599.2939453125,
                  -14494.5732421875
                ],
                "sd": [
                  295.5308837890625,
                  303.2087097167969,
                  4743.14453125,
                  252676.203125,
                  94730.6796875,
                  44993.171875,
                  25889.146484375,
                  18288.490234375,
                  13570.0634765625,
                  12117.0419921875,
                  11893.283203125,
                  14000.9755859375,
                  17635.724609375,
                  27189.396484375,
                  44647.74609375,
                  92921.2890625,
                  259671.703125
                ]
              },
              "init": {
                "mode": "random_normal",
                "scale": 0.001966005664489474
              },
              "seeds": {
                "split_seed": 195049,
                "init_seed": 395049,
                "batch_seed": 295049
              }
            },
            "run_id": 7,
            "seed": 495049,
            "randomness": {
              "split_seed": 195049,
              "batch_seed": 295049,
              "init_seed": 395049
            }
          },
          {
            "baseline_cent_sign": {
              "train_acc": 0.5052083730697632,
              "val_acc": 0.4791666865348816
            },
            "logreg": {
              "train": {
                "acc": 0.5697916746139526,
                "nll": 0.681340754032135
              },
              "val": {
                "acc": 0.4833333492279053,
                "nll": 0.703924834728241
              },
              "params": {
                "w": [
                  0.08878104388713837,
                  0.02433331310749054,
                  -0.015170683152973652,
                  -0.0006996383890509605,
                  0.0340198278427124,
                  0.06363634765148163,
                  0.053252384066581726,
                  0.031580716371536255,
                  0.02366119809448719,
                  0.1349952071905136,
                  0.07314459979534149,
                  -0.026565833017230034,
                  0.11054643243551254,
                  0.10405773669481277,
                  0.03468858078122139,
                  0.011342807672917843,
                  0.01553958561271429
                ],
                "b": 0.044951628893613815
              },
              "standardize": {
                "mu": [
                  9.19963264465332,
                  13.112895011901855,
                  -186.0277099609375,
                  3692.39599609375,
                  -699.356689453125,
                  1535.5093994140625,
                  -544.5057373046875,
                  -117.22769165039062,
                  -885.3638916015625,
                  -669.2945556640625,
                  -142.28884887695312,
                  -819.6947021484375,
                  148.35072326660156,
                  357.5237121582031,
                  -369.9707946777344,
                  4208.97998046875,
                  -6868.86083984375
                ],
                "sd": [
                  298.60406494140625,
                  300.7187805175781,
                  4648.8037109375,
                  253139.171875,
                  93769.4609375,
                  45086.1875,
                  26548.107421875,
                  18136.90234375,
                  13707.7119140625,
                  12040.8349609375,
                  11940.970703125,
                  13946.0,
                  17595.048828125,
                  26574.0234375,
                  46100.6953125,
                  96557.8203125,
                  261372.125
                ]
              },
              "init": {
                "mode": "random_normal",
                "scale": 0.001966005664489474
              },
              "seeds": {
                "split_seed": 195050,
                "init_seed": 395050,
                "batch_seed": 295050
              }
            },
            "run_id": 8,
            "seed": 495050,
            "randomness": {
              "split_seed": 195050,
              "batch_seed": 295050,
              "init_seed": 395050
            }
          },
          {
            "baseline_cent_sign": {
              "train_acc": 0.5062500238418579,
              "val_acc": 0.4750000238418579
            },
            "logreg": {
              "train": {
                "acc": 0.5802083611488342,
                "nll": 0.6840705871582031
              },
              "val": {
                "acc": 0.491666704416275,
                "nll": 0.6918869614601135
              },
              "params": {
                "w": [
                  0.08718981593847275,
                  -0.06226491928100586,
                  -0.03142455965280533,
                  0.000525949988514185,
                  0.07760238647460938,
                  0.04048530012369156,
                  0.031603019684553146,
                  0.03524003177881241,
                  0.012810418382287025,
                  0.08807619661092758,
                  0.056979794055223465,
                  -0.05987076088786125,
                  0.09063491225242615,
                  0.15467719733715057,
                  0.01810971088707447,
                  -0.022128306329250336,
                  0.037787918001413345
                ],
                "b": 0.032219428569078445
              },
              "standardize": {
                "mu": [
                  3.8485236167907715,
                  21.280410766601562,
                  -238.4032745361328,
                  6209.08447265625,
                  -1171.033935546875,
                  1348.1085205078125,
                  -346.3869934082031,
                  513.9637451171875,
                  -749.4976196289062,
                  -616.5228271484375,
                  -105.69316864013672,
                  -918.2147827148438,
                  94.63469696044922,
                  436.9143981933594,
                  -828.1639404296875,
                  4819.92333984375,
                  -3068.165283203125
                ],
                "sd": [
                  293.583251953125,
                  304.19195556640625,
                  4742.3173828125,
                  253746.984375,
                  94786.0078125,
                  44785.4296875,
                  25921.681640625,
                  18004.046875,
                  13411.271484375,
                  12389.6123046875,
                  11849.2861328125,
                  14285.4521484375,
                  17618.150390625,
                  27076.92578125,
                  46956.76953125,
                  96617.9453125,
                  261737.640625
                ]
              },
              "init": {
                "mode": "random_normal",
                "scale": 0.001966005664489474
              },
              "seeds": {
                "split_seed": 195051,
                "init_seed": 395051,
                "batch_seed": 295051
              }
            },
            "run_id": 9,
            "seed": 495051,
            "randomness": {
              "split_seed": 195051,
              "batch_seed": 295051,
              "init_seed": 395051
            }
          }
        ],
        "summary": {
          "n_runs": 10,
          "baseline_cent_sign": {
            "train_acc": {
              "mean": 0.5010416895151139,
              "std": 0.006814761225954459,
              "min": 0.48645836114883423,
              "max": 0.5083333849906921
            },
            "val_acc": {
              "mean": 0.49583336114883425,
              "std": 0.02725904399266993,
              "min": 0.46666669845581055,
              "max": 0.5541666746139526
            }
          },
          "logreg": {
            "train_acc": {
              "mean": 0.5653125286102295,
              "std": 0.009705396352946554,
              "min": 0.5510417222976685,
              "max": 0.5802083611488342
            },
            "val_acc": {
              "mean": 0.5137500256299973,
              "std": 0.03385272619411094,
              "min": 0.4750000238418579,
              "max": 0.5791667103767395
            },
            "train_nll": {
              "mean": 0.6831354141235352,
              "std": 0.0018085428941558197,
              "min": 0.6810782551765442,
              "max": 0.6871004104614258
            },
            "val_nll": {
              "mean": 0.6986612677574158,
              "std": 0.007353055281452241,
              "min": 0.6854670643806458,
              "max": 0.7092252373695374
            }
          }
        },
        "randomness_config": {
          "vary_split": true,
          "vary_batch_order": true,
          "vary_init": true
        }
      },
      "k": 0.9,
      "nps_target": 11585,
      "nps_match_mode": "offby1"
    },
    {
      "nps": 32768,
      "baseline_cent_sign": {
        "train_acc": 0.4791666865348816,
        "val_acc": 0.46666669845581055
      },
      "logreg": {
        "train": {
          "acc": 0.5437500476837158,
          "nll": 0.6893152594566345
        },
        "val": {
          "acc": 0.46250003576278687,
          "nll": 0.7016330361366272
        },
        "params": {
          "w": [
            0.029523147270083427,
            -0.022512225434184074,
            -0.00776925403624773,
            -0.011661597527563572,
            -0.024403464049100876,
            0.0021492252126336098,
            0.07254979014396667,
            0.007117992267012596,
            -0.037466444075107574,
            0.0838334858417511,
            -0.01838843896985054,
            -0.06001811474561691,
            -0.0331323966383934,
            -0.04884124919772148,
            -0.006930123083293438,
            -0.044532954692840576,
            0.06279811263084412
          ],
          "b": -0.0502592995762825
        },
        "standardize": {
          "mu": [
            1.6011388301849365,
            7.385710716247559,
            -88.21940612792969,
            2726.060546875,
            1660.653076171875,
            -494.3218078613281,
            29.3070011138916,
            39.297569274902344,
            -131.4110107421875,
            48.32463073730469,
            196.1761932373047,
            82.4272689819336,
            -82.7631607055664,
            22.64960289001465,
            74.5406265258789,
            -1516.0482177734375,
            5655.09814453125
          ],
          "sd": [
            173.39927673339844,
            180.65609741210938,
            2607.6513671875,
            86163.5859375,
            32429.486328125,
            16110.5830078125,
            9154.345703125,
            6200.001953125,
            4662.232421875,
            4202.3720703125,
            4479.31298828125,
            4882.10302734375,
            6520.4921875,
            9600.451171875,
            15423.3740234375,
            33178.3984375,
            91939.671875
          ]
        },
        "init": {
          "mode": "random_normal",
          "scale": 0.001966005664489474
        },
        "seeds": {
          "split_seed": 205042,
          "init_seed": 405042,
          "batch_seed": 305042
        }
      },
      "independent_runs": {
        "per_run": [
          {
            "baseline_cent_sign": {
              "train_acc": 0.4791666865348816,
              "val_acc": 0.46666669845581055
            },
            "logreg": {
              "train": {
                "acc": 0.5437500476837158,
                "nll": 0.6893152594566345
              },
              "val": {
                "acc": 0.46250003576278687,
                "nll": 0.7016330361366272
              },
              "params": {
                "w": [
                  0.029523147270083427,
                  -0.022512225434184074,
                  -0.00776925403624773,
                  -0.011661597527563572,
                  -0.024403464049100876,
                  0.0021492252126336098,
                  0.07254979014396667,
                  0.007117992267012596,
                  -0.037466444075107574,
                  0.0838334858417511,
                  -0.01838843896985054,
                  -0.06001811474561691,
                  -0.0331323966383934,
                  -0.04884124919772148,
                  -0.006930123083293438,
                  -0.044532954692840576,
                  0.06279811263084412
                ],
                "b": -0.0502592995762825
              },
              "standardize": {
                "mu": [
                  1.6011388301849365,
                  7.385710716247559,
                  -88.21940612792969,
                  2726.060546875,
                  1660.653076171875,
                  -494.3218078613281,
                  29.3070011138916,
                  39.297569274902344,
                  -131.4110107421875,
                  48.32463073730469,
                  196.1761932373047,
                  82.4272689819336,
                  -82.7631607055664,
                  22.64960289001465,
                  74.5406265258789,
                  -1516.0482177734375,
                  5655.09814453125
                ],
                "sd": [
                  173.39927673339844,
                  180.65609741210938,
                  2607.6513671875,
                  86163.5859375,
                  32429.486328125,
                  16110.5830078125,
                  9154.345703125,
                  6200.001953125,
                  4662.232421875,
                  4202.3720703125,
                  4479.31298828125,
                  4882.10302734375,
                  6520.4921875,
                  9600.451171875,
                  15423.3740234375,
                  33178.3984375,
                  91939.671875
                ]
              },
              "init": {
                "mode": "random_normal",
                "scale": 0.001966005664489474
              },
              "seeds": {
                "split_seed": 205042,
                "init_seed": 405042,
                "batch_seed": 305042
              }
            },
            "run_id": 0,
            "seed": 505042,
            "randomness": {
              "split_seed": 205042,
              "batch_seed": 305042,
              "init_seed": 405042
            }
          },
          {
            "baseline_cent_sign": {
              "train_acc": 0.46666669845581055,
              "val_acc": 0.5166667103767395
            },
            "logreg": {
              "train": {
                "acc": 0.550000011920929,
                "nll": 0.687324583530426
              },
              "val": {
                "acc": 0.42916667461395264,
                "nll": 0.7024762630462646
              },
              "params": {
                "w": [
                  0.04401296377182007,
                  -0.020783474668860435,
                  -0.04944523796439171,
                  -0.05255698040127754,
                  -0.0026621418073773384,
                  0.0034568258561193943,
                  0.014036482200026512,
                  -0.03323930874466896,
                  -0.09946954250335693,
                  0.06154308840632439,
                  0.014819677919149399,
                  -0.004377203993499279,
                  -0.04178987443447113,
                  -0.03569922596216202,
                  0.02514556050300598,
                  -0.05678114667534828,
                  0.056255191564559937
                ],
                "b": 0.018262570723891258
              },
              "standardize": {
                "mu": [
                  3.6180896759033203,
                  7.928523063659668,
                  -128.89617919921875,
                  905.1133422851562,
                  1260.6265869140625,
                  -789.6556396484375,
                  -173.0487823486328,
                  133.11997985839844,
                  -111.99150848388672,
                  28.264373779296875,
                  220.64112854003906,
                  157.5167999267578,
                  -188.38906860351562,
                  103.45523834228516,
                  67.81556701660156,
                  -637.0072631835938,
                  3280.127685546875
                ],
                "sd": [
                  175.86398315429688,
                  179.10032653808594,
                  2578.64111328125,
                  85371.7890625,
                  32992.203125,
                  15883.845703125,
                  9085.462890625,
                  6099.26123046875,
                  4702.29638671875,
                  4171.37646484375,
                  4518.69287109375,
                  4933.27734375,
                  6457.74658203125,
                  9557.984375,
                  15594.560546875,
                  33594.65234375,
                  90310.1875
                ]
              },
              "init": {
                "mode": "random_normal",
                "scale": 0.001966005664489474
              },
              "seeds": {
                "split_seed": 205043,
                "init_seed": 405043,
                "batch_seed": 305043
              }
            },
            "run_id": 1,
            "seed": 505043,
            "randomness": {
              "split_seed": 205043,
              "batch_seed": 305043,
              "init_seed": 405043
            }
          },
          {
            "baseline_cent_sign": {
              "train_acc": 0.4833333492279053,
              "val_acc": 0.45000001788139343
            },
            "logreg": {
              "train": {
                "acc": 0.5479167103767395,
                "nll": 0.6890508532524109
              },
              "val": {
                "acc": 0.5041667222976685,
                "nll": 0.6978815793991089
              },
              "params": {
                "w": [
                  0.09487130492925644,
                  0.02721942588686943,
                  0.005024665966629982,
                  -0.07526055723428726,
                  0.016473373398184776,
                  -0.0281890407204628,
                  0.03558337688446045,
                  -0.027214134112000465,
                  -0.04167109727859497,
                  0.040931567549705505,
                  -0.019225990399718285,
                  -0.03259861096739769,
                  -0.02048683911561966,
                  0.013327376917004585,
                  0.036636337637901306,
                  -0.07637840509414673,
                  0.06691014021635056
                ],
                "b": -0.0180479995906353
              },
              "standardize": {
                "mu": [
                  0.7335818409919739,
                  12.338460922241211,
                  -87.88802337646484,
                  137.5869903564453,
                  1639.4932861328125,
                  -568.946533203125,
                  179.5867156982422,
                  11.235864639282227,
                  -17.845378875732422,
                  -19.7189998626709,
                  212.38458251953125,
                  28.996957778930664,
                  -347.0443420410156,
                  -162.95013427734375,
                  346.21343994140625,
                  -1007.6526489257812,
                  6783.04296875
                ],
                "sd": [
                  173.7198486328125,
                  179.6064910888672,
                  2600.285400390625,
                  85854.3203125,
                  33312.4453125,
                  15990.150390625,
                  8994.55078125,
                  6052.095703125,
                  4650.7431640625,
                  4184.291015625,
                  4515.5224609375,
                  4887.14111328125,
                  6412.6728515625,
                  9443.0009765625,
                  15667.4287109375,
                  33248.5703125,
                  88672.4140625
                ]
              },
              "init": {
                "mode": "random_normal",
                "scale": 0.001966005664489474
              },
              "seeds": {
                "split_seed": 205044,
                "init_seed": 405044,
                "batch_seed": 305044
              }
            },
            "run_id": 2,
            "seed": 505044,
            "randomness": {
              "split_seed": 205044,
              "batch_seed": 305044,
              "init_seed": 405044
            }
          },
          {
            "baseline_cent_sign": {
              "train_acc": 0.48854169249534607,
              "val_acc": 0.42916667461395264
            },
            "logreg": {
              "train": {
                "acc": 0.534375011920929,
                "nll": 0.6890637278556824
              },
              "val": {
                "acc": 0.5208333730697632,
                "nll": 0.6963146328926086
              },
              "params": {
                "w": [
                  0.0034795827232301235,
                  -0.01587219163775444,
                  0.013319452293217182,
                  -0.0615924708545208,
                  0.04188917204737663,
                  -0.04528389126062393,
                  0.060664281249046326,
                  -0.0012045390903949738,
                  -0.08097030967473984,
                  0.06524161249399185,
                  -0.028626643121242523,
                  -0.06447941064834595,
                  -0.023758430033922195,
                  0.032899338752031326,
                  0.029915273189544678,
                  -0.01391732506453991,
                  0.07451293617486954
                ],
                "b": -0.02898620069026947
              },
              "standardize": {
                "mu": [
                  -4.35187292098999,
                  9.182927131652832,
                  -42.49379348754883,
                  -809.2833862304688,
                  1602.0548095703125,
                  -763.3268432617188,
                  64.21598052978516,
                  191.98963928222656,
                  -71.86802673339844,
                  90.6021728515625,
                  237.8184051513672,
                  98.32657623291016,
                  -400.6526794433594,
                  50.829376220703125,
                  -46.13463592529297,
                  -1350.1669921875,
                  4092.69970703125
                ],
                "sd": [
                  175.11622619628906,
                  181.8053741455078,
                  2595.1279296875,
                  85768.953125,
                  33551.41015625,
                  15889.3681640625,
                  9193.9150390625,
                  5963.79296875,
                  4641.5263671875,
                  4184.32080078125,
                  4510.3935546875,
                  4848.455078125,
                  6436.00634765625,
                  9491.361328125,
                  15597.5107421875,
                  32993.65625,
                  92274.71875
                ]
              },
              "init": {
                "mode": "random_normal",
                "scale": 0.001966005664489474
              },
              "seeds": {
                "split_seed": 205045,
                "init_seed": 405045,
                "batch_seed": 305045
              }
            },
            "run_id": 3,
            "seed": 505045,
            "randomness": {
              "split_seed": 205045,
              "batch_seed": 305045,
              "init_seed": 405045
            }
          },
          {
            "baseline_cent_sign": {
              "train_acc": 0.48125001788139343,
              "val_acc": 0.4583333432674408
            },
            "logreg": {
              "train": {
                "acc": 0.5614583492279053,
                "nll": 0.6879073977470398
              },
              "val": {
                "acc": 0.4958333671092987,
                "nll": 0.6947317719459534
              },
              "params": {
                "w": [
                  0.029068848118185997,
                  0.023171087726950645,
                  -0.04566631466150284,
                  -0.04162145033478737,
                  0.030847549438476562,
                  -0.0671629086136818,
                  0.02947617694735527,
                  0.011627370491623878,
                  -0.06864798069000244,
                  0.08280446380376816,
                  -0.006625976879149675,
                  -0.007811747491359711,
                  -0.04079848900437355,
                  0.002769303508102894,
                  0.04642949253320694,
                  -0.05063435062766075,
                  0.08971855789422989
                ],
                "b": -0.015442634001374245
              },
              "standardize": {
                "mu": [
                  5.623015403747559,
                  7.238446235656738,
                  -72.77923583984375,
                  1219.8006591796875,
                  1980.002685546875,
                  -179.31961059570312,
                  -227.7342529296875,
                  216.09815979003906,
                  -94.40084838867188,
                  19.96527671813965,
                  180.7337646484375,
                  142.94740295410156,
                  -183.7900848388672,
                  -226.35726928710938,
                  556.7986450195312,
                  30.14948081970215,
                  3061.38330078125
                ],
                "sd": [
                  174.15975952148438,
                  178.6525115966797,
                  2608.308349609375,
                  85067.390625,
                  32821.18359375,
                  15860.34375,
                  8962.96875,
                  6099.25830078125,
                  4687.61669921875,
                  4223.3076171875,
                  4498.4541015625,
                  4898.20556640625,
                  6346.58154296875,
                  9584.4833984375,
                  15769.173828125,
                  32815.8203125,
                  90689.46875
                ]
              },
              "init": {
                "mode": "random_normal",
                "scale": 0.001966005664489474
              },
              "seeds": {
                "split_seed": 205046,
                "init_seed": 405046,
                "batch_seed": 305046
              }
            },
            "run_id": 4,
            "seed": 505046,
            "randomness": {
              "split_seed": 205046,
              "batch_seed": 305046,
              "init_seed": 405046
            }
          },
          {
            "baseline_cent_sign": {
              "train_acc": 0.48229169845581055,
              "val_acc": 0.4541666805744171
            },
            "logreg": {
              "train": {
                "acc": 0.5520833730697632,
                "nll": 0.6854618191719055
              },
              "val": {
                "acc": 0.44583335518836975,
                "nll": 0.7081347703933716
              },
              "params": {
                "w": [
                  0.03650444373488426,
                  -0.0060570561327040195,
                  -0.01646336540579796,
                  -0.09223365038633347,
                  -0.0012959111481904984,
                  -0.10269055515527725,
                  0.05908886715769768,
                  0.037955787032842636,
                  -0.06541571766138077,
                  0.07190833985805511,
                  0.023392759263515472,
                  -0.03297882154583931,
                  -0.01927555538713932,
                  0.012886026874184608,
                  0.039521168917417526,
                  -0.06973785907030106,
                  0.10576712340116501
                ],
                "b": 0.0016630231402814388
              },
              "standardize": {
                "mu": [
                  0.9221270680427551,
                  12.228886604309082,
                  -33.096656799316406,
                  232.8394012451172,
                  953.4267578125,
                  -169.5472412109375,
                  103.66460418701172,
                  67.61800384521484,
                  -72.48929595947266,
                  107.30054473876953,
                  277.4039306640625,
                  18.226863861083984,
                  -162.23919677734375,
                  -207.31834411621094,
                  145.0015869140625,
                  -1311.4376220703125,
                  3768.26220703125
                ],
                "sd": [
                  174.93777465820312,
                  181.06333923339844,
                  2615.964111328125,
                  86766.2109375,
                  32542.30078125,
                  15973.66796875,
                  9144.548828125,
                  6031.50048828125,
                  4644.78857421875,
                  4180.93359375,
                  4545.59716796875,
                  4838.04736328125,
                  6383.1748046875,
                  9506.96875,
                  15985.1259765625,
                  33437.00390625,
                  90366.65625
                ]
              },
              "init": {
                "mode": "random_normal",
                "scale": 0.001966005664489474
              },
              "seeds": {
                "split_seed": 205047,
                "init_seed": 405047,
                "batch_seed": 305047
              }
            },
            "run_id": 5,
            "seed": 505047,
            "randomness": {
              "split_seed": 205047,
              "batch_seed": 305047,
              "init_seed": 405047
            }
          },
          {
            "baseline_cent_sign": {
              "train_acc": 0.47083336114883423,
              "val_acc": 0.5
            },
            "logreg": {
              "train": {
                "acc": 0.5479167103767395,
                "nll": 0.6873733997344971
              },
              "val": {
                "acc": 0.42500001192092896,
                "nll": 0.7123199701309204
              },
              "params": {
                "w": [
                  -0.020322250202298164,
                  0.00521833635866642,
                  -0.06153465807437897,
                  -0.02492433600127697,
                  -0.08434709161520004,
                  -0.03823975846171379,
                  -0.02152218110859394,
                  0.0675235167145729,
                  -0.04284226894378662,
                  0.021792253479361534,
                  -0.008620287291705608,
                  -0.005834225565195084,
                  -0.011946198530495167,
                  -0.01280240248888731,
                  0.005996564868837595,
                  -0.08578319847583771,
                  0.05341483652591705
                ],
                "b": 0.025737276300787926
              },
              "standardize": {
                "mu": [
                  0.6362711787223816,
                  6.46759557723999,
                  -95.43717956542969,
                  -46.35130310058594,
                  1689.77587890625,
                  40.65571594238281,
                  123.68560028076172,
                  68.376220703125,
                  -88.12992858886719,
                  63.95621109008789,
                  130.55918884277344,
                  237.91748046875,
                  -169.45570373535156,
                  -342.7046813964844,
                  220.35386657714844,
                  -1106.6773681640625,
                  4900.19921875
                ],
                "sd": [
                  175.4920196533203,
                  178.78219604492188,
                  2569.64208984375,
                  85852.34375,
                  32919.65234375,
                  16195.4384765625,
                  9127.55078125,
                  5999.30810546875,
                  4670.8994140625,
                  4196.560546875,
                  4451.53564453125,
                  4932.51611328125,
                  6350.28369140625,
                  9547.2958984375,
                  15735.6884765625,
                  33591.828125,
                  90720.796875
                ]
              },
              "init": {
                "mode": "random_normal",
                "scale": 0.001966005664489474
              },
              "seeds": {
                "split_seed": 205048,
                "init_seed": 405048,
                "batch_seed": 305048
              }
            },
            "run_id": 6,
            "seed": 505048,
            "randomness": {
              "split_seed": 205048,
              "batch_seed": 305048,
              "init_seed": 405048
            }
          },
          {
            "baseline_cent_sign": {
              "train_acc": 0.4854166805744171,
              "val_acc": 0.44166669249534607
            },
            "logreg": {
              "train": {
                "acc": 0.5218750238418579,
                "nll": 0.6906245946884155
              },
              "val": {
                "acc": 0.5875000357627869,
                "nll": 0.6878868937492371
              },
              "params": {
                "w": [
                  -0.0017209501238539815,
                  -0.019994286820292473,
                  -0.015145603567361832,
                  -0.02327200211584568,
                  0.027353454381227493,
                  -0.04160567745566368,
                  0.00831031147390604,
                  0.035971805453300476,
                  -0.04952016472816467,
                  0.017192047089338303,
                  0.010335160419344902,
                  0.004458354786038399,
                  -0.030744101852178574,
                  -0.006196199916303158,
                  0.07526742666959763,
                  -0.08131219446659088,
                  0.08025557547807693
                ],
                "b": -0.013111846521496773
              },
              "standardize": {
                "mu": [
                  -2.2501518726348877,
                  10.080235481262207,
                  -73.88751983642578,
                  3001.7626953125,
                  1150.8065185546875,
                  -588.126220703125,
                  19.459896087646484,
                  209.12351989746094,
                  -82.3340072631836,
                  94.13469696044922,
                  186.2433319091797,
                  16.121131896972656,
                  -135.9198455810547,
                  -78.80067443847656,
                  278.4742431640625,
                  -1462.633056640625,
                  1662.1119384765625
                ],
                "sd": [
                  177.93020629882812,
                  179.35975646972656,
                  2549.631103515625,
                  87371.9609375,
                  32296.734375,
                  15949.99609375,
                  9165.412109375,
                  6204.35205078125,
                  4644.93017578125,
                  4140.91357421875,
                  4396.61083984375,
                  4929.9052734375,
                  6444.11865234375,
                  9528.36328125,
                  15603.9375,
                  33671.84375,
                  89852.2109375
                ]
              },
              "init": {
                "mode": "random_normal",
                "scale": 0.001966005664489474
              },
              "seeds": {
                "split_seed": 205049,
                "init_seed": 405049,
                "batch_seed": 305049
              }
            },
            "run_id": 7,
            "seed": 505049,
            "randomness": {
              "split_seed": 205049,
              "batch_seed": 305049,
              "init_seed": 405049
            }
          },
          {
            "baseline_cent_sign": {
              "train_acc": 0.48750001192092896,
              "val_acc": 0.4333333671092987
            },
            "logreg": {
              "train": {
                "acc": 0.5489583611488342,
                "nll": 0.686920166015625
              },
              "val": {
                "acc": 0.4833333492279053,
                "nll": 0.7054456472396851
              },
              "params": {
                "w": [
                  0.054253824055194855,
                  -0.006291504483669996,
                  -0.01050595287233591,
                  -0.06055377796292305,
                  0.05490235239267349,
                  -0.08513996005058289,
                  -0.0343763530254364,
                  0.002439869102090597,
                  -0.07650191336870193,
                  0.06190447509288788,
                  -0.02020181342959404,
                  0.0009747042786329985,
                  -0.045347537845373154,
                  -0.05272849649190903,
                  0.0698281079530716,
                  -0.022772163152694702,
                  0.07938074320554733
                ],
                "b": -0.01608063280582428
              },
              "standardize": {
                "mu": [
                  -1.7180662155151367,
                  8.046053886413574,
                  -63.62251281738281,
                  2222.3037109375,
                  1603.867431640625,
                  -562.0317993164062,
                  189.11428833007812,
                  149.99822998046875,
                  -172.11862182617188,
                  35.165435791015625,
                  259.5368347167969,
                  170.0777130126953,
                  -160.76358032226562,
                  -75.65762329101562,
                  109.28018188476562,
                  -784.24267578125,
                  4319.38671875
                ],
