{
  "feature_type": "hamming_rr_ii",
  "alpha": "half_ones_leading",
  "setup": {
    "n": 10,
    "channel_type": "thermal",
    "strength": 0.05,
    "run_name": "n10_thermal_p0p05_fsfe10419a68ae4e9e_nps2ff4adc42abd1072"
  },
  "source": {
    "run_path": "/gpfs/home1/ypatel/data1/shadow-qml-ml/feat_data_all/feat_data/exp_s1_features_hamming_rr_ii_fsfe10419a68ae4e9e_fixed_alpha_half_ones_leading_fixed_y_all_zeros_q_5_14/runs/n10_thermal_p0p05_fsfe10419a68ae4e9e_nps2ff4adc42abd1072",
    "dataset_ref": "/gpfs/home1/ypatel/data1/shadow-qml-ml/feat_data_all/feat_data/exp_s1_features_hamming_rr_ii_fsfe10419a68ae4e9e_fixed_alpha_half_ones_leading_fixed_y_all_zeros_q_5_14/datasets/dataset_754cbc7f8a85a740.npz"
  },
  "train_config": {
    "val_frac": 0.2,
    "batch_size": 128,
    "epochs": 180,
    "lr": 0.009739828014781909,
    "l2": 0.0003110860885177623,
    "n_independent_runs": 10,
    "init_mode": "random_normal",
    "init_scale": 0.0028569424932669363,
    "vary_split": true,
    "vary_batch_order": true,
    "vary_init": true
  },
  "k_grid_requested": [
    0.8,
    0.9,
    1.0,
    1.1,
    1.2,
    1.3,
    1.4,
    1.5,
    1.6,
    1.7,
    1.8,
    1.9,
    2.0,
    2.1,
    2.2,
    2.3,
    2.4
  ],
  "k_match_mode": "offby1",
  "k_nearest_max_abs_delta": 1,
  "per_nps_selected": [
    {
      "nps": 256,
      "baseline_cent_sign": {
        "train_acc": 0.5177083611488342,
        "val_acc": 0.46666669845581055
      },
      "logreg": {
        "train": {
          "acc": 0.5604166984558105,
          "nll": 0.6862636804580688
        },
        "val": {
          "acc": 0.5333333611488342,
          "nll": 0.6955103874206543
        },
        "params": {
          "w": [
            -0.006759230047464371,
            0.043068937957286835,
            0.02912309020757675,
            -0.012276506051421165,
            -0.01279702503234148,
            0.02153358981013298,
            -0.013917737640440464,
            -0.01468470599502325,
            -0.06277281790971756,
            0.020614076405763626,
            0.0003731236793100834,
            0.017899924889206886,
            -0.008663935586810112,
            0.011795436032116413,
            0.031229866668581963,
            0.015564991161227226,
            -0.03779067099094391,
            0.04538772627711296,
            -0.012153448536992073,
            0.04470507800579071,
            -0.013723684474825859
          ],
          "b": -0.019397972151637077
        },
        "standardize": {
          "mu": [
            2.0683600902557373,
            -2.996084690093994,
            4.362970352172852,
            -6.254693984985352,
            -90.9265365600586,
            -21.17109489440918,
            -15.376517295837402,
            3.9228150844573975,
            63.31810760498047,
            60.447357177734375,
            76.39617156982422,
            -455.61761474609375,
            -11.945149421691895,
            -24.341232299804688,
            10.12851619720459,
            14.770837783813477,
            -65.62680053710938,
            -1.6319164037704468,
            -21.133886337280273,
            -76.85101318359375,
            166.81703186035156
          ],
          "sd": [
            65.91439819335938,
            62.135807037353516,
            125.32201385498047,
            2300.805419921875,
            1337.54638671875,
            1061.8302001953125,
            947.7486572265625,
            1071.997802734375,
            1520.59423828125,
            2309.756591796875,
            4572.86962890625,
            11702.0146484375,
            2265.36474609375,
            1279.602294921875,
            1031.1671142578125,
            1002.055908203125,
            1123.06884765625,
            1509.1329345703125,
            2408.863037109375,
            4665.0908203125,
            12096.1220703125
          ]
        },
        "init": {
          "mode": "random_normal",
          "scale": 0.0028569424932669363
        },
        "seeds": {
          "split_seed": 673042,
          "init_seed": 873042,
          "batch_seed": 773042
        }
      },
      "independent_runs": {
        "per_run": [
          {
            "baseline_cent_sign": {
              "train_acc": 0.5177083611488342,
              "val_acc": 0.46666669845581055
            },
            "logreg": {
              "train": {
                "acc": 0.5604166984558105,
                "nll": 0.6862636804580688
              },
              "val": {
                "acc": 0.5333333611488342,
                "nll": 0.6955103874206543
              },
              "params": {
                "w": [
                  -0.006759230047464371,
                  0.043068937957286835,
                  0.02912309020757675,
                  -0.012276506051421165,
                  -0.01279702503234148,
                  0.02153358981013298,
                  -0.013917737640440464,
                  -0.01468470599502325,
                  -0.06277281790971756,
                  0.020614076405763626,
                  0.0003731236793100834,
                  0.017899924889206886,
                  -0.008663935586810112,
                  0.011795436032116413,
                  0.031229866668581963,
                  0.015564991161227226,
                  -0.03779067099094391,
                  0.04538772627711296,
                  -0.012153448536992073,
                  0.04470507800579071,
                  -0.013723684474825859
                ],
                "b": -0.019397972151637077
              },
              "standardize": {
                "mu": [
                  2.0683600902557373,
                  -2.996084690093994,
                  4.362970352172852,
                  -6.254693984985352,
                  -90.9265365600586,
                  -21.17109489440918,
                  -15.376517295837402,
                  3.9228150844573975,
                  63.31810760498047,
                  60.447357177734375,
                  76.39617156982422,
                  -455.61761474609375,
                  -11.945149421691895,
                  -24.341232299804688,
                  10.12851619720459,
                  14.770837783813477,
                  -65.62680053710938,
                  -1.6319164037704468,
                  -21.133886337280273,
                  -76.85101318359375,
                  166.81703186035156
                ],
                "sd": [
                  65.91439819335938,
                  62.135807037353516,
                  125.32201385498047,
                  2300.805419921875,
                  1337.54638671875,
                  1061.8302001953125,
                  947.7486572265625,
                  1071.997802734375,
                  1520.59423828125,
                  2309.756591796875,
                  4572.86962890625,
                  11702.0146484375,
                  2265.36474609375,
                  1279.602294921875,
                  1031.1671142578125,
                  1002.055908203125,
                  1123.06884765625,
                  1509.1329345703125,
                  2408.863037109375,
                  4665.0908203125,
                  12096.1220703125
                ]
              },
              "init": {
                "mode": "random_normal",
                "scale": 0.0028569424932669363
              },
              "seeds": {
                "split_seed": 673042,
                "init_seed": 873042,
                "batch_seed": 773042
              }
            },
            "run_id": 0,
            "seed": 973042,
            "randomness": {
              "split_seed": 673042,
              "batch_seed": 773042,
              "init_seed": 873042
            }
          },
          {
            "baseline_cent_sign": {
              "train_acc": 0.4958333671092987,
              "val_acc": 0.5541666746139526
            },
            "logreg": {
              "train": {
                "acc": 0.5479167103767395,
                "nll": 0.6878966093063354
              },
              "val": {
                "acc": 0.4958333671092987,
                "nll": 0.6943572163581848
              },
              "params": {
                "w": [
                  -0.011135740205645561,
                  0.06016358733177185,
                  -0.001418661791831255,
                  -0.04115624725818634,
                  -0.028838250786066055,
                  0.04369489103555679,
                  0.017643040046095848,
                  -0.018436389043927193,
                  0.0010790093801915646,
                  0.007049349136650562,
                  -0.011727800592780113,
                  -0.011472717858850956,
                  0.009491413831710815,
                  0.0016174486372619867,
                  -0.017074819654226303,
                  0.015106339938938618,
                  -0.017960352823138237,
                  0.0398714542388916,
                  -0.021068641915917397,
                  0.03701719641685486,
                  -0.04989299178123474
                ],
                "b": 0.000758569804020226
              },
              "standardize": {
                "mu": [
                  1.6081990003585815,
                  0.25132453441619873,
                  3.916836977005005,
                  49.44693374633789,
                  -98.18383026123047,
                  0.47208863496780396,
                  -20.825462341308594,
                  -4.501697063446045,
                  109.06619262695312,
                  119.60591125488281,
                  4.366060733795166,
                  -561.849365234375,
                  -18.893959045410156,
                  -7.608365058898926,
                  28.422157287597656,
                  1.4122966527938843,
                  -25.734668731689453,
                  40.81123352050781,
                  -86.81575012207031,
                  -160.98480224609375,
                  714.8541870117188
                ],
                "sd": [
                  65.22464752197266,
                  62.511070251464844,
                  127.58651733398438,
                  2342.806396484375,
                  1301.095947265625,
                  1043.5047607421875,
                  976.5822143554688,
                  1078.27490234375,
                  1530.262939453125,
                  2308.468994140625,
                  4485.96484375,
                  11631.9541015625,
                  2277.43994140625,
                  1289.692626953125,
                  1046.2747802734375,
                  1007.8436279296875,
                  1106.330810546875,
                  1522.1595458984375,
                  2430.8603515625,
                  4589.45947265625,
                  11542.693359375
                ]
              },
              "init": {
                "mode": "random_normal",
                "scale": 0.0028569424932669363
              },
              "seeds": {
                "split_seed": 673043,
                "init_seed": 873043,
                "batch_seed": 773043
              }
            },
            "run_id": 1,
            "seed": 973043,
            "randomness": {
              "split_seed": 673043,
              "batch_seed": 773043,
              "init_seed": 873043
            }
          },
          {
            "baseline_cent_sign": {
              "train_acc": 0.5093750357627869,
              "val_acc": 0.5
            },
            "logreg": {
              "train": {
                "acc": 0.5479167103767395,
                "nll": 0.6878157258033752
              },
              "val": {
                "acc": 0.5291666984558105,
                "nll": 0.6920164227485657
              },
              "params": {
                "w": [
                  -0.011307921260595322,
                  0.024294506758451462,
                  0.030038613826036453,
                  -0.014142542146146297,
                  -0.03354591503739357,
                  0.01867399737238884,
                  0.029576929286122322,
                  -0.04071309417486191,
                  -0.02275390923023224,
                  0.012133616022765636,
                  -0.02535882592201233,
                  0.020695000886917114,
                  -0.01848040521144867,
                  0.0077683767303824425,
                  0.015822522342205048,
                  0.016987694427371025,
                  -0.03248508647084236,
                  0.029924936592578888,
                  -0.020275086164474487,
                  0.039462946355342865,
                  -0.0062171174213290215
                ],
                "b": -0.008190890774130821
              },
              "standardize": {
                "mu": [
                  2.8516197204589844,
                  -2.1977486610412598,
                  2.131021022796631,
                  2.9452028274536133,
                  -68.75660705566406,
                  -21.817888259887695,
                  -3.517998456954956,
                  0.04947509989142418,
                  51.198726654052734,
                  5.333142280578613,
                  63.231075286865234,
                  -467.0494384765625,
                  23.55600357055664,
                  -30.60369110107422,
                  24.514022827148438,
                  14.722135543823242,
                  -24.886871337890625,
                  -17.16036033630371,
                  -23.126876831054688,
                  -188.73243713378906,
                  411.001220703125
                ],
                "sd": [
                  64.27098846435547,
                  63.04165267944336,
                  124.9045639038086,
                  2331.9267578125,
                  1324.3482666015625,
                  1068.5433349609375,
                  960.1804809570312,
                  1057.9034423828125,
                  1524.6029052734375,
                  2335.094970703125,
                  4529.96630859375,
                  11428.802734375,
                  2292.33642578125,
                  1264.313232421875,
                  1037.8060302734375,
                  1029.2032470703125,
                  1113.44287109375,
                  1505.2265625,
                  2390.2275390625,
                  4606.42236328125,
                  11974.236328125
                ]
              },
              "init": {
                "mode": "random_normal",
                "scale": 0.0028569424932669363
              },
              "seeds": {
                "split_seed": 673044,
                "init_seed": 873044,
                "batch_seed": 773044
              }
            },
            "run_id": 2,
            "seed": 973044,
            "randomness": {
              "split_seed": 673044,
              "batch_seed": 773044,
              "init_seed": 873044
            }
          },
          {
            "baseline_cent_sign": {
              "train_acc": 0.5052083730697632,
              "val_acc": 0.5166667103767395
            },
            "logreg": {
              "train": {
                "acc": 0.5364583730697632,
                "nll": 0.6842246651649475
              },
              "val": {
                "acc": 0.5541666746139526,
                "nll": 0.6900526881217957
              },
              "params": {
                "w": [
                  0.07882627099752426,
                  0.08469558507204056,
                  0.02676272764801979,
                  -0.11235137283802032,
                  -0.01822773367166519,
                  0.04568440467119217,
                  0.03946639597415924,
                  -0.03945942223072052,
                  -0.13772644102573395,
                  0.037938885390758514,
                  -0.015621704049408436,
                  0.04671371355652809,
                  -0.016966599971055984,
                  0.01644700951874256,
                  -0.00037359882844612,
                  0.04707106947898865,
                  -0.08102046698331833,
                  0.05321041867136955,
                  -0.03322988748550415,
                  0.08542416244745255,
                  -0.06453781574964523
                ],
                "b": -0.0036934346426278353
              },
              "standardize": {
                "mu": [
                  3.94014048576355,
                  -1.1193042993545532,
                  4.049091815948486,
                  -0.3532308042049408,
                  -57.097145080566406,
                  12.258212089538574,
                  -15.078689575195312,
                  0.7970459461212158,
                  31.390573501586914,
                  22.145753860473633,
                  -15.992430686950684,
                  -427.3873596191406,
                  14.717659950256348,
                  31.945980072021484,
                  3.2605929374694824,
                  31.910037994384766,
                  -30.956653594970703,
                  41.81364059448242,
                  -74.9289321899414,
                  -330.32257080078125,
                  107.68358612060547
                ],
                "sd": [
                  65.1544418334961,
                  62.28076934814453,
                  127.37422180175781,
                  2297.503662109375,
                  1298.437255859375,
                  1033.1903076171875,
                  965.6201782226562,
                  1086.188232421875,
                  1515.603759765625,
                  2357.8818359375,
                  4447.05078125,
                  11594.935546875,
                  2274.514892578125,
                  1271.6373291015625,
                  1032.5986328125,
                  1023.3408203125,
                  1090.5096435546875,
                  1521.9918212890625,
                  2395.956298828125,
                  4669.61376953125,
                  11871.9638671875
                ]
              },
              "init": {
                "mode": "random_normal",
                "scale": 0.0028569424932669363
              },
              "seeds": {
                "split_seed": 673045,
                "init_seed": 873045,
                "batch_seed": 773045
              }
            },
            "run_id": 3,
            "seed": 973045,
            "randomness": {
              "split_seed": 673045,
              "batch_seed": 773045,
              "init_seed": 873045
            }
          },
          {
            "baseline_cent_sign": {
              "train_acc": 0.5072916746139526,
              "val_acc": 0.5083333849906921
            },
            "logreg": {
              "train": {
                "acc": 0.5572916865348816,
                "nll": 0.6867246627807617
              },
              "val": {
                "acc": 0.4958333671092987,
                "nll": 0.6976770162582397
              },
              "params": {
                "w": [
                  0.04734157770872116,
                  0.05600634962320328,
                  0.02941913716495037,
                  -0.025614649057388306,
                  0.005244544707238674,
                  -0.01719420775771141,
                  0.016074733808636665,
                  -0.03721955046057701,
                  -0.044345319271087646,
                  0.028404761105775833,
                  -0.043569982051849365,
                  0.002489977516233921,
                  -0.03557801619172096,
                  -0.024922296404838562,
                  -0.0020945610012859106,
                  -0.007490653079003096,
                  -0.01621083728969097,
                  0.039796389639377594,
                  -0.017260421067476273,
                  0.026819318532943726,
                  0.019332878291606903
                ],
                "b": 0.009650803171098232
              },
              "standardize": {
                "mu": [
                  0.7597641348838806,
                  -0.9345279335975647,
                  6.833443641662598,
                  -14.327738761901855,
                  -93.48705291748047,
                  -37.691707611083984,
                  4.904486179351807,
                  30.491973876953125,
                  58.27528381347656,
                  28.75056266784668,
                  -74.25582885742188,
                  -565.333740234375,
                  19.26919937133789,
                  10.654071807861328,
                  7.048844814300537,
                  -7.632134914398193,
                  -42.28160095214844,
                  20.668132781982422,
                  -53.79642868041992,
                  -235.0062713623047,
                  416.2337646484375
                ],
                "sd": [
                  64.49472045898438,
                  63.40642166137695,
                  125.73714447021484,
                  2339.38671875,
                  1305.7093505859375,
                  1065.2762451171875,
                  950.91162109375,
                  1087.7891845703125,
                  1481.6407470703125,
                  2322.595703125,
                  4430.35791015625,
                  11738.84765625,
                  2258.47607421875,
                  1279.8865966796875,
                  1035.2747802734375,
                  1005.204345703125,
                  1105.061279296875,
                  1503.3770751953125,
                  2404.776123046875,
                  4659.8095703125,
                  11986.197265625
                ]
              },
              "init": {
                "mode": "random_normal",
                "scale": 0.0028569424932669363
              },
              "seeds": {
                "split_seed": 673046,
                "init_seed": 873046,
                "batch_seed": 773046
              }
            },
            "run_id": 4,
            "seed": 973046,
            "randomness": {
              "split_seed": 673046,
              "batch_seed": 773046,
              "init_seed": 873046
            }
          },
          {
            "baseline_cent_sign": {
              "train_acc": 0.4958333671092987,
              "val_acc": 0.5541666746139526
            },
            "logreg": {
              "train": {
                "acc": 0.5479167103767395,
                "nll": 0.6853200197219849
              },
              "val": {
                "acc": 0.550000011920929,
                "nll": 0.6827077865600586
              },
              "params": {
                "w": [
                  0.024127596989274025,
                  0.04105957970023155,
                  0.0035660038702189922,
                  -0.06338266283273697,
                  -0.08459615707397461,
                  0.025227535516023636,
                  0.00869669672101736,
                  -0.0666414201259613,
                  -0.14499163627624512,
                  0.04370611160993576,
                  -0.02361190877854824,
                  -0.015102925710380077,
                  -0.014345193281769753,
                  0.02493848279118538,
                  0.029687944799661636,
                  0.05342501029372215,
                  -0.0031064534559845924,
                  0.08746065944433212,
                  -0.03977922722697258,
                  0.06632526963949203,
                  -0.05464279651641846
                ],
                "b": 0.017585981637239456
              },
              "standardize": {
                "mu": [
                  2.424726724624634,
                  -0.1697617918252945,
                  1.3537219762802124,
                  -1.9308472871780396,
                  -81.66468048095703,
                  -20.800981521606445,
                  17.75351333618164,
                  24.3255672454834,
                  42.9610481262207,
                  37.11964797973633,
                  20.102954864501953,
                  -361.4019775390625,
                  13.109424591064453,
                  -30.76905632019043,
                  8.56015682220459,
                  -4.581641674041748,
                  -53.47637939453125,
                  51.875240325927734,
                  -36.255828857421875,
                  -146.0209503173828,
                  299.1356201171875
                ],
                "sd": [
                  65.19197082519531,
                  62.621131896972656,
                  126.36900329589844,
                  2268.305419921875,
                  1313.79345703125,
                  1039.326171875,
                  966.8786010742188,
                  1081.288818359375,
                  1497.5498046875,
                  2299.45068359375,
                  4522.81201171875,
                  11795.7255859375,
                  2261.018798828125,
                  1289.0018310546875,
                  1029.0904541015625,
                  1005.6422119140625,
                  1102.6036376953125,
                  1514.2725830078125,
                  2379.26611328125,
                  4649.5859375,
                  12093.0791015625
                ]
              },
              "init": {
                "mode": "random_normal",
                "scale": 0.0028569424932669363
              },
              "seeds": {
                "split_seed": 673047,
                "init_seed": 873047,
                "batch_seed": 773047
              }
            },
            "run_id": 5,
            "seed": 973047,
            "randomness": {
              "split_seed": 673047,
              "batch_seed": 773047,
              "init_seed": 873047
            }
          },
          {
            "baseline_cent_sign": {
              "train_acc": 0.515625,
              "val_acc": 0.4750000238418579
            },
            "logreg": {
              "train": {
                "acc": 0.550000011920929,
                "nll": 0.6865859031677246
              },
              "val": {
                "acc": 0.5208333730697632,
                "nll": 0.6943903565406799
              },
              "params": {
                "w": [
                  0.00847869273275137,
                  0.03524170443415642,
                  0.05262080579996109,
                  -0.013252911157906055,
                  -0.04866742715239525,
                  0.005723205395042896,
                  0.009832736104726791,
                  -0.018942134454846382,
                  -0.03885291889309883,
                  0.022031307220458984,
                  -0.02897501550614834,
                  0.009491823613643646,
                  0.00407016184180975,
                  0.02041604183614254,
                  -0.03448512405157089,
                  0.05692025646567345,
                  -0.040467146784067154,
                  0.04141829535365105,
                  -0.01940741389989853,
                  0.032828446477651596,
                  -0.046695221215486526
                ],
                "b": -0.029265115037560463
              },
              "standardize": {
                "mu": [
                  2.9608983993530273,
                  -2.750448226928711,
                  3.1132752895355225,
                  2.8000123500823975,
                  -37.67939376831055,
                  -16.947216033935547,
                  -6.57796049118042,
                  -13.46860408782959,
                  55.40105438232422,
                  -17.40884780883789,
                  -0.6583455801010132,
                  -329.8397521972656,
                  14.595976829528809,
                  -16.259140014648438,
                  3.7869956493377686,
                  13.869973182678223,
                  -22.53700828552246,
                  34.67250442504883,
                  -37.878780364990234,
                  -100.18131256103516,
                  370.8922119140625
                ],
                "sd": [
                  65.00267791748047,
                  62.87391662597656,
                  123.2951889038086,
                  2258.47021484375,
                  1312.287353515625,
                  1049.1278076171875,
                  952.1672973632812,
                  1088.54736328125,
                  1496.47119140625,
                  2329.7119140625,
                  4482.76953125,
                  11351.82421875,
                  2222.8662109375,
                  1294.4559326171875,
                  1020.5776977539062,
                  1003.4592895507812,
                  1089.7218017578125,
                  1525.3760986328125,
                  2373.569091796875,
                  4663.43994140625,
                  11973.5791015625
                ]
              },
              "init": {
                "mode": "random_normal",
                "scale": 0.0028569424932669363
              },
              "seeds": {
                "split_seed": 673048,
                "init_seed": 873048,
                "batch_seed": 773048
              }
            },
            "run_id": 6,
            "seed": 973048,
            "randomness": {
              "split_seed": 673048,
              "batch_seed": 773048,
              "init_seed": 873048
            }
          },
          {
            "baseline_cent_sign": {
              "train_acc": 0.5010417103767395,
              "val_acc": 0.5333333611488342
            },
            "logreg": {
              "train": {
                "acc": 0.5510417222976685,
                "nll": 0.6872302293777466
              },
              "val": {
                "acc": 0.5125000476837158,
                "nll": 0.6927614212036133
              },
              "params": {
                "w": [
                  0.004865363705903292,
                  0.03521167114377022,
                  0.0253994669765234,
                  -0.03676905110478401,
                  -0.027486691251397133,
                  0.02668658271431923,
                  -0.00101370457559824,
                  -0.0058409059420228004,
                  -0.0647834837436676,
                  0.003390972502529621,
                  -0.026672428473830223,
                  0.017335953190922737,
                  -0.03334008902311325,
                  -0.006940053775906563,
                  0.013151253573596478,
                  0.006889901123940945,
                  -0.03252994641661644,
                  0.02147313579916954,
                  0.009143734350800514,
                  0.033742018043994904,
                  -0.01908228173851967
                ],
                "b": 0.002093008952215314
              },
              "standardize": {
                "mu": [
                  1.595704436302185,
                  -1.3668279647827148,
                  4.164210319519043,
                  33.016212463378906,
                  -61.83652114868164,
                  -2.379640817642212,
                  -30.92528533935547,
                  8.088900566101074,
                  68.67414855957031,
                  111.79100799560547,
                  -45.01365280151367,
                  -327.8335876464844,
                  -10.841898918151855,
                  -20.397418975830078,
                  4.705959320068359,
                  9.979413032531738,
                  -28.779619216918945,
                  16.567399978637695,
                  16.895071029663086,
                  -215.0804443359375,
                  242.47076416015625
                ],
                "sd": [
                  65.80504608154297,
                  62.81861877441406,
                  126.29255676269531,
                  2323.154052734375,
                  1327.72607421875,
                  1029.195068359375,
                  962.0903930664062,
                  1057.6202392578125,
                  1503.6572265625,
                  2320.829833984375,
                  4551.6162109375,
                  11642.2197265625,
                  2265.366455078125,
                  1288.242919921875,
                  1015.6874389648438,
                  1021.5874633789062,
                  1115.116943359375,
                  1483.1497802734375,
                  2393.365234375,
                  4705.9140625,
                  11823.47265625
                ]
              },
              "init": {
                "mode": "random_normal",
                "scale": 0.0028569424932669363
              },
              "seeds": {
                "split_seed": 673049,
                "init_seed": 873049,
                "batch_seed": 773049
              }
            },
            "run_id": 7,
            "seed": 973049,
            "randomness": {
              "split_seed": 673049,
              "batch_seed": 773049,
              "init_seed": 873049
            }
          },
          {
            "baseline_cent_sign": {
              "train_acc": 0.5020833611488342,
              "val_acc": 0.5291666984558105
            },
            "logreg": {
              "train": {
                "acc": 0.5562500357627869,
                "nll": 0.6871741414070129
              },
              "val": {
                "acc": 0.5458333492279053,
                "nll": 0.6893184781074524
              },
              "params": {
                "w": [
                  0.03467606380581856,
                  0.040171947330236435,
                  0.013002851977944374,
                  -0.015288110822439194,
                  -0.04724621772766113,
                  0.009611277841031551,
                  0.03444605693221092,
                  -0.025186307728290558,
                  -0.047496192157268524,
                  0.030077919363975525,
                  -0.01022190973162651,
                  0.009345228783786297,
                  -0.012086980044841766,
                  -0.025655709207057953,
                  0.009248991496860981,
                  0.028813906013965607,
                  -0.030812308192253113,
                  0.027230098843574524,
                  -0.02172156050801277,
                  0.028821995481848717,
                  -0.0492803230881691
                ],
                "b": -0.016412388533353806
              },
              "standardize": {
                "mu": [
                  2.697183132171631,
                  -1.1731222867965698,
                  -2.2773842811584473,
                  46.342140197753906,
                  -97.82925415039062,
                  -25.015954971313477,
                  -14.44175910949707,
                  -6.219572067260742,
                  34.94802474975586,
                  -6.629443645477295,
                  -10.213379859924316,
                  -803.2955322265625,
                  2.4615907669067383,
                  -18.793128967285156,
                  33.600425720214844,
                  25.452932357788086,
                  -50.810394287109375,
                  13.885095596313477,
                  0.7839356064796448,
                  -214.52383422851562,
                  361.03692626953125
                ],
                "sd": [
                  64.67864990234375,
                  63.03738784790039,
                  126.98432922363281,
                  2254.47265625,
                  1345.648681640625,
                  1053.2900390625,
                  963.495361328125,
                  1076.499755859375,
                  1513.0166015625,
                  2302.264404296875,
                  4561.94091796875,
                  11642.6015625,
                  2261.543212890625,
                  1264.9515380859375,
                  1032.0816650390625,
                  996.36962890625,
                  1098.5635986328125,
                  1499.9351806640625,
                  2448.070556640625,
                  4732.4521484375,
                  11984.5458984375
                ]
              },
              "init": {
                "mode": "random_normal",
                "scale": 0.0028569424932669363
              },
              "seeds": {
                "split_seed": 673050,
                "init_seed": 873050,
                "batch_seed": 773050
              }
            },
            "run_id": 8,
            "seed": 973050,
            "randomness": {
              "split_seed": 673050,
              "batch_seed": 773050,
              "init_seed": 873050
            }
          },
          {
            "baseline_cent_sign": {
              "train_acc": 0.5114583373069763,
              "val_acc": 0.491666704416275
            },
            "logreg": {
              "train": {
                "acc": 0.5604166984558105,
                "nll": 0.6864631772041321
              },
              "val": {
                "acc": 0.44166669249534607,
                "nll": 0.7017014622688293
              },
              "params": {
                "w": [
                  -0.0086636021733284,
                  0.0019441447220742702,
                  -0.003790999064221978,
                  -0.010886060073971748,
                  -0.026196664199233055,
                  0.04954451695084572,
                  -0.0010190950706601143,
                  -0.05034230649471283,
                  -0.055062394589185715,
                  0.005558513570576906,
                  -0.03633715584874153,
                  0.01796330325305462,
                  -0.03213457763195038,
                  0.013474969193339348,
                  0.015283149667084217,
                  0.02613571472465992,
                  0.0003067455254495144,
                  -0.01118955947458744,
                  -0.028719641268253326,
                  0.05722489953041077,
                  -0.03508680686354637
                ],
                "b": -0.04820900782942772
              },
              "standardize": {
                "mu": [
                  1.4350703954696655,
                  -1.16421639919281,
                  4.380821228027344,
                  33.02033996582031,
                  -59.85475540161133,
                  -31.089311599731445,
                  -4.935219764709473,
                  20.725200653076172,
                  57.94678497314453,
                  36.70283508300781,
                  22.847755432128906,
                  -798.4899291992188,
                  25.444578170776367,
                  -8.572884559631348,
                  34.231781005859375,
                  3.6455304622650146,
                  -37.57756423950195,
                  48.66612243652344,
                  -1.199373483657837,
                  -239.2370147705078,
                  501.5704345703125
                ],
                "sd": [
                  64.95889282226562,
                  63.39079284667969,
                  126.1624755859375,
                  2286.666015625,
                  1324.2921142578125,
                  1042.973876953125,
                  960.6213989257812,
                  1054.8741455078125,
                  1498.7906494140625,
                  2357.173095703125,
                  4513.8076171875,
                  11507.0908203125,
                  2274.230712890625,
                  1271.629638671875,
                  1015.96484375,
                  986.1788330078125,
                  1094.68212890625,
                  1496.9239501953125,
                  2438.643798828125,
                  4579.56201171875,
                  12017.1875
                ]
              },
              "init": {
                "mode": "random_normal",
                "scale": 0.0028569424932669363
              },
              "seeds": {
                "split_seed": 673051,
                "init_seed": 873051,
                "batch_seed": 773051
              }
            },
            "run_id": 9,
            "seed": 973051,
            "randomness": {
              "split_seed": 673051,
              "batch_seed": 773051,
              "init_seed": 873051
            }
          }
        ],
        "summary": {
          "n_runs": 10,
          "baseline_cent_sign": {
            "train_acc": {
              "mean": 0.5061458587646485,
              "std": 0.007208595921594449,
              "min": 0.4958333671092987,
              "max": 0.5177083611488342
            },
            "val_acc": {
              "mean": 0.5129166930913925,
              "std": 0.028834411894125115,
              "min": 0.46666669845581055,
              "max": 0.5541666746139526
            }
          },
          "logreg": {
            "train_acc": {
              "mean": 0.5515625357627869,
              "std": 0.0069448744058064294,
              "min": 0.5364583730697632,
              "max": 0.5604166984558105
            },
            "val_acc": {
              "mean": 0.5179166942834854,
              "std": 0.0321157791519517,
              "min": 0.44166669249534607,
              "max": 0.5541666746139526
            },
            "train_nll": {
              "mean": 0.6865698814392089,
              "std": 0.0010632533565012332,
              "min": 0.6842246651649475,
              "max": 0.6878966093063354
            },
            "val_nll": {
              "mean": 0.6930493235588073,
              "std": 0.0048665904226031535,
              "min": 0.6827077865600586,
              "max": 0.7017014622688293
            }
          }
        },
        "randomness_config": {
          "vary_split": true,
          "vary_batch_order": true,
          "vary_init": true
        }
      },
      "k": 0.8,
      "nps_target": 256,
      "nps_match_mode": "offby1"
    },
    {
      "nps": 512,
      "baseline_cent_sign": {
        "train_acc": 0.48645836114883423,
        "val_acc": 0.4958333671092987
      },
      "logreg": {
        "train": {
          "acc": 0.5593750476837158,
          "nll": 0.686242401599884
        },
        "val": {
          "acc": 0.4791666865348816,
          "nll": 0.6985499262809753
        },
        "params": {
          "w": [
            -0.00845348834991455,
            0.02900395169854164,
            -0.05071374773979187,
            0.04390610381960869,
            0.061139754951000214,
            0.018630418926477432,
            0.0544719360768795,
            0.017191825434565544,
            -0.016944928094744682,
            -0.026286106556653976,
            -0.07664564996957779,
            -0.014726903289556503,
            -0.036045972257852554,
            0.027423635125160217,
            -0.01666029915213585,
            0.010079603642225266,
            0.018833421170711517,
            -0.043848466128110886,
            0.011834517121315002,
            -0.026833780109882355,
            0.06971202790737152
          ],
          "b": -0.04296417161822319
        },
        "standardize": {
          "mu": [
            -0.17385737597942352,
            3.6497104167938232,
            -4.597588062286377,
            -22.542438507080078,
            -17.70136833190918,
            -32.79747009277344,
            -2.794127941131592,
            7.14313268661499,
            -17.958114624023438,
            3.069795846939087,
            -67.89563751220703,
            29.405193328857422,
            44.8194694519043,
            -8.5060396194458,
            9.46556282043457,
            2.821484088897705,
            -19.8315486907959,
            -10.26906967163086,
            1.860640525817871,
            92.02216339111328,
            242.92904663085938
          ],
          "sd": [
            45.79209518432617,
            44.15167999267578,
            90.32659149169922,
            1096.9749755859375,
            677.2033081054688,
            505.5891418457031,
            470.1185607910156,
            540.7176513671875,
            712.3057861328125,
            1171.1619873046875,
            2264.3876953125,
            5956.73291015625,
            1142.8046875,
            667.6705932617188,
            519.1107177734375,
            496.5528259277344,
            544.196044921875,
            733.2017822265625,
            1225.6143798828125,
            2234.831298828125,
            5657.38525390625
          ]
        },
        "init": {
          "mode": "random_normal",
          "scale": 0.0028569424932669363
        },
        "seeds": {
          "split_seed": 683042,
          "init_seed": 883042,
          "batch_seed": 783042
        }
      },
      "independent_runs": {
        "per_run": [
          {
            "baseline_cent_sign": {
              "train_acc": 0.48645836114883423,
              "val_acc": 0.4958333671092987
            },
            "logreg": {
              "train": {
                "acc": 0.5593750476837158,
                "nll": 0.686242401599884
              },
              "val": {
                "acc": 0.4791666865348816,
                "nll": 0.6985499262809753
              },
              "params": {
                "w": [
                  -0.00845348834991455,
                  0.02900395169854164,
                  -0.05071374773979187,
                  0.04390610381960869,
                  0.061139754951000214,
                  0.018630418926477432,
                  0.0544719360768795,
                  0.017191825434565544,
                  -0.016944928094744682,
                  -0.026286106556653976,
                  -0.07664564996957779,
                  -0.014726903289556503,
                  -0.036045972257852554,
                  0.027423635125160217,
                  -0.01666029915213585,
                  0.010079603642225266,
                  0.018833421170711517,
                  -0.043848466128110886,
                  0.011834517121315002,
                  -0.026833780109882355,
                  0.06971202790737152
                ],
                "b": -0.04296417161822319
              },
              "standardize": {
                "mu": [
                  -0.17385737597942352,
                  3.6497104167938232,
                  -4.597588062286377,
                  -22.542438507080078,
                  -17.70136833190918,
                  -32.79747009277344,
                  -2.794127941131592,
                  7.14313268661499,
                  -17.958114624023438,
                  3.069795846939087,
                  -67.89563751220703,
                  29.405193328857422,
                  44.8194694519043,
                  -8.5060396194458,
                  9.46556282043457,
                  2.821484088897705,
                  -19.8315486907959,
                  -10.26906967163086,
                  1.860640525817871,
                  92.02216339111328,
                  242.92904663085938
                ],
                "sd": [
                  45.79209518432617,
                  44.15167999267578,
                  90.32659149169922,
                  1096.9749755859375,
                  677.2033081054688,
                  505.5891418457031,
                  470.1185607910156,
                  540.7176513671875,
                  712.3057861328125,
                  1171.1619873046875,
                  2264.3876953125,
                  5956.73291015625,
                  1142.8046875,
                  667.6705932617188,
                  519.1107177734375,
                  496.5528259277344,
                  544.196044921875,
                  733.2017822265625,
                  1225.6143798828125,
                  2234.831298828125,
                  5657.38525390625
                ]
              },
              "init": {
                "mode": "random_normal",
                "scale": 0.0028569424932669363
              },
              "seeds": {
                "split_seed": 683042,
                "init_seed": 883042,
                "batch_seed": 783042
              }
            },
            "run_id": 0,
            "seed": 983042,
            "randomness": {
              "split_seed": 683042,
              "batch_seed": 783042,
              "init_seed": 883042
            }
          },
          {
            "baseline_cent_sign": {
              "train_acc": 0.4854166805744171,
              "val_acc": 0.5
            },
            "logreg": {
              "train": {
                "acc": 0.5427083373069763,
                "nll": 0.6883876919746399
              },
              "val": {
                "acc": 0.4833333492279053,
                "nll": 0.6986237168312073
              },
              "params": {
                "w": [
                  -0.03314188867807388,
                  0.02105870470404625,
                  -0.03318197280168533,
                  0.006080076098442078,
                  0.021139390766620636,
                  -0.022923724725842476,
                  0.03610483184456825,
                  0.04847203940153122,
                  -0.015174130909144878,
                  0.005567573476582766,
                  0.01502879150211811,
                  -0.012896775268018246,
                  -0.02269037626683712,
                  0.023895584046840668,
                  0.0026817223988473415,
                  -0.04130277782678604,
                  0.005238671321421862,
                  -0.01269556488841772,
                  0.005340893287211657,
                  -0.018967829644680023,
                  0.044990021735429764
                ],
                "b": -0.003118302207440138
              },
              "standardize": {
                "mu": [
                  -0.3851766884326935,
                  3.622565507888794,
                  -3.541468858718872,
                  6.457653522491455,
                  -12.017768859863281,
                  -32.70542526245117,
                  20.20716094970703,
                  15.456406593322754,
                  -28.504486083984375,
                  -5.182786464691162,
                  -67.39987182617188,
                  36.227928161621094,
                  4.669164180755615,
                  -5.056758880615234,
                  19.112791061401367,
                  -2.5675716400146484,
                  -22.23251724243164,
                  19.851417541503906,
                  -25.002716064453125,
                  49.355079650878906,
                  314.56524658203125
                ],
                "sd": [
                  45.461692810058594,
                  43.94051742553711,
                  90.9752426147461,
                  1084.769287109375,
                  693.7355346679688,
                  508.67291259765625,
                  470.1882019042969,
                  544.349365234375,
                  723.47265625,
                  1181.996826171875,
                  2276.9423828125,
                  5997.44189453125,
                  1105.06787109375,
                  683.2005615234375,
                  526.9011840820312,
                  495.07861328125,
                  540.9708251953125,
                  728.8098754882812,
                  1218.750244140625,
                  2258.91845703125,
                  5494.93408203125
                ]
              },
              "init": {
                "mode": "random_normal",
                "scale": 0.0028569424932669363
              },
              "seeds": {
                "split_seed": 683043,
                "init_seed": 883043,
                "batch_seed": 783043
              }
            },
            "run_id": 1,
            "seed": 983043,
            "randomness": {
              "split_seed": 683043,
              "batch_seed": 783043,
              "init_seed": 883043
            }
          },
          {
            "baseline_cent_sign": {
              "train_acc": 0.4906250238418579,
              "val_acc": 0.4791666865348816
            },
            "logreg": {
              "train": {
                "acc": 0.5354167222976685,
                "nll": 0.6876081228256226
              },
              "val": {
                "acc": 0.47083336114883423,
                "nll": 0.6979219317436218
              },
              "params": {
                "w": [
                  0.023152809590101242,
                  0.024433370679616928,
                  -0.04696805030107498,
                  0.036925818771123886,
                  0.032103754580020905,
                  0.007654201239347458,
                  0.05532419681549072,
                  0.00721327168866992,
                  0.01546928845345974,
                  -0.02133437618613243,
                  0.01302894577383995,
                  0.010234147310256958,
                  -0.04029187560081482,
                  0.02634638547897339,
                  -0.02531212568283081,
                  -0.03219391778111458,
                  0.037903863936662674,
                  -0.04049418866634369,
                  0.04354896396398544,
                  -0.010333449579775333,
                  0.029946357011795044
                ],
                "b": -0.019422143697738647
              },
              "standardize": {
                "mu": [
                  0.023785846307873726,
                  4.373149871826172,
                  -3.9654853343963623,
                  -22.49785804748535,
                  4.780079364776611,
                  -26.889041900634766,
                  3.90224027633667,
                  22.32242202758789,
                  -27.12557601928711,
                  12.530685424804688,
                  -76.34788513183594,
                  154.55857849121094,
                  52.60769271850586,
                  -4.247164249420166,
                  17.52141761779785,
                  11.624560356140137,
                  -33.533023834228516,
                  9.871858596801758,
                  -14.945096015930176,
                  82.5719223022461,
                  306.7221374511719
                ],
                "sd": [
                  45.58412170410156,
                  42.981048583984375,
                  88.82321166992188,
                  1107.914794921875,
                  697.68408203125,
                  513.0491943359375,
                  478.55712890625,
                  546.8635864257812,
                  714.54833984375,
                  1152.8131103515625,
                  2232.720947265625,
                  5910.12548828125,
                  1139.0924072265625,
                  676.8245849609375,
                  520.0780639648438,
                  503.97564697265625,
                  541.3805541992188,
                  723.8055419921875,
                  1223.5426025390625,
                  2253.768798828125,
                  5725.2880859375
                ]
              },
              "init": {
                "mode": "random_normal",
                "scale": 0.0028569424932669363
              },
              "seeds": {
                "split_seed": 683044,
                "init_seed": 883044,
                "batch_seed": 783044
              }
            },
            "run_id": 2,
            "seed": 983044,
            "randomness": {
              "split_seed": 683044,
              "batch_seed": 783044,
              "init_seed": 883044
            }
          },
          {
            "baseline_cent_sign": {
              "train_acc": 0.49791669845581055,
              "val_acc": 0.45000001788139343
            },
            "logreg": {
              "train": {
                "acc": 0.5458333492279053,
                "nll": 0.6857267022132874
              },
              "val": {
                "acc": 0.5041667222976685,
                "nll": 0.6965652108192444
              },
              "params": {
                "w": [
                  0.011180167086422443,
                  0.10797306895256042,
                  -0.06836409866809845,
                  0.07026010751724243,
                  0.06345783174037933,
                  0.04870913550257683,
                  0.06111190840601921,
                  0.06613260507583618,
                  0.016503743827342987,
                  0.04004407301545143,
                  -0.08832807093858719,
                  0.015291932038962841,
                  -0.01606954261660576,
                  0.05432458594441414,
                  0.014163130894303322,
                  -0.03400659188628197,
                  0.03423653542995453,
                  -0.03506867215037346,
                  0.05421065911650658,
                  0.011142415925860405,
                  0.07559343427419662
                ],
                "b": 0.0037606502883136272
              },
              "standardize": {
                "mu": [
                  -0.48072218894958496,
                  4.732817649841309,
                  -3.712867021560669,
                  -18.86343765258789,
                  -24.376361846923828,
                  -24.86092185974121,
                  6.031500339508057,
                  11.888050079345703,
                  -23.858428955078125,
                  34.03010559082031,
                  -59.11366653442383,
                  90.85445404052734,
                  58.3818473815918,
                  -14.242191314697266,
                  4.0574951171875,
                  12.440154075622559,
                  -31.753679275512695,
                  12.096657752990723,
                  2.1360557079315186,
                  42.74733352661133,
                  124.36444091796875
                ],
                "sd": [
                  45.438011169433594,
                  43.677581787109375,
                  90.38787078857422,
                  1096.497314453125,
                  685.9744262695312,
                  498.0135192871094,
                  476.33587646484375,
                  551.0935668945312,
                  715.7850341796875,
                  1197.227294921875,
                  2282.933349609375,
                  5850.58984375,
                  1145.464599609375,
                  663.279541015625,
                  525.6852416992188,
                  497.5100402832031,
                  548.320068359375,
                  718.9196166992188,
                  1223.970703125,
                  2173.900634765625,
                  5568.14453125
                ]
              },
              "init": {
                "mode": "random_normal",
                "scale": 0.0028569424932669363
              },
              "seeds": {
                "split_seed": 683045,
                "init_seed": 883045,
                "batch_seed": 783045
              }
            },
            "run_id": 3,
            "seed": 983045,
            "randomness": {
              "split_seed": 683045,
              "batch_seed": 783045,
              "init_seed": 883045
            }
          },
          {
            "baseline_cent_sign": {
              "train_acc": 0.48750001192092896,
              "val_acc": 0.491666704416275
            },
            "logreg": {
              "train": {
                "acc": 0.5593750476837158,
                "nll": 0.6864907741546631
              },
              "val": {
                "acc": 0.47083336114883423,
                "nll": 0.7032467722892761
              },
              "params": {
                "w": [
                  0.01625829003751278,
                  0.03550444170832634,
                  -0.007789823226630688,
                  -0.004969289992004633,
                  0.01481546089053154,
                  0.03723805025219917,
                  0.054184846580028534,
                  0.03127695992588997,
                  0.0093807652592659,
                  -0.0049745263531804085,
                  -0.0012517820578068495,
                  0.045331887900829315,
                  -0.028251243755221367,
                  0.008901521563529968,
                  0.025553032755851746,
                  -0.025837503373622894,
                  0.00896634254604578,
                  -0.04353974387049675,
                  7.055769674479961e-05,
                  -0.015684980899095535,
                  0.06393001973628998
                ],
                "b": -0.023356331512331963
              },
              "standardize": {
                "mu": [
                  -1.0382981300354004,
                  4.2975568771362305,
                  -2.8413853645324707,
                  2.266474485397339,
                  -27.988447189331055,
                  -31.312355041503906,
                  12.247998237609863,
                  9.080194473266602,
                  6.39271354675293,
                  15.71717643737793,
                  -39.002769470214844,
                  131.69155883789062,
                  5.476807117462158,
                  -28.332643508911133,
                  13.65108871459961,
                  -2.8779537677764893,
                  -23.802366256713867,
                  36.123512268066406,
                  -6.6857709884643555,
                  133.0560760498047,
                  75.88965606689453
                ],
                "sd": [
                  44.52920150756836,
                  44.249053955078125,
                  90.87550354003906,
                  1087.3013916015625,
                  675.574462890625,
                  514.9283447265625,
                  477.455078125,
                  537.9808349609375,
                  703.78759765625,
                  1166.6934814453125,
                  2255.486083984375,
                  5752.40966796875,
                  1138.2918701171875,
                  658.1421508789062,
                  517.911865234375,
                  490.6973571777344,
                  543.5742797851562,
                  726.6207275390625,
                  1223.428466796875,
                  2227.65478515625,
                  5616.74658203125
                ]
              },
              "init": {
                "mode": "random_normal",
                "scale": 0.0028569424932669363
              },
              "seeds": {
                "split_seed": 683046,
                "init_seed": 883046,
                "batch_seed": 783046
              }
            },
            "run_id": 4,
            "seed": 983046,
            "randomness": {
              "split_seed": 683046,
              "batch_seed": 783046,
              "init_seed": 883046
            }
          },
          {
            "baseline_cent_sign": {
              "train_acc": 0.4791666865348816,
              "val_acc": 0.5250000357627869
            },
            "logreg": {
              "train": {
                "acc": 0.5645833611488342,
                "nll": 0.6866272687911987
              },
              "val": {
                "acc": 0.4958333671092987,
                "nll": 0.7003599405288696
              },
              "params": {
                "w": [
                  0.006214627996087074,
                  0.058233339339494705,
                  -0.029914723709225655,
                  0.014863967895507812,
                  0.029413342475891113,
                  0.04417521506547928,
                  0.06441526859998703,
                  0.02257111854851246,
                  0.0053559960797429085,
                  0.019216394051909447,
                  0.007295083254575729,
                  -0.01509410422295332,
                  -0.03529472276568413,
                  0.04040275886654854,
                  0.006110268644988537,
                  -0.021316776052117348,
                  0.011405354365706444,
                  -0.015682246536016464,
                  0.005446490366011858,
                  -0.049984369426965714,
                  0.049656618386507034
                ],
                "b": -0.03988884389400482
              },
              "standardize": {
                "mu": [
                  -0.19080138206481934,
                  4.2715301513671875,
                  -5.176913738250732,
                  11.708500862121582,
                  -9.86644458770752,
                  -25.01665687561035,
                  12.417221069335938,
                  21.662763595581055,
                  -32.143463134765625,
                  0.9512248039245605,
                  -48.1623649597168,
                  73.9172592163086,
                  27.87425422668457,
                  -13.427873611450195,
                  -2.858543634414673,
                  0.14837850630283356,
                  -19.055925369262695,
                  18.402788162231445,
                  4.637793064117432,
                  99.73094940185547,
                  183.4386444091797
                ],
                "sd": [
                  45.319496154785156,
                  44.6919059753418,
                  88.7002182006836,
                  1114.760986328125,
                  690.4078369140625,
                  507.53363037109375,
                  473.0015563964844,
                  545.4854125976562,
                  710.78369140625,
                  1184.1842041015625,
                  2271.752197265625,
                  5893.7275390625,
                  1125.092529296875,
                  668.439208984375,
                  518.8358764648438,
                  492.1410217285156,
                  538.97265625,
                  722.54541015625,
                  1214.9681396484375,
                  2234.32421875,
                  5699.3271484375
                ]
              },
              "init": {
                "mode": "random_normal",
                "scale": 0.0028569424932669363
              },
              "seeds": {
                "split_seed": 683047,
                "init_seed": 883047,
                "batch_seed": 783047
              }
            },
            "run_id": 5,
            "seed": 983047,
            "randomness": {
              "split_seed": 683047,
              "batch_seed": 783047,
              "init_seed": 883047
            }
          },
          {
            "baseline_cent_sign": {
              "train_acc": 0.491666704416275,
              "val_acc": 0.4750000238418579
            },
            "logreg": {
              "train": {
                "acc": 0.5645833611488342,
                "nll": 0.6874526143074036
              },
              "val": {
                "acc": 0.4833333492279053,
                "nll": 0.7007316946983337
              },
              "params": {
                "w": [
                  0.03843909129500389,
                  -0.005321481730788946,
                  -0.007132604718208313,
                  0.035403069108724594,
                  0.04499392211437225,
                  0.0289195217192173,
                  0.05032511055469513,
                  0.010032899677753448,
                  -0.004183398559689522,
                  -0.028400663286447525,
                  0.007097793743014336,
                  -0.010794750414788723,
                  -0.03487638011574745,
                  0.0012035851832479239,
                  0.005079781636595726,
                  -3.6673154681921005e-05,
                  -0.012863925658166409,
                  -0.04196462407708168,
                  0.022325953468680382,
                  0.006265144795179367,
                  0.04844210669398308
                ],
                "b": 0.01526061724871397
              },
              "standardize": {
                "mu": [
                  0.9951987862586975,
                  4.273995399475098,
                  -4.8785529136657715,
                  -64.89930725097656,
                  -21.402172088623047,
                  -28.01011848449707,
                  9.361462593078613,
                  20.645811080932617,
                  -19.038192749023438,
                  28.091243743896484,
                  -51.005088806152344,
                  190.20277404785156,
                  11.172401428222656,
                  6.073268413543701,
                  18.17995262145996,
                  4.037541389465332,
                  -18.2576847076416,
                  24.087831497192383,
                  1.7614319324493408,
                  142.1232147216797,
                  464.80377197265625
                ],
                "sd": [
                  45.62199401855469,
                  43.94282531738281,
                  89.59647369384766,
                  1094.0416259765625,
                  699.0862426757812,
                  514.734130859375,
                  476.17425537109375,
                  547.0211181640625,
                  717.4356079101562,
                  1180.0013427734375,
                  2298.7900390625,
                  5860.8212890625,
                  1153.8681640625,
                  664.5487060546875,
                  520.9889526367188,
                  493.2424011230469,
                  544.7691040039062,
                  717.9495239257812,
                  1186.284423828125,
                  2258.636962890625,
                  5662.2939453125
                ]
              },
              "init": {
                "mode": "random_normal",
                "scale": 0.0028569424932669363
              },
              "seeds": {
                "split_seed": 683048,
                "init_seed": 883048,
                "batch_seed": 783048
              }
            },
            "run_id": 6,
            "seed": 983048,
            "randomness": {
              "split_seed": 683048,
              "batch_seed": 783048,
              "init_seed": 883048
            }
          },
          {
            "baseline_cent_sign": {
              "train_acc": 0.4854166805744171,
              "val_acc": 0.5
            },
            "logreg": {
              "train": {
                "acc": 0.5427083373069763,
                "nll": 0.6862341165542603
              },
              "val": {
                "acc": 0.5458333492279053,
                "nll": 0.6916928291320801
              },
              "params": {
                "w": [
                  0.013887370005249977,
                  0.06518162041902542,
                  -0.08977033942937851,
                  0.046679697930812836,
                  0.07542260736227036,
                  0.02776825614273548,
                  0.05140959471464157,
                  0.022783325985074043,
                  -0.0071266102604568005,
                  0.018289439380168915,
                  -0.053675808012485504,
                  -0.007433190941810608,
                  -0.028277786448597908,
                  0.09124355763196945,
                  -0.003165926318615675,
                  -0.0328264981508255,
                  -0.005692724138498306,
                  -0.03976445645093918,
                  0.01636301353573799,
                  0.027091188356280327,
                  0.10282763093709946
                ],
                "b": -0.018135838210582733
              },
              "standardize": {
                "mu": [
                  -1.2244306802749634,
                  4.633584976196289,
                  -3.064476490020752,
                  -7.639475345611572,
                  -15.5076904296875,
                  -21.328725814819336,
                  11.888236999511719,
                  -0.9797465801239014,
                  -20.57431983947754,
                  -6.194520473480225,
                  -71.84925842285156,
                  75.42774200439453,
                  24.896669387817383,
                  1.7562063932418823,
                  12.485153198242188,
                  11.420822143554688,
                  -24.538707733154297,
                  8.256264686584473,
                  -34.51727294921875,
                  92.5224838256836,
                  292.06634521484375
                ],
                "sd": [
                  45.01057815551758,
                  44.65049362182617,
                  89.89195251464844,
                  1113.96533203125,
                  684.095458984375,
                  511.00799560546875,
                  474.9367980957031,
                  533.0306396484375,
                  721.6444702148438,
                  1194.957763671875,
                  2302.96142578125,
                  5908.52490234375,
                  1116.7554931640625,
                  665.1688842773438,
                  521.0891723632812,
                  499.5360412597656,
                  549.2183227539062,
                  723.8275146484375,
                  1211.60693359375,
                  2212.127685546875,
                  5609.38623046875
                ]
              },
              "init": {
                "mode": "random_normal",
                "scale": 0.0028569424932669363
              },
              "seeds": {
                "split_seed": 683049,
                "init_seed": 883049,
                "batch_seed": 783049
              }
            },
            "run_id": 7,
            "seed": 983049,
            "randomness": {
              "split_seed": 683049,
              "batch_seed": 783049,
              "init_seed": 883049
            }
          },
          {
            "baseline_cent_sign": {
              "train_acc": 0.476041704416275,
              "val_acc": 0.5375000238418579
            },
            "logreg": {
              "train": {
                "acc": 0.5572916865348816,
                "nll": 0.6872935891151428
              },
              "val": {
                "acc": 0.5125000476837158,
                "nll": 0.6986711621284485
              },
              "params": {
                "w": [
                  0.0015803149435669184,
                  0.0039056907407939434,
                  -0.012275690212845802,
                  0.005049813073128462,
                  0.04802383854985237,
                  0.057663481682538986,
                  0.0483897440135479,
                  0.017290262505412102,
                  -0.009455284103751183,
                  -0.023608988150954247,
                  -0.02539164572954178,
                  -0.01952386647462845,
                  0.008968198671936989,
                  0.010289733298122883,
                  0.02158309333026409,
                  -0.03624097630381584,
                  -0.011501104570925236,
                  -0.05661396682262421,
                  0.04633520916104317,
                  -0.004281770437955856,
                  0.042160674929618835
                ],
                "b": 0.02554958499968052
              },
              "standardize": {
                "mu": [
                  -0.8833092451095581,
                  4.572621822357178,
                  -4.030318737030029,
                  7.201790809631348,
                  13.01965618133545,
                  -17.670507431030273,
                  7.465063571929932,
                  12.080154418945312,
                  -30.724838256835938,
                  18.41284942626953,
                  -70.27469635009766,
                  122.38729858398438,
                  46.42967224121094,
                  -6.360501766204834,
                  8.044950485229492,
                  1.7512015104293823,
                  -31.80327033996582,
                  23.530353546142578,
                  -19.797449111938477,
                  75.31118774414062,
                  230.3453826904297
                ],
                "sd": [
                  45.5395622253418,
                  44.47074890136719,
                  89.29862213134766,
                  1100.3917236328125,
                  680.0850830078125,
                  511.00537109375,
                  465.4622802734375,
                  544.6571655273438,
                  707.9007568359375,
                  1188.4464111328125,
                  2301.159912109375,
                  5858.462890625,
                  1139.9207763671875,
                  659.5825805664062,
                  517.9890747070312,
                  491.6817626953125,
                  552.3734741210938,
                  742.8898315429688,
                  1215.8258056640625,
                  2266.2333984375,
                  5568.298828125
                ]
              },
              "init": {
                "mode": "random_normal",
                "scale": 0.0028569424932669363
              },
              "seeds": {
                "split_seed": 683050,
                "init_seed": 883050,
                "batch_seed": 783050
              }
            },
            "run_id": 8,
            "seed": 983050,
            "randomness": {
              "split_seed": 683050,
              "batch_seed": 783050,
              "init_seed": 883050
            }
          },
          {
            "baseline_cent_sign": {
              "train_acc": 0.48854169249534607,
              "val_acc": 0.48750001192092896
            },
            "logreg": {
              "train": {
                "acc": 0.5333333611488342,
                "nll": 0.6893914937973022
              },
              "val": {
                "acc": 0.4958333671092987,
                "nll": 0.6958567500114441
              },
              "params": {
                "w": [
                  0.0332355797290802,
                  -0.019644197076559067,
                  -0.018617525696754456,
                  0.03206924721598625,
                  0.02187906578183174,
                  0.00046491099055856466,
                  0.0393892377614975,
                  0.019113779067993164,
                  -0.0414663590490818,
                  0.021865034475922585,
                  -0.023206310346722603,
                  0.033964939415454865,
                  -0.01415120717138052,
                  0.05520867183804512,
                  0.015410578809678555,
                  -0.016354355961084366,
                  -0.005467675160616636,
                  -0.041573382914066315,
                  -0.011540452018380165,
                  0.037515196949243546,
                  0.005777653306722641
                ],
                "b": 0.008432406932115555
              },
              "standardize": {
                "mu": [
                  -0.7372008562088013,
                  4.036906719207764,
                  -3.0808606147766113,
                  7.667840957641602,
                  -27.51081085205078,
                  -24.66956901550293,
                  14.826207160949707,
                  30.754364013671875,
                  -24.10459327697754,
                  28.16602325439453,
                  -48.65397262573242,
                  74.10436248779297,
                  22.198041915893555,
                  1.0713592767715454,
                  3.1839356422424316,
                  2.5654044151306152,
                  -20.580350875854492,
                  19.62718391418457,
                  1.8776448965072632,
                  82.00605773925781,
                  288.03790283203125
                ],
                "sd": [
                  44.813411712646484,
                  44.8597526550293,
                  90.19466400146484,
                  1095.6182861328125,
                  675.85302734375,
                  504.5111389160156,
                  477.0914611816406,
                  541.7269897460938,
                  704.1262817382812,
                  1179.53515625,
                  2294.848876953125,
                  5779.8525390625,
                  1134.6798095703125,
                  665.745849609375,
                  522.0291137695312,
                  500.4942626953125,
                  541.8401489257812,
                  723.267333984375,
                  1203.3433837890625,
                  2230.996826171875,
                  5743.82666015625
                ]
              },
              "init": {
                "mode": "random_normal",
                "scale": 0.0028569424932669363
              },
              "seeds": {
                "split_seed": 683051,
                "init_seed": 883051,
                "batch_seed": 783051
              }
            },
            "run_id": 9,
            "seed": 983051,
            "randomness": {
              "split_seed": 683051,
              "batch_seed": 783051,
              "init_seed": 883051
            }
          }
        ],
        "summary": {
          "n_runs": 10,
          "baseline_cent_sign": {
            "train_acc": {
              "mean": 0.48687502443790437,
              "std": 0.005859318111291806,
              "min": 0.476041704416275,
              "max": 0.49791669845581055
            },
            "val_acc": {
              "mean": 0.49416668713092804,
              "std": 0.023437270537775477,
              "min": 0.45000001788139343,
              "max": 0.5375000238418579
            }
          },
          "logreg": {
            "train_acc": {
              "mean": 0.5505208611488343,
              "std": 0.011250484965327687,
              "min": 0.5333333611488342,
              "max": 0.5645833611488342
            },
            "val_acc": {
              "mean": 0.4941666960716248,
              "std": 0.02158639170851495,
              "min": 0.47083336114883423,
              "max": 0.5458333492279053
            },
            "train_nll": {
              "mean": 0.6871454775333404,
              "std": 0.0010618013788050993,
              "min": 0.6857267022132874,
              "max": 0.6893914937973022
            },
            "val_nll": {
              "mean": 0.69822199344635,
              "std": 0.002960537510269884,
              "min": 0.6916928291320801,
              "max": 0.7032467722892761
            }
          }
        },
        "randomness_config": {
          "vary_split": true,
          "vary_batch_order": true,
          "vary_init": true
        }
      },
      "k": 0.9,
      "nps_target": 512,
      "nps_match_mode": "offby1"
    },
    {
      "nps": 1024,
      "baseline_cent_sign": {
        "train_acc": 0.5197917222976685,
        "val_acc": 0.46250003576278687
      },
      "logreg": {
        "train": {
          "acc": 0.5583333373069763,
          "nll": 0.6874730587005615
        },
        "val": {
          "acc": 0.5541666746139526,
          "nll": 0.6912404894828796
        },
        "params": {
          "w": [
            -0.034738510847091675,
            0.015466376207768917,
            -0.014407703652977943,
            -0.007383070886135101,
            0.004781832452863455,
            0.029037779197096825,
            0.023471521213650703,
            0.004422241356223822,
            -0.042504094541072845,
            0.04300533980131149,
            0.02437128685414791,
            0.019809607416391373,
            0.023752447217702866,
            0.003874694462865591,
            0.022189227864146233,
            0.04342673718929291,
            0.0498877614736557,
            -0.026089372113347054,
            -0.0027329265139997005,
            -0.00861950684338808,
            0.06368108838796616
          ],
          "b": -0.0310065820813179
        },
        "standardize": {
          "mu": [
            1.450278401374817,
            1.600796103477478,
            0.22292564809322357,
            10.713363647460938,
            -1.8785839080810547,
            6.717677593231201,
            -1.9399824142456055,
            5.110714435577393,
            -27.11834716796875,
            56.126461029052734,
            -69.78919982910156,
            12.219661712646484,
            -18.99917221069336,
            -13.713976860046387,
            3.833366632461548,
            6.746733665466309,
            -2.5477519035339355,
            18.329978942871094,
            18.41779136657715,
            38.95094299316406,
            -32.23197937011719
          ],
          "sd": [
            32.715614318847656,
            30.810392379760742,
            59.812381744384766,
            546.1160888671875,
            336.8634948730469,
            265.6487121582031,
            243.61038208007812,
            275.3946838378906,
            364.3259582519531,
            570.3552856445312,
            1171.4830322265625,
            2714.97998046875,
            579.8323364257812,
            347.9955139160156,
            252.938232421875,
            244.56573486328125,
            278.3077697753906,
            364.0464172363281,
            586.1185302734375,
            1179.0433349609375,
            2911.471435546875
          ]
        },
        "init": {
          "mode": "random_normal",
          "scale": 0.0028569424932669363
        },
        "seeds": {
          "split_seed": 693042,
          "init_seed": 893042,
          "batch_seed": 793042
        }
      },
      "independent_runs": {
        "per_run": [
          {
            "baseline_cent_sign": {
              "train_acc": 0.5197917222976685,
              "val_acc": 0.46250003576278687
            },
            "logreg": {
              "train": {
                "acc": 0.5583333373069763,
                "nll": 0.6874730587005615
              },
              "val": {
                "acc": 0.5541666746139526,
                "nll": 0.6912404894828796
              },
              "params": {
                "w": [
                  -0.034738510847091675,
                  0.015466376207768917,
                  -0.014407703652977943,
                  -0.007383070886135101,
                  0.004781832452863455,
                  0.029037779197096825,
                  0.023471521213650703,
                  0.004422241356223822,
                  -0.042504094541072845,
                  0.04300533980131149,
                  0.02437128685414791,
                  0.019809607416391373,
                  0.023752447217702866,
                  0.003874694462865591,
                  0.022189227864146233,
                  0.04342673718929291,
                  0.0498877614736557,
                  -0.026089372113347054,
                  -0.0027329265139997005,
                  -0.00861950684338808,
                  0.06368108838796616
                ],
                "b": -0.0310065820813179
              },
              "standardize": {
                "mu": [
                  1.450278401374817,
                  1.600796103477478,
                  0.22292564809322357,
                  10.713363647460938,
                  -1.8785839080810547,
                  6.717677593231201,
                  -1.9399824142456055,
                  5.110714435577393,
                  -27.11834716796875,
                  56.126461029052734,
                  -69.78919982910156,
                  12.219661712646484,
                  -18.99917221069336,
                  -13.713976860046387,
                  3.833366632461548,
                  6.746733665466309,
                  -2.5477519035339355,
                  18.329978942871094,
                  18.41779136657715,
                  38.95094299316406,
                  -32.23197937011719
                ],
                "sd": [
                  32.715614318847656,
                  30.810392379760742,
                  59.812381744384766,
                  546.1160888671875,
                  336.8634948730469,
                  265.6487121582031,
                  243.61038208007812,
                  275.3946838378906,
                  364.3259582519531,
                  570.3552856445312,
                  1171.4830322265625,
                  2714.97998046875,
                  579.8323364257812,
                  347.9955139160156,
                  252.938232421875,
                  244.56573486328125,
                  278.3077697753906,
                  364.0464172363281,
                  586.1185302734375,
                  1179.0433349609375,
                  2911.471435546875
                ]
              },
              "init": {
                "mode": "random_normal",
                "scale": 0.0028569424932669363
              },
              "seeds": {
                "split_seed": 693042,
                "init_seed": 893042,
                "batch_seed": 793042
              }
            },
            "run_id": 0,
            "seed": 993042,
            "randomness": {
              "split_seed": 693042,
              "batch_seed": 793042,
              "init_seed": 893042
            }
          },
          {
            "baseline_cent_sign": {
              "train_acc": 0.5177083611488342,
              "val_acc": 0.47083336114883423
            },
            "logreg": {
              "train": {
                "acc": 0.5625,
                "nll": 0.6868922114372253
              },
              "val": {
                "acc": 0.5458333492279053,
                "nll": 0.6919925808906555
              },
              "params": {
                "w": [
                  -0.04223058372735977,
                  0.025337401777505875,
                  0.005141868256032467,
                  0.007353826425969601,
                  0.030928391963243484,
                  0.05686305835843086,
                  -0.012368282303214073,
                  -0.009730560705065727,
                  0.020489901304244995,
                  0.008616308681666851,
                  0.027849571779370308,
                  0.02963552437722683,
                  0.03792118653655052,
                  0.009892554022371769,
                  0.008537405170500278,
                  0.052878785878419876,
                  0.05140860378742218,
                  -0.033152025192976,
                  0.040210362523794174,
                  -0.011648744344711304,
                  0.034846629947423935
                ],
                "b": 0.01730344444513321
              },
              "standardize": {
                "mu": [
                  1.862186312675476,
                  2.079026699066162,
                  -2.123321056365967,
                  33.388797760009766,
                  -6.695933818817139,
                  12.518238067626953,
                  -2.444349527359009,
                  5.2776947021484375,
                  -20.462020874023438,
                  43.41435623168945,
                  -57.34244155883789,
                  -7.748649597167969,
                  -27.215574264526367,
                  -6.441276550292969,
                  3.5863864421844482,
                  -0.5071179866790771,
                  3.4840238094329834,
                  6.407205581665039,
                  -2.719597578048706,
                  47.455047607421875,
                  -5.281783103942871
                ],
                "sd": [
                  32.18993377685547,
                  30.404491424560547,
                  60.71049880981445,
                  556.6768798828125,
                  329.53863525390625,
                  266.3885192871094,
                  248.6679229736328,
                  271.8720703125,
                  378.8750305175781,
                  564.8271484375,
                  1156.04052734375,
                  2824.3671875,
                  576.105712890625,
                  349.3716735839844,
                  257.39434814453125,
                  245.79623413085938,
                  281.734130859375,
                  365.6529846191406,
                  585.2589721679688,
                  1174.6868896484375,
                  2857.133544921875
                ]
              },
              "init": {
                "mode": "random_normal",
                "scale": 0.0028569424932669363
              },
              "seeds": {
                "split_seed": 693043,
                "init_seed": 893043,
                "batch_seed": 793043
              }
            },
            "run_id": 1,
            "seed": 993043,
            "randomness": {
              "split_seed": 693043,
              "batch_seed": 793043,
              "init_seed": 893043
            }
          },
          {
            "baseline_cent_sign": {
              "train_acc": 0.5062500238418579,
              "val_acc": 0.5166667103767395
            },
            "logreg": {
              "train": {
                "acc": 0.5677083730697632,
                "nll": 0.6854665279388428
              },
              "val": {
                "acc": 0.4750000238418579,
                "nll": 0.6977666616439819
              },
              "params": {
                "w": [
                  -0.034573450684547424,
                  0.012009864673018456,
                  0.014869853854179382,
                  0.02736111730337143,
                  0.02112651616334915,
                  0.009833283722400665,
                  -0.0206239465624094,
                  0.019668396562337875,
                  -0.0008909393800422549,
                  0.02952636405825615,
                  0.024548364803195,
                  0.01438179425895214,
                  0.027743659913539886,
                  -0.033034440129995346,
                  0.04726268723607063,
                  0.054297056049108505,
                  0.029952673241496086,
                  -0.01888715662062168,
                  0.011787926778197289,
                  -0.01092091016471386,
                  0.06028042733669281
                ],
                "b": 0.01406711433082819
              },
              "standardize": {
                "mu": [
                  1.909834623336792,
                  1.918980598449707,
                  -0.9730283617973328,
                  22.88717269897461,
                  -2.5715901851654053,
                  13.218486785888672,
                  1.6808966398239136,
                  12.79862117767334,
                  -11.030708312988281,
                  34.822975158691406,
                  -42.18805694580078,
                  -47.48431396484375,
                  -9.069999694824219,
                  -13.803606033325195,
                  3.1701157093048096,
                  5.8333516120910645,
                  1.556811809539795,
                  -1.6761385202407837,
                  8.078516006469727,
                  43.162174224853516,
                  25.036792755126953
                ],
                "sd": [
                  33.300968170166016,
                  30.712928771972656,
                  59.90665054321289,
                  564.6451416015625,
                  337.7533264160156,
                  264.3360595703125,
                  243.1207275390625,
                  268.49957275390625,
                  370.40618896484375,
                  565.8870849609375,
                  1178.404541015625,
                  2788.43701171875,
                  585.278076171875,
                  342.254638671875,
                  259.03704833984375,
                  247.57327270507812,
                  277.2769470214844,
                  365.8250732421875,
                  585.0455932617188,
                  1171.5140380859375,
                  2863.89306640625
                ]
              },
              "init": {
                "mode": "random_normal",
                "scale": 0.0028569424932669363
              },
              "seeds": {
                "split_seed": 693044,
                "init_seed": 893044,
                "batch_seed": 793044
              }
            },
            "run_id": 2,
            "seed": 993044,
            "randomness": {
              "split_seed": 693044,
              "batch_seed": 793044,
              "init_seed": 893044
            }
          },
          {
            "baseline_cent_sign": {
              "train_acc": 0.5083333849906921,
              "val_acc": 0.5083333849906921
            },
            "logreg": {
              "train": {
                "acc": 0.5510417222976685,
                "nll": 0.6856003999710083
              },
              "val": {
                "acc": 0.5208333730697632,
                "nll": 0.6948972344398499
              },
              "params": {
                "w": [
                  -0.05609157681465149,
                  0.029613638296723366,
                  0.029416555538773537,
                  0.025180328637361526,
                  0.019562864676117897,
                  0.047407325357198715,
                  -0.023174045607447624,
                  -0.014847650192677975,
                  -0.03272271528840065,
                  0.04842079430818558,
                  -0.0153133450075984,
                  0.02093164063990116,
                  0.02322961390018463,
                  0.00570482574403286,
                  0.013842957094311714,
                  0.01204738300293684,
                  0.04371597617864609,
                  -0.03812949359416962,
                  0.04865223914384842,
                  -0.010320264846086502,
                  0.02118115872144699
                ],
                "b": -0.014357819221913815
              },
              "standardize": {
                "mu": [
                  1.7925153970718384,
                  0.9924793243408203,
                  -0.36273232102394104,
                  12.041932106018066,
                  -8.274921417236328,
                  7.446228981018066,
                  0.46080756187438965,
                  6.99507999420166,
                  -16.11456871032715,
                  41.96736145019531,
                  -25.206405639648438,
                  -78.60536193847656,
                  -13.33054256439209,
                  -13.464225769042969,
                  -2.2018210887908936,
                  0.5350245237350464,
                  2.1874256134033203,
                  9.807514190673828,
                  10.051100730895996,
                  32.7475700378418,
                  -22.97492790222168
                ],
                "sd": [
                  32.17232131958008,
                  30.634735107421875,
                  60.5361213684082,
                  564.4767456054688,
                  345.9823303222656,
                  267.0404052734375,
                  241.10696411132812,
                  272.2314758300781,
                  366.3301086425781,
                  567.9172973632812,
                  1150.24560546875,
                  2810.600341796875,
                  592.0121459960938,
                  342.6471252441406,
                  255.93045043945312,
                  247.0035400390625,
                  282.3479309082031,
                  368.6504821777344,
                  576.6956787109375,
                  1176.2376708984375,
                  2848.89501953125
                ]
              },
              "init": {
                "mode": "random_normal",
                "scale": 0.0028569424932669363
              },
              "seeds": {
                "split_seed": 693045,
                "init_seed": 893045,
                "batch_seed": 793045
              }
            },
            "run_id": 3,
            "seed": 993045,
            "randomness": {
              "split_seed": 693045,
              "batch_seed": 793045,
              "init_seed": 893045
            }
          },
          {
            "baseline_cent_sign": {
              "train_acc": 0.503125011920929,
              "val_acc": 0.5291666984558105
            },
            "logreg": {
              "train": {
                "acc": 0.5447916984558105,
                "nll": 0.6867966651916504
              },
              "val": {
                "acc": 0.44166669249534607,
