{
  "feature_type": "hamming_baseline",
  "alpha": "half_ones_leading",
  "setup": {
    "n": 13,
    "channel_type": "thermal",
    "strength": 0.01,
    "run_name": "n13_thermal_p0p01_fseaf7cc9c88492915_nps705b47d66f38cf70"
  },
  "source": {
    "run_path": "/gpfs/home1/ypatel/data1/shadow-qml-ml/feat_data_all/feat_data/exp_s1_features_hamming_baseline_fseaf7cc9c88492915_fixed_alpha_half_ones_leading_fixed_y_all_zeros_q_5_14/runs/n13_thermal_p0p01_fseaf7cc9c88492915_nps705b47d66f38cf70",
    "dataset_ref": "/gpfs/home1/ypatel/data1/shadow-qml-ml/feat_data_all/feat_data/exp_s1_features_hamming_baseline_fseaf7cc9c88492915_fixed_alpha_half_ones_leading_fixed_y_all_zeros_q_5_14/datasets/dataset_30456f61122afeaa.npz"
  },
  "train_config": {
    "val_frac": 0.2,
    "batch_size": 128,
    "epochs": 160,
    "lr": 0.023062905530795298,
    "l2": 0.0009140906016731205,
    "n_independent_runs": 10,
    "init_mode": "random_normal",
    "init_scale": 0.001966005664489474,
    "vary_split": true,
    "vary_batch_order": true,
    "vary_init": true
  },
  "k_grid_requested": [
    0.8,
    0.9,
    1.0,
    1.1,
    1.2,
    1.3,
    1.4,
    1.5,
    1.6,
    1.7,
    1.8,
    1.9,
    2.0,
    2.1,
    2.2,
    2.3,
    2.4
  ],
  "k_match_mode": "offby1",
  "k_nearest_max_abs_delta": 1,
  "per_nps_selected": [
    {
      "nps": 1351,
      "baseline_cent_sign": {
        "train_acc": 0.5177083611488342,
        "val_acc": 0.5541666746139526
      },
      "logreg": {
        "train": {
          "acc": 0.5406250357627869,
          "nll": 0.6852926015853882
        },
        "val": {
          "acc": 0.5291666984558105,
          "nll": 0.6958567500114441
        },
        "params": {
          "w": [
            0.06228731572628021,
            -0.06341739743947983,
            0.07450749725103378,
            0.006960214115679264,
            -0.08727079629898071,
            0.060201965272426605,
            0.07416731864213943,
            -0.12214979529380798,
            0.04404192045331001,
            0.08385107666254044,
            -0.017503736540675163,
            -0.0010930749122053385,
            0.034787412732839584,
            0.04927320405840874,
            -0.05934653431177139
          ],
          "b": 0.0015148185193538666
        },
        "standardize": {
          "mu": [
            -5.657561302185059,
            -0.731376588344574,
            -4.4574737548828125,
            698.133056640625,
            -68.40786743164062,
            82.35039520263672,
            240.0653076171875,
            36.45097732543945,
            -79.21694946289062,
            607.5885620117188,
            53.731937408447266,
            -38.14845657348633,
            2273.339599609375,
            2194.17919921875,
            -1923.6834716796875
          ],
          "sd": [
            220.330810546875,
            224.27635192871094,
            511.8578796386719,
            30520.595703125,
            16139.84765625,
            10452.25390625,
            8150.9716796875,
            7805.880859375,
            8782.7177734375,
            10924.462890625,
            15043.6650390625,
            24353.73046875,
            48183.1015625,
            107985.078125,
            344704.03125
          ]
        },
        "init": {
          "mode": "random_normal",
          "scale": 0.001966005664489474
        },
        "seeds": {
          "split_seed": 347042,
          "init_seed": 547042,
          "batch_seed": 447042
        }
      },
      "independent_runs": {
        "per_run": [
          {
            "baseline_cent_sign": {
              "train_acc": 0.5177083611488342,
              "val_acc": 0.5541666746139526
            },
            "logreg": {
              "train": {
                "acc": 0.5406250357627869,
                "nll": 0.6852926015853882
              },
              "val": {
                "acc": 0.5291666984558105,
                "nll": 0.6958567500114441
              },
              "params": {
                "w": [
                  0.06228731572628021,
                  -0.06341739743947983,
                  0.07450749725103378,
                  0.006960214115679264,
                  -0.08727079629898071,
                  0.060201965272426605,
                  0.07416731864213943,
                  -0.12214979529380798,
                  0.04404192045331001,
                  0.08385107666254044,
                  -0.017503736540675163,
                  -0.0010930749122053385,
                  0.034787412732839584,
                  0.04927320405840874,
                  -0.05934653431177139
                ],
                "b": 0.0015148185193538666
              },
              "standardize": {
                "mu": [
                  -5.657561302185059,
                  -0.731376588344574,
                  -4.4574737548828125,
                  698.133056640625,
                  -68.40786743164062,
                  82.35039520263672,
                  240.0653076171875,
                  36.45097732543945,
                  -79.21694946289062,
                  607.5885620117188,
                  53.731937408447266,
                  -38.14845657348633,
                  2273.339599609375,
                  2194.17919921875,
                  -1923.6834716796875
                ],
                "sd": [
                  220.330810546875,
                  224.27635192871094,
                  511.8578796386719,
                  30520.595703125,
                  16139.84765625,
                  10452.25390625,
                  8150.9716796875,
                  7805.880859375,
                  8782.7177734375,
                  10924.462890625,
                  15043.6650390625,
                  24353.73046875,
                  48183.1015625,
                  107985.078125,
                  344704.03125
                ]
              },
              "init": {
                "mode": "random_normal",
                "scale": 0.001966005664489474
              },
              "seeds": {
                "split_seed": 347042,
                "init_seed": 547042,
                "batch_seed": 447042
              }
            },
            "run_id": 0,
            "seed": 647042,
            "randomness": {
              "split_seed": 347042,
              "batch_seed": 447042,
              "init_seed": 547042
            }
          },
          {
            "baseline_cent_sign": {
              "train_acc": 0.5260416865348816,
              "val_acc": 0.5208333730697632
            },
            "logreg": {
              "train": {
                "acc": 0.5541666746139526,
                "nll": 0.6854240894317627
              },
              "val": {
                "acc": 0.5625,
                "nll": 0.6918512582778931
              },
              "params": {
                "w": [
                  0.07115303725004196,
                  -0.05495087802410126,
                  0.135428786277771,
                  0.05700625479221344,
                  -0.08324921131134033,
                  0.0858292505145073,
                  0.11330325156450272,
                  -0.04188298061490059,
                  -0.008318904787302017,
                  0.06473851203918457,
                  0.030125577002763748,
                  -0.028162648901343346,
                  0.022427884861826897,
                  -0.03318895399570465,
                  -0.04232911765575409
                ],
                "b": 0.0048774974420666695
              },
              "standardize": {
                "mu": [
                  -13.754155158996582,
                  -0.4798997640609741,
                  5.780365467071533,
                  1034.8564453125,
                  269.373046875,
                  134.53817749023438,
                  259.6949157714844,
                  77.3824691772461,
                  0.17840170860290527,
                  735.36865234375,
                  61.97853469848633,
                  186.17967224121094,
                  2695.520263671875,
                  -1630.935546875,
                  -2217.0947265625
                ],
                "sd": [
                  227.7117156982422,
                  221.05963134765625,
                  502.479248046875,
                  30308.23828125,
                  16459.703125,
                  10312.19140625,
                  8376.6494140625,
                  7873.85546875,
                  8740.2919921875,
                  11127.7236328125,
                  15124.048828125,
                  24429.701171875,
                  49814.22265625,
                  110191.3125,
                  340729.25
                ]
              },
              "init": {
                "mode": "random_normal",
                "scale": 0.001966005664489474
              },
              "seeds": {
                "split_seed": 347043,
                "init_seed": 547043,
                "batch_seed": 447043
              }
            },
            "run_id": 1,
            "seed": 647043,
            "randomness": {
              "split_seed": 347043,
              "batch_seed": 447043,
              "init_seed": 547043
            }
          },
          {
            "baseline_cent_sign": {
              "train_acc": 0.5229166746139526,
              "val_acc": 0.5333333611488342
            },
            "logreg": {
              "train": {
                "acc": 0.5437500476837158,
                "nll": 0.6877327561378479
              },
              "val": {
                "acc": 0.5958333611488342,
                "nll": 0.6811736226081848
              },
              "params": {
                "w": [
                  0.10104987770318985,
                  -0.07300401479005814,
                  0.11618077754974365,
                  1.0770396329462528e-05,
                  -0.06296230852603912,
                  0.08149401843547821,
                  0.09266185015439987,
                  -0.06355943530797958,
                  -0.015602616593241692,
                  0.05808648094534874,
                  -0.024201206862926483,
                  -0.002259522210806608,
                  0.007356539834290743,
                  0.03007889911532402,
                  -0.12332306802272797
                ],
                "b": -0.012816822156310081
              },
              "standardize": {
                "mu": [
                  -15.761037826538086,
                  -0.0399271659553051,
                  7.3003010749816895,
                  338.470458984375,
                  344.7480773925781,
                  361.57745361328125,
                  21.69445037841797,
                  -151.8477325439453,
                  -118.83158111572266,
                  822.66552734375,
                  -118.93382263183594,
                  -222.3345489501953,
                  2684.07763671875,
                  419.49847412109375,
                  -9346.708984375
                ],
                "sd": [
                  225.0668487548828,
                  226.31642150878906,
                  516.8297119140625,
                  30448.197265625,
                  15673.1474609375,
                  10378.3974609375,
                  8179.22509765625,
                  7835.66650390625,
                  8629.50390625,
                  10969.2939453125,
                  15181.880859375,
                  24216.3359375,
                  49139.45703125,
                  112526.3046875,
                  332632.96875
                ]
              },
              "init": {
                "mode": "random_normal",
                "scale": 0.001966005664489474
              },
              "seeds": {
                "split_seed": 347044,
                "init_seed": 547044,
                "batch_seed": 447044
              }
            },
            "run_id": 2,
            "seed": 647044,
            "randomness": {
              "split_seed": 347044,
              "batch_seed": 447044,
              "init_seed": 547044
            }
          },
          {
            "baseline_cent_sign": {
              "train_acc": 0.5218750238418579,
              "val_acc": 0.5375000238418579
            },
            "logreg": {
              "train": {
                "acc": 0.5385416746139526,
                "nll": 0.68500816822052
              },
              "val": {
                "acc": 0.4958333671092987,
                "nll": 0.696296215057373
              },
              "params": {
                "w": [
                  0.051373191177845,
                  -0.09789033979177475,
                  0.13872963190078735,
                  -0.042532987892627716,
                  -0.02949410118162632,
                  0.04305720701813698,
                  0.12149547040462494,
                  -0.07811865955591202,
                  0.07230079919099808,
                  0.046481963247060776,
                  -0.021154390648007393,
                  0.011795520782470703,
                  0.01431454997509718,
                  -0.01778261922299862,
                  -0.052852727472782135
                ],
                "b": 0.022089362144470215
              },
              "standardize": {
                "mu": [
                  -15.157880783081055,
                  -2.355147361755371,
                  0.30693158507347107,
                  -24.254558563232422,
                  441.2192687988281,
                  -72.71051788330078,
                  406.8079528808594,
                  10.260682106018066,
                  -10.143343925476074,
                  754.478759765625,
                  -383.7481994628906,
                  320.9293212890625,
                  1794.4854736328125,
                  281.921875,
                  -13650.369140625
                ],
                "sd": [
                  229.07749938964844,
                  219.905517578125,
                  511.99932861328125,
                  30921.951171875,
                  15678.072265625,
                  10454.6005859375,
                  8251.90625,
                  7701.294921875,
                  8611.400390625,
                  10978.9462890625,
                  15364.9267578125,
                  24215.494140625,
                  49695.37890625,
                  112153.9765625,
                  341504.8125
                ]
              },
              "init": {
                "mode": "random_normal",
                "scale": 0.001966005664489474
              },
              "seeds": {
                "split_seed": 347045,
                "init_seed": 547045,
                "batch_seed": 447045
              }
            },
            "run_id": 3,
            "seed": 647045,
            "randomness": {
              "split_seed": 347045,
              "batch_seed": 447045,
              "init_seed": 547045
            }
          },
          {
            "baseline_cent_sign": {
              "train_acc": 0.5104166865348816,
              "val_acc": 0.5833333730697632
            },
            "logreg": {
              "train": {
                "acc": 0.5614583492279053,
                "nll": 0.6861330270767212
              },
              "val": {
                "acc": 0.5208333730697632,
                "nll": 0.6918449401855469
              },
              "params": {
                "w": [
                  0.038463033735752106,
                  -0.05184374749660492,
                  0.13665062189102173,
                  -0.02208118513226509,
                  -0.02558966353535652,
                  0.07643501460552216,
                  0.11938503384590149,
                  -0.05435369908809662,
                  -0.033756908029317856,
                  0.05063490942120552,
                  -0.042726706713438034,
                  0.019885685294866562,
                  -0.008064540103077888,
                  -0.060692980885505676,
                  -0.11383950710296631
                ],
                "b": -0.03460460156202316
              },
              "standardize": {
                "mu": [
                  -14.313188552856445,
                  -0.25064775347709656,
                  -0.04976603388786316,
                  802.3233642578125,
                  431.294677734375,
                  300.9906005859375,
                  153.89077758789062,
                  -63.77632141113281,
                  -294.2876281738281,
                  821.7915649414062,
                  127.23332214355469,
                  267.0057067871094,
                  3382.654296875,
                  1584.5911865234375,
                  -13293.7666015625
                ],
                "sd": [
                  223.6603546142578,
                  222.62081909179688,
                  508.12579345703125,
                  30814.265625,
                  15963.8818359375,
                  10532.857421875,
                  8444.6494140625,
                  7671.64892578125,
                  8774.7119140625,
                  10855.244140625,
                  14949.3134765625,
                  23522.21484375,
                  48542.890625,
                  112847.1796875,
                  333005.90625
                ]
              },
              "init": {
                "mode": "random_normal",
                "scale": 0.001966005664489474
              },
              "seeds": {
                "split_seed": 347046,
                "init_seed": 547046,
                "batch_seed": 447046
              }
            },
            "run_id": 4,
            "seed": 647046,
            "randomness": {
              "split_seed": 347046,
              "batch_seed": 447046,
              "init_seed": 547046
            }
          },
          {
            "baseline_cent_sign": {
              "train_acc": 0.5291666984558105,
              "val_acc": 0.5083333849906921
            },
            "logreg": {
              "train": {
                "acc": 0.5375000238418579,
                "nll": 0.6862961649894714
              },
              "val": {
                "acc": 0.5291666984558105,
                "nll": 0.6892942190170288
              },
              "params": {
                "w": [
                  0.10167907923460007,
                  -0.10870367288589478,
                  0.10792463272809982,
                  -0.009491592645645142,
                  -0.05789677053689957,
                  0.05035356804728508,
                  0.07992833852767944,
                  -0.07327105849981308,
                  0.03376099467277527,
                  0.02756962552666664,
                  -0.0033516823314130306,
                  -0.042324498295784,
                  0.04051022231578827,
                  0.012770346365869045,
                  -0.062485817819833755
                ],
                "b": 0.048092812299728394
              },
              "standardize": {
                "mu": [
                  -11.360078811645508,
                  4.303504467010498,
                  4.928844451904297,
                  761.6947631835938,
                  302.9727478027344,
                  -11.827849388122559,
                  251.94161987304688,
                  -50.45530700683594,
                  -142.8365020751953,
                  588.536376953125,
                  63.7078971862793,
                  561.9620971679688,
                  1292.4866943359375,
                  1769.5810546875,
                  -10345.4091796875
                ],
                "sd": [
                  223.93666076660156,
                  220.87020874023438,
                  515.8167724609375,
                  30386.4765625,
                  16223.1435546875,
                  10341.30859375,
                  8251.8193359375,
                  7923.833984375,
                  8740.1484375,
                  10699.7177734375,
                  15318.0849609375,
                  24460.546875,
                  48939.21875,
                  111163.5859375,
                  340973.78125
                ]
              },
              "init": {
                "mode": "random_normal",
                "scale": 0.001966005664489474
              },
              "seeds": {
                "split_seed": 347047,
                "init_seed": 547047,
                "batch_seed": 447047
              }
            },
            "run_id": 5,
            "seed": 647047,
            "randomness": {
              "split_seed": 347047,
              "batch_seed": 447047,
              "init_seed": 547047
            }
          },
          {
            "baseline_cent_sign": {
              "train_acc": 0.5062500238418579,
              "val_acc": 0.6000000238418579
            },
            "logreg": {
              "train": {
                "acc": 0.5447916984558105,
                "nll": 0.6848154067993164
              },
              "val": {
                "acc": 0.5250000357627869,
                "nll": 0.6947473883628845
              },
              "params": {
                "w": [
                  0.09180055558681488,
                  -0.10011963546276093,
                  0.08993545919656754,
                  0.010558469220995903,
                  -0.03633423522114754,
                  0.049068842083215714,
                  0.11992208659648895,
                  -0.08839840441942215,
                  0.01177847571671009,
                  0.03883242979645729,
                  0.022291699424386024,
                  -0.03454899787902832,
                  0.0549224428832531,
                  -0.08217885345220566,
                  -0.0869440957903862
                ],
                "b": 0.02572025917470455
              },
              "standardize": {
                "mu": [
                  -6.411620616912842,
                  1.5056023597717285,
                  7.853923797607422,
                  900.2412719726562,
                  16.17952537536621,
                  491.6336975097656,
                  210.34616088867188,
                  -96.79645538330078,
                  -242.19615173339844,
                  583.8294677734375,
                  -357.65057373046875,
                  -378.9650573730469,
                  1947.3363037109375,
                  827.739990234375,
                  -17763.3125
                ],
                "sd": [
                  224.90711975097656,
                  230.10867309570312,
                  516.9120483398438,
                  30678.513671875,
                  16219.1962890625,
                  10225.08984375,
                  8364.173828125,
                  7902.349609375,
                  8881.642578125,
                  11031.4892578125,
                  15161.40234375,
                  24419.44921875,
                  49641.41796875,
                  112771.28125,
                  340815.625
                ]
              },
              "init": {
                "mode": "random_normal",
                "scale": 0.001966005664489474
              },
              "seeds": {
                "split_seed": 347048,
                "init_seed": 547048,
                "batch_seed": 447048
              }
            },
            "run_id": 6,
            "seed": 647048,
            "randomness": {
              "split_seed": 347048,
              "batch_seed": 447048,
              "init_seed": 547048
            }
          },
          {
            "baseline_cent_sign": {
              "train_acc": 0.5302083492279053,
              "val_acc": 0.5041667222976685
            },
            "logreg": {
              "train": {
                "acc": 0.5416666865348816,
                "nll": 0.6856235861778259
              },
              "val": {
                "acc": 0.4958333671092987,
                "nll": 0.6948047876358032
              },
              "params": {
                "w": [
                  0.12346909195184708,
                  -0.06931917369365692,
                  0.08596503734588623,
                  -0.0199972465634346,
                  0.019030073657631874,
                  0.06525551527738571,
                  0.12458804249763489,
                  -0.016376011073589325,
                  0.0013337553245946765,
                  0.07142205536365509,
                  -0.036707546561956406,
                  -0.02853493019938469,
                  0.023430710658431053,
                  -0.03704146668314934,
                  -0.04349241405725479
                ],
                "b": -0.02202562615275383
              },
              "standardize": {
                "mu": [
                  -10.92584228515625,
                  -0.37355196475982666,
                  5.141499996185303,
                  531.0474853515625,
                  -12.168197631835938,
                  167.45533752441406,
                  105.05323028564453,
                  -146.8960723876953,
                  -10.781739234924316,
                  637.9923706054688,
                  127.82392883300781,
                  380.3502502441406,
                  1087.064453125,
                  1474.5654296875,
                  -2841.039306640625
                ],
                "sd": [
                  224.44363403320312,
                  226.3826446533203,
                  510.6837158203125,
                  29939.4453125,
                  16230.6005859375,
                  10401.06640625,
                  8346.6640625,
                  7734.41259765625,
                  9024.6220703125,
                  10801.158203125,
                  15152.06640625,
                  24473.04296875,
                  48645.3515625,
                  111268.1875,
                  343437.0625
                ]
              },
              "init": {
                "mode": "random_normal",
                "scale": 0.001966005664489474
              },
              "seeds": {
                "split_seed": 347049,
                "init_seed": 547049,
                "batch_seed": 447049
              }
            },
            "run_id": 7,
            "seed": 647049,
            "randomness": {
              "split_seed": 347049,
              "batch_seed": 447049,
              "init_seed": 547049
            }
          },
          {
            "baseline_cent_sign": {
              "train_acc": 0.5229166746139526,
              "val_acc": 0.5333333611488342
            },
            "logreg": {
              "train": {
                "acc": 0.546875,
                "nll": 0.6852431297302246
              },
              "val": {
                "acc": 0.5708333849906921,
                "nll": 0.6894924640655518
              },
              "params": {
                "w": [
                  0.07149490714073181,
                  -0.06608650088310242,
                  0.12629824876785278,
                  0.01478826254606247,
                  -0.03877312317490578,
                  0.05866909399628639,
                  0.12721049785614014,
                  -0.09537708759307861,
                  0.011917614378035069,
                  0.0653403103351593,
                  0.011195201426744461,
                  -0.029479969292879105,
                  0.009412962943315506,
                  0.008593003265559673,
                  -0.06683886051177979
                ],
                "b": -0.028624773025512695
              },
              "standardize": {
                "mu": [
                  -10.921165466308594,
                  1.269728660583496,
                  -2.3095552921295166,
                  664.1932373046875,
                  58.71601867675781,
                  244.56788635253906,
                  237.30374145507812,
                  -31.62491226196289,
                  -21.559310913085938,
                  487.3329772949219,
                  144.82920837402344,
                  -297.4964904785156,
                  -56.7660026550293,
                  428.0647277832031,
                  1083.663330078125
                ],
                "sd": [
                  227.65716552734375,
                  226.0171661376953,
                  508.254638671875,
                  30598.92578125,
                  16163.7763671875,
                  10358.751953125,
                  8257.8564453125,
                  7838.7216796875,
                  8909.8193359375,
                  10867.314453125,
                  15317.390625,
                  24387.80859375,
                  47326.18359375,
                  112150.7421875,
                  341857.25
                ]
              },
              "init": {
                "mode": "random_normal",
                "scale": 0.001966005664489474
              },
              "seeds": {
                "split_seed": 347050,
                "init_seed": 547050,
                "batch_seed": 447050
              }
            },
            "run_id": 8,
            "seed": 647050,
            "randomness": {
              "split_seed": 347050,
              "batch_seed": 447050,
              "init_seed": 547050
            }
          },
          {
            "baseline_cent_sign": {
              "train_acc": 0.5302083492279053,
              "val_acc": 0.5041667222976685
            },
            "logreg": {
              "train": {
                "acc": 0.5447916984558105,
                "nll": 0.6824764013290405
              },
              "val": {
                "acc": 0.5083333849906921,
                "nll": 0.7072725296020508
              },
              "params": {
                "w": [
                  0.07954920828342438,
                  -0.09519033133983612,
                  0.11893881112337112,
                  0.0230542104691267,
                  -0.08639947324991226,
                  0.04812473803758621,
                  0.09478774666786194,
                  -0.10725720226764679,
                  -0.039649613201618195,
                  0.04881368577480316,
                  0.0327424518764019,
                  -0.04632389545440674,
                  0.02139672264456749,
                  -0.003229638561606407,
                  -0.027295898646116257
                ],
                "b": 0.036084387451410294
              },
              "standardize": {
                "mu": [
                  -9.502230644226074,
                  0.20102617144584656,
                  3.93198561668396,
                  509.23870849609375,
                  315.00384521484375,
                  116.60411071777344,
                  169.1084442138672,
                  -61.76788330078125,
                  -255.41700744628906,
                  519.0283203125,
                  -358.60107421875,
                  178.41346740722656,
                  1972.75830078125,
                  -1.927767038345337,
                  -7951.17431640625
                ],
                "sd": [
                  221.76010131835938,
                  222.96099853515625,
                  515.7470703125,
                  30297.1796875,
                  16187.1259765625,
                  10225.1552734375,
                  8204.44921875,
                  7885.6865234375,
                  8866.88671875,
                  10958.9501953125,
                  15264.640625,
                  24711.564453125,
                  48374.203125,
                  112215.484375,
                  343482.28125
                ]
              },
              "init": {
                "mode": "random_normal",
                "scale": 0.001966005664489474
              },
              "seeds": {
                "split_seed": 347051,
                "init_seed": 547051,
                "batch_seed": 447051
              }
            },
            "run_id": 9,
            "seed": 647051,
            "randomness": {
              "split_seed": 347051,
              "batch_seed": 447051,
              "init_seed": 547051
            }
          }
        ],
        "summary": {
          "n_runs": 10,
          "baseline_cent_sign": {
            "train_acc": {
              "mean": 0.521770852804184,
              "std": 0.007773512552904708,
              "min": 0.5062500238418579,
              "max": 0.5302083492279053
            },
            "val_acc": {
              "mean": 0.5379167020320892,
              "std": 0.031094046297907,
              "min": 0.5041667222976685,
              "max": 0.6000000238418579
            }
          },
          "logreg": {
            "train_acc": {
              "mean": 0.5454166889190674,
              "std": 0.006975274697035546,
              "min": 0.5375000238418579,
              "max": 0.5614583492279053
            },
            "val_acc": {
              "mean": 0.5333333671092987,
              "std": 0.03140240228678929,
              "min": 0.4958333671092987,
              "max": 0.5958333611488342
            },
            "train_nll": {
              "mean": 0.6854045331478119,
              "std": 0.0012614043923780702,
              "min": 0.6824764013290405,
              "max": 0.6877327561378479
            },
            "val_nll": {
              "mean": 0.6932634174823761,
              "std": 0.006300003859780888,
              "min": 0.6811736226081848,
              "max": 0.7072725296020508
            }
          }
        },
        "randomness_config": {
          "vary_split": true,
          "vary_batch_order": true,
          "vary_init": true
        }
      },
      "k": 0.8,
      "nps_target": 1351,
      "nps_match_mode": "offby1"
    },
    {
      "nps": 3326,
      "baseline_cent_sign": {
        "train_acc": 0.476041704416275,
        "val_acc": 0.5125000476837158
      },
      "logreg": {
        "train": {
          "acc": 0.5520833730697632,
          "nll": 0.6866186857223511
        },
        "val": {
          "acc": 0.550000011920929,
          "nll": 0.6905298233032227
        },
        "params": {
          "w": [
            -0.05150924623012543,
            0.0363444946706295,
            -0.09253261983394623,
            0.12748630344867706,
            -0.07250756770372391,
            -0.04820879176259041,
            -0.012630188837647438,
            0.03218099847435951,
            -0.06071280315518379,
            0.09304587543010712,
            -0.04123220592737198,
            0.0004527970449998975,
            -0.07259860634803772,
            0.041004739701747894,
            0.05922442674636841
          ],
          "b": -0.02680404856801033
        },
        "standardize": {
          "mu": [
            8.716883659362793,
            7.554574489593506,
            4.838963508605957,
            195.69444274902344,
            -388.9514465332031,
            31.252342224121094,
            -14.287882804870605,
            91.16532135009766,
            52.386962890625,
            -307.8460388183594,
            -129.551025390625,
            76.69493865966797,
            636.3831176757812,
            925.3604736328125,
            723.0787963867188
          ],
          "sd": [
            139.923828125,
            144.6258544921875,
            353.1306457519531,
            12784.2880859375,
            6398.466796875,
            4250.6025390625,
            3426.72412109375,
            3180.34716796875,
            3705.64892578125,
            4149.61572265625,
            6402.15185546875,
            10057.833984375,
            19352.693359375,
            43816.21875,
            136987.78125
          ]
        },
        "init": {
          "mode": "random_normal",
          "scale": 0.001966005664489474
        },
        "seeds": {
          "split_seed": 357042,
          "init_seed": 557042,
          "batch_seed": 457042
        }
      },
      "independent_runs": {
        "per_run": [
          {
            "baseline_cent_sign": {
              "train_acc": 0.476041704416275,
              "val_acc": 0.5125000476837158
            },
            "logreg": {
              "train": {
                "acc": 0.5520833730697632,
                "nll": 0.6866186857223511
              },
              "val": {
                "acc": 0.550000011920929,
                "nll": 0.6905298233032227
              },
              "params": {
                "w": [
                  -0.05150924623012543,
                  0.0363444946706295,
                  -0.09253261983394623,
                  0.12748630344867706,
                  -0.07250756770372391,
                  -0.04820879176259041,
                  -0.012630188837647438,
                  0.03218099847435951,
                  -0.06071280315518379,
                  0.09304587543010712,
                  -0.04123220592737198,
                  0.0004527970449998975,
                  -0.07259860634803772,
                  0.041004739701747894,
                  0.05922442674636841
                ],
                "b": -0.02680404856801033
              },
              "standardize": {
                "mu": [
                  8.716883659362793,
                  7.554574489593506,
                  4.838963508605957,
                  195.69444274902344,
                  -388.9514465332031,
                  31.252342224121094,
                  -14.287882804870605,
                  91.16532135009766,
                  52.386962890625,
                  -307.8460388183594,
                  -129.551025390625,
                  76.69493865966797,
                  636.3831176757812,
                  925.3604736328125,
                  723.0787963867188
                ],
                "sd": [
                  139.923828125,
                  144.6258544921875,
                  353.1306457519531,
                  12784.2880859375,
                  6398.466796875,
                  4250.6025390625,
                  3426.72412109375,
                  3180.34716796875,
                  3705.64892578125,
                  4149.61572265625,
                  6402.15185546875,
                  10057.833984375,
                  19352.693359375,
                  43816.21875,
                  136987.78125
                ]
              },
              "init": {
                "mode": "random_normal",
                "scale": 0.001966005664489474
              },
              "seeds": {
                "split_seed": 357042,
                "init_seed": 557042,
                "batch_seed": 457042
              }
            },
            "run_id": 0,
            "seed": 657042,
            "randomness": {
              "split_seed": 357042,
              "batch_seed": 457042,
              "init_seed": 557042
            }
          },
          {
            "baseline_cent_sign": {
              "train_acc": 0.4906250238418579,
              "val_acc": 0.4541666805744171
            },
            "logreg": {
              "train": {
                "acc": 0.5562500357627869,
                "nll": 0.6863861083984375
              },
              "val": {
                "acc": 0.5708333849906921,
                "nll": 0.6920218467712402
              },
              "params": {
                "w": [
                  -0.016707981005311012,
                  0.07319614291191101,
                  -0.0367128886282444,
                  0.11449304223060608,
                  -0.07629267871379852,
                  0.004654235672205687,
                  0.010225243866443634,
                  0.01576116308569908,
                  -0.04763961210846901,
                  0.11556218564510345,
                  -0.044186219573020935,
                  -0.031666941940784454,
                  -0.08809733390808105,
                  0.045061126351356506,
                  0.050717178732156754
                ],
                "b": -0.008593571372330189
              },
              "standardize": {
                "mu": [
                  10.893661499023438,
                  6.848343849182129,
                  11.184383392333984,
                  603.6524047851562,
                  -399.4455871582031,
                  -107.15409088134766,
                  45.998870849609375,
                  -8.913143157958984,
                  154.97132873535156,
                  -372.895263671875,
                  -193.38980102539062,
                  152.8255615234375,
                  35.78261947631836,
                  1692.8997802734375,
                  -3178.103759765625
                ],
                "sd": [
                  138.77490234375,
                  145.4608917236328,
                  353.9676818847656,
                  13031.787109375,
                  6301.6015625,
                  4191.89404296875,
                  3479.541748046875,
                  3192.689697265625,
                  3635.25537109375,
                  4008.67041015625,
                  6447.69970703125,
                  10032.6513671875,
                  19895.17578125,
                  43622.89453125,
                  135622.421875
                ]
              },
              "init": {
                "mode": "random_normal",
                "scale": 0.001966005664489474
              },
              "seeds": {
                "split_seed": 357043,
                "init_seed": 557043,
                "batch_seed": 457043
              }
            },
            "run_id": 1,
            "seed": 657043,
            "randomness": {
              "split_seed": 357043,
              "batch_seed": 457043,
              "init_seed": 557043
            }
          },
          {
            "baseline_cent_sign": {
              "train_acc": 0.47708335518836975,
              "val_acc": 0.5083333849906921
            },
            "logreg": {
              "train": {
                "acc": 0.5489583611488342,
                "nll": 0.68669193983078
              },
              "val": {
                "acc": 0.5208333730697632,
                "nll": 0.6912111043930054
              },
              "params": {
                "w": [
                  -0.03226124122738838,
                  0.08032790571451187,
                  -0.06506428867578506,
                  0.0561751164495945,
                  -0.11393821984529495,
                  -0.03429698199033737,
                  -0.015389978885650635,
                  0.04992828145623207,
                  -0.08717522770166397,
                  0.10597217082977295,
                  -0.0573955662548542,
                  -0.024417372420430183,
                  -0.07488180696964264,
                  0.04926881566643715,
                  0.03198467567563057
                ],
                "b": 0.03646552935242653
              },
              "standardize": {
                "mu": [
                  10.399410247802734,
                  7.12075138092041,
                  15.712726593017578,
                  -313.3293151855469,
                  -371.02642822265625,
                  -100.11522674560547,
                  196.39385986328125,
                  -89.9447250366211,
                  93.49769592285156,
                  -314.3925476074219,
                  -163.65724182128906,
                  132.33786010742188,
                  334.29669189453125,
                  1923.069091796875,
                  -2765.974609375
                ],
                "sd": [
                  137.57757568359375,
                  145.5402374267578,
                  352.6667175292969,
                  13078.1904296875,
                  6296.60595703125,
                  4238.3583984375,
                  3434.084228515625,
                  3245.302734375,
                  3758.2314453125,
                  4024.86083984375,
                  6359.60498046875,
                  9991.7626953125,
                  19526.333984375,
                  44597.53125,
                  140013.34375
                ]
              },
              "init": {
                "mode": "random_normal",
                "scale": 0.001966005664489474
              },
              "seeds": {
                "split_seed": 357044,
                "init_seed": 557044,
                "batch_seed": 457044
              }
            },
            "run_id": 2,
            "seed": 657044,
            "randomness": {
              "split_seed": 357044,
              "batch_seed": 457044,
              "init_seed": 557044
            }
          },
          {
            "baseline_cent_sign": {
              "train_acc": 0.4802083671092987,
              "val_acc": 0.4958333671092987
            },
            "logreg": {
              "train": {
                "acc": 0.5593750476837158,
                "nll": 0.6862328052520752
              },
              "val": {
                "acc": 0.5291666984558105,
                "nll": 0.6958925127983093
              },
              "params": {
                "w": [
                  0.008506468497216702,
                  0.07455583661794662,
                  -0.049189887940883636,
                  0.10974863171577454,
                  -0.09722919762134552,
                  -0.012393495067954063,
                  -0.036108653992414474,
                  0.056898247450590134,
                  -0.09533704817295074,
                  0.07606907933950424,
                  -0.07077601552009583,
                  0.015333667397499084,
                  -0.062596894800663,
                  -0.01407955214381218,
                  0.019537441432476044
                ],
                "b": -0.03652957081794739
              },
              "standardize": {
                "mu": [
                  15.732782363891602,
                  6.714606761932373,
                  13.100425720214844,
                  89.53975677490234,
                  -403.4407958984375,
                  -6.629917621612549,
                  12.344039916992188,
                  -3.9895429611206055,
                  32.124671936035156,
                  -187.0354766845703,
                  -101.45887756347656,
                  -172.27598571777344,
                  32.05781555175781,
                  339.6805419921875,
                  -2817.829833984375
                ],
                "sd": [
                  139.39747619628906,
                  143.68788146972656,
                  358.572265625,
                  13090.484375,
                  6220.99072265625,
                  4191.474609375,
                  3485.591796875,
                  3198.2021484375,
                  3683.138427734375,
                  4145.9189453125,
                  6414.19677734375,
                  10000.8720703125,
                  19994.4453125,
                  45122.8203125,
                  134456.859375
                ]
              },
              "init": {
                "mode": "random_normal",
                "scale": 0.001966005664489474
              },
              "seeds": {
                "split_seed": 357045,
                "init_seed": 557045,
                "batch_seed": 457045
              }
            },
            "run_id": 3,
            "seed": 657045,
            "randomness": {
              "split_seed": 357045,
              "batch_seed": 457045,
              "init_seed": 557045
            }
          },
          {
            "baseline_cent_sign": {
              "train_acc": 0.4677083492279053,
              "val_acc": 0.5458333492279053
            },
            "logreg": {
              "train": {
                "acc": 0.5510417222976685,
                "nll": 0.6851717233657837
              },
              "val": {
                "acc": 0.550000011920929,
                "nll": 0.6983683109283447
              },
              "params": {
                "w": [
                  -0.053404226899147034,
                  0.05441398173570633,
                  -0.14133894443511963,
                  0.08279196918010712,
                  -0.08940757811069489,
                  -0.011876344680786133,
                  -0.005704842507839203,
                  0.0434037484228611,
                  -0.10363853722810745,
                  0.09952601790428162,
                  -0.07371426373720169,
                  -0.036858417093753815,
                  -0.09769262373447418,
                  0.03973478078842163,
                  -0.0014013866893947124
                ],
                "b": 0.00134363048709929
              },
              "standardize": {
                "mu": [
                  8.796442031860352,
                  11.386786460876465,
                  19.64166831970215,
                  210.62777709960938,
                  -426.2228088378906,
                  -5.007381439208984,
                  161.75389099121094,
                  -47.45967483520508,
                  110.8299560546875,
                  -349.27105712890625,
                  -85.18061828613281,
                  207.03094482421875,
                  97.7413101196289,
                  77.64342498779297,
                  116.86328887939453
                ],
                "sd": [
                  139.66661071777344,
                  144.35760498046875,
                  355.42559814453125,
                  13055.435546875,
                  6313.77490234375,
                  4186.3076171875,
                  3398.564453125,
                  3200.1396484375,
                  3691.551513671875,
                  4051.22265625,
                  6300.685546875,
                  9932.5283203125,
                  19638.912109375,
                  44987.7421875,
                  138351.5
                ]
              },
              "init": {
                "mode": "random_normal",
                "scale": 0.001966005664489474
              },
              "seeds": {
                "split_seed": 357046,
                "init_seed": 557046,
                "batch_seed": 457046
              }
            },
            "run_id": 4,
            "seed": 657046,
            "randomness": {
              "split_seed": 357046,
              "batch_seed": 457046,
              "init_seed": 557046
            }
          },
          {
            "baseline_cent_sign": {
              "train_acc": 0.4802083671092987,
              "val_acc": 0.4958333671092987
            },
            "logreg": {
              "train": {
                "acc": 0.5552083849906921,
                "nll": 0.6870112419128418
              },
              "val": {
                "acc": 0.5,
                "nll": 0.6930062770843506
              },
              "params": {
                "w": [
                  -0.04869911074638367,
                  0.039944738149642944,
                  -0.07201066613197327,
                  0.11964011937379837,
                  -0.10334894806146622,
                  0.0007150827441364527,
                  0.0010303569724783301,
                  0.05040426552295685,
                  0.0150608466938138,
                  0.08541916310787201,
                  -0.0660947933793068,
                  -0.04818703606724739,
                  -0.050227269530296326,
                  0.0776360034942627,
                  0.027997812256217003
                ],
                "b": 0.00024867209140211344
              },
              "standardize": {
                "mu": [
                  12.531046867370605,
                  10.861124992370605,
                  19.900466918945312,
                  456.1573791503906,
                  -408.8300476074219,
                  -68.5547103881836,
                  72.8970947265625,
                  -21.183658599853516,
                  105.80062103271484,
                  -403.8091125488281,
                  -142.31900024414062,
                  -69.92027282714844,
                  270.18963623046875,
                  538.10302734375,
                  936.8147583007812
                ],
                "sd": [
                  140.77647399902344,
                  145.6121826171875,
                  352.2200012207031,
                  12900.876953125,
                  6227.44775390625,
                  4174.841796875,
                  3464.02587890625,
                  3275.1923828125,
                  3729.91845703125,
                  4096.2685546875,
                  6326.96435546875,
                  9960.017578125,
                  19684.32421875,
                  44739.70703125,
                  137916.328125
                ]
              },
              "init": {
                "mode": "random_normal",
                "scale": 0.001966005664489474
              },
              "seeds": {
                "split_seed": 357047,
                "init_seed": 557047,
                "batch_seed": 457047
              }
            },
            "run_id": 5,
            "seed": 657047,
            "randomness": {
              "split_seed": 357047,
              "batch_seed": 457047,
              "init_seed": 557047
            }
          },
          {
            "baseline_cent_sign": {
              "train_acc": 0.48854169249534607,
              "val_acc": 0.46250003576278687
            },
            "logreg": {
              "train": {
                "acc": 0.5593750476837158,
                "nll": 0.6852344274520874
              },
              "val": {
                "acc": 0.5291666984558105,
                "nll": 0.6953608989715576
              },
              "params": {
                "w": [
                  -0.04065686836838722,
                  0.05175480246543884,
                  -0.10003941506147385,
                  0.11728783696889877,
                  -0.06384294480085373,
                  -0.019679522141814232,
                  -0.00560735072940588,
                  0.04129475727677345,
                  -0.09817283600568771,
                  0.08665493875741959,
                  -0.05946056544780731,
                  0.008809642866253853,
                  -0.07832091301679611,
                  0.04795730859041214,
                  0.056926626712083817
                ],
                "b": 0.022378534078598022
              },
              "standardize": {
                "mu": [
                  13.429454803466797,
                  7.585441589355469,
                  6.299045085906982,
                  120.76902770996094,
                  -506.93792724609375,
                  -162.68051147460938,
                  148.84445190429688,
                  -40.06889724731445,
                  42.6020622253418,
                  -363.4485168457031,
                  -118.69093322753906,
                  160.07321166992188,
                  135.2528533935547,
                  1037.4423828125,
                  -1142.7322998046875
                ],
                "sd": [
                  140.3629913330078,
                  147.14120483398438,
                  350.51495361328125,
                  13099.830078125,
                  6278.779296875,
                  4122.75439453125,
                  3438.78662109375,
                  3194.107177734375,
                  3677.8505859375,
                  4063.809814453125,
                  6452.88330078125,
                  9972.142578125,
                  19558.484375,
                  45483.609375,
                  137963.765625
                ]
              },
              "init": {
                "mode": "random_normal",
                "scale": 0.001966005664489474
              },
              "seeds": {
                "split_seed": 357048,
                "init_seed": 557048,
                "batch_seed": 457048
              }
            },
            "run_id": 6,
            "seed": 657048,
            "randomness": {
              "split_seed": 357048,
              "batch_seed": 457048,
              "init_seed": 557048
            }
          },
          {
            "baseline_cent_sign": {
              "train_acc": 0.4791666865348816,
              "val_acc": 0.5
            },
            "logreg": {
              "train": {
                "acc": 0.5531250238418579,
                "nll": 0.6878471970558167
              },
              "val": {
                "acc": 0.5,
                "nll": 0.6944690346717834
              },
              "params": {
                "w": [
                  -0.037478264421224594,
                  0.004610375501215458,
                  -0.08737587928771973,
                  0.06375128030776978,
                  -0.031120233237743378,
                  -0.016982264816761017,
                  -0.059438470751047134,
                  0.012421458959579468,
                  -0.017920633777976036,
                  0.053496960550546646,
                  -0.0007264558225870132,
                  -0.005890681408345699,
                  -0.0766989067196846,
                  0.04050188884139061,
                  0.044883403927087784
                ],
                "b": 0.05160911753773689
              },
              "standardize": {
                "mu": [
                  5.84263801574707,
                  5.470256805419922,
                  -4.659928321838379,
                  546.3562622070312,
                  -506.3839416503906,
                  67.63140869140625,
                  -32.6159782409668,
                  -53.404884338378906,
                  75.89464569091797,
                  -305.0291748046875,
                  155.34817504882812,
                  123.44109344482422,
                  727.3308715820312,
                  604.4280395507812,
                  -1623.001953125
                ],
                "sd": [
                  137.9172821044922,
                  143.14990234375,
                  355.7182922363281,
                  13082.919921875,
                  6385.587890625,
                  4227.6728515625,
                  3502.2490234375,
                  3154.488525390625,
                  3687.437255859375,
                  4092.149169921875,
                  6329.1787109375,
                  9877.5869140625,
                  19394.80078125,
                  43429.4453125,
                  139876.875
                ]
              },
              "init": {
                "mode": "random_normal",
                "scale": 0.001966005664489474
              },
              "seeds": {
                "split_seed": 357049,
                "init_seed": 557049,
                "batch_seed": 457049
              }
            },
            "run_id": 7,
            "seed": 657049,
            "randomness": {
              "split_seed": 357049,
              "batch_seed": 457049,
              "init_seed": 557049
            }
          },
          {
            "baseline_cent_sign": {
              "train_acc": 0.4833333492279053,
              "val_acc": 0.4833333492279053
            },
            "logreg": {
              "train": {
                "acc": 0.5531250238418579,
                "nll": 0.6854718923568726
              },
              "val": {
                "acc": 0.5208333730697632,
                "nll": 0.6974842548370361
              },
              "params": {
                "w": [
                  -0.02542027272284031,
                  0.0036982442252337933,
                  -0.09457271546125412,
                  0.08727621287107468,
                  -0.04029121249914169,
                  -0.011418418027460575,
                  -0.03688763827085495,
                  0.06720426678657532,
                  -0.1044926717877388,
                  0.08124898374080658,
                  -0.020029690116643906,
                  -0.004019132349640131,
                  -0.08941128104925156,
                  0.0604349710047245,
                  0.03781162574887276
                ],
                "b": -0.0053703198209404945
              },
              "standardize": {
                "mu": [
                  12.46353816986084,
                  8.697697639465332,
                  1.7408277988433838,
                  363.8226623535156,
                  -479.99945068359375,
                  16.192909240722656,
                  64.3710708618164,
                  -3.547927141189575,
                  59.6713981628418,
                  -314.7644958496094,
                  -56.63237762451172,
                  31.7504825592041,
                  335.18280029296875,
                  316.3889465332031,
                  -2211.878662109375
                ],
                "sd": [
                  140.0196533203125,
                  146.90171813964844,
                  351.6059875488281,
                  13042.943359375,
                  6292.07470703125,
                  4179.7314453125,
                  3413.77490234375,
                  3225.0751953125,
                  3725.731201171875,
                  4128.5244140625,
                  6447.7421875,
                  9943.14453125,
                  19617.53125,
                  44197.48046875,
                  137832.078125
                ]
              },
              "init": {
                "mode": "random_normal",
                "scale": 0.001966005664489474
              },
              "seeds": {
                "split_seed": 357050,
                "init_seed": 557050,
                "batch_seed": 457050
              }
            },
            "run_id": 8,
            "seed": 657050,
            "randomness": {
              "split_seed": 357050,
              "batch_seed": 457050,
              "init_seed": 557050
            }
          },
          {
            "baseline_cent_sign": {
              "train_acc": 0.48750001192092896,
              "val_acc": 0.46666669845581055
            },
            "logreg": {
              "train": {
                "acc": 0.5395833849906921,
                "nll": 0.6857198476791382
              },
              "val": {
                "acc": 0.5125000476837158,
                "nll": 0.6953457593917847
              },
              "params": {
                "w": [
                  -0.02830955572426319,
                  0.02066080830991268,
                  -0.0859682634472847,
                  0.08103512227535248,
                  -0.06993628293275833,
                  0.017400801181793213,
                  -0.004095962271094322,
                  0.059664007276296616,
                  -0.010608411394059658,
                  0.10463230311870575,
                  -0.07192300260066986,
                  -0.014620140194892883,
                  -0.07063192874193192,
                  0.010075865313410759,
                  0.02861475944519043
                ],
                "b": 0.02204788289964199
              },
              "standardize": {
                "mu": [
                  10.242753982543945,
                  4.005659103393555,
                  8.96865463256836,
                  383.9665222167969,
                  -331.835205078125,
                  56.596981048583984,
                  41.84239959716797,
                  39.74345779418945,
                  86.65055847167969,
                  -309.5208435058594,
                  -142.45236206054688,
                  158.26296997070312,
                  399.4908142089844,
                  796.0879516601562,
                  -1346.67578125
                ],
                "sd": [
                  138.5312957763672,
                  145.59548950195312,
                  360.11688232421875,
                  13084.3701171875,
                  6271.21484375,
                  4174.248046875,
                  3436.42236328125,
                  3189.165283203125,
                  3680.995361328125,
                  4111.98828125,
                  6474.38818359375,
                  10029.9580078125,
                  19964.45703125,
                  44566.046875,
                  137807.625
                ]
              },
              "init": {
                "mode": "random_normal",
                "scale": 0.001966005664489474
              },
              "seeds": {
                "split_seed": 357051,
                "init_seed": 557051,
                "batch_seed": 457051
              }
            },
            "run_id": 9,
            "seed": 657051,
            "randomness": {
              "split_seed": 357051,
              "batch_seed": 457051,
              "init_seed": 557051
            }
          }
        ],
        "summary": {
          "n_runs": 10,
          "baseline_cent_sign": {
            "train_acc": {
              "mean": 0.4810416907072067,
              "std": 0.006468405425942709,
              "min": 0.4677083492279053,
              "max": 0.4906250238418579
            },
            "val_acc": {
              "mean": 0.492500028014183,
              "std": 0.02587362554322712,
              "min": 0.4541666805744171,
              "max": 0.5458333492279053
            }
          },
          "logreg": {
            "train_acc": {
              "mean": 0.5528125405311585,
              "std": 0.0054535994853235495,
              "min": 0.5395833849906921,
              "max": 0.5593750476837158
            },
            "val_acc": {
              "mean": 0.5283333599567414,
              "std": 0.021714696879510782,
              "min": 0.5,
              "max": 0.5708333849906921
            },
            "train_nll": {
              "mean": 0.6862385869026184,
              "std": 0.0008099300782174891,
              "min": 0.6851717233657837,
              "max": 0.6878471970558167
            },
            "val_nll": {
              "mean": 0.6943689823150635,
              "std": 0.002490904367039858,
              "min": 0.6905298233032227,
              "max": 0.6983683109283447
            }
          }
        },
        "randomness_config": {
          "vary_split": true,
          "vary_batch_order": true,
          "vary_init": true
        }
      },
      "k": 0.9,
      "nps_target": 3327,
      "nps_match_mode": "offby1"
    },
    {
      "nps": 8192,
      "baseline_cent_sign": {
        "train_acc": 0.48750001192092896,
        "val_acc": 0.5458333492279053
      },
      "logreg": {
        "train": {
          "acc": 0.5531250238418579,
          "nll": 0.6803281307220459
        },
        "val": {
          "acc": 0.5,
          "nll": 0.7016065120697021
        },
        "params": {
          "w": [
            0.13937979936599731,
            -0.03884216025471687,
            -0.0473434180021286,
            0.04137895628809929,
            -0.14702454209327698,
            -0.0021097371354699135,
            0.0009712288156151772,
            0.12288900464773178,
            -0.057926006615161896,
            0.04277585819363594,
            -0.06282694637775421,
            0.03637656569480896,
            -0.010213182307779789,
            0.029839197173714638,
            0.12288020551204681
          ],
          "b": 0.01933499611914158
        },
        "standardize": {
          "mu": [
            2.7474467754364014,
            0.29072508215904236,
            -5.980159759521484,
            32.13544464111328,
            53.111900329589844,
            46.83454132080078,
            -17.300207138061523,
            -29.00469398498535,
            42.31913375854492,
            -11.154592514038086,
            52.522586822509766,
            41.155601501464844,
            372.95416259765625,
            -758.0021362304688,
            175.13275146484375
          ],
          "sd": [
            95.0256118774414,
            88.72586059570312,
            209.2711181640625,
            4684.27490234375,
            2624.312744140625,
            1721.6668701171875,
            1349.0225830078125,
            1313.08056640625,
            1455.5150146484375,
            1786.38330078125,
            2547.963623046875,
            4333.5625,
            7997.3505859375,
            18421.478515625,
            52758.875
          ]
        },
        "init": {
          "mode": "random_normal",
          "scale": 0.001966005664489474
        },
        "seeds": {
          "split_seed": 367042,
          "init_seed": 567042,
          "batch_seed": 467042
        }
      },
      "independent_runs": {
        "per_run": [
          {
            "baseline_cent_sign": {
              "train_acc": 0.48750001192092896,
              "val_acc": 0.5458333492279053
            },
            "logreg": {
              "train": {
                "acc": 0.5531250238418579,
                "nll": 0.6803281307220459
              },
              "val": {
                "acc": 0.5,
                "nll": 0.7016065120697021
              },
              "params": {
                "w": [
                  0.13937979936599731,
                  -0.03884216025471687,
                  -0.0473434180021286,
                  0.04137895628809929,
                  -0.14702454209327698,
                  -0.0021097371354699135,
                  0.0009712288156151772,
                  0.12288900464773178,
                  -0.057926006615161896,
                  0.04277585819363594,
                  -0.06282694637775421,
                  0.03637656569480896,
                  -0.010213182307779789,
                  0.029839197173714638,
                  0.12288020551204681
                ],
                "b": 0.01933499611914158
              },
              "standardize": {
                "mu": [
                  2.7474467754364014,
                  0.29072508215904236,
                  -5.980159759521484,
                  32.13544464111328,
                  53.111900329589844,
                  46.83454132080078,
                  -17.300207138061523,
                  -29.00469398498535,
                  42.31913375854492,
                  -11.154592514038086,
                  52.522586822509766,
                  41.155601501464844,
                  372.95416259765625,
                  -758.0021362304688,
                  175.13275146484375
                ],
                "sd": [
                  95.0256118774414,
                  88.72586059570312,
                  209.2711181640625,
                  4684.27490234375,
                  2624.312744140625,
                  1721.6668701171875,
                  1349.0225830078125,
                  1313.08056640625,
                  1455.5150146484375,
                  1786.38330078125,
                  2547.963623046875,
                  4333.5625,
                  7997.3505859375,
                  18421.478515625,
                  52758.875
                ]
              },
              "init": {
                "mode": "random_normal",
                "scale": 0.001966005664489474
              },
              "seeds": {
                "split_seed": 367042,
                "init_seed": 567042,
                "batch_seed": 467042
              }
            },
            "run_id": 0,
            "seed": 667042,
            "randomness": {
              "split_seed": 367042,
              "batch_seed": 467042,
              "init_seed": 567042
            }
          },
          {
            "baseline_cent_sign": {
              "train_acc": 0.4989583492279053,
              "val_acc": 0.5
            },
            "logreg": {
              "train": {
                "acc": 0.5520833730697632,
                "nll": 0.68203204870224
              },
              "val": {
                "acc": 0.5416666865348816,
                "nll": 0.6921592950820923
              },
              "params": {
                "w": [
                  0.10341580957174301,
                  0.002403785940259695,
                  -0.051054537296295166,
                  0.044409919530153275,
                  -0.1801101416349411,
                  0.01974964328110218,
                  0.015672164037823677,
                  0.10932815074920654,
                  -0.0699317455291748,
                  0.07556143403053284,
                  -0.05350319296121597,
                  0.007930181920528412,
                  -0.01733626052737236,
                  0.06480634957551956,
                  0.07290081679821014
                ],
                "b": -0.02188044972717762
              },
              "standardize": {
                "mu": [
                  -1.2506414651870728,
                  1.3290225267410278,
                  -10.664209365844727,
                  -45.247562408447266,
                  21.23409080505371,
                  18.777137756347656,
                  7.5508904457092285,
                  31.938302993774414,
                  54.25906753540039,
                  1.4412842988967896,
                  57.67752456665039,
                  32.48731994628906,
                  389.1864013671875,
                  -1179.202392578125,
                  -781.2000122070312
                ],
                "sd": [
                  96.06734466552734,
                  87.03443908691406,
                  209.43173217773438,
                  4780.4169921875,
                  2648.27099609375,
                  1738.3489990234375,
                  1352.396484375,
                  1304.4306640625,
                  1464.366455078125,
                  1810.0565185546875,
                  2451.84619140625,
                  4394.11572265625,
                  8036.52978515625,
                  18985.01953125,
                  51879.90625
                ]
              },
              "init": {
                "mode": "random_normal",
                "scale": 0.001966005664489474
              },
              "seeds": {
                "split_seed": 367043,
                "init_seed": 567043,
                "batch_seed": 467043
              }
            },
            "run_id": 1,
            "seed": 667043,
            "randomness": {
              "split_seed": 367043,
              "batch_seed": 467043,
              "init_seed": 567043
            }
          },
          {
            "baseline_cent_sign": {
              "train_acc": 0.5020833611488342,
              "val_acc": 0.48750001192092896
            },
            "logreg": {
              "train": {
                "acc": 0.5562500357627869,
                "nll": 0.6811831593513489
              },
              "val": {
                "acc": 0.5250000357627869,
                "nll": 0.6994954943656921
              },
              "params": {
                "w": [
                  0.10533162206411362,
                  0.0070768436416983604,
                  -0.05835487321019173,
                  0.08209042996168137,
                  -0.17989884316921234,
                  0.017837032675743103,
                  -0.009378543123602867,
                  0.13808263838291168,
                  -0.06649275124073029,
                  0.0038295811973512173,
                  -0.023006852716207504,
                  0.004812213592231274,
                  -0.007291358429938555,
                  0.026479685679078102,
                  0.05570460855960846
                ],
                "b": -0.03391577675938606
              },
              "standardize": {
                "mu": [
                  1.0859460830688477,
                  -0.04834922403097153,
                  -3.487231731414795,
                  -46.0300407409668,
                  -45.119590759277344,
                  57.32712936401367,
                  21.108448028564453,
                  7.20304012298584,
                  67.4324951171875,
                  -3.837892770767212,
                  45.65441131591797,
                  53.74130630493164,
                  112.90877532958984,
                  -1070.1707763671875,
                  152.4432373046875
                ],
                "sd": [
                  93.47171020507812,
                  86.19451904296875,
                  214.35987854003906,
                  4791.958984375,
                  2616.448974609375,
                  1730.1942138671875,
                  1354.80859375,
                  1313.72607421875,
                  1406.082275390625,
                  1804.62890625,
                  2457.53271484375,
                  4385.431640625,
                  8023.5791015625,
                  18637.486328125,
                  53189.0390625
                ]
              },
              "init": {
                "mode": "random_normal",
                "scale": 0.001966005664489474
              },
              "seeds": {
                "split_seed": 367044,
                "init_seed": 567044,
                "batch_seed": 467044
              }
            },
            "run_id": 2,
            "seed": 667044,
            "randomness": {
              "split_seed": 367044,
              "batch_seed": 467044,
              "init_seed": 567044
            }
          },
          {
            "baseline_cent_sign": {
              "train_acc": 0.503125011920929,
              "val_acc": 0.4833333492279053
            },
            "logreg": {
              "train": {
                "acc": 0.550000011920929,
                "nll": 0.6840977072715759
              },
              "val": {
                "acc": 0.5625,
                "nll": 0.6843845248222351
              },
              "params": {
                "w": [
                  0.1022425964474678,
                  0.03841758891940117,
                  -0.02465643174946308,
                  0.051677998155355453,
                  -0.20120999217033386,
                  0.036450114101171494,
                  0.006511237937957048,
                  0.1288788616657257,
                  -0.06451307237148285,
                  0.05610174313187599,
                  -0.04412074759602547,
                  0.029020225629210472,
                  0.016287393867969513,
                  0.04632023349404335,
                  0.060563795268535614
                ],
                "b": 0.012992756441235542
              },
              "standardize": {
                "mu": [
                  1.0336726903915405,
                  0.09883365780115128,
                  -8.694806098937988,
                  66.8617935180664,
                  -68.04849243164062,
                  51.98387908935547,
                  47.23224639892578,
                  42.40401077270508,
                  59.179359436035156,
                  -22.10570526123047,
                  78.58485412597656,
                  1.7355287075042725,
                  192.78907775878906,
                  -1094.55078125,
                  1229.2764892578125
                ],
                "sd": [
                  93.7133560180664,
                  87.25535583496094,
                  209.72254943847656,
                  4716.92431640625,
                  2632.340087890625,
                  1710.9898681640625,
                  1385.9031982421875,
                  1311.333251953125,
                  1481.9010009765625,
                  1798.612060546875,
                  2467.298583984375,
                  4233.9501953125,
                  7995.01611328125,
                  18551.75390625,
                  52975.2890625
                ]
              },
              "init": {
                "mode": "random_normal",
                "scale": 0.001966005664489474
              },
              "seeds": {
                "split_seed": 367045,
                "init_seed": 567045,
                "batch_seed": 467045
              }
            },
            "run_id": 3,
            "seed": 667045,
            "randomness": {
              "split_seed": 367045,
              "batch_seed": 467045,
              "init_seed": 567045
            }
          },
          {
            "baseline_cent_sign": {
              "train_acc": 0.49791669845581055,
              "val_acc": 0.5041667222976685
            },
            "logreg": {
              "train": {
                "acc": 0.5625,
                "nll": 0.6823573112487793
              },
              "val": {
                "acc": 0.5083333849906921,
                "nll": 0.6994726657867432
              },
              "params": {
                "w": [
                  0.09019287675619125,
                  -0.014247231185436249,
                  -0.01999831572175026,
                  0.06973361223936081,
                  -0.1257115751504898,
                  -0.043411947786808014,
                  -0.0552140548825264,
                  0.08359337598085403,
                  -0.06755904853343964,
                  0.056677766144275665,
                  -0.0458155982196331,
                  0.034994784742593765,
                  -0.03308646008372307,
                  0.0162680521607399,
                  0.009381527081131935
                ],
                "b": -0.055598679929971695
              },
              "standardize": {
                "mu": [
                  0.4378126859664917,
                  -0.6425051689147949,
                  -6.101511001586914,
                  79.26519012451172,
                  1.7897542715072632,
                  80.88082122802734,
                  43.2899284362793,
                  16.32364845275879,
                  28.73019790649414,
                  -4.728765964508057,
                  -11.948291778564453,
                  95.81095886230469,
                  345.3683166503906,
                  -1286.3599853515625,
                  129.86080932617188
                ],
                "sd": [
                  93.2029037475586,
                  87.48193359375,
                  211.70423889160156,
                  4724.09619140625,
                  2675.505126953125,
                  1711.01025390625,
                  1372.5196533203125,
                  1325.570068359375,
                  1425.955810546875,
                  1791.300537109375,
                  2448.0087890625,
                  4317.5673828125,
                  8005.5439453125,
                  18817.32421875,
                  53052.6328125
                ]
              },
              "init": {
                "mode": "random_normal",
                "scale": 0.001966005664489474
              },
              "seeds": {
                "split_seed": 367046,
                "init_seed": 567046,
                "batch_seed": 467046
              }
            },
            "run_id": 4,
            "seed": 667046,
            "randomness": {
              "split_seed": 367046,
              "batch_seed": 467046,
              "init_seed": 567046
            }
          },
          {
            "baseline_cent_sign": {
              "train_acc": 0.48645836114883423,
              "val_acc": 0.550000011920929
            },
            "logreg": {
              "train": {
                "acc": 0.5552083849906921,
                "nll": 0.6830083727836609
              },
              "val": {
                "acc": 0.5041667222976685,
                "nll": 0.6995245218276978
              },
              "params": {
                "w": [
                  0.027703281491994858,
                  -0.0333390086889267,
                  -0.07525388151407242,
                  0.05417269840836525,
                  -0.1396932452917099,
                  -0.0058568380773067474,
                  0.011479055508971214,
                  0.13078764081001282,
                  -0.13281352818012238,
                  0.03825272247195244,
                  -0.07122357189655304,
                  0.05011312663555145,
                  0.016665756702423096,
                  -0.03099958226084709,
                  0.050474416464567184
                ],
                "b": -0.02444390393793583
              },
              "standardize": {
                "mu": [
                  2.1376452445983887,
                  -0.14299994707107544,
                  -10.058027267456055,
                  -34.79054641723633,
                  -13.260400772094727,
                  56.156768798828125,
                  15.161149978637695,
                  -4.399273872375488,
                  68.2578353881836,
                  -7.970664978027344,
                  50.982765197753906,
                  17.48314666748047,
                  151.96432495117188,
                  -990.5264282226562,
                  774.3796997070312
                ],
                "sd": [
                  94.9501953125,
                  88.78355407714844,
                  208.0958709716797,
                  4726.22900390625,
                  2645.035888671875,
                  1735.1375732421875,
                  1342.9554443359375,
                  1312.664794921875,
                  1424.0302734375,
                  1801.8031005859375,
                  2535.4736328125,
                  4336.078125,
                  8077.529296875,
                  18973.951171875,
                  52817.078125
                ]
              },
              "init": {
                "mode": "random_normal",
                "scale": 0.001966005664489474
              },
              "seeds": {
                "split_seed": 367047,
                "init_seed": 567047,
                "batch_seed": 467047
              }
            },
            "run_id": 5,
            "seed": 667047,
            "randomness": {
              "split_seed": 367047,
              "batch_seed": 467047,
              "init_seed": 567047
            }
          },
          {
            "baseline_cent_sign": {
              "train_acc": 0.503125011920929,
              "val_acc": 0.4833333492279053
            },
            "logreg": {
              "train": {
                "acc": 0.5447916984558105,
                "nll": 0.6861374378204346
              },
              "val": {
                "acc": 0.5583333373069763,
                "nll": 0.6813066005706787
              },
              "params": {
                "w": [
                  0.08139565587043762,
                  -0.04078660160303116,
                  -0.01197204552590847,
                  -0.0027566226199269295,
                  -0.13506808876991272,
                  -0.02887178398668766,
                  -0.03403427451848984,
                  0.11054136604070663,
                  -0.10655583441257477,
                  0.022254692390561104,
                  -0.08608713746070862,
                  0.01625402271747589,
                  -0.019323406741023064,
                  0.021997876465320587,
                  0.10238070040941238
                ],
                "b": 0.011928807944059372
              },
              "standardize": {
                "mu": [
                  0.8370530605316162,
                  0.9544969201087952,
                  -5.966761589050293,
                  107.34740447998047,
                  -86.78169250488281,
                  95.1096420288086,
                  25.086811065673828,
                  24.004480361938477,
                  46.31605911254883,
                  -76.8403091430664,
                  33.219844818115234,
                  33.56766891479492,
                  357.9023742675781,
                  -1383.4342041015625,
                  1155.6033935546875
                ],
                "sd": [
                  95.08871459960938,
                  86.94004821777344,
                  208.9425811767578,
                  4814.5146484375,
                  2631.923828125,
                  1701.1094970703125,
                  1356.8380126953125,
                  1311.69921875,
                  1480.4637451171875,
                  1785.828369140625,
                  2446.30126953125,
                  4318.705078125,
                  8108.02392578125,
                  18737.693359375,
                  53648.4140625
                ]
              },
              "init": {
                "mode": "random_normal",
                "scale": 0.001966005664489474
              },
              "seeds": {
                "split_seed": 367048,
                "init_seed": 567048,
                "batch_seed": 467048
              }
            },
            "run_id": 6,
            "seed": 667048,
            "randomness": {
              "split_seed": 367048,
              "batch_seed": 467048,
              "init_seed": 567048
            }
          },
          {
            "baseline_cent_sign": {
              "train_acc": 0.5,
              "val_acc": 0.4958333671092987
            },
            "logreg": {
              "train": {
                "acc": 0.546875,
                "nll": 0.6843713521957397
              },
              "val": {
                "acc": 0.5625,
                "nll": 0.6856022477149963
              },
              "params": {
                "w": [
                  0.11774954199790955,
                  -0.05818194895982742,
                  -0.03500763326883316,
                  0.022122276946902275,
                  -0.14108267426490784,
                  0.05517539381980896,
                  0.019864434376358986,
                  0.1174829751253128,
                  -0.0507565476000309,
                  0.05666590481996536,
                  -0.09397497773170471,
                  0.03265136480331421,
                  -0.04294160380959511,
                  0.025559812784194946,
                  0.0699961930513382
                ],
                "b": 0.006029544863849878
              },
              "standardize": {
                "mu": [
                  1.0501601696014404,
                  0.12399852275848389,
                  -6.155911445617676,
                  115.7197036743164,
                  -10.837297439575195,
                  42.312782287597656,
                  34.516876220703125,
                  3.678002119064331,
                  54.78944396972656,
                  33.61797332763672,
                  65.35331726074219,
                  101.5930404663086,
                  77.68370819091797,
                  -734.2236328125,
                  314.78021240234375
                ],
                "sd": [
                  94.82503509521484,
                  87.751708984375,
                  207.4543914794922,
                  4763.822265625,
                  2661.86328125,
                  1736.577392578125,
                  1378.732666015625,
                  1326.500244140625,
                  1483.861328125,
                  1782.5281982421875,
                  2509.85546875,
                  4349.7939453125,
                  8049.63232421875,
                  19137.5703125,
                  53563.17578125
                ]
              },
              "init": {
                "mode": "random_normal",
                "scale": 0.001966005664489474
              },
              "seeds": {
                "split_seed": 367049,
                "init_seed": 567049,
                "batch_seed": 467049
              }
            },
            "run_id": 7,
            "seed": 667049,
            "randomness": {
              "split_seed": 367049,
              "batch_seed": 467049,
              "init_seed": 567049
            }
          },
          {
            "baseline_cent_sign": {
              "train_acc": 0.5041667222976685,
              "val_acc": 0.4791666865348816
            },
            "logreg": {
              "train": {
                "acc": 0.5479167103767395,
                "nll": 0.6839602589607239
              },
              "val": {
                "acc": 0.5541666746139526,
                "nll": 0.6865781545639038
              },
              "params": {
                "w": [
                  0.09284335374832153,
                  -0.015551311895251274,
                  -0.008202094584703445,
                  0.059119123965501785,
                  -0.1602441966533661,
                  0.010781386867165565,
                  0.013401813805103302,
                  0.10837482661008835,
                  -0.0651014968752861,
                  0.08140076696872711,
                  -0.0599188469350338,
                  0.04786292836070061,
                  0.004796792287379503,
                  0.07463470101356506,
                  0.06312782317399979
                ],
                "b": -0.059661734849214554
              },
              "standardize": {
                "mu": [
                  2.9080798625946045,
                  -1.0897293090820312,
                  -11.758041381835938,
                  7.391797065734863,
                  -2.6238160133361816,
                  65.7201156616211,
                  14.558985710144043,
                  2.3527588844299316,
                  63.10232162475586,
                  -10.026558876037598,
                  46.75511169433594,
                  100.2042236328125,
                  212.12973022460938,
                  -946.2416381835938,
                  -36.51370620727539
                ],
                "sd": [
                  95.58677673339844,
                  85.12680053710938,
                  212.88790893554688,
                  4835.45361328125,
                  2636.7998046875,
                  1739.73681640625,
                  1381.6226806640625,
                  1322.203125,
                  1435.3046875,
                  1801.96337890625,
                  2463.8125,
                  4267.11669921875,
                  8065.4453125,
                  18925.97265625,
                  53487.33203125
                ]
              },
              "init": {
                "mode": "random_normal",
                "scale": 0.001966005664489474
              },
              "seeds": {
                "split_seed": 367050,
                "init_seed": 567050,
                "batch_seed": 467050
              }
            },
            "run_id": 8,
            "seed": 667050,
            "randomness": {
              "split_seed": 367050,
              "batch_seed": 467050,
              "init_seed": 567050
            }
          },
          {
            "baseline_cent_sign": {
              "train_acc": 0.49791669845581055,
              "val_acc": 0.5041667222976685
            },
            "logreg": {
              "train": {
                "acc": 0.5562500357627869,
                "nll": 0.6828065514564514
              },
              "val": {
                "acc": 0.5166667103767395,
                "nll": 0.69402015209198
              },
              "params": {
                "w": [
                  0.08469941467046738,
                  -0.05238346755504608,
                  -0.02348712459206581,
                  0.04152124375104904,
                  -0.21870604157447815,
                  0.01920551247894764,
                  0.019684409722685814,
                  0.14771504700183868,
                  -0.06280547380447388,
                  0.0035786356311291456,
                  -0.03255099803209305,
                  0.03862813860177994,
                  -0.010261407122015953,
                  0.0352797694504261,
                  0.09282398968935013
                ],
                "b": 0.0025978172197937965
              },
              "standardize": {
                "mu": [
                  -1.1163697242736816,
                  -0.8758602738380432,
                  -1.7792236804962158,
                  -35.43701171875,
                  -53.50193405151367,
                  61.42525863647461,
                  32.599647521972656,
                  18.139432907104492,
                  74.25695037841797,
                  3.688098430633545,
                  3.69819712638855,
                  62.152259826660156,
                  255.27854919433594,
                  -1967.154296875,
                  1534.0244140625
                ],
                "sd": [
                  95.27812957763672,
                  88.66451263427734,
                  209.98895263671875,
                  4742.4013671875,
                  2595.7939453125,
                  1752.5643310546875,
                  1360.540771484375,
                  1334.59521484375,
                  1440.4732666015625,
                  1784.27587890625,
                  2456.480712890625,
                  4394.12548828125,
                  7999.40283203125,
                  18964.443359375,
                  52840.41015625
                ]
              },
              "init": {
                "mode": "random_normal",
                "scale": 0.001966005664489474
              },
              "seeds": {
                "split_seed": 367051,
                "init_seed": 567051,
                "batch_seed": 467051
              }
            },
            "run_id": 9,
            "seed": 667051,
            "randomness": {
              "split_seed": 367051,
              "batch_seed": 467051,
              "init_seed": 567051
            }
          }
        ],
        "summary": {
          "n_runs": 10,
          "baseline_cent_sign": {
            "train_acc": {
              "mean": 0.498125022649765,
              "std": 0.00596212192500861,
              "min": 0.48645836114883423,
              "max": 0.5041667222976685
            },
            "val_acc": {
              "mean": 0.503333356976509,
              "std": 0.023848479056535504,
              "min": 0.4791666865348816,
              "max": 0.550000011920929
            }
          },
          "logreg": {
            "train_acc": {
              "mean": 0.5525000274181366,
              "std": 0.00504321465296568,
              "min": 0.5447916984558105,
              "max": 0.5625
            },
            "val_acc": {
              "mean": 0.5333333551883698,
              "std": 0.02400808586453933,
              "min": 0.5,
              "max": 0.5625
            },
            "train_nll": {
              "mean": 0.6830282330513,
              "std": 0.0016022008851911088,
              "min": 0.6803281307220459,
              "max": 0.6861374378204346
            },
            "val_nll": {
              "mean": 0.6924150168895722,
              "std": 0.007113245163849442,
              "min": 0.6813066005706787,
              "max": 0.7016065120697021
            }
          }
        },
        "randomness_config": {
          "vary_split": true,
          "vary_batch_order": true,
          "vary_init": true
        }
      },
      "k": 1.0,
      "nps_target": 8192,
      "nps_match_mode": "offby1"
    },
    {
      "nps": 20171,
      "baseline_cent_sign": {
        "train_acc": 0.48750001192092896,
        "val_acc": 0.4958333671092987
      },
      "logreg": {
        "train": {
          "acc": 0.5375000238418579,
          "nll": 0.6882519125938416
        },
        "val": {
          "acc": 0.4833333492279053,
          "nll": 0.697909414768219
        },
        "params": {
          "w": [
            0.02045351453125477,
            0.03640347346663475,
            -0.024717211723327637,
            -0.04729466140270233,
            -0.02551034837961197,
            0.03490282595157623,
            0.016671646386384964,
            0.010076961480081081,
            0.06669645756483078,
            0.10724544525146484,
            0.10409288853406906,
