{
  "feature_type": "hamming_baseline",
  "alpha": "half_ones_leading",
  "setup": {
    "n": 15,
    "channel_type": "depolarizing",
    "strength": 0.1,
    "run_name": "n15_depolarizing_p0p1_fseaf7cc9c88492915_nps7db04a43d4415a69"
  },
  "source": {
    "run_path": "/gpfs/home1/ypatel/data1/shadow-qml-ml/feat_data_all/feat_data/exp_s1_features_hamming_baseline_fseaf7cc9c88492915_fixed_alpha_half_ones_leading_fixed_y_all_zeros_q_15_15/runs/n15_depolarizing_p0p1_fseaf7cc9c88492915_nps7db04a43d4415a69",
    "dataset_ref": "/gpfs/home1/ypatel/data1/shadow-qml-ml/feat_data_all/feat_data/exp_s1_features_hamming_baseline_fseaf7cc9c88492915_fixed_alpha_half_ones_leading_fixed_y_all_zeros_q_15_15/datasets/dataset_af54c8e9b2ba07a6.npz"
  },
  "train_config": {
    "val_frac": 0.2,
    "batch_size": 128,
    "epochs": 160,
    "lr": 0.023062905530795298,
    "l2": 0.0009140906016731205,
    "n_independent_runs": 10,
    "init_mode": "random_normal",
    "init_scale": 0.001966005664489474,
    "vary_split": true,
    "vary_batch_order": true,
    "vary_init": true
  },
  "k_grid_requested": [
    0.8,
    0.9,
    1.0,
    1.1,
    1.2,
    1.3,
    1.4,
    1.5,
    1.6,
    1.7,
    1.8,
    1.9,
    2.0,
    2.1,
    2.2,
    2.3,
    2.4
  ],
  "k_match_mode": "offby1",
  "k_nearest_max_abs_delta": 1,
  "per_nps_selected": [
    {
      "nps": 4096,
      "baseline_cent_sign": {
        "train_acc": 0.49375003576278687,
        "val_acc": 0.5291666984558105
      },
      "logreg": {
        "train": {
          "acc": 0.5322917103767395,
          "nll": 0.6908621788024902
        },
        "val": {
          "acc": 0.491666704416275,
          "nll": 0.695600152015686
        },
        "params": {
          "w": [
            -0.019991010427474976,
            0.029368598014116287,
            -0.026045819744467735,
            -0.030478332191705704,
            0.015681372955441475,
            -0.04981035739183426,
            0.02666919119656086,
            0.012119807302951813,
            0.02119450271129608,
            0.00018906212062574923,
            -0.08355558663606644,
            -0.017791055142879486,
            -0.07474939525127411,
            0.03996878117322922,
            0.007387056015431881,
            -0.024001121520996094,
            0.017684590071439743
          ],
          "b": 0.04417158663272858
        },
        "standardize": {
          "mu": [
            31.82680892944336,
            11.21763801574707,
            -54.363285064697266,
            5092.42578125,
            2311.641357421875,
            -1159.260498046875,
            -414.648681640625,
            790.1171875,
            629.8101806640625,
            1170.6778564453125,
            109.47621154785156,
            4170.25244140625,
            4156.443359375,
            4216.6669921875,
            -6836.5322265625,
            52171.1953125,
            72752.078125
          ],
          "sd": [
            506.4958190917969,
            513.1511840820312,
            1460.60888671875,
            178919.625,
            88463.5390625,
            55351.87109375,
            40554.68359375,
            34373.70703125,
            33266.40234375,
            36724.96484375,
            44422.71484375,
            62141.96484375,
            102240.5234375,
            179712.78125,
            387971.0625,
            920152.875,
            2972080.25
          ]
        },
        "init": {
          "mode": "random_normal",
          "scale": 0.001966005664489474
        },
        "seeds": {
          "split_seed": 375042,
          "init_seed": 575042,
          "batch_seed": 475042
        }
      },
      "independent_runs": {
        "per_run": [
          {
            "baseline_cent_sign": {
              "train_acc": 0.49375003576278687,
              "val_acc": 0.5291666984558105
            },
            "logreg": {
              "train": {
                "acc": 0.5322917103767395,
                "nll": 0.6908621788024902
              },
              "val": {
                "acc": 0.491666704416275,
                "nll": 0.695600152015686
              },
              "params": {
                "w": [
                  -0.019991010427474976,
                  0.029368598014116287,
                  -0.026045819744467735,
                  -0.030478332191705704,
                  0.015681372955441475,
                  -0.04981035739183426,
                  0.02666919119656086,
                  0.012119807302951813,
                  0.02119450271129608,
                  0.00018906212062574923,
                  -0.08355558663606644,
                  -0.017791055142879486,
                  -0.07474939525127411,
                  0.03996878117322922,
                  0.007387056015431881,
                  -0.024001121520996094,
                  0.017684590071439743
                ],
                "b": 0.04417158663272858
              },
              "standardize": {
                "mu": [
                  31.82680892944336,
                  11.21763801574707,
                  -54.363285064697266,
                  5092.42578125,
                  2311.641357421875,
                  -1159.260498046875,
                  -414.648681640625,
                  790.1171875,
                  629.8101806640625,
                  1170.6778564453125,
                  109.47621154785156,
                  4170.25244140625,
                  4156.443359375,
                  4216.6669921875,
                  -6836.5322265625,
                  52171.1953125,
                  72752.078125
                ],
                "sd": [
                  506.4958190917969,
                  513.1511840820312,
                  1460.60888671875,
                  178919.625,
                  88463.5390625,
                  55351.87109375,
                  40554.68359375,
                  34373.70703125,
                  33266.40234375,
                  36724.96484375,
                  44422.71484375,
                  62141.96484375,
                  102240.5234375,
                  179712.78125,
                  387971.0625,
                  920152.875,
                  2972080.25
                ]
              },
              "init": {
                "mode": "random_normal",
                "scale": 0.001966005664489474
              },
              "seeds": {
                "split_seed": 375042,
                "init_seed": 575042,
                "batch_seed": 475042
              }
            },
            "run_id": 0,
            "seed": 675042,
            "randomness": {
              "split_seed": 375042,
              "batch_seed": 475042,
              "init_seed": 575042
            }
          },
          {
            "baseline_cent_sign": {
              "train_acc": 0.5072916746139526,
              "val_acc": 0.4750000238418579
            },
            "logreg": {
              "train": {
                "acc": 0.5447916984558105,
                "nll": 0.6864549517631531
              },
              "val": {
                "acc": 0.4541666805744171,
                "nll": 0.7118843793869019
              },
              "params": {
                "w": [
                  0.053027912974357605,
                  0.006601584143936634,
                  0.01704680547118187,
                  -0.012757724151015282,
                  -0.010824577882885933,
                  -0.08491037040948868,
                  0.013025318272411823,
                  0.00994411762803793,
                  0.06035201624035835,
                  0.017389018088579178,
                  0.005999654997140169,
                  0.0091507937759161,
                  -0.06428833305835724,
                  0.07019946724176407,
                  -0.11149485409259796,
                  -0.04604317992925644,
                  -0.040246687829494476
                ],
                "b": -0.018751224502921104
              },
              "standardize": {
                "mu": [
                  22.313594818115234,
                  20.674476623535156,
                  -34.16189193725586,
                  7504.4609375,
                  2903.266845703125,
                  -1001.71484375,
                  -693.4441528320312,
                  882.66943359375,
                  -26.89017105102539,
                  1572.7607421875,
                  21.451709747314453,
                  6019.25439453125,
                  3370.617431640625,
                  3234.868408203125,
                  -8005.0908203125,
                  7411.11279296875,
                  32966.2890625
                ],
                "sd": [
                  507.1186828613281,
                  508.3255310058594,
                  1429.347412109375,
                  183055.453125,
                  89133.75,
                  55923.15625,
                  39234.88671875,
                  33769.171875,
                  32939.77734375,
                  36489.1328125,
                  43637.75390625,
                  63390.484375,
                  103287.9453125,
                  179447.875,
                  377340.03125,
                  922637.875,
                  2952255.75
                ]
              },
              "init": {
                "mode": "random_normal",
                "scale": 0.001966005664489474
              },
              "seeds": {
                "split_seed": 375043,
                "init_seed": 575043,
                "batch_seed": 475043
              }
            },
            "run_id": 1,
            "seed": 675043,
            "randomness": {
              "split_seed": 375043,
              "batch_seed": 475043,
              "init_seed": 575043
            }
          },
          {
            "baseline_cent_sign": {
              "train_acc": 0.4947916865348816,
              "val_acc": 0.5250000357627869
            },
            "logreg": {
              "train": {
                "acc": 0.5291666984558105,
                "nll": 0.6902971267700195
              },
              "val": {
                "acc": 0.5083333849906921,
                "nll": 0.6920267343521118
              },
              "params": {
                "w": [
                  0.00761808454990387,
                  0.06505640596151352,
                  -0.0035560568794608116,
                  -0.0360419899225235,
                  0.013795336708426476,
                  -0.022231707349419594,
                  -0.017800025641918182,
                  0.07726625353097916,
                  -0.004076839424669743,
                  0.03535785153508186,
                  -0.037962015718221664,
                  0.013739597983658314,
                  -0.06065692380070686,
                  0.03398504853248596,
                  -0.06303150951862335,
                  -0.01108590979129076,
                  0.032287903130054474
                ],
                "b": -0.012720949947834015
              },
              "standardize": {
                "mu": [
                  26.96315574645996,
                  16.548980712890625,
                  -43.09142303466797,
                  4294.34326171875,
                  3894.843505859375,
                  -1018.7734375,
                  -2037.33544921875,
                  1237.581787109375,
                  455.70672607421875,
                  1260.9039306640625,
                  737.3595581054688,
                  6372.8310546875,
                  5384.11279296875,
                  2934.67724609375,
                  -13391.0048828125,
                  14017.5087890625,
                  59373.1953125
                ],
                "sd": [
                  500.175048828125,
                  520.2274169921875,
                  1422.130126953125,
                  180534.3125,
                  89716.3515625,
                  53833.13671875,
                  40125.3515625,
                  34570.36328125,
                  32690.1484375,
                  36051.38671875,
                  45309.13671875,
                  62539.20703125,
                  102562.2265625,
                  180994.375,
                  383863.4375,
                  916248.25,
                  2898073.0
                ]
              },
              "init": {
                "mode": "random_normal",
                "scale": 0.001966005664489474
              },
              "seeds": {
                "split_seed": 375044,
                "init_seed": 575044,
                "batch_seed": 475044
              }
            },
            "run_id": 2,
            "seed": 675044,
            "randomness": {
              "split_seed": 375044,
              "batch_seed": 475044,
              "init_seed": 575044
            }
          },
          {
            "baseline_cent_sign": {
              "train_acc": 0.4947916865348816,
              "val_acc": 0.5250000357627869
            },
            "logreg": {
              "train": {
                "acc": 0.5489583611488342,
                "nll": 0.6884074807167053
              },
              "val": {
                "acc": 0.5,
                "nll": 0.7056410312652588
              },
              "params": {
                "w": [
                  -0.0033839461393654346,
                  -0.010199731215834618,
                  0.0030334824696183205,
                  -0.04523615911602974,
                  0.017572296783328056,
                  -0.03407029062509537,
                  0.07198534905910492,
                  0.06839592754840851,
                  0.06808149069547653,
                  0.07552103698253632,
                  -0.0033747414126992226,
                  0.049090996384620667,
                  -0.06561236828565598,
                  0.06318891793489456,
                  -0.09304063767194748,
                  0.020527200773358345,
                  0.03046632930636406
                ],
                "b": 0.04642409086227417
              },
              "standardize": {
                "mu": [
                  16.4678955078125,
                  -2.9640443325042725,
                  -28.46771240234375,
                  1584.59716796875,
                  5007.06787109375,
                  -725.1717529296875,
                  -394.7636413574219,
                  353.20184326171875,
                  203.37220764160156,
                  1470.353271484375,
                  151.32559204101562,
                  4879.59765625,
                  4398.4091796875,
                  4904.06591796875,
                  -7742.41650390625,
                  17020.341796875,
                  84648.421875
                ],
                "sd": [
                  511.5276184082031,
                  511.0084228515625,
                  1447.021728515625,
                  179965.984375,
                  89632.7421875,
                  55641.02734375,
                  39673.140625,
                  34726.890625,
                  33025.73046875,
                  36861.79296875,
                  44606.37109375,
                  63356.453125,
                  102108.0,
                  180614.21875,
                  380984.4375,
                  903131.75,
                  2990072.25
                ]
              },
              "init": {
                "mode": "random_normal",
                "scale": 0.001966005664489474
              },
              "seeds": {
                "split_seed": 375045,
                "init_seed": 575045,
                "batch_seed": 475045
              }
            },
            "run_id": 3,
            "seed": 675045,
            "randomness": {
              "split_seed": 375045,
              "batch_seed": 475045,
              "init_seed": 575045
            }
          },
          {
            "baseline_cent_sign": {
              "train_acc": 0.5145833492279053,
              "val_acc": 0.44583335518836975
            },
            "logreg": {
              "train": {
                "acc": 0.5583333373069763,
                "nll": 0.6876419186592102
              },
              "val": {
                "acc": 0.4750000238418579,
                "nll": 0.7038692831993103
              },
              "params": {
                "w": [
                  -0.0009600569028407335,
                  0.054173458367586136,
                  0.0078072501346468925,
                  -0.08413426578044891,
                  0.009396853856742382,
                  -0.07526170462369919,
                  -0.03851751610636711,
                  0.06957309693098068,
                  0.0294250026345253,
                  0.05172763764858246,
                  -0.03143443167209625,
                  0.028672363609075546,
                  -0.06526780873537064,
                  0.009619766846299171,
                  -0.064274862408638,
                  -0.030804932117462158,
                  0.05414159595966339
                ],
                "b": 0.033607933670282364
              },
              "standardize": {
                "mu": [
                  12.77762508392334,
                  7.110665321350098,
                  -46.334320068359375,
                  5788.2890625,
                  3149.81640625,
                  -741.9328002929688,
                  -2140.2275390625,
                  188.1741943359375,
                  468.7129821777344,
                  1305.70849609375,
                  1110.720458984375,
                  3922.5888671875,
                  769.58349609375,
                  1646.2225341796875,
                  -10978.4951171875,
                  51511.41015625,
                  84479.953125
                ],
                "sd": [
                  512.7785034179688,
                  507.5295104980469,
                  1463.6654052734375,
                  181584.5,
                  87423.5,
                  56601.03125,
                  39912.5078125,
                  34599.85546875,
                  32603.642578125,
                  36607.53515625,
                  43587.5859375,
                  63244.69921875,
                  101186.2578125,
                  181287.875,
                  385658.5625,
                  908578.8125,
                  2879740.25
                ]
              },
              "init": {
                "mode": "random_normal",
                "scale": 0.001966005664489474
              },
              "seeds": {
                "split_seed": 375046,
                "init_seed": 575046,
                "batch_seed": 475046
              }
            },
            "run_id": 4,
            "seed": 675046,
            "randomness": {
              "split_seed": 375046,
              "batch_seed": 475046,
              "init_seed": 575046
            }
          },
          {
            "baseline_cent_sign": {
              "train_acc": 0.5072916746139526,
              "val_acc": 0.4750000238418579
            },
            "logreg": {
              "train": {
                "acc": 0.5437500476837158,
                "nll": 0.6886366605758667
              },
              "val": {
                "acc": 0.47083336114883423,
                "nll": 0.7029376029968262
              },
              "params": {
                "w": [
                  -0.05307035893201828,
                  0.019479665905237198,
                  0.007724889554083347,
                  -0.08014590293169022,
                  -0.009289003908634186,
                  -0.06057406961917877,
                  0.04844173043966293,
                  0.027667710557579994,
                  0.00318668270483613,
                  0.04890289157629013,
                  -0.023142317309975624,
                  0.01090388372540474,
                  -0.0844610333442688,
                  0.042431507259607315,
                  -0.09939004480838776,
                  -0.03498724475502968,
                  0.06344519555568695
                ],
                "b": 0.013537145219743252
              },
              "standardize": {
                "mu": [
                  29.26041603088379,
                  7.220357418060303,
                  -30.093116760253906,
                  3946.029541015625,
                  -278.0403137207031,
                  -771.7389526367188,
                  -401.37677001953125,
                  624.9087524414062,
                  126.42855834960938,
                  1319.2152099609375,
                  -373.2988586425781,
                  3712.661376953125,
                  3726.938720703125,
                  1766.6875,
                  -10873.400390625,
                  49128.48046875,
                  47184.1640625
                ],
                "sd": [
                  509.67803955078125,
                  507.5442810058594,
                  1426.1434326171875,
                  182606.375,
                  88079.9453125,
                  55247.90625,
                  39661.515625,
                  34603.00390625,
                  33064.5703125,
                  36972.8515625,
                  43771.7109375,
                  62191.48046875,
                  100425.5,
                  182134.765625,
                  385819.25,
                  915989.9375,
                  2954313.0
                ]
              },
              "init": {
                "mode": "random_normal",
                "scale": 0.001966005664489474
              },
              "seeds": {
                "split_seed": 375047,
                "init_seed": 575047,
                "batch_seed": 475047
              }
            },
            "run_id": 5,
            "seed": 675047,
            "randomness": {
              "split_seed": 375047,
              "batch_seed": 475047,
              "init_seed": 575047
            }
          },
          {
            "baseline_cent_sign": {
              "train_acc": 0.5,
              "val_acc": 0.5041667222976685
            },
            "logreg": {
              "train": {
                "acc": 0.5395833849906921,
                "nll": 0.6888638138771057
              },
              "val": {
                "acc": 0.5416666865348816,
                "nll": 0.6980315446853638
              },
              "params": {
                "w": [
                  0.05704004690051079,
                  0.0027338340878486633,
                  -0.0007603703998029232,
                  -0.08339949697256088,
                  0.02919100411236286,
                  -0.023299507796764374,
                  -0.00977255031466484,
                  0.03427484259009361,
                  0.03707030788064003,
                  0.04202947020530701,
                  -0.03663994371891022,
                  -0.03501420468091965,
                  -0.08432620763778687,
                  0.033495545387268066,
                  -0.09257268160581589,
                  -0.016260579228401184,
                  -0.01791449822485447
                ],
                "b": -0.011964651755988598
              },
              "standardize": {
                "mu": [
                  19.429689407348633,
                  9.242143630981445,
                  -36.444923400878906,
                  6266.90576171875,
                  -367.9919128417969,
                  -729.7435913085938,
                  208.2891387939453,
                  505.2648620605469,
                  -384.80841064453125,
                  401.8362121582031,
                  1668.4844970703125,
                  5325.5234375,
                  2490.527099609375,
                  -1196.9537353515625,
                  -8487.705078125,
                  20951.826171875,
                  65317.359375
                ],
                "sd": [
                  503.8528137207031,
                  512.147705078125,
                  1445.4442138671875,
                  182443.078125,
                  88712.375,
                  54975.42578125,
                  40053.45703125,
                  34104.2421875,
                  32932.2578125,
                  36422.25390625,
                  43856.53125,
                  62770.58984375,
                  104612.9921875,
                  185180.28125,
                  380789.9375,
                  933618.125,
                  2922306.75
                ]
              },
              "init": {
                "mode": "random_normal",
                "scale": 0.001966005664489474
              },
              "seeds": {
                "split_seed": 375048,
                "init_seed": 575048,
                "batch_seed": 475048
              }
            },
            "run_id": 6,
            "seed": 675048,
            "randomness": {
              "split_seed": 375048,
              "batch_seed": 475048,
              "init_seed": 575048
            }
          },
          {
            "baseline_cent_sign": {
              "train_acc": 0.5,
              "val_acc": 0.5041667222976685
            },
            "logreg": {
              "train": {
                "acc": 0.53125,
                "nll": 0.6897923946380615
              },
              "val": {
                "acc": 0.5083333849906921,
                "nll": 0.6913873553276062
              },
              "params": {
                "w": [
                  0.012530856765806675,
                  0.027278052642941475,
                  -0.021375957876443863,
                  -0.05229626223444939,
                  0.007680982816964388,
                  -0.07206570357084274,
                  -0.03320683166384697,
                  0.024302823469042778,
                  0.051681388169527054,
                  0.02333591878414154,
                  -0.0766606256365776,
                  0.03235267102718353,
                  -0.06845739483833313,
                  0.05611829087138176,
                  -0.06103703752160072,
                  -0.023272380232810974,
                  0.007944677025079727
                ],
                "b": 0.02355852909386158
              },
              "standardize": {
                "mu": [
                  19.352352142333984,
                  9.672056198120117,
                  -27.04524040222168,
                  1674.8177490234375,
                  1805.1112060546875,
                  -1564.5989990234375,
                  -1575.261962890625,
                  756.3943481445312,
                  527.9285888671875,
                  1346.723876953125,
                  -227.53408813476562,
                  4475.5849609375,
                  1925.9814453125,
                  3346.156005859375,
                  -10606.05859375,
                  50722.30078125,
                  45008.04296875
                ],
                "sd": [
                  505.09832763671875,
                  511.2198486328125,
                  1450.0771484375,
                  182258.328125,
                  86837.8203125,
                  55152.3515625,
                  40268.79296875,
                  35081.71484375,
                  32593.4296875,
                  36472.40625,
                  44066.046875,
                  62386.34375,
                  100732.890625,
                  180488.359375,
                  379269.90625,
                  914498.6875,
                  2955579.0
                ]
              },
              "init": {
                "mode": "random_normal",
                "scale": 0.001966005664489474
              },
              "seeds": {
                "split_seed": 375049,
                "init_seed": 575049,
                "batch_seed": 475049
              }
            },
            "run_id": 7,
            "seed": 675049,
            "randomness": {
              "split_seed": 375049,
              "batch_seed": 475049,
              "init_seed": 575049
            }
          },
          {
            "baseline_cent_sign": {
              "train_acc": 0.515625,
              "val_acc": 0.44166669249534607
            },
            "logreg": {
              "train": {
                "acc": 0.5385416746139526,
                "nll": 0.6891805529594421
              },
              "val": {
                "acc": 0.4958333671092987,
                "nll": 0.6941249370574951
              },
              "params": {
                "w": [
                  0.008829616010189056,
                  0.0523049421608448,
                  0.005486834328621626,
                  -0.07665610313415527,
                  0.028225110843777657,
                  -0.027906790375709534,
                  0.009271221235394478,
                  0.06656239181756973,
                  0.04840736463665962,
                  0.022379767149686813,
                  -0.05446954444050789,
                  0.01639217510819435,
                  -0.05845784768462181,
                  0.05705033242702484,
                  -0.06799645721912384,
                  -0.04627952352166176,
                  0.013983641751110554
                ],
                "b": 0.0062978737987577915
              },
              "standardize": {
                "mu": [
                  23.006328582763672,
                  15.798584938049316,
                  -21.127946853637695,
                  7963.28173828125,
                  1738.0069580078125,
                  -1919.633544921875,
                  -1021.4443359375,
                  845.087158203125,
                  771.529541015625,
                  1491.61572265625,
                  647.8303833007812,
                  5582.51611328125,
                  4714.15576171875,
                  -1255.6173095703125,
                  -2045.2216796875,
                  45371.0546875,
                  113197.1640625
                ],
                "sd": [
                  506.7435302734375,
                  514.81591796875,
                  1445.2237548828125,
                  180891.046875,
                  87567.234375,
                  55412.63671875,
                  40139.28515625,
                  34222.09765625,
                  32913.3984375,
                  36516.7734375,
                  44602.38671875,
                  62010.71484375,
                  100669.0,
                  182073.484375,
                  379619.90625,
                  917848.8125,
                  2913389.75
                ]
              },
              "init": {
                "mode": "random_normal",
                "scale": 0.001966005664489474
              },
              "seeds": {
                "split_seed": 375050,
                "init_seed": 575050,
                "batch_seed": 475050
              }
            },
            "run_id": 8,
            "seed": 675050,
            "randomness": {
              "split_seed": 375050,
              "batch_seed": 475050,
              "init_seed": 575050
            }
          },
          {
            "baseline_cent_sign": {
              "train_acc": 0.5041667222976685,
              "val_acc": 0.48750001192092896
            },
            "logreg": {
              "train": {
                "acc": 0.546875,
                "nll": 0.6884716749191284
              },
              "val": {
                "acc": 0.4833333492279053,
                "nll": 0.699913740158081
              },
              "params": {
                "w": [
                  0.02737017534673214,
                  0.06678514927625656,
                  0.00717924116179347,
                  -0.05933940410614014,
                  0.00552099384367466,
                  -0.07455331832170486,
                  -0.03560134768486023,
                  0.06643176078796387,
                  0.007606075145304203,
                  0.06386201828718185,
                  0.0010908907279372215,
                  0.0030661430209875107,
                  -0.0648815706372261,
                  0.08219446986913681,
                  -0.0751195102930069,
                  -0.005789021961390972,
                  -0.03804343193769455
                ],
                "b": -0.013287412002682686
              },
              "standardize": {
                "mu": [
                  6.388576507568359,
                  13.558659553527832,
                  -49.80997848510742,
                  7265.59423828125,
                  120.75911712646484,
                  -652.4036865234375,
                  -616.0321044921875,
                  667.2296752929688,
                  -198.76348876953125,
                  1507.717529296875,
                  69.20964050292969,
                  2388.03662109375,
                  4761.84130859375,
                  3119.0185546875,
                  -12504.751953125,
                  18708.091796875,
                  72909.3671875
                ],
                "sd": [
                  502.8725891113281,
                  519.2102661132812,
                  1451.73388671875,
                  183817.546875,
                  86689.5390625,
                  54858.98046875,
                  39893.66796875,
                  33743.03125,
                  32410.791015625,
                  36562.48046875,
                  44475.125,
                  63759.2265625,
                  100652.2734375,
                  180480.125,
                  382306.71875,
                  934332.75,
                  2915937.25
                ]
              },
              "init": {
                "mode": "random_normal",
                "scale": 0.001966005664489474
              },
              "seeds": {
                "split_seed": 375051,
                "init_seed": 575051,
                "batch_seed": 475051
              }
            },
            "run_id": 9,
            "seed": 675051,
            "randomness": {
              "split_seed": 375051,
              "batch_seed": 475051,
              "init_seed": 575051
            }
          }
        ],
        "summary": {
          "n_runs": 10,
          "baseline_cent_sign": {
            "train_acc": {
              "mean": 0.5032291829586029,
              "std": 0.007546868206265775,
              "min": 0.49375003576278687,
              "max": 0.515625
            },
            "val_acc": {
              "mean": 0.4912500321865082,
              "std": 0.030187499315955043,
              "min": 0.44166669249534607,
              "max": 0.5291666984558105
            }
          },
          "logreg": {
            "train_acc": {
              "mean": 0.5413541913032531,
              "std": 0.00859043036994527,
              "min": 0.5291666984558105,
              "max": 0.5583333373069763
            },
            "val_acc": {
              "mean": 0.4929166942834854,
              "std": 0.02305263080671331,
              "min": 0.4541666805744171,
              "max": 0.5416666865348816
            },
            "train_nll": {
              "mean": 0.6888608753681182,
              "std": 0.0012132437470272225,
              "min": 0.6864549517631531,
              "max": 0.6908621788024902
            },
            "val_nll": {
              "mean": 0.6995416760444642,
              "std": 0.006245541288014287,
              "min": 0.6913873553276062,
              "max": 0.7118843793869019
            }
          }
        },
        "randomness_config": {
          "vary_split": true,
          "vary_batch_order": true,
          "vary_init": true
        }
      },
      "k": 0.8,
      "nps_target": 4096,
      "nps_match_mode": "offby1"
    },
    {
      "nps": 11585,
      "baseline_cent_sign": {
        "train_acc": 0.48854169249534607,
        "val_acc": 0.5291666984558105
      },
      "logreg": {
        "train": {
          "acc": 0.546875,
          "nll": 0.684469997882843
        },
        "val": {
          "acc": 0.5083333849906921,
          "nll": 0.6983163356781006
        },
        "params": {
          "w": [
            0.05290960147976875,
            0.022993076592683792,
            -0.008904733695089817,
            0.038893137127161026,
            -0.09910868853330612,
            -0.09665198624134064,
            -0.051781587302684784,
            -0.04163258895277977,
            -0.09166936576366425,
            0.05419173836708069,
            -0.02538488246500492,
            0.007026474457234144,
            0.0870998278260231,
            0.05533883720636368,
            0.06016147881746292,
            -0.09129351377487183,
            -0.0327150784432888
          ],
          "b": -0.004116822499781847
        },
        "standardize": {
          "mu": [
            -2.3416998386383057,
            14.35912799835205,
            -51.307430267333984,
            1702.0443115234375,
            -141.3775177001953,
            1180.17822265625,
            7.4340500831604,
            -243.6309356689453,
            -760.21923828125,
            -614.9371337890625,
            406.2521057128906,
            -654.1388549804688,
            358.712646484375,
            48.07057571411133,
            -919.1572265625,
            -293.3606872558594,
            -23293.130859375
          ],
          "sd": [
            302.2568054199219,
            308.06298828125,
            919.4595947265625,
            65041.0859375,
            30307.994140625,
            19153.7578125,
            14067.646484375,
            12271.57421875,
            11648.4033203125,
            13028.2294921875,
            15351.8701171875,
            22891.677734375,
            34765.4921875,
            63496.015625,
            132133.71875,
            330989.21875,
            1106034.0
          ]
        },
        "init": {
          "mode": "random_normal",
          "scale": 0.001966005664489474
        },
        "seeds": {
          "split_seed": 385042,
          "init_seed": 585042,
          "batch_seed": 485042
        }
      },
      "independent_runs": {
        "per_run": [
          {
            "baseline_cent_sign": {
              "train_acc": 0.48854169249534607,
              "val_acc": 0.5291666984558105
            },
            "logreg": {
              "train": {
                "acc": 0.546875,
                "nll": 0.684469997882843
              },
              "val": {
                "acc": 0.5083333849906921,
                "nll": 0.6983163356781006
              },
              "params": {
                "w": [
                  0.05290960147976875,
                  0.022993076592683792,
                  -0.008904733695089817,
                  0.038893137127161026,
                  -0.09910868853330612,
                  -0.09665198624134064,
                  -0.051781587302684784,
                  -0.04163258895277977,
                  -0.09166936576366425,
                  0.05419173836708069,
                  -0.02538488246500492,
                  0.007026474457234144,
                  0.0870998278260231,
                  0.05533883720636368,
                  0.06016147881746292,
                  -0.09129351377487183,
                  -0.0327150784432888
                ],
                "b": -0.004116822499781847
              },
              "standardize": {
                "mu": [
                  -2.3416998386383057,
                  14.35912799835205,
                  -51.307430267333984,
                  1702.0443115234375,
                  -141.3775177001953,
                  1180.17822265625,
                  7.4340500831604,
                  -243.6309356689453,
                  -760.21923828125,
                  -614.9371337890625,
                  406.2521057128906,
                  -654.1388549804688,
                  358.712646484375,
                  48.07057571411133,
                  -919.1572265625,
                  -293.3606872558594,
                  -23293.130859375
                ],
                "sd": [
                  302.2568054199219,
                  308.06298828125,
                  919.4595947265625,
                  65041.0859375,
                  30307.994140625,
                  19153.7578125,
                  14067.646484375,
                  12271.57421875,
                  11648.4033203125,
                  13028.2294921875,
                  15351.8701171875,
                  22891.677734375,
                  34765.4921875,
                  63496.015625,
                  132133.71875,
                  330989.21875,
                  1106034.0
                ]
              },
              "init": {
                "mode": "random_normal",
                "scale": 0.001966005664489474
              },
              "seeds": {
                "split_seed": 385042,
                "init_seed": 585042,
                "batch_seed": 485042
              }
            },
            "run_id": 0,
            "seed": 685042,
            "randomness": {
              "split_seed": 385042,
              "batch_seed": 485042,
              "init_seed": 585042
            }
          },
          {
            "baseline_cent_sign": {
              "train_acc": 0.4906250238418579,
              "val_acc": 0.5208333730697632
            },
            "logreg": {
              "train": {
                "acc": 0.5489583611488342,
                "nll": 0.6844171285629272
              },
              "val": {
                "acc": 0.491666704416275,
                "nll": 0.6965211033821106
              },
              "params": {
                "w": [
                  0.0880468338727951,
                  0.016344690695405006,
                  0.039015427231788635,
                  -0.021490272134542465,
                  -0.1536913961172104,
                  -0.07291756570339203,
                  0.022082915529608727,
                  -0.021195128560066223,
                  -0.11173537373542786,
                  0.026459651067852974,
                  -0.047792986035346985,
                  0.004698177333921194,
                  0.08841684460639954,
                  0.038361817598342896,
                  0.12101034075021744,
                  -0.06409478932619095,
                  -0.04109758511185646
                ],
                "b": 0.039790526032447815
              },
              "standardize": {
                "mu": [
                  3.3194973468780518,
                  7.798465251922607,
                  -22.266908645629883,
                  1640.904052734375,
                  -260.0079650878906,
                  579.21875,
                  120.05801391601562,
                  186.28005981445312,
                  -893.343017578125,
                  -460.55120849609375,
                  630.40478515625,
                  -994.8302001953125,
                  -194.34320068359375,
                  1639.9305419921875,
                  -2060.34326171875,
                  5062.27880859375,
                  -18464.263671875
                ],
                "sd": [
                  305.04022216796875,
                  295.4948425292969,
                  923.66015625,
                  65076.30859375,
                  30518.96875,
                  18820.578125,
                  13706.78125,
                  12054.962890625,
                  11731.96484375,
                  13009.486328125,
                  15450.759765625,
                  23074.564453125,
                  35041.51953125,
                  64351.26171875,
                  134858.359375,
                  336347.46875,
                  1120384.125
                ]
              },
              "init": {
                "mode": "random_normal",
                "scale": 0.001966005664489474
              },
              "seeds": {
                "split_seed": 385043,
                "init_seed": 585043,
                "batch_seed": 485043
              }
            },
            "run_id": 1,
            "seed": 685043,
            "randomness": {
              "split_seed": 385043,
              "batch_seed": 485043,
              "init_seed": 585043
            }
          },
          {
            "baseline_cent_sign": {
              "train_acc": 0.49270835518836975,
              "val_acc": 0.5125000476837158
            },
            "logreg": {
              "train": {
                "acc": 0.5531250238418579,
                "nll": 0.6835318803787231
              },
              "val": {
                "acc": 0.5166667103767395,
                "nll": 0.7015700340270996
              },
              "params": {
                "w": [
                  0.10114916414022446,
                  -0.021693995222449303,
                  -0.010757755488157272,
                  -0.010085631161928177,
                  -0.11692749708890915,
                  -0.028735339641571045,
                  -0.05081304907798767,
                  0.03541143611073494,
                  -0.09648264944553375,
                  -0.01976153813302517,
                  -0.045958053320646286,
                  0.06307361274957657,
                  0.17029812932014465,
                  -0.008717210963368416,
                  0.06139043718576431,
                  -0.08948364853858948,
                  -0.060359105467796326
                ],
                "b": 0.024487104266881943
              },
              "standardize": {
                "mu": [
                  -2.4094223976135254,
                  9.653120040893555,
                  -39.53297805786133,
                  1867.14111328125,
                  504.8717346191406,
                  473.9082336425781,
                  -303.0462951660156,
                  48.331153869628906,
                  -888.5704956054688,
                  -368.3957214355469,
                  330.5133361816406,
                  -1185.6552734375,
                  -518.1744995117188,
                  1102.1005859375,
                  -465.02215576171875,
                  13437.9384765625,
                  -39224.68359375
                ],
                "sd": [
                  302.6903381347656,
                  300.0869445800781,
                  950.6583862304688,
                  65945.390625,
                  30079.072265625,
                  18538.9296875,
                  14128.4638671875,
                  12191.3798828125,
                  11553.8798828125,
                  13118.4462890625,
                  15516.1904296875,
                  22921.591796875,
                  34804.54296875,
                  64661.9453125,
                  134606.703125,
                  331833.4375,
                  1097466.625
                ]
              },
              "init": {
                "mode": "random_normal",
                "scale": 0.001966005664489474
              },
              "seeds": {
                "split_seed": 385044,
                "init_seed": 585044,
                "batch_seed": 485044
              }
            },
            "run_id": 2,
            "seed": 685044,
            "randomness": {
              "split_seed": 385044,
              "batch_seed": 485044,
              "init_seed": 585044
            }
          },
          {
            "baseline_cent_sign": {
              "train_acc": 0.503125011920929,
              "val_acc": 0.47083336114883423
            },
            "logreg": {
              "train": {
                "acc": 0.5666667222976685,
                "nll": 0.6814850568771362
              },
              "val": {
                "acc": 0.47083336114883423,
                "nll": 0.7175747752189636
              },
              "params": {
                "w": [
                  0.11165124922990799,
                  0.021076908335089684,
                  0.08767560124397278,
                  -0.04592351242899895,
                  -0.13238394260406494,
                  -0.05080486088991165,
                  -0.051276303827762604,
                  -0.012828260660171509,
                  -0.1282857060432434,
                  0.05521310865879059,
                  -0.06550468504428864,
                  0.002901165746152401,
                  0.09918344765901566,
                  0.06331927329301834,
                  0.036352869123220444,
                  -0.04405124858021736,
                  0.015646107494831085
                ],
                "b": 0.05682753026485443
              },
              "standardize": {
                "mu": [
                  1.0014094114303589,
                  14.601471900939941,
                  -29.78904914855957,
                  2975.394775390625,
                  285.3029479980469,
                  1130.2427978515625,
                  -216.85154724121094,
                  6.600032806396484,
                  -610.1893920898438,
                  -587.66357421875,
                  219.94825744628906,
                  -769.6185302734375,
                  208.80909729003906,
                  1479.2548828125,
                  -165.06484985351562,
                  9223.8837890625,
                  -25255.142578125
                ],
                "sd": [
                  303.5632629394531,
                  301.0148010253906,
                  942.8754272460938,
                  64825.94140625,
                  30555.548828125,
                  19377.0,
                  14085.1220703125,
                  12219.5615234375,
                  11776.873046875,
                  13035.4892578125,
                  15388.8701171875,
                  22725.55859375,
                  34947.87890625,
                  64123.07421875,
                  133173.203125,
                  339416.28125,
                  1131974.75
                ]
              },
              "init": {
                "mode": "random_normal",
                "scale": 0.001966005664489474
              },
              "seeds": {
                "split_seed": 385045,
                "init_seed": 585045,
                "batch_seed": 485045
              }
            },
            "run_id": 3,
            "seed": 685045,
            "randomness": {
              "split_seed": 385045,
              "batch_seed": 485045,
              "init_seed": 585045
            }
          },
          {
            "baseline_cent_sign": {
              "train_acc": 0.49270835518836975,
              "val_acc": 0.5125000476837158
            },
            "logreg": {
              "train": {
                "acc": 0.550000011920929,
                "nll": 0.6843762993812561
              },
              "val": {
                "acc": 0.5250000357627869,
                "nll": 0.6972107291221619
              },
              "params": {
                "w": [
                  0.050765637308359146,
                  -0.023850323632359505,
                  -0.0012970485258847475,
                  0.016028136014938354,
                  -0.06368376314640045,
                  -0.0777006521821022,
                  0.025872431695461273,
                  -0.069473996758461,
                  -0.08065485954284668,
                  -0.02436232753098011,
                  -0.05901211127638817,
                  -0.007026916369795799,
                  0.13389375805854797,
                  0.05459319055080414,
                  0.08727872371673584,
                  -0.09522474557161331,
                  -0.02107122540473938
                ],
                "b": 0.027028292417526245
              },
              "standardize": {
                "mu": [
                  -0.45894676446914673,
                  5.887436866760254,
                  -56.40972137451172,
                  1669.6971435546875,
                  -532.2838745117188,
                  1220.8150634765625,
                  -293.8830871582031,
                  151.25111389160156,
                  -806.78857421875,
                  -756.330322265625,
                  545.4976806640625,
                  -1006.6096801757812,
                  840.5050659179688,
                  2353.134521484375,
                  -970.7699584960938,
                  22582.73828125,
                  -7800.23681640625
                ],
                "sd": [
                  301.1749267578125,
                  305.6597595214844,
                  912.515869140625,
                  63792.28125,
                  30825.751953125,
                  18870.884765625,
                  13879.0849609375,
                  12044.2119140625,
                  11759.3427734375,
                  13313.3310546875,
                  15252.8701171875,
                  22686.6015625,
                  34776.52734375,
                  63431.31640625,
                  133945.921875,
                  335742.09375,
                  1121794.75
                ]
              },
              "init": {
                "mode": "random_normal",
                "scale": 0.001966005664489474
              },
              "seeds": {
                "split_seed": 385046,
                "init_seed": 585046,
                "batch_seed": 485046
              }
            },
            "run_id": 4,
            "seed": 685046,
            "randomness": {
              "split_seed": 385046,
              "batch_seed": 485046,
              "init_seed": 585046
            }
          },
          {
            "baseline_cent_sign": {
              "train_acc": 0.49687501788139343,
              "val_acc": 0.4958333671092987
            },
            "logreg": {
              "train": {
                "acc": 0.5531250238418579,
                "nll": 0.6882057189941406
              },
              "val": {
                "acc": 0.5166667103767395,
                "nll": 0.6885944604873657
              },
              "params": {
                "w": [
                  0.08893834054470062,
                  -0.03148065134882927,
                  0.01878652535378933,
                  0.0380806066095829,
                  -0.09508167207241058,
                  -0.06673623621463776,
                  -0.0303359217941761,
                  0.01563628576695919,
                  -0.0399639867246151,
                  0.0699719563126564,
                  -0.01939389295876026,
                  -0.0512012243270874,
                  0.10207699984312057,
                  0.026141110807657242,
                  0.020209847018122673,
                  -0.08720052242279053,
                  0.013112104497849941
                ],
                "b": -0.023036733269691467
              },
              "standardize": {
                "mu": [
                  1.9329830408096313,
                  14.55528450012207,
                  -19.384323120117188,
                  2183.4462890625,
                  -40.12731170654297,
                  954.7846069335938,
                  -141.65603637695312,
                  -3.2179689407348633,
                  -799.8659057617188,
                  -718.4009399414062,
                  801.4296264648438,
                  -883.533935546875,
                  -812.9065551757812,
                  1095.38427734375,
                  1137.9033203125,
                  6293.25341796875,
                  -13128.1240234375
                ],
                "sd": [
                  301.8143615722656,
                  305.5300598144531,
                  926.9137573242188,
                  64278.28515625,
                  30838.7734375,
                  18753.87109375,
                  13966.9111328125,
                  12266.501953125,
                  11752.41796875,
                  13132.125,
                  15403.6435546875,
                  22736.220703125,
                  34623.671875,
                  63677.9296875,
                  136259.859375,
                  337801.21875,
                  1112836.375
                ]
              },
              "init": {
                "mode": "random_normal",
                "scale": 0.001966005664489474
              },
              "seeds": {
                "split_seed": 385047,
                "init_seed": 585047,
                "batch_seed": 485047
              }
            },
            "run_id": 5,
            "seed": 685047,
            "randomness": {
              "split_seed": 385047,
              "batch_seed": 485047,
              "init_seed": 585047
            }
          },
          {
            "baseline_cent_sign": {
              "train_acc": 0.5020833611488342,
              "val_acc": 0.4750000238418579
            },
            "logreg": {
              "train": {
                "acc": 0.550000011920929,
                "nll": 0.685494065284729
              },
              "val": {
                "acc": 0.5083333849906921,
                "nll": 0.6903928518295288
              },
              "params": {
                "w": [
                  0.11126142740249634,
                  -0.002070148941129446,
                  -0.013935741037130356,
                  -0.01996169611811638,
                  -0.15013481676578522,
                  0.0015062298625707626,
                  -0.01568092219531536,
                  -0.012302082031965256,
                  -0.12363120168447495,
                  0.011752285994589329,
                  -0.043760333210229874,
                  0.019060619175434113,
                  0.14750483632087708,
                  0.012290740385651588,
                  0.08859588205814362,
                  -0.051314644515514374,
                  -0.016507888212800026
                ],
                "b": 0.025893619284033775
              },
              "standardize": {
                "mu": [
                  -4.036289691925049,
                  13.195534706115723,
                  -32.96567916870117,
                  771.969970703125,
                  -590.4468994140625,
                  503.19940185546875,
                  -497.2112121582031,
                  31.32425308227539,
                  -762.9849243164062,
                  -668.62353515625,
                  529.8076171875,
                  -475.4586181640625,
                  36.47630310058594,
                  1695.349609375,
                  -4200.1435546875,
                  16545.8125,
                  -8300.36328125
                ],
                "sd": [
                  302.2964782714844,
                  305.8625183105469,
                  936.8260498046875,
                  64808.203125,
                  30906.392578125,
                  18960.025390625,
                  13888.4169921875,
                  12303.943359375,
                  11604.5302734375,
                  13223.5185546875,
                  15229.8154296875,
                  22758.16796875,
                  34370.28515625,
                  64660.0625,
                  136127.625,
                  337436.78125,
                  1104613.75
                ]
              },
              "init": {
                "mode": "random_normal",
                "scale": 0.001966005664489474
              },
              "seeds": {
                "split_seed": 385048,
                "init_seed": 585048,
                "batch_seed": 485048
              }
            },
            "run_id": 6,
            "seed": 685048,
            "randomness": {
              "split_seed": 385048,
              "batch_seed": 485048,
              "init_seed": 585048
            }
          },
          {
            "baseline_cent_sign": {
              "train_acc": 0.4895833730697632,
              "val_acc": 0.5250000357627869
            },
            "logreg": {
              "train": {
                "acc": 0.5562500357627869,
                "nll": 0.6869103908538818
              },
              "val": {
                "acc": 0.5666667222976685,
                "nll": 0.6853313446044922
              },
              "params": {
                "w": [
                  0.040679480880498886,
                  -0.06092586740851402,
                  -0.007316638715565205,
                  -0.005919268820434809,
                  -0.10777780413627625,
                  -0.049671534448862076,
                  -0.004825598560273647,
                  -0.03644240275025368,
                  -0.12732504308223724,
                  0.022580165416002274,
                  -0.02457389608025551,
                  0.009327752515673637,
                  0.09279323369264603,
                  0.00018688931595534086,
                  0.07920923084020615,
                  -0.0695008933544159,
                  -0.019495226442813873
                ],
                "b": -0.01755046285688877
              },
              "standardize": {
                "mu": [
                  -7.885525703430176,
                  10.923599243164062,
                  -26.694833755493164,
                  -644.7396850585938,
                  62.44326400756836,
                  637.2899780273438,
                  -303.0869445800781,
                  132.19691467285156,
                  -434.3802490234375,
                  -348.74383544921875,
                  439.4980773925781,
                  -948.59912109375,
                  -147.8981475830078,
                  1133.716064453125,
                  3052.29296875,
                  6474.92626953125,
                  -38754.67578125
                ],
                "sd": [
                  303.08233642578125,
                  303.9429016113281,
                  927.3878173828125,
                  64591.58203125,
                  30438.865234375,
                  18973.451171875,
                  14037.1123046875,
                  11867.7314453125,
                  11508.748046875,
                  13129.439453125,
                  15562.7119140625,
                  22917.30859375,
                  35280.76953125,
                  63654.58984375,
                  134060.265625,
                  337497.15625,
                  1137262.375
                ]
              },
              "init": {
                "mode": "random_normal",
                "scale": 0.001966005664489474
              },
              "seeds": {
                "split_seed": 385049,
                "init_seed": 585049,
                "batch_seed": 485049
              }
            },
            "run_id": 7,
            "seed": 685049,
            "randomness": {
              "split_seed": 385049,
              "batch_seed": 485049,
              "init_seed": 585049
            }
          },
          {
            "baseline_cent_sign": {
              "train_acc": 0.49375003576278687,
              "val_acc": 0.5083333849906921
            },
            "logreg": {
              "train": {
                "acc": 0.546875,
                "nll": 0.6839972734451294
              },
              "val": {
                "acc": 0.5166667103767395,
                "nll": 0.6955204606056213
              },
              "params": {
                "w": [
                  0.0968504399061203,
                  -0.026177456602454185,
                  -0.006389293819665909,
                  0.01925249770283699,
                  -0.09452156722545624,
                  -0.02015051431953907,
                  -0.020828217267990112,
                  -0.010478189215064049,
                  -0.12362923473119736,
                  -0.023612869903445244,
                  -0.08726514130830765,
                  0.04368016496300697,
                  0.16165819764137268,
                  0.02666712924838066,
                  0.10094737261533737,
                  -0.07215749472379684,
                  -0.04323814809322357
                ],
                "b": -0.024381320923566818
              },
              "standardize": {
                "mu": [
                  -4.0689873695373535,
                  9.831001281738281,
                  -27.993112564086914,
                  920.7890625,
                  311.5195617675781,
                  854.3833618164062,
                  -241.74302673339844,
                  194.33372497558594,
                  -446.0281677246094,
                  -534.656494140625,
                  157.92111206054688,
                  -1256.0511474609375,
                  -843.7942504882812,
                  484.3661193847656,
                  1357.99072265625,
                  11340.4228515625,
                  -9827.8994140625
                ],
                "sd": [
                  304.9601135253906,
                  302.5212097167969,
                  924.0575561523438,
                  65773.1484375,
                  30364.662109375,
                  18666.48046875,
                  14096.298828125,
                  12194.8388671875,
                  11617.0556640625,
                  13040.3671875,
                  15242.7060546875,
                  22744.296875,
                  34328.90625,
                  63946.72265625,
                  134035.109375,
                  336986.84375,
                  1111731.125
                ]
              },
              "init": {
                "mode": "random_normal",
                "scale": 0.001966005664489474
              },
              "seeds": {
                "split_seed": 385050,
                "init_seed": 585050,
                "batch_seed": 485050
              }
            },
            "run_id": 8,
            "seed": 685050,
            "randomness": {
              "split_seed": 385050,
              "batch_seed": 485050,
              "init_seed": 585050
            }
          },
          {
            "baseline_cent_sign": {
              "train_acc": 0.47812503576278687,
              "val_acc": 0.5708333849906921
            },
            "logreg": {
              "train": {
                "acc": 0.5687500238418579,
                "nll": 0.6849086284637451
              },
              "val": {
                "acc": 0.4750000238418579,
                "nll": 0.7058413624763489
              },
              "params": {
                "w": [
                  0.050877876579761505,
                  0.0327225998044014,
                  -0.04096311330795288,
                  0.06680057942867279,
                  -0.07836529612541199,
                  0.010037463158369064,
                  -0.06687009334564209,
                  -0.02544132061302662,
                  -0.05876933038234711,
                  0.011807245202362537,
                  0.035731133073568344,
                  0.024167651310563087,
                  0.09131140261888504,
                  -0.033986322581768036,
                  0.11614490300416946,
                  -0.0607367604970932,
                  -0.033673252910375595
                ],
                "b": 0.01990126445889473
              },
              "standardize": {
                "mu": [
                  -4.7687764167785645,
                  15.851143836975098,
                  -22.482683181762695,
                  1399.987548828125,
                  -118.9174575805664,
                  693.3447875976562,
                  -583.5390014648438,
                  -130.65908813476562,
                  -646.6097412109375,
                  -414.37127685546875,
                  757.2102661132812,
                  -961.6295166015625,
                  553.6974487304688,
                  655.9427490234375,
                  767.790771484375,
                  2929.0771484375,
                  -55961.93359375
                ],
                "sd": [
                  301.9730224609375,
                  303.9405822753906,
                  923.0762329101562,
                  65246.60546875,
                  30852.5078125,
                  18913.56640625,
                  13859.302734375,
                  12250.138671875,
                  11535.8701171875,
                  13102.865234375,
                  15298.0693359375,
                  22684.658203125,
                  34936.3671875,
                  64620.578125,
                  135648.09375,
                  335774.28125,
                  1097364.75
                ]
              },
              "init": {
                "mode": "random_normal",
                "scale": 0.001966005664489474
              },
              "seeds": {
                "split_seed": 385051,
                "init_seed": 585051,
                "batch_seed": 485051
              }
            },
            "run_id": 9,
            "seed": 685051,
            "randomness": {
              "split_seed": 385051,
              "batch_seed": 485051,
              "init_seed": 585051
            }
          }
        ],
        "summary": {
          "n_runs": 10,
          "baseline_cent_sign": {
            "train_acc": {
              "mean": 0.4928125262260437,
              "std": 0.006774032778303898,
              "min": 0.47812503576278687,
              "max": 0.503125011920929
            },
            "val_acc": {
              "mean": 0.5120833724737167,
              "std": 0.027096156914388995,
              "min": 0.47083336114883423,
              "max": 0.5708333849906921
            }
          },
          "logreg": {
            "train_acc": {
              "mean": 0.5540625214576721,
              "std": 0.007372333259114055,
              "min": 0.546875,
              "max": 0.5687500238418579
            },
            "val_acc": {
              "mean": 0.5095833748579025,
              "std": 0.025823258263829828,
              "min": 0.47083336114883423,
              "max": 0.5666667222976685
            },
            "train_nll": {
              "mean": 0.6847796440124512,
              "std": 0.0017383444387137673,
              "min": 0.6814850568771362,
              "max": 0.6882057189941406
            },
            "val_nll": {
              "mean": 0.6976873457431794,
              "std": 0.008788130520229503,
              "min": 0.6853313446044922,
              "max": 0.7175747752189636
            }
          }
        },
        "randomness_config": {
          "vary_split": true,
          "vary_batch_order": true,
          "vary_init": true
        }
      },
      "k": 0.9,
      "nps_target": 11585,
      "nps_match_mode": "offby1"
    },
    {
      "nps": 32768,
      "baseline_cent_sign": {
        "train_acc": 0.4833333492279053,
        "val_acc": 0.491666704416275
      },
      "logreg": {
        "train": {
          "acc": 0.5489583611488342,
          "nll": 0.6835628747940063
        },
        "val": {
          "acc": 0.5,
          "nll": 0.7062366604804993
        },
        "params": {
          "w": [
            0.012903396971523762,
            0.036604639142751694,
            -0.060991473495960236,
            -0.02822170965373516,
            -0.03230268880724907,
            -0.004771866369992495,
            0.05690484493970871,
            0.0185239240527153,
            -0.023001428693532944,
            -0.11434083431959152,
            0.0227479487657547,
            -0.06280051171779633,
            -0.08625023066997528,
            0.034015778452157974,
            -0.11414080113172531,
            0.13947749137878418,
            -0.048568353056907654
          ],
          "b": 0.03444170206785202
        },
        "standardize": {
          "mu": [
            3.066246747970581,
            6.1616692543029785,
            -17.966726303100586,
            -399.3314514160156,
            359.34161376953125,
            -67.64167785644531,
            108.72408294677734,
            58.343101501464844,
            9.492555618286133,
            1.9650249481201172,
            241.2486114501953,
            399.0839538574219,
            -490.8868103027344,
            -336.2403869628906,
            1475.242919921875,
            -3518.13720703125,
            23800.611328125
          ],
          "sd": [
            174.19017028808594,
            180.9312286376953,
            510.78692626953125,
            21925.541015625,
            10698.9609375,
            6676.02587890625,
            4827.416015625,
            4005.101806640625,
            3974.33984375,
            4496.34765625,
            5775.0732421875,
            8029.0244140625,
            13139.5791015625,
            22911.869140625,
            46210.921875,
            117949.4765625,
            389200.0625
          ]
        },
        "init": {
          "mode": "random_normal",
          "scale": 0.001966005664489474
        },
        "seeds": {
          "split_seed": 395042,
          "init_seed": 595042,
          "batch_seed": 495042
        }
      },
      "independent_runs": {
        "per_run": [
          {
            "baseline_cent_sign": {
              "train_acc": 0.4833333492279053,
              "val_acc": 0.491666704416275
            },
            "logreg": {
              "train": {
                "acc": 0.5489583611488342,
                "nll": 0.6835628747940063
              },
              "val": {
                "acc": 0.5,
                "nll": 0.7062366604804993
              },
              "params": {
                "w": [
                  0.012903396971523762,
                  0.036604639142751694,
                  -0.060991473495960236,
                  -0.02822170965373516,
                  -0.03230268880724907,
                  -0.004771866369992495,
                  0.05690484493970871,
                  0.0185239240527153,
                  -0.023001428693532944,
                  -0.11434083431959152,
                  0.0227479487657547,
                  -0.06280051171779633,
                  -0.08625023066997528,
                  0.034015778452157974,
                  -0.11414080113172531,
                  0.13947749137878418,
                  -0.048568353056907654
                ],
                "b": 0.03444170206785202
              },
              "standardize": {
                "mu": [
                  3.066246747970581,
                  6.1616692543029785,
                  -17.966726303100586,
                  -399.3314514160156,
                  359.34161376953125,
                  -67.64167785644531,
                  108.72408294677734,
                  58.343101501464844,
                  9.492555618286133,
                  1.9650249481201172,
                  241.2486114501953,
                  399.0839538574219,
                  -490.8868103027344,
                  -336.2403869628906,
                  1475.242919921875,
                  -3518.13720703125,
                  23800.611328125
                ],
                "sd": [
                  174.19017028808594,
                  180.9312286376953,
                  510.78692626953125,
                  21925.541015625,
                  10698.9609375,
                  6676.02587890625,
                  4827.416015625,
                  4005.101806640625,
                  3974.33984375,
                  4496.34765625,
                  5775.0732421875,
                  8029.0244140625,
                  13139.5791015625,
                  22911.869140625,
                  46210.921875,
                  117949.4765625,
                  389200.0625
                ]
              },
              "init": {
                "mode": "random_normal",
                "scale": 0.001966005664489474
              },
              "seeds": {
                "split_seed": 395042,
                "init_seed": 595042,
                "batch_seed": 495042
              }
            },
            "run_id": 0,
            "seed": 695042,
            "randomness": {
              "split_seed": 395042,
              "batch_seed": 495042,
              "init_seed": 595042
            }
          },
          {
            "baseline_cent_sign": {
              "train_acc": 0.4854166805744171,
              "val_acc": 0.4833333492279053
            },
            "logreg": {
              "train": {
                "acc": 0.5427083373069763,
                "nll": 0.6859235763549805
              },
              "val": {
                "acc": 0.5166667103767395,
                "nll": 0.696319580078125
              },
              "params": {
                "w": [
                  0.07506556063890457,
                  0.02570236288011074,
                  -0.05610528588294983,
                  -0.053730376064777374,
                  -0.029450779780745506,
                  0.002591226249933243,
                  -0.02030545100569725,
                  0.04306643083691597,
                  -0.02313850075006485,
                  -0.09435983747243881,
                  0.043891407549381256,
                  -0.043629586696624756,
                  -0.08430086821317673,
                  0.014971213415265083,
                  -0.06369753181934357,
                  0.10348337143659592,
                  -0.09796088188886642
                ],
                "b": -0.02067526988685131
              },
              "standardize": {
                "mu": [
                  -0.3332274258136749,
                  12.07657527923584,
                  -13.104442596435547,
                  567.8062744140625,
                  382.7912902832031,
                  -120.41007995605469,
                  50.3388786315918,
                  -74.07299041748047,
                  -9.738282203674316,
                  -80.84937286376953,
                  357.4751281738281,
                  350.2413330078125,
                  -410.1206970214844,
                  -387.7384338378906,
                  1974.242431640625,
                  -4474.35693359375,
                  13828.625
                ],
                "sd": [
                  173.12254333496094,
                  179.24118041992188,
                  519.6659545898438,
                  21990.03515625,
                  10721.83984375,
                  6602.46533203125,
                  4816.97412109375,
                  4161.1845703125,
                  3957.784423828125,
                  4392.46142578125,
                  5941.61083984375,
                  8028.177734375,
                  12762.15625,
                  22754.90234375,
                  47309.0390625,
                  116657.3984375,
                  384535.34375
                ]
              },
              "init": {
                "mode": "random_normal",
                "scale": 0.001966005664489474
              },
              "seeds": {
                "split_seed": 395043,
                "init_seed": 595043,
                "batch_seed": 495043
              }
            },
            "run_id": 1,
            "seed": 695043,
            "randomness": {
              "split_seed": 395043,
              "batch_seed": 495043,
              "init_seed": 595043
            }
          },
          {
            "baseline_cent_sign": {
              "train_acc": 0.4906250238418579,
              "val_acc": 0.46250003576278687
            },
            "logreg": {
              "train": {
                "acc": 0.5385416746139526,
                "nll": 0.6878109574317932
              },
              "val": {
                "acc": 0.5333333611488342,
                "nll": 0.6894967555999756
              },
              "params": {
                "w": [
                  0.03999245539307594,
                  0.08283627033233643,
                  -0.027107324451208115,
                  -0.015032680705189705,
                  0.0018691752338781953,
                  -0.0045850579626858234,
                  0.003721341025084257,
                  0.008591603487730026,
                  0.01179739274084568,
                  -0.09188784658908844,
                  0.020697560161352158,
                  -0.057474639266729355,
                  -0.07491435110569,
                  0.07595376670360565,
                  -0.024583088234066963,
                  0.12641827762126923,
                  -0.04900602623820305
                ],
                "b": 0.03213977813720703
              },
              "standardize": {
                "mu": [
                  -2.2595267295837402,
                  6.910869598388672,
                  -17.61151123046875,
                  101.6461181640625,
                  411.7406005859375,
                  -281.1310119628906,
                  47.240238189697266,
                  34.53757858276367,
                  -0.007340495008975267,
                  -114.36726379394531,
                  449.42950439453125,
                  365.1094055175781,
                  -708.0509643554688,
                  -133.65130615234375,
                  761.90234375,
                  -4487.53125,
                  15557.61328125
                ],
                "sd": [
                  177.06129455566406,
                  177.16583251953125,
                  510.1399230957031,
                  21947.958984375,
                  10830.453125,
                  6451.60546875,
                  4811.95751953125,
                  4131.6796875,
                  3803.242919921875,
                  4412.74267578125,
                  5919.86181640625,
                  7983.53466796875,
                  12775.126953125,
                  22740.642578125,
                  46757.4296875,
                  117646.0546875,
                  384274.15625
                ]
              },
              "init": {
                "mode": "random_normal",
                "scale": 0.001966005664489474
              },
              "seeds": {
                "split_seed": 395044,
                "init_seed": 595044,
                "batch_seed": 495044
              }
            },
            "run_id": 2,
            "seed": 695044,
            "randomness": {
              "split_seed": 395044,
              "batch_seed": 495044,
              "init_seed": 595044
            }
          },
          {
            "baseline_cent_sign": {
              "train_acc": 0.4802083671092987,
              "val_acc": 0.5041667222976685
            },
            "logreg": {
              "train": {
                "acc": 0.546875,
                "nll": 0.6856935024261475
              },
              "val": {
                "acc": 0.5208333730697632,
                "nll": 0.6973129510879517
              },
              "params": {
                "w": [
                  0.10377907007932663,
                  0.08119187504053116,
                  -0.0418977215886116,
                  -0.02789389155805111,
                  -0.025126054883003235,
                  0.0075756642036139965,
                  0.01902267336845398,
                  -0.005454155616462231,
                  -0.0663444995880127,
                  -0.08879809081554413,
                  0.02972610853612423,
                  -0.08435532450675964,
                  -0.08961653709411621,
                  0.0686989277601242,
                  -0.04749755188822746,
                  0.0651593953371048,
                  -0.030409278348088264
                ],
                "b": -0.002132017631083727
              },
              "standardize": {
                "mu": [
                  -1.3601685762405396,
                  10.02979850769043,
                  -27.13651466369629,
                  438.1783447265625,
                  358.49609375,
                  -187.63949584960938,
                  49.347076416015625,
                  -17.043359756469727,
                  -2.0299928188323975,
                  -59.23673629760742,
                  303.8371887207031,
                  250.11032104492188,
                  -417.19891357421875,
                  -453.5325012207031,
                  215.53433227539062,
                  -5452.689453125,
                  17849.90234375
                ],
                "sd": [
                  172.7054901123047,
                  177.63656616210938,
                  500.9727478027344,
                  21985.65234375,
                  10801.4892578125,
                  6632.0234375,
                  4838.0634765625,
                  4040.774658203125,
                  4011.2705078125,
                  4412.0419921875,
                  5837.1005859375,
                  7981.55126953125,
                  13100.0322265625,
                  23403.8125,
                  46161.73046875,
                  117217.2578125,
                  384916.125
                ]
              },
              "init": {
                "mode": "random_normal",
                "scale": 0.001966005664489474
              },
              "seeds": {
                "split_seed": 395045,
                "init_seed": 595045,
                "batch_seed": 495045
              }
            },
            "run_id": 3,
            "seed": 695045,
            "randomness": {
              "split_seed": 395045,
              "batch_seed": 495045,
              "init_seed": 595045
            }
          },
          {
            "baseline_cent_sign": {
              "train_acc": 0.4843750298023224,
              "val_acc": 0.48750001192092896
            },
            "logreg": {
              "train": {
                "acc": 0.5718750357627869,
                "nll": 0.6847367882728577
              },
              "val": {
                "acc": 0.4958333671092987,
                "nll": 0.702124297618866
              },
              "params": {
                "w": [
                  0.10354436933994293,
                  0.10731826722621918,
                  -0.06748783588409424,
                  -0.0499955415725708,
                  -0.03228454291820526,
                  0.03433409333229065,
                  -0.006603905465453863,
                  -0.008918694220483303,
                  -0.0394611582159996,
                  -0.10094006359577179,
                  0.03835318982601166,
                  -0.04618845507502556,
                  -0.06555546820163727,
                  0.031328100711107254,
                  -0.09294473379850388,
                  0.09457986801862717,
                  -0.0414670892059803
                ],
                "b": -0.03259516507387161
              },
              "standardize": {
                "mu": [
                  -7.6909284591674805,
                  11.833580017089844,
                  -16.966293334960938,
                  879.4656982421875,
                  438.9778137207031,
                  -129.88568115234375,
                  96.57378387451172,
                  -60.86598205566406,
                  -106.19325256347656,
                  -1.7897522449493408,
                  363.2396545410156,
                  261.2886657714844,
                  -310.43109130859375,
                  232.9002227783203,
                  967.1546020507812,
                  -2638.376708984375,
                  2281.220947265625
                ],
                "sd": [
                  176.86984252929688,
                  180.76275634765625,
                  512.60791015625,
                  22124.541015625,
                  10639.447265625,
                  6601.2802734375,
                  4927.4892578125,
                  4106.138671875,
                  3979.02490234375,
                  4415.40576171875,
                  5888.861328125,
                  7938.16455078125,
                  12828.4912109375,
                  22834.30859375,
                  46832.5546875,
                  118915.8984375,
                  388729.8125
                ]
              },
              "init": {
                "mode": "random_normal",
                "scale": 0.001966005664489474
              },
              "seeds": {
                "split_seed": 395046,
                "init_seed": 595046,
                "batch_seed": 495046
              }
            },
            "run_id": 4,
            "seed": 695046,
            "randomness": {
              "split_seed": 395046,
              "batch_seed": 495046,
              "init_seed": 595046
            }
          },
          {
            "baseline_cent_sign": {
              "train_acc": 0.49270835518836975,
              "val_acc": 0.4541666805744171
            },
            "logreg": {
              "train": {
                "acc": 0.5562500357627869,
                "nll": 0.6858130693435669
              },
              "val": {
                "acc": 0.5,
                "nll": 0.6966331601142883
              },
              "params": {
                "w": [
                  0.04908675700426102,
                  0.038034893572330475,
                  -0.04706789553165436,
                  -0.010843860916793346,
                  -0.06401456892490387,
                  -0.030659427866339684,
                  0.02884860336780548,
                  0.014306800439953804,
                  -0.038655102252960205,
                  -0.10330267995595932,
                  0.04166441038250923,
                  -0.07388759404420853,
                  -0.09669074416160583,
                  0.05084621533751488,
                  -0.0641523152589798,
                  0.0626189336180687,
                  -0.06684022396802902
                ],
                "b": -0.026628753170371056
              },
              "standardize": {
                "mu": [
                  -1.7334835529327393,
                  9.295011520385742,
                  -10.563482284545898,
                  622.0247802734375,
                  122.87480926513672,
                  -277.9606018066406,
                  70.32633209228516,
                  -32.53354263305664,
                  -47.56943130493164,
                  2.998079538345337,
                  339.0075378417969,
                  265.11834716796875,
                  -600.5059814453125,
                  -131.9908905029297,
                  504.5856018066406,
                  -4231.2998046875,
                  19637.59765625
                ],
                "sd": [
                  171.7019805908203,
                  180.86683654785156,
                  513.6926879882812,
                  22412.40234375,
                  10891.822265625,
                  6568.2451171875,
                  4809.34912109375,
                  4109.36474609375,
                  3937.8408203125,
                  4377.37646484375,
                  5874.84912109375,
                  7884.1416015625,
                  12917.259765625,
                  22273.41015625,
                  45549.27734375,
                  119516.3359375,
                  385219.40625
                ]
              },
              "init": {
                "mode": "random_normal",
                "scale": 0.001966005664489474
              },
              "seeds": {
                "split_seed": 395047,
                "init_seed": 595047,
                "batch_seed": 495047
              }
            },
            "run_id": 5,
            "seed": 695047,
            "randomness": {
              "split_seed": 395047,
              "batch_seed": 495047,
              "init_seed": 595047
            }
          },
          {
            "baseline_cent_sign": {
              "train_acc": 0.4906250238418579,
              "val_acc": 0.46250003576278687
            },
            "logreg": {
              "train": {
                "acc": 0.5562500357627869,
                "nll": 0.6883111596107483
              },
              "val": {
                "acc": 0.4791666865348816,
                "nll": 0.6995528340339661
              },
              "params": {
                "w": [
                  0.0659254938364029,
                  -0.005532732233405113,
                  -0.06424580514431,
                  -0.049159593880176544,
                  0.03974660485982895,
                  -0.039448123425245285,
                  0.04357672482728958,
                  -0.09396173804998398,
                  -0.03855196014046669,
                  -0.02681361883878708,
                  0.012379182502627373,
                  -0.002847840078175068,
                  -0.020098885521292686,
                  0.046140484511852264,
                  -0.08202725648880005,
                  0.08488266915082932,
                  -0.07101767510175705
                ],
                "b": -0.015905238687992096
              },
              "standardize": {
                "mu": [
                  -3.0105605125427246,
                  9.679510116577148,
                  -13.341829299926758,
                  482.0578308105469,
                  717.6784057617188,
                  93.34526062011719,
                  60.17847442626953,
                  5.576473236083984,
                  -33.58168029785156,
                  -7.526854038238525,
                  225.01046752929688,
                  450.7770080566406,
                  -543.8171997070312,
                  192.7327880859375,
                  1006.9338989257812,
                  -1231.5731201171875,
                  28983.701171875
                ],
                "sd": [
                  172.8343048095703,
                  183.08995056152344,
                  523.9356689453125,
                  22060.0625,
                  10792.6787109375,
                  6795.99951171875,
                  4816.7734375,
                  4064.98486328125,
                  4049.329833984375,
                  4448.56640625,
                  5900.779296875,
                  7946.6357421875,
                  12746.908203125,
                  22470.08984375,
                  45997.3046875,
                  119381.46875,
                  382197.53125
                ]
              },
              "init": {
                "mode": "random_normal",
                "scale": 0.001966005664489474
              },
              "seeds": {
                "split_seed": 395048,
                "init_seed": 595048,
                "batch_seed": 495048
              }
            },
            "run_id": 6,
            "seed": 695048,
            "randomness": {
              "split_seed": 395048,
              "batch_seed": 495048,
              "init_seed": 595048
            }
          },
          {
            "baseline_cent_sign": {
              "train_acc": 0.4833333492279053,
              "val_acc": 0.491666704416275
            },
            "logreg": {
              "train": {
                "acc": 0.5416666865348816,
                "nll": 0.6839749813079834
              },
              "val": {
                "acc": 0.5041667222976685,
                "nll": 0.7078210711479187
              },
              "params": {
                "w": [
                  0.04856671020388603,
                  0.023894038051366806,
                  -0.0980050340294838,
                  -0.06891932338476181,
                  -0.04269767552614212,
                  0.0032285028137266636,
                  0.04864497482776642,
                  -0.012403963133692741,
                  -0.06678358465433121,
                  -0.12295717746019363,
                  0.007869819179177284,
                  -0.004555731080472469,
                  -0.0832180306315422,
                  -0.01771562732756138,
                  -0.07946260273456573,
                  0.07812883704900742,
                  -0.0499231331050396
                ],
                "b": -0.044831015169620514
              },
              "standardize": {
                "mu": [
                  -1.173300862312317,
                  9.750940322875977,
                  -10.354914665222168,
                  40.4644889831543,
                  579.4966430664062,
                  -118.26232147216797,
                  -11.891419410705566,
                  -74.08565521240234,
                  5.286470890045166,
                  70.93910217285156,
                  492.8238220214844,
                  218.7909393310547,
                  -385.0557861328125,
                  -607.53857421875,
                  938.4960327148438,
                  -3982.40966796875,
                  13367.7333984375
                ],
                "sd": [
                  175.0152587890625,
                  181.20472717285156,
                  505.74029541015625,
                  22642.79296875,
                  10835.033203125,
                  6670.453125,
                  4804.43310546875,
                  4108.66064453125,
                  3989.863525390625,
                  4445.6455078125,
                  5758.90576171875,
                  8094.89404296875,
                  13054.572265625,
                  22714.923828125,
                  45616.12890625,
                  116778.65625,
                  390934.59375
                ]
              },
              "init": {
                "mode": "random_normal",
                "scale": 0.001966005664489474
              },
              "seeds": {
                "split_seed": 395049,
                "init_seed": 595049,
                "batch_seed": 495049
              }
            },
            "run_id": 7,
            "seed": 695049,
            "randomness": {
              "split_seed": 395049,
              "batch_seed": 495049,
              "init_seed": 595049
            }
          },
          {
            "baseline_cent_sign": {
              "train_acc": 0.48854169249534607,
              "val_acc": 0.47083336114883423
            },
            "logreg": {
              "train": {
                "acc": 0.546875,
                "nll": 0.6861797571182251
              },
              "val": {
                "acc": 0.5458333492279053,
                "nll": 0.6957037448883057
              },
              "params": {
                "w": [
                  0.04694173485040665,
                  0.07291071116924286,
                  -0.07606391608715057,
                  -0.014581273309886456,
                  -0.03239037096500397,
                  0.040964532643556595,
                  0.013870780356228352,
                  0.0438772514462471,
                  -0.029481912031769753,
                  -0.040246713906526566,
                  0.04090339317917824,
                  -0.06001939997076988,
                  -0.1292390674352646,
                  0.010227796621620655,
                  -0.06614071875810623,
                  0.1283821165561676,
                  -0.0655861645936966
                ],
                "b": 0.009232059121131897
              },
              "standardize": {
                "mu": [
                  3.459987163543701,
                  7.53361701965332,
                  -10.83753490447998,
                  -68.32915496826172,
                  534.749267578125,
                  -145.06748962402344,
                  16.804651260375977,
                  -68.90943908691406,
                  -47.54429626464844,
                  -118.8360595703125,
                  395.6201171875,
                  346.6925354003906,
                  -558.6278076171875,
                  -340.4649353027344,
                  1595.21044921875,
                  -628.4530029296875,
                  10829.8017578125
                ],
                "sd": [
                  175.33982849121094,
                  176.68609619140625,
                  519.058349609375,
