{
  "feature_type": "hamming_baseline",
  "alpha": "half_ones_leading",
  "setup": {
    "n": 8,
    "channel_type": "thermal",
    "strength": 0.05,
    "run_name": "n8_thermal_p0p05_fseaf7cc9c88492915_nps21f688b59cf0cbeb"
  },
  "source": {
    "run_path": "/gpfs/home1/ypatel/data1/shadow-qml-ml/feat_data_all/feat_data/exp_s1_features_hamming_baseline_fseaf7cc9c88492915_fixed_alpha_half_ones_leading_fixed_y_all_zeros_q_5_14/runs/n8_thermal_p0p05_fseaf7cc9c88492915_nps21f688b59cf0cbeb",
    "dataset_ref": "/gpfs/home1/ypatel/data1/shadow-qml-ml/feat_data_all/feat_data/exp_s1_features_hamming_baseline_fseaf7cc9c88492915_fixed_alpha_half_ones_leading_fixed_y_all_zeros_q_5_14/datasets/dataset_9676c30f50b4511e.npz"
  },
  "train_config": {
    "val_frac": 0.2,
    "batch_size": 128,
    "epochs": 160,
    "lr": 0.023062905530795298,
    "l2": 0.0009140906016731205,
    "n_independent_runs": 10,
    "init_mode": "random_normal",
    "init_scale": 0.001966005664489474,
    "vary_split": true,
    "vary_batch_order": true,
    "vary_init": true
  },
  "k_grid_requested": [
    0.8,
    0.9,
    1.0,
    1.1,
    1.2,
    1.3,
    1.4,
    1.5,
    1.6,
    1.7,
    1.8,
    1.9,
    2.0,
    2.1,
    2.2,
    2.3,
    2.4
  ],
  "k_match_mode": "offby1",
  "k_nearest_max_abs_delta": 1,
  "per_nps_selected": [
    {
      "nps": 2352,
      "baseline_cent_sign": {
        "train_acc": 0.4364583492279053,
        "val_acc": 0.5208333730697632
      },
      "logreg": {
        "train": {
          "acc": 0.6104167103767395,
          "nll": 0.6617404222488403
        },
        "val": {
          "acc": 0.5250000357627869,
          "nll": 0.6956981420516968
        },
        "params": {
          "w": [
            0.09811697900295258,
            0.018792273476719856,
            -0.16967329382896423,
            -0.0788104236125946,
            -0.1462717205286026,
            -0.14216284453868866,
            -0.09120500832796097,
            -0.07750643044710159,
            -0.11092755198478699,
            -0.08503483980894089
          ],
          "b": -0.0384984165430069
        },
        "standardize": {
          "mu": [
            0.8167562484741211,
            1.5619630813598633,
            0.21841996908187866,
            -0.019212771207094193,
            -0.2980227768421173,
            0.04889173060655594,
            -0.2680147588253021,
            -0.06370425224304199,
            0.6349366903305054,
            -0.9377333521842957
          ],
          "sd": [
            5.304083824157715,
            5.035633087158203,
            8.543327331542969,
            14.928038597106934,
            9.961627006530762,
            8.714051246643066,
            9.34044075012207,
            12.610486030578613,
            21.813352584838867,
            50.10264587402344
          ]
        },
        "init": {
          "mode": "random_normal",
          "scale": 0.001966005664489474
        },
        "seeds": {
          "split_seed": 258042,
          "init_seed": 458042,
          "batch_seed": 358042
        }
      },
      "independent_runs": {
        "per_run": [
          {
            "baseline_cent_sign": {
              "train_acc": 0.4364583492279053,
              "val_acc": 0.5208333730697632
            },
            "logreg": {
              "train": {
                "acc": 0.6104167103767395,
                "nll": 0.6617404222488403
              },
              "val": {
                "acc": 0.5250000357627869,
                "nll": 0.6956981420516968
              },
              "params": {
                "w": [
                  0.09811697900295258,
                  0.018792273476719856,
                  -0.16967329382896423,
                  -0.0788104236125946,
                  -0.1462717205286026,
                  -0.14216284453868866,
                  -0.09120500832796097,
                  -0.07750643044710159,
                  -0.11092755198478699,
                  -0.08503483980894089
                ],
                "b": -0.0384984165430069
              },
              "standardize": {
                "mu": [
                  0.8167562484741211,
                  1.5619630813598633,
                  0.21841996908187866,
                  -0.019212771207094193,
                  -0.2980227768421173,
                  0.04889173060655594,
                  -0.2680147588253021,
                  -0.06370425224304199,
                  0.6349366903305054,
                  -0.9377333521842957
                ],
                "sd": [
                  5.304083824157715,
                  5.035633087158203,
                  8.543327331542969,
                  14.928038597106934,
                  9.961627006530762,
                  8.714051246643066,
                  9.34044075012207,
                  12.610486030578613,
                  21.813352584838867,
                  50.10264587402344
                ]
              },
              "init": {
                "mode": "random_normal",
                "scale": 0.001966005664489474
              },
              "seeds": {
                "split_seed": 258042,
                "init_seed": 458042,
                "batch_seed": 358042
              }
            },
            "run_id": 0,
            "seed": 558042,
            "randomness": {
              "split_seed": 258042,
              "batch_seed": 358042,
              "init_seed": 458042
            }
          },
          {
            "baseline_cent_sign": {
              "train_acc": 0.45729169249534607,
              "val_acc": 0.4375000298023224
            },
            "logreg": {
              "train": {
                "acc": 0.5739583373069763,
                "nll": 0.6677021384239197
              },
              "val": {
                "acc": 0.6208333373069763,
                "nll": 0.6548939347267151
              },
              "params": {
                "w": [
                  0.14752204716205597,
                  -0.06419005990028381,
                  -0.2494591921567917,
                  -0.05574505403637886,
                  -0.19811363518238068,
                  -0.24745193123817444,
                  -0.1287304162979126,
                  -0.11808687448501587,
                  -0.08479131758213043,
                  -0.13086847960948944
                ],
                "b": -0.006762217730283737
              },
              "standardize": {
                "mu": [
                  0.905363917350769,
                  1.6546210050582886,
                  0.3126299977302551,
                  0.2823059856891632,
                  -0.4162232577800751,
                  -0.2484394907951355,
                  -0.187625452876091,
                  -0.22232802212238312,
                  0.9826728701591492,
                  -0.8305695056915283
                ],
                "sd": [
                  5.2845892906188965,
                  5.284459114074707,
                  8.53813362121582,
                  14.82373332977295,
                  9.702939987182617,
                  8.737320899963379,
                  9.247408866882324,
                  13.110013008117676,
                  21.290544509887695,
                  50.39729690551758
                ]
              },
              "init": {
                "mode": "random_normal",
                "scale": 0.001966005664489474
              },
              "seeds": {
                "split_seed": 258043,
                "init_seed": 458043,
                "batch_seed": 358043
              }
            },
            "run_id": 1,
            "seed": 558043,
            "randomness": {
              "split_seed": 258043,
              "batch_seed": 358043,
              "init_seed": 458043
            }
          },
          {
            "baseline_cent_sign": {
              "train_acc": 0.44166669249534607,
              "val_acc": 0.5
            },
            "logreg": {
              "train": {
                "acc": 0.5885416865348816,
                "nll": 0.6690236926078796
              },
              "val": {
                "acc": 0.550000011920929,
                "nll": 0.6754675507545471
              },
              "params": {
                "w": [
                  0.1427762657403946,
                  -0.09902671724557877,
                  -0.09873209148645401,
                  -0.05256865918636322,
                  -0.1219392642378807,
                  -0.13672485947608948,
                  -0.14097172021865845,
                  -0.10926203429698944,
                  -0.04164023697376251,
                  -0.09753072261810303
                ],
                "b": -0.03892148286104202
              },
              "standardize": {
                "mu": [
                  0.8537892699241638,
                  1.5796924829483032,
                  0.09221411496400833,
                  0.14386442303657532,
                  -0.24329055845737457,
                  0.004391161724925041,
                  -0.1637219935655594,
                  -0.48585155606269836,
                  1.2053040266036987,
                  -0.35612717270851135
                ],
                "sd": [
                  5.290966033935547,
                  5.1696062088012695,
                  8.642297744750977,
                  15.060181617736816,
                  9.754129409790039,
                  8.758804321289062,
                  9.24388313293457,
                  13.00812816619873,
                  21.358715057373047,
                  50.200862884521484
                ]
              },
              "init": {
                "mode": "random_normal",
                "scale": 0.001966005664489474
              },
              "seeds": {
                "split_seed": 258044,
                "init_seed": 458044,
                "batch_seed": 358044
              }
            },
            "run_id": 2,
            "seed": 558044,
            "randomness": {
              "split_seed": 258044,
              "batch_seed": 358044,
              "init_seed": 458044
            }
          },
          {
            "baseline_cent_sign": {
              "train_acc": 0.44166669249534607,
              "val_acc": 0.5
            },
            "logreg": {
              "train": {
                "acc": 0.596875011920929,
                "nll": 0.665229856967926
              },
              "val": {
                "acc": 0.5625,
                "nll": 0.6647667288780212
              },
              "params": {
                "w": [
                  0.12564559280872345,
                  -0.05707449093461037,
                  -0.24258683621883392,
                  -0.07898729294538498,
                  -0.15283028781414032,
                  -0.286873996257782,
                  -0.15173521637916565,
                  -0.13126131892204285,
                  -0.12736745178699493,
                  -0.12388912588357925
                ],
                "b": -0.029715871438384056
              },
              "standardize": {
                "mu": [
                  0.915214478969574,
                  1.6670408248901367,
                  0.035140883177518845,
                  0.1869981586933136,
                  -0.4308246374130249,
                  0.08262043446302414,
                  -0.3604303002357483,
                  0.003325557801872492,
                  1.975196361541748,
                  -2.2916200160980225
                ],
                "sd": [
                  5.3350677490234375,
                  5.235876083374023,
                  8.649454116821289,
                  14.999554634094238,
                  9.94888973236084,
                  8.748662948608398,
                  9.102368354797363,
                  13.006092071533203,
                  20.90383529663086,
                  50.057594299316406
                ]
              },
              "init": {
                "mode": "random_normal",
                "scale": 0.001966005664489474
              },
              "seeds": {
                "split_seed": 258045,
                "init_seed": 458045,
                "batch_seed": 358045
              }
            },
            "run_id": 3,
            "seed": 558045,
            "randomness": {
              "split_seed": 258045,
              "batch_seed": 358045,
              "init_seed": 458045
            }
          },
          {
            "baseline_cent_sign": {
              "train_acc": 0.46666669845581055,
              "val_acc": 0.40000003576278687
            },
            "logreg": {
              "train": {
                "acc": 0.5875000357627869,
                "nll": 0.6658393144607544
              },
              "val": {
                "acc": 0.6375000476837158,
                "nll": 0.6626315712928772
              },
              "params": {
                "w": [
                  0.10505034774541855,
                  2.2199354134500027e-05,
                  -0.23647429049015045,
                  -0.030842408537864685,
                  -0.1828761249780655,
                  -0.31009575724601746,
                  -0.17249995470046997,
                  -0.09797456860542297,
                  -0.09719806164503098,
                  -0.06475958973169327
                ],
                "b": 0.013816107995808125
              },
              "standardize": {
                "mu": [
                  0.9707156419754028,
                  1.6538758277893066,
                  0.19065427780151367,
                  0.18775586783885956,
                  -0.4168817102909088,
                  -0.20147278904914856,
                  -0.32732850313186646,
                  0.059250134974718094,
                  1.4797061681747437,
                  -0.8019298911094666
                ],
                "sd": [
                  5.37856912612915,
                  5.166027069091797,
                  8.844561576843262,
                  14.808855056762695,
                  9.914321899414062,
                  8.733510971069336,
                  9.123573303222656,
                  12.779501914978027,
                  21.491243362426758,
                  49.120059967041016
                ]
              },
              "init": {
                "mode": "random_normal",
                "scale": 0.001966005664489474
              },
              "seeds": {
                "split_seed": 258046,
                "init_seed": 458046,
                "batch_seed": 358046
              }
            },
            "run_id": 4,
            "seed": 558046,
            "randomness": {
              "split_seed": 258046,
              "batch_seed": 358046,
              "init_seed": 458046
            }
          },
          {
            "baseline_cent_sign": {
              "train_acc": 0.4593750238418579,
              "val_acc": 0.42916667461395264
            },
            "logreg": {
              "train": {
                "acc": 0.5916666984558105,
                "nll": 0.6668435335159302
              },
              "val": {
                "acc": 0.5958333611488342,
                "nll": 0.6556000113487244
              },
              "params": {
                "w": [
                  0.12163931131362915,
                  -0.036614250391721725,
                  -0.24951472878456116,
                  -0.042217884212732315,
                  -0.17776112258434296,
                  -0.24802899360656738,
                  -0.18537800014019012,
                  -0.09318841993808746,
                  -0.10628851503133774,
                  -0.0996570885181427
                ],
                "b": -0.01847507245838642
              },
              "standardize": {
                "mu": [
                  0.972151517868042,
                  1.6611590385437012,
                  0.31677255034446716,
                  -0.13503488898277283,
                  -0.34113192558288574,
                  -0.0797979086637497,
                  -0.29164788126945496,
                  0.0548211932182312,
                  1.0308036804199219,
                  -0.027804948389530182
                ],
                "sd": [
                  5.323635578155518,
                  5.067537307739258,
                  8.601141929626465,
                  14.870369911193848,
                  9.919873237609863,
                  8.692764282226562,
                  9.18235969543457,
                  12.98986530303955,
                  21.851654052734375,
                  49.11454772949219
                ]
              },
              "init": {
                "mode": "random_normal",
                "scale": 0.001966005664489474
              },
              "seeds": {
                "split_seed": 258047,
                "init_seed": 458047,
                "batch_seed": 358047
              }
            },
            "run_id": 5,
            "seed": 558047,
            "randomness": {
              "split_seed": 258047,
              "batch_seed": 358047,
              "init_seed": 458047
            }
          },
          {
            "baseline_cent_sign": {
              "train_acc": 0.4583333432674408,
              "val_acc": 0.4333333671092987
            },
            "logreg": {
              "train": {
                "acc": 0.5989583730697632,
                "nll": 0.6661850214004517
              },
              "val": {
                "acc": 0.5791667103767395,
                "nll": 0.6626154780387878
              },
              "params": {
                "w": [
                  0.12949120998382568,
                  -0.0186646468937397,
                  -0.23416884243488312,
                  -0.09074711799621582,
                  -0.15522445738315582,
                  -0.2475520819425583,
                  -0.12104826420545578,
                  -0.10759538412094116,
                  -0.08099420368671417,
                  -0.0945383831858635
                ],
                "b": 0.0518350750207901
              },
              "standardize": {
                "mu": [
                  0.8560833930969238,
                  1.6166285276412964,
                  0.19382821023464203,
                  -0.1794528067111969,
                  -0.38412344455718994,
                  -0.1948832869529724,
                  -0.3873312175273895,
                  0.04251211881637573,
                  1.0132229328155518,
                  -0.8419014811515808
                ],
                "sd": [
                  5.404262065887451,
                  5.162698745727539,
                  8.709513664245605,
                  14.612542152404785,
                  9.879697799682617,
                  8.804317474365234,
                  9.277765274047852,
                  12.932671546936035,
                  21.42418098449707,
                  50.448001861572266
                ]
              },
              "init": {
                "mode": "random_normal",
                "scale": 0.001966005664489474
              },
              "seeds": {
                "split_seed": 258048,
                "init_seed": 458048,
                "batch_seed": 358048
              }
            },
            "run_id": 6,
            "seed": 558048,
            "randomness": {
              "split_seed": 258048,
              "batch_seed": 358048,
              "init_seed": 458048
            }
          },
          {
            "baseline_cent_sign": {
              "train_acc": 0.4489583671092987,
              "val_acc": 0.47083336114883423
            },
            "logreg": {
              "train": {
                "acc": 0.5822917222976685,
                "nll": 0.6665481925010681
              },
              "val": {
                "acc": 0.5875000357627869,
                "nll": 0.6588441729545593
              },
              "params": {
                "w": [
                  0.10749480873346329,
                  -0.06299043446779251,
                  -0.26533129811286926,
                  -0.0460578054189682,
                  -0.15186871588230133,
                  -0.2330360859632492,
                  -0.1855354756116867,
                  -0.08070952445268631,
                  -0.07439397275447845,
                  -0.12116578966379166
                ],
                "b": 0.024969851598143578
              },
              "standardize": {
                "mu": [
                  0.855618953704834,
                  1.4205180406570435,
                  0.13663151860237122,
                  -0.07739542424678802,
                  -0.5127117037773132,
                  -0.04932403936982155,
                  -0.5737364888191223,
                  -0.2471262812614441,
                  0.9297979474067688,
                  -1.643477201461792
                ],
                "sd": [
                  5.296433925628662,
                  5.109133243560791,
                  8.722562789916992,
                  14.7178373336792,
                  9.89202880859375,
                  8.535833358764648,
                  9.406538009643555,
                  12.771483421325684,
                  21.504745483398438,
                  49.94248962402344
                ]
              },
              "init": {
                "mode": "random_normal",
                "scale": 0.001966005664489474
              },
              "seeds": {
                "split_seed": 258049,
                "init_seed": 458049,
                "batch_seed": 358049
              }
            },
            "run_id": 7,
            "seed": 558049,
            "randomness": {
              "split_seed": 258049,
              "batch_seed": 358049,
              "init_seed": 458049
            }
          },
          {
            "baseline_cent_sign": {
              "train_acc": 0.45625001192092896,
              "val_acc": 0.44166669249534607
            },
            "logreg": {
              "train": {
                "acc": 0.5916666984558105,
                "nll": 0.6621295213699341
              },
              "val": {
                "acc": 0.5916666984558105,
                "nll": 0.6752539873123169
              },
              "params": {
                "w": [
                  0.1657274216413498,
                  -0.03333178162574768,
                  -0.2299947589635849,
                  -0.05547374114394188,
                  -0.2000376135110855,
                  -0.2691211402416229,
                  -0.14989937841892242,
                  -0.10861438512802124,
                  -0.09933524578809738,
                  -0.10875332355499268
                ],
                "b": 0.014874651096761227
              },
              "standardize": {
                "mu": [
                  0.9544728994369507,
                  1.5475893020629883,
                  0.32422786951065063,
                  0.1998554915189743,
                  -0.36225447058677673,
                  -0.09071705490350723,
                  -0.3224717974662781,
                  -0.06300031393766403,
                  0.9773151278495789,
                  0.01537094172090292
                ],
                "sd": [
                  5.337563514709473,
                  5.208759307861328,
                  8.537885665893555,
                  14.950638771057129,
                  10.008527755737305,
                  8.858041763305664,
                  9.237512588500977,
                  13.027864456176758,
                  21.933013916015625,
                  50.62758255004883
                ]
              },
              "init": {
                "mode": "random_normal",
                "scale": 0.001966005664489474
              },
              "seeds": {
                "split_seed": 258050,
                "init_seed": 458050,
                "batch_seed": 358050
              }
            },
            "run_id": 8,
            "seed": 558050,
            "randomness": {
              "split_seed": 258050,
              "batch_seed": 358050,
              "init_seed": 458050
            }
          },
          {
            "baseline_cent_sign": {
              "train_acc": 0.4593750238418579,
              "val_acc": 0.42916667461395264
            },
            "logreg": {
              "train": {
                "acc": 0.5854166746139526,
                "nll": 0.665607750415802
              },
              "val": {
                "acc": 0.5875000357627869,
                "nll": 0.6635022163391113
              },
              "params": {
                "w": [
                  0.13160210847854614,
                  -0.08223035931587219,
                  -0.22449181973934174,
                  -0.037796683609485626,
                  -0.17553482949733734,
                  -0.3052670359611511,
                  -0.17141930758953094,
                  -0.10051309317350388,
                  -0.09333020448684692,
                  -0.06727024167776108
                ],
                "b": -0.01904091238975525
              },
              "standardize": {
                "mu": [
                  1.0457477569580078,
                  1.5825786590576172,
                  0.1701347529888153,
                  -0.1494985967874527,
                  -0.4390425384044647,
                  0.11891502141952515,
                  -0.3123958706855774,
                  -0.22616000473499298,
                  0.9116338491439819,
                  -0.7434842586517334
                ],
                "sd": [
                  5.325369358062744,
                  4.964780330657959,
                  8.532370567321777,
                  14.933345794677734,
                  9.965654373168945,
                  8.65333366394043,
                  9.296544075012207,
                  12.771063804626465,
                  21.233686447143555,
                  48.858089447021484
                ]
              },
              "init": {
                "mode": "random_normal",
                "scale": 0.001966005664489474
              },
              "seeds": {
                "split_seed": 258051,
                "init_seed": 458051,
                "batch_seed": 358051
              }
            },
            "run_id": 9,
            "seed": 558051,
            "randomness": {
              "split_seed": 258051,
              "batch_seed": 358051,
              "init_seed": 458051
            }
          }
        ],
        "summary": {
          "n_runs": 10,
          "baseline_cent_sign": {
            "train_acc": {
              "mean": 0.45260418951511383,
              "std": 0.009331496784007841,
              "min": 0.4364583492279053,
              "max": 0.46666669845581055
            },
            "val_acc": {
              "mean": 0.4562500208616257,
              "std": 0.037325981979471415,
              "min": 0.40000003576278687,
              "max": 0.5208333730697632
            }
          },
          "logreg": {
            "train_acc": {
              "mean": 0.5907291948795319,
              "std": 0.009437874089946155,
              "min": 0.5739583373069763,
              "max": 0.6104167103767395
            },
            "val_acc": {
              "mean": 0.5837500274181366,
              "std": 0.030926101979293942,
              "min": 0.5250000357627869,
              "max": 0.6375000476837158
            },
            "train_nll": {
              "mean": 0.6656849443912506,
              "std": 0.0021445534704708307,
              "min": 0.6617404222488403,
              "max": 0.6690236926078796
            },
            "val_nll": {
              "mean": 0.6669273793697357,
              "std": 0.01167013970386939,
              "min": 0.6548939347267151,
              "max": 0.6956981420516968
            }
          }
        },
        "randomness_config": {
          "vary_split": true,
          "vary_batch_order": true,
          "vary_init": true
        }
      },
      "k": 1.4,
      "nps_target": 2353,
      "nps_match_mode": "offby1"
    },
    {
      "nps": 4096,
      "baseline_cent_sign": {
        "train_acc": 0.45104169845581055,
        "val_acc": 0.491666704416275
      },
      "logreg": {
        "train": {
          "acc": 0.6291667222976685,
          "nll": 0.6368992328643799
        },
        "val": {
          "acc": 0.612500011920929,
          "nll": 0.6415823698043823
        },
        "params": {
          "w": [
            0.00392729789018631,
            -0.07968966662883759,
            -0.23419314622879028,
            -0.17037679255008698,
            -0.4242212772369385,
            -0.26655223965644836,
            -0.3212672173976898,
            -0.22563746571540833,
            -0.09716010838747025,
            -0.1572692096233368
          ],
          "b": -0.025406721979379654
        },
        "standardize": {
          "mu": [
            1.045206904411316,
            1.3934074640274048,
            -0.24140293896198273,
            -0.21261927485466003,
            -0.14872387051582336,
            0.012453366070985794,
            0.2102673053741455,
            0.5982663035392761,
            -0.09987122565507889,
            -0.47954434156417847
          ],
          "sd": [
            3.951972723007202,
            4.037901878356934,
            6.437849044799805,
            8.439784049987793,
            5.843806266784668,
            4.774346828460693,
            5.313624858856201,
            7.318901538848877,
            11.756007194519043,
            27.00827407836914
          ]
        },
        "init": {
          "mode": "random_normal",
          "scale": 0.001966005664489474
        },
        "seeds": {
          "split_seed": 268042,
          "init_seed": 468042,
          "batch_seed": 368042
        }
      },
      "independent_runs": {
        "per_run": [
          {
            "baseline_cent_sign": {
              "train_acc": 0.45104169845581055,
              "val_acc": 0.491666704416275
            },
            "logreg": {
              "train": {
                "acc": 0.6291667222976685,
                "nll": 0.6368992328643799
              },
              "val": {
                "acc": 0.612500011920929,
                "nll": 0.6415823698043823
              },
              "params": {
                "w": [
                  0.00392729789018631,
                  -0.07968966662883759,
                  -0.23419314622879028,
                  -0.17037679255008698,
                  -0.4242212772369385,
                  -0.26655223965644836,
                  -0.3212672173976898,
                  -0.22563746571540833,
                  -0.09716010838747025,
                  -0.1572692096233368
                ],
                "b": -0.025406721979379654
              },
              "standardize": {
                "mu": [
                  1.045206904411316,
                  1.3934074640274048,
                  -0.24140293896198273,
                  -0.21261927485466003,
                  -0.14872387051582336,
                  0.012453366070985794,
                  0.2102673053741455,
                  0.5982663035392761,
                  -0.09987122565507889,
                  -0.47954434156417847
                ],
                "sd": [
                  3.951972723007202,
                  4.037901878356934,
                  6.437849044799805,
                  8.439784049987793,
                  5.843806266784668,
                  4.774346828460693,
                  5.313624858856201,
                  7.318901538848877,
                  11.756007194519043,
                  27.00827407836914
                ]
              },
              "init": {
                "mode": "random_normal",
                "scale": 0.001966005664489474
              },
              "seeds": {
                "split_seed": 268042,
                "init_seed": 468042,
                "batch_seed": 368042
              }
            },
            "run_id": 0,
            "seed": 568042,
            "randomness": {
              "split_seed": 268042,
              "batch_seed": 368042,
              "init_seed": 468042
            }
          },
          {
            "baseline_cent_sign": {
              "train_acc": 0.4541666805744171,
              "val_acc": 0.4791666865348816
            },
            "logreg": {
              "train": {
                "acc": 0.628125011920929,
                "nll": 0.6352576613426208
              },
              "val": {
                "acc": 0.6166666746139526,
                "nll": 0.6533188223838806
              },
              "params": {
                "w": [
                  -0.02049323357641697,
                  -0.10601253807544708,
                  -0.23403017222881317,
                  -0.12278156727552414,
                  -0.3273800015449524,
                  -0.23169931769371033,
                  -0.29003506898880005,
                  -0.20282268524169922,
                  -0.07408591359853745,
                  -0.15525147318840027
                ],
                "b": -0.02461371198296547
              },
              "standardize": {
                "mu": [
                  1.0002820491790771,
                  1.3664135932922363,
                  -0.4913290739059448,
                  -0.18316927552223206,
                  -0.01150774210691452,
                  -0.11622768640518188,
                  0.157370463013649,
                  0.5414806604385376,
                  -0.24177978932857513,
                  0.07187147438526154
                ],
                "sd": [
                  3.9574759006500244,
                  3.942720413208008,
                  6.335536479949951,
                  8.238546371459961,
                  5.87702751159668,
                  4.878398895263672,
                  5.528285503387451,
                  7.355550765991211,
                  11.802498817443848,
                  26.593400955200195
                ]
              },
              "init": {
                "mode": "random_normal",
                "scale": 0.001966005664489474
              },
              "seeds": {
                "split_seed": 268043,
                "init_seed": 468043,
                "batch_seed": 368043
              }
            },
            "run_id": 1,
            "seed": 568043,
            "randomness": {
              "split_seed": 268043,
              "batch_seed": 368043,
              "init_seed": 468043
            }
          },
          {
            "baseline_cent_sign": {
              "train_acc": 0.46666669845581055,
              "val_acc": 0.42916667461395264
            },
            "logreg": {
              "train": {
                "acc": 0.6239583492279053,
                "nll": 0.6381736397743225
              },
              "val": {
                "acc": 0.612500011920929,
                "nll": 0.6357254981994629
              },
              "params": {
                "w": [
                  0.019316593185067177,
                  -0.0881834328174591,
                  -0.24253037571907043,
                  -0.12851600348949432,
                  -0.39758482575416565,
                  -0.26727038621902466,
                  -0.33900171518325806,
                  -0.2051752805709839,
                  -0.08669430017471313,
                  -0.15489405393600464
                ],
                "b": -0.0047140829265117645
              },
              "standardize": {
                "mu": [
                  1.0765281915664673,
                  1.5024032592773438,
                  -0.2633377015590668,
                  -0.5450649261474609,
                  -0.01698090322315693,
                  -0.3697109818458557,
                  0.03861271217465401,
                  0.42919760942459106,
                  -0.4182735085487366,
                  -0.154344379901886
                ],
                "sd": [
                  4.002052307128906,
                  4.082562446594238,
                  6.489638328552246,
                  8.129524230957031,
                  5.950686454772949,
                  4.938167095184326,
                  5.479222297668457,
                  7.3575825691223145,
                  11.915068626403809,
                  26.89569091796875
                ]
              },
              "init": {
                "mode": "random_normal",
                "scale": 0.001966005664489474
              },
              "seeds": {
                "split_seed": 268044,
                "init_seed": 468044,
                "batch_seed": 368044
              }
            },
            "run_id": 2,
            "seed": 568044,
            "randomness": {
              "split_seed": 268044,
              "batch_seed": 368044,
              "init_seed": 468044
            }
          },
          {
            "baseline_cent_sign": {
              "train_acc": 0.46666669845581055,
              "val_acc": 0.42916667461395264
            },
            "logreg": {
              "train": {
                "acc": 0.628125011920929,
                "nll": 0.6371828317642212
              },
              "val": {
                "acc": 0.5958333611488342,
                "nll": 0.6393792629241943
              },
              "params": {
                "w": [
                  -0.006016414146870375,
                  -0.12665946781635284,
                  -0.19292138516902924,
                  -0.1548587828874588,
                  -0.37341511249542236,
                  -0.28228870034217834,
                  -0.3783891499042511,
                  -0.21517689526081085,
                  -0.06556801497936249,
                  -0.14218908548355103
                ],
                "b": -0.006755707319825888
              },
              "standardize": {
                "mu": [
                  0.9893288016319275,
                  1.3528010845184326,
                  -0.3770873248577118,
                  -0.19472558796405792,
                  -0.1487441509962082,
                  0.016925184056162834,
                  0.12491852045059204,
                  0.4259673058986664,
                  -0.525267481803894,
                  0.08089377731084824
                ],
                "sd": [
                  4.017420291900635,
                  4.075155258178711,
                  6.56990385055542,
                  8.31140422821045,
                  5.751603603363037,
                  4.955899715423584,
                  5.4271440505981445,
                  7.1410040855407715,
                  11.887682914733887,
                  26.7946720123291
                ]
              },
              "init": {
                "mode": "random_normal",
                "scale": 0.001966005664489474
              },
              "seeds": {
                "split_seed": 268045,
                "init_seed": 468045,
                "batch_seed": 368045
              }
            },
            "run_id": 3,
            "seed": 568045,
            "randomness": {
              "split_seed": 268045,
              "batch_seed": 368045,
              "init_seed": 468045
            }
          },
          {
            "baseline_cent_sign": {
              "train_acc": 0.4583333432674408,
              "val_acc": 0.46250003576278687
            },
            "logreg": {
              "train": {
                "acc": 0.6427083611488342,
                "nll": 0.6412460207939148
              },
              "val": {
                "acc": 0.550000011920929,
                "nll": 0.6866191625595093
              },
              "params": {
                "w": [
                  -0.07019656151533127,
                  -0.01041905302554369,
                  -0.1431538164615631,
                  -0.16697442531585693,
                  -0.17245616018772125,
                  -0.1568191647529602,
                  -0.1662873476743698,
                  -0.1560971736907959,
                  -0.11763324588537216,
                  -0.1083729937672615
                ],
                "b": -0.008792486041784286
              },
              "standardize": {
                "mu": [
                  1.0499000549316406,
                  1.3527265787124634,
                  -0.44773924350738525,
                  0.0026312193367630243,
                  -0.019413210451602936,
                  -0.11042692512273788,
                  0.0464743971824646,
                  0.4155748784542084,
                  -0.4876650869846344,
                  0.22743327915668488
                ],
                "sd": [
                  4.0132036209106445,
                  4.023773670196533,
                  6.5133843421936035,
                  8.325947761535645,
                  5.815417289733887,
                  4.978697776794434,
                  5.482287406921387,
                  7.391241550445557,
                  11.617135047912598,
                  27.37894058227539
                ]
              },
              "init": {
                "mode": "random_normal",
                "scale": 0.001966005664489474
              },
              "seeds": {
                "split_seed": 268046,
                "init_seed": 468046,
                "batch_seed": 368046
              }
            },
            "run_id": 4,
            "seed": 568046,
            "randomness": {
              "split_seed": 268046,
              "batch_seed": 368046,
              "init_seed": 468046
            }
          },
          {
            "baseline_cent_sign": {
              "train_acc": 0.4687500298023224,
              "val_acc": 0.4208333492279053
            },
            "logreg": {
              "train": {
                "acc": 0.6395833492279053,
                "nll": 0.6298678517341614
              },
              "val": {
                "acc": 0.5666667222976685,
                "nll": 0.6718555092811584
              },
              "params": {
                "w": [
                  -0.034546129405498505,
                  -0.14158253371715546,
                  -0.18786495923995972,
                  -0.19958777725696564,
                  -0.41099223494529724,
                  -0.27593934535980225,
                  -0.3837389051914215,
                  -0.20709362626075745,
                  -0.0994936153292656,
                  -0.14186295866966248
                ],
                "b": -0.03816778212785721
              },
              "standardize": {
                "mu": [
                  1.0986992120742798,
                  1.5000556707382202,
                  -0.3842146396636963,
                  -0.237746000289917,
                  -0.1466219276189804,
                  -0.12038438022136688,
                  0.053380563855171204,
                  0.47454461455345154,
                  -0.38453593850135803,
                  0.24977418780326843
                ],
                "sd": [
                  3.989877223968506,
                  4.0763468742370605,
                  6.481380462646484,
                  8.275758743286133,
                  5.775474548339844,
                  4.987002849578857,
                  5.455870628356934,
                  7.378583908081055,
                  11.747126579284668,
                  26.368730545043945
                ]
              },
              "init": {
                "mode": "random_normal",
                "scale": 0.001966005664489474
              },
              "seeds": {
                "split_seed": 268047,
                "init_seed": 468047,
                "batch_seed": 368047
              }
            },
            "run_id": 5,
            "seed": 568047,
            "randomness": {
              "split_seed": 268047,
              "batch_seed": 368047,
              "init_seed": 468047
            }
          },
          {
            "baseline_cent_sign": {
              "train_acc": 0.444791704416275,
              "val_acc": 0.5166667103767395
            },
            "logreg": {
              "train": {
                "acc": 0.6177083849906921,
                "nll": 0.6341174244880676
              },
              "val": {
                "acc": 0.6166666746139526,
                "nll": 0.6499989032745361
              },
              "params": {
                "w": [
                  -0.02900579571723938,
                  -0.0842687264084816,
                  -0.24321924149990082,
                  -0.1705753654241562,
                  -0.4056788682937622,
                  -0.22776789963245392,
                  -0.38906118273735046,
                  -0.19149655103683472,
                  -0.07651904225349426,
                  -0.1574018895626068
                ],
                "b": -0.03494742512702942
              },
              "standardize": {
                "mu": [
                  0.9975336194038391,
                  1.3994371891021729,
                  -0.16160771250724792,
                  -0.09284508228302002,
                  -0.02542070671916008,
                  -0.04116970673203468,
                  0.281355619430542,
                  0.2832624018192291,
                  -0.10819335281848907,
                  0.4197104871273041
                ],
                "sd": [
                  3.969942569732666,
                  4.082406044006348,
                  6.443331241607666,
                  8.328803062438965,
                  5.903575897216797,
                  4.962050914764404,
                  5.475729465484619,
                  7.398830413818359,
                  11.684213638305664,
                  27.041688919067383
                ]
              },
              "init": {
                "mode": "random_normal",
                "scale": 0.001966005664489474
              },
              "seeds": {
                "split_seed": 268048,
                "init_seed": 468048,
                "batch_seed": 368048
              }
            },
            "run_id": 6,
            "seed": 568048,
            "randomness": {
              "split_seed": 268048,
              "batch_seed": 368048,
              "init_seed": 468048
            }
          },
          {
            "baseline_cent_sign": {
              "train_acc": 0.4583333432674408,
              "val_acc": 0.46250003576278687
            },
            "logreg": {
              "train": {
                "acc": 0.6270833611488342,
                "nll": 0.6341017484664917
              },
              "val": {
                "acc": 0.5916666984558105,
                "nll": 0.6519538164138794
              },
              "params": {
                "w": [
                  0.016470812261104584,
                  -0.05759638920426369,
                  -0.2228008210659027,
                  -0.15685269236564636,
                  -0.40762683749198914,
                  -0.27846166491508484,
                  -0.37713420391082764,
                  -0.18921728432178497,
                  -0.07460518926382065,
                  -0.10301174223423004
                ],
                "b": 0.03251243010163307
              },
              "standardize": {
                "mu": [
                  1.0416393280029297,
                  1.3877235651016235,
                  -0.25631940364837646,
                  -0.29213085770606995,
                  -0.09551438689231873,
                  -0.29044491052627563,
                  0.08568543940782547,
                  0.43498823046684265,
                  -0.2109507918357849,
                  -0.41532862186431885
                ],
                "sd": [
                  3.9798014163970947,
                  4.120497226715088,
                  6.370389938354492,
                  8.333160400390625,
                  5.832858562469482,
                  4.9232048988342285,
                  5.3798956871032715,
                  7.089135646820068,
                  11.714573860168457,
                  26.608449935913086
                ]
              },
              "init": {
                "mode": "random_normal",
                "scale": 0.001966005664489474
              },
              "seeds": {
                "split_seed": 268049,
                "init_seed": 468049,
                "batch_seed": 368049
              }
            },
            "run_id": 7,
            "seed": 568049,
            "randomness": {
              "split_seed": 268049,
              "batch_seed": 368049,
              "init_seed": 468049
            }
          },
          {
            "baseline_cent_sign": {
              "train_acc": 0.460416704416275,
              "val_acc": 0.4541666805744171
            },
            "logreg": {
              "train": {
                "acc": 0.6250000596046448,
                "nll": 0.6350064873695374
              },
              "val": {
                "acc": 0.6291667222976685,
                "nll": 0.647144615650177
              },
              "params": {
                "w": [
                  -0.012487568892538548,
                  -0.06804319471120834,
                  -0.1921345442533493,
                  -0.1692851185798645,
                  -0.3887840807437897,
                  -0.27116185426712036,
                  -0.3913322985172272,
                  -0.21539638936519623,
                  -0.08270949125289917,
                  -0.13025493919849396
                ],
                "b": -0.003136794548481703
              },
              "standardize": {
                "mu": [
                  1.1579183340072632,
                  1.4572259187698364,
                  -0.168715238571167,
                  -0.08401092141866684,
                  -0.05062326788902283,
                  -0.17750486731529236,
                  0.2115105241537094,
                  0.47451478242874146,
                  -0.31152790784835815,
                  0.3109707236289978
                ],
                "sd": [
                  3.916699171066284,
                  3.99605393409729,
                  6.458213806152344,
                  8.210343360900879,
                  5.848631381988525,
                  4.91204309463501,
                  5.514701843261719,
                  7.3433661460876465,
                  11.710732460021973,
                  26.8835506439209
                ]
              },
              "init": {
                "mode": "random_normal",
                "scale": 0.001966005664489474
              },
              "seeds": {
                "split_seed": 268050,
                "init_seed": 468050,
                "batch_seed": 368050
              }
            },
            "run_id": 8,
            "seed": 568050,
            "randomness": {
              "split_seed": 268050,
              "batch_seed": 368050,
              "init_seed": 468050
            }
          },
          {
            "baseline_cent_sign": {
              "train_acc": 0.4541666805744171,
              "val_acc": 0.4791666865348816
            },
            "logreg": {
              "train": {
                "acc": 0.6322916746139526,
                "nll": 0.6319330930709839
              },
              "val": {
                "acc": 0.6000000238418579,
                "nll": 0.6615931391716003
              },
              "params": {
                "w": [
                  -0.009991152212023735,
                  -0.08201270550489426,
                  -0.2505437731742859,
                  -0.15809500217437744,
                  -0.41053617000579834,
                  -0.19139541685581207,
                  -0.38744431734085083,
                  -0.2303115576505661,
                  -0.09057999402284622,
                  -0.17596963047981262
                ],
                "b": -0.019174640998244286
              },
              "standardize": {
                "mu": [
                  1.0633044242858887,
                  1.4064210653305054,
                  -0.28642046451568604,
                  -0.37178269028663635,
                  -0.13822714984416962,
                  -0.16920694708824158,
                  0.033821649849414825,
                  0.4690961241722107,
                  -0.26801443099975586,
                  0.15403996407985687
                ],
                "sd": [
                  3.999453067779541,
                  4.111217498779297,
                  6.587747573852539,
                  8.36849594116211,
                  5.765289306640625,
                  4.880441188812256,
                  5.506687164306641,
                  7.378861904144287,
                  11.53980827331543,
                  26.677101135253906
                ]
              },
              "init": {
                "mode": "random_normal",
                "scale": 0.001966005664489474
              },
              "seeds": {
                "split_seed": 268051,
                "init_seed": 468051,
                "batch_seed": 368051
              }
            },
            "run_id": 9,
            "seed": 568051,
            "randomness": {
              "split_seed": 268051,
              "batch_seed": 368051,
              "init_seed": 468051
            }
          }
        ],
        "summary": {
          "n_runs": 10,
          "baseline_cent_sign": {
            "train_acc": {
              "mean": 0.458333358168602,
              "std": 0.007231898728968349,
              "min": 0.444791704416275,
              "max": 0.4687500298023224
            },
            "val_acc": {
              "mean": 0.4625000238418579,
              "std": 0.0289276013548333,
              "min": 0.4208333492279053,
              "max": 0.5166667103767395
            }
          },
          "logreg": {
            "train_acc": {
              "mean": 0.6293750286102295,
              "std": 0.006953459194716394,
              "min": 0.6177083849906921,
              "max": 0.6427083611488342
            },
            "val_acc": {
              "mean": 0.5991666913032532,
              "std": 0.02325880766806642,
              "min": 0.550000011920929,
              "max": 0.6291667222976685
            },
            "train_nll": {
              "mean": 0.6353785991668701,
              "std": 0.003056473827903959,
              "min": 0.6298678517341614,
              "max": 0.6412460207939148
            },
            "val_nll": {
              "mean": 0.653917109966278,
              "std": 0.014866044803011763,
              "min": 0.6357254981994629,
              "max": 0.6866191625595093
            }
          }
        },
        "randomness_config": {
          "vary_split": true,
          "vary_batch_order": true,
          "vary_init": true
        }
      },
      "k": 1.5,
      "nps_target": 4096,
      "nps_match_mode": "offby1"
    },
    {
      "nps": 7131,
      "baseline_cent_sign": {
        "train_acc": 0.4177083671092987,
        "val_acc": 0.40833336114883423
      },
      "logreg": {
        "train": {
          "acc": 0.7229167222976685,
          "nll": 0.5462090373039246
        },
        "val": {
          "acc": 0.7041667103767395,
          "nll": 0.5804269313812256
        },
        "params": {
          "w": [
            0.07389557361602783,
            -0.04025711119174957,
            -0.469379723072052,
            -0.43882691860198975,
            -0.533211886882782,
            -0.47118082642555237,
            -0.5874523520469666,
            -0.3647448420524597,
            -0.14564621448516846,
            -0.02688838727772236
          ],
          "b": 0.017755679786205292
        },
        "standardize": {
          "mu": [
            1.1692705154418945,
            1.4247790575027466,
            -0.1122615784406662,
            0.19530099630355835,
            -0.05344007536768913,
            0.05153901129961014,
            0.03010573610663414,
            -0.08779580146074295,
            -0.022348007187247276,
            0.3288328945636749
          ],
          "sd": [
            3.061501979827881,
            2.9926366806030273,
            4.822947978973389,
            4.987864971160889,
            3.3580031394958496,
            2.996082305908203,
            3.233741283416748,
            4.377412796020508,
            7.314182758331299,
            16.017723083496094
          ]
        },
        "init": {
          "mode": "random_normal",
          "scale": 0.001966005664489474
        },
        "seeds": {
          "split_seed": 278042,
          "init_seed": 478042,
          "batch_seed": 378042
        }
      },
      "independent_runs": {
        "per_run": [
          {
            "baseline_cent_sign": {
              "train_acc": 0.4177083671092987,
              "val_acc": 0.40833336114883423
            },
            "logreg": {
              "train": {
                "acc": 0.7229167222976685,
                "nll": 0.5462090373039246
              },
              "val": {
                "acc": 0.7041667103767395,
                "nll": 0.5804269313812256
              },
              "params": {
                "w": [
                  0.07389557361602783,
                  -0.04025711119174957,
                  -0.469379723072052,
                  -0.43882691860198975,
                  -0.533211886882782,
                  -0.47118082642555237,
                  -0.5874523520469666,
                  -0.3647448420524597,
                  -0.14564621448516846,
                  -0.02688838727772236
                ],
                "b": 0.017755679786205292
              },
              "standardize": {
                "mu": [
                  1.1692705154418945,
                  1.4247790575027466,
                  -0.1122615784406662,
                  0.19530099630355835,
                  -0.05344007536768913,
                  0.05153901129961014,
                  0.03010573610663414,
                  -0.08779580146074295,
                  -0.022348007187247276,
                  0.3288328945636749
                ],
                "sd": [
                  3.061501979827881,
                  2.9926366806030273,
                  4.822947978973389,
                  4.987864971160889,
                  3.3580031394958496,
                  2.996082305908203,
                  3.233741283416748,
                  4.377412796020508,
                  7.314182758331299,
                  16.017723083496094
                ]
              },
              "init": {
                "mode": "random_normal",
                "scale": 0.001966005664489474
              },
              "seeds": {
                "split_seed": 278042,
                "init_seed": 478042,
                "batch_seed": 378042
              }
            },
            "run_id": 0,
            "seed": 578042,
            "randomness": {
              "split_seed": 278042,
              "batch_seed": 378042,
              "init_seed": 478042
            }
          },
          {
            "baseline_cent_sign": {
              "train_acc": 0.4208333492279053,
              "val_acc": 0.3958333432674408
            },
            "logreg": {
              "train": {
                "acc": 0.7187500596046448,
                "nll": 0.5476062893867493
              },
              "val": {
                "acc": 0.7000000476837158,
                "nll": 0.5871180295944214
              },
              "params": {
                "w": [
                  0.09883564710617065,
                  -0.03069201670587063,
                  -0.3989502787590027,
                  -0.3763259947299957,
                  -0.45977962017059326,
                  -0.45045098662376404,
                  -0.44499093294143677,
                  -0.35797420144081116,
                  -0.17061761021614075,
                  0.03237184137105942
                ],
                "b": 0.0028443718329072
              },
              "standardize": {
                "mu": [
                  1.1221842765808105,
                  1.4670575857162476,
                  -0.08158959448337555,
                  0.24525626003742218,
                  0.062099944800138474,
                  0.011859413236379623,
                  0.028915390372276306,
                  0.054353613406419754,
                  -0.11149738729000092,
                  0.3110490143299103
                ],
                "sd": [
                  3.0885019302368164,
                  3.0255281925201416,
                  4.6419172286987305,
                  5.049435615539551,
                  3.319913387298584,
                  3.064673662185669,
                  3.2481276988983154,
                  4.337164402008057,
                  7.315093517303467,
                  15.973298072814941
                ]
              },
              "init": {
                "mode": "random_normal",
                "scale": 0.001966005664489474
              },
              "seeds": {
                "split_seed": 278043,
                "init_seed": 478043,
                "batch_seed": 378043
              }
            },
            "run_id": 1,
            "seed": 578043,
            "randomness": {
              "split_seed": 278043,
              "batch_seed": 378043,
              "init_seed": 478043
            }
          },
          {
            "baseline_cent_sign": {
              "train_acc": 0.42500001192092896,
              "val_acc": 0.37916669249534607
            },
            "logreg": {
              "train": {
                "acc": 0.7125000357627869,
                "nll": 0.5600367784500122
              },
              "val": {
                "acc": 0.7250000238418579,
                "nll": 0.5276622772216797
              },
              "params": {
                "w": [
                  0.04136947914958,
                  -0.03378753364086151,
                  -0.4022541344165802,
                  -0.3929575979709625,
                  -0.5524622201919556,
                  -0.5117729902267456,
                  -0.5301515460014343,
                  -0.313064306974411,
                  -0.14148782193660736,
                  -0.01438678428530693
                ],
                "b": 0.04038989916443825
              },
              "standardize": {
                "mu": [
                  1.2022805213928223,
                  1.3351062536239624,
                  -0.13478578627109528,
                  0.10157961398363113,
                  -0.09856279194355011,
                  0.11238788813352585,
                  0.07441464066505432,
                  -0.09954354166984558,
                  -0.14330624043941498,
                  0.7009968161582947
                ],
                "sd": [
                  3.0582516193389893,
                  3.0367178916931152,
                  4.737202167510986,
                  5.075091361999512,
                  3.3477327823638916,
                  3.089313507080078,
                  3.2617504596710205,
                  4.327632427215576,
                  7.386998653411865,
                  15.965155601501465
                ]
              },
              "init": {
                "mode": "random_normal",
                "scale": 0.001966005664489474
              },
              "seeds": {
                "split_seed": 278044,
                "init_seed": 478044,
                "batch_seed": 378044
              }
            },
            "run_id": 2,
            "seed": 578044,
            "randomness": {
              "split_seed": 278044,
              "batch_seed": 378044,
              "init_seed": 478044
            }
          },
          {
            "baseline_cent_sign": {
              "train_acc": 0.41875001788139343,
              "val_acc": 0.40416669845581055
            },
            "logreg": {
              "train": {
                "acc": 0.7135416865348816,
                "nll": 0.5596228837966919
              },
              "val": {
                "acc": 0.7166666984558105,
                "nll": 0.5345586538314819
              },
              "params": {
                "w": [
                  0.0244703758507967,
                  -0.10529734194278717,
                  -0.47299841046333313,
                  -0.35079225897789,
                  -0.5537299513816833,
                  -0.5022954940795898,
                  -0.47664570808410645,
                  -0.3282758593559265,
                  -0.14524327218532562,
                  -0.008845426142215729
                ],
                "b": 0.007753405719995499
              },
              "standardize": {
                "mu": [
                  1.1548724174499512,
                  1.2677932977676392,
                  -0.11019450426101685,
                  0.05430416390299797,
                  -0.049999792128801346,
                  0.030438024550676346,
                  0.027893152087926865,
                  0.010615118779242039,
                  -0.033046405762434006,
                  0.5130677223205566
                ],
                "sd": [
                  3.046964406967163,
                  2.9825499057769775,
                  4.734740734100342,
                  5.120931625366211,
                  3.345355272293091,
                  3.0792150497436523,
                  3.1671769618988037,
                  4.296783447265625,
                  7.39875602722168,
                  16.07195472717285
                ]
              },
              "init": {
                "mode": "random_normal",
                "scale": 0.001966005664489474
              },
              "seeds": {
                "split_seed": 278045,
                "init_seed": 478045,
                "batch_seed": 378045
              }
            },
            "run_id": 3,
            "seed": 578045,
            "randomness": {
              "split_seed": 278045,
              "batch_seed": 378045,
              "init_seed": 478045
            }
          },
          {
            "baseline_cent_sign": {
              "train_acc": 0.41979169845581055,
              "val_acc": 0.40000003576278687
            },
            "logreg": {
              "train": {
                "acc": 0.7156250476837158,
                "nll": 0.5575413107872009
              },
              "val": {
                "acc": 0.7208333611488342,
                "nll": 0.5345169901847839
              },
              "params": {
                "w": [
                  0.06305701285600662,
                  -0.05455374717712402,
                  -0.45374470949172974,
                  -0.41093817353248596,
                  -0.494887113571167,
                  -0.4873243570327759,
                  -0.566961944103241,
                  -0.36312922835350037,
                  -0.15304246544837952,
                  -0.00041037052869796753
                ],
                "b": 0.01671617478132248
              },
              "standardize": {
                "mu": [
                  1.1266045570373535,
                  1.3405624628067017,
                  -0.1104988157749176,
                  0.1384923905134201,
                  -0.02532055974006653,
                  0.105682373046875,
                  -0.012520053423941135,
                  0.01644652709364891,
                  -0.25170961022377014,
                  0.7457727193832397
                ],
                "sd": [
                  3.0563290119171143,
                  2.995192527770996,
                  4.766983509063721,
                  5.019050121307373,
                  3.3184971809387207,
                  3.0504300594329834,
                  3.2310166358947754,
                  4.362730026245117,
                  7.4006171226501465,
                  16.02634620666504
                ]
              },
              "init": {
                "mode": "random_normal",
                "scale": 0.001966005664489474
              },
              "seeds": {
                "split_seed": 278046,
                "init_seed": 478046,
                "batch_seed": 378046
              }
            },
            "run_id": 4,
            "seed": 578046,
            "randomness": {
              "split_seed": 278046,
              "batch_seed": 378046,
              "init_seed": 478046
            }
          },
          {
            "baseline_cent_sign": {
              "train_acc": 0.4166666865348816,
              "val_acc": 0.4125000238418579
            },
            "logreg": {
              "train": {
                "acc": 0.7166666984558105,
                "nll": 0.5611648559570312
              },
              "val": {
                "acc": 0.7208333611488342,
                "nll": 0.5209866762161255
              },
              "params": {
                "w": [
                  0.05907532945275307,
                  -0.027941947802901268,
                  -0.4310471713542938,
                  -0.402875155210495,
                  -0.514647901058197,
                  -0.4809812009334564,
                  -0.5551906824111938,
                  -0.30770647525787354,
                  -0.11591806262731552,
                  0.009454231709241867
                ],
                "b": 0.017088990658521652
              },
              "standardize": {
                "mu": [
                  1.075282335281372,
                  1.282428503036499,
                  -0.1433744877576828,
                  0.3161545395851135,
                  -0.04599177464842796,
                  0.004851273726671934,
                  0.08723925054073334,
                  0.01903470791876316,
                  -0.26886969804763794,
                  0.5970749855041504
                ],
                "sd": [
                  3.1058168411254883,
                  3.0297553539276123,
                  4.799640655517578,
                  5.013407230377197,
                  3.29130482673645,
                  3.03369402885437,
                  3.2901856899261475,
                  4.230340480804443,
                  7.195778846740723,
                  16.043174743652344
                ]
              },
              "init": {
                "mode": "random_normal",
                "scale": 0.001966005664489474
              },
              "seeds": {
                "split_seed": 278047,
                "init_seed": 478047,
                "batch_seed": 378047
              }
            },
            "run_id": 5,
            "seed": 578047,
            "randomness": {
              "split_seed": 278047,
              "batch_seed": 378047,
              "init_seed": 478047
            }
          },
          {
            "baseline_cent_sign": {
              "train_acc": 0.41458335518836975,
              "val_acc": 0.4208333492279053
            },
            "logreg": {
              "train": {
                "acc": 0.7145833969116211,
                "nll": 0.5572795867919922
              },
              "val": {
                "acc": 0.7333333492279053,
                "nll": 0.5382389426231384
              },
              "params": {
                "w": [
                  0.08485529571771622,
                  -0.08915325999259949,
                  -0.45402082800865173,
                  -0.38545361161231995,
                  -0.47968751192092896,
                  -0.4864960312843323,
                  -0.588193416595459,
                  -0.32154029607772827,
                  -0.0856822282075882,
                  0.0122396070510149
                ],
                "b": -0.01087151002138853
              },
              "standardize": {
                "mu": [
                  1.0357961654663086,
                  1.400583267211914,
                  -0.05086877942085266,
                  0.18417330086231232,
                  0.04073013737797737,
                  0.0754745826125145,
                  -0.007145198527723551,
                  -0.030058354139328003,
                  0.035581693053245544,
                  0.11920266598463058
                ],
                "sd": [
                  3.0620343685150146,
                  3.006213903427124,
                  4.833450794219971,
                  4.974573612213135,
                  3.303581714630127,
                  3.083871603012085,
                  3.236786127090454,
                  4.290415287017822,
                  7.450784206390381,
                  15.904132843017578
                ]
              },
              "init": {
                "mode": "random_normal",
                "scale": 0.001966005664489474
              },
              "seeds": {
                "split_seed": 278048,
                "init_seed": 478048,
                "batch_seed": 378048
              }
            },
            "run_id": 6,
            "seed": 578048,
            "randomness": {
              "split_seed": 278048,
              "batch_seed": 378048,
              "init_seed": 478048
            }
          },
          {
            "baseline_cent_sign": {
              "train_acc": 0.4072916805744171,
              "val_acc": 0.45000001788139343
            },
            "logreg": {
              "train": {
                "acc": 0.7229167222976685,
                "nll": 0.5570675730705261
              },
              "val": {
                "acc": 0.7000000476837158,
                "nll": 0.553131103515625
              },
              "params": {
                "w": [
                  0.04760676622390747,
                  -0.024024581536650658,
                  -0.38958147168159485,
                  -0.3614377975463867,
                  -0.4226445257663727,
                  -0.424095094203949,
                  -0.4665248990058899,
                  -0.2839376926422119,
                  -0.04784318432211876,
                  0.025826958939433098
                ],
                "b": -0.04072466492652893
              },
              "standardize": {
                "mu": [
                  1.061016321182251,
                  1.36952805519104,
                  -0.07395990192890167,
                  0.12610386312007904,
                  0.07429502159357071,
                  0.061337120831012726,
                  -0.0003543297643773258,
                  0.15527638792991638,
                  0.04986551031470299,
                  0.487669974565506
                ],
                "sd": [
                  3.044166326522827,
                  3.050034284591675,
                  4.71381139755249,
                  5.074371814727783,
                  3.3064539432525635,
                  3.0520496368408203,
                  3.215289354324341,
                  4.29611873626709,
                  7.356870174407959,
                  16.163692474365234
                ]
              },
              "init": {
                "mode": "random_normal",
                "scale": 0.001966005664489474
              },
              "seeds": {
                "split_seed": 278049,
                "init_seed": 478049,
                "batch_seed": 378049
              }
            },
            "run_id": 7,
            "seed": 578049,
            "randomness": {
              "split_seed": 278049,
              "batch_seed": 378049,
              "init_seed": 478049
            }
          },
          {
            "baseline_cent_sign": {
              "train_acc": 0.41041669249534607,
              "val_acc": 0.4375000298023224
            },
            "logreg": {
              "train": {
                "acc": 0.7135416865348816,
                "nll": 0.5579439997673035
              },
              "val": {
                "acc": 0.7333333492279053,
                "nll": 0.5347970724105835
              },
              "params": {
                "w": [
                  0.05587175115942955,
                  -0.06524982303380966,
                  -0.45530056953430176,
                  -0.447024941444397,
                  -0.4503570795059204,
                  -0.49899822473526,
                  -0.5694774389266968,
                  -0.37055930495262146,
                  -0.1276845932006836,
                  -0.011680345982313156
                ],
                "b": 0.03813871741294861
              },
              "standardize": {
                "mu": [
                  1.1771113872528076,
                  1.3220133781433105,
                  -0.10820883512496948,
                  0.23952814936637878,
                  -0.10739925503730774,
                  0.016743725165724754,
                  0.09079189598560333,
                  -0.14121761918067932,
                  -0.12666375935077667,
                  0.7631057500839233
                ],
                "sd": [
                  3.1240756511688232,
                  3.012068510055542,
                  4.810328483581543,
                  5.094168186187744,
                  3.3062281608581543,
                  3.010587453842163,
                  3.206951141357422,
                  4.3689703941345215,
                  7.2944722175598145,
                  16.078683853149414
                ]
              },
              "init": {
                "mode": "random_normal",
                "scale": 0.001966005664489474
              },
              "seeds": {
                "split_seed": 278050,
                "init_seed": 478050,
                "batch_seed": 378050
              }
            },
            "run_id": 8,
            "seed": 578050,
            "randomness": {
              "split_seed": 278050,
              "batch_seed": 378050,
              "init_seed": 478050
            }
          },
          {
            "baseline_cent_sign": {
              "train_acc": 0.42604169249534607,
              "val_acc": 0.3750000298023224
            },
            "logreg": {
              "train": {
                "acc": 0.7156250476837158,
                "nll": 0.5622364282608032
              },
              "val": {
                "acc": 0.7125000357627869,
                "nll": 0.5222520232200623
              },
              "params": {
                "w": [
                  0.029888546094298363,
                  -0.0516960434615612,
                  -0.40553832054138184,
                  -0.4424235224723816,
                  -0.4411478042602539,
                  -0.5736531019210815,
                  -0.5712330937385559,
                  -0.32670778036117554,
                  -0.1701986938714981,
                  -0.03246940299868584
                ],
                "b": 0.010633066296577454
              },
              "standardize": {
                "mu": [
                  1.0724434852600098,
                  1.3166186809539795,
                  -0.07562687247991562,
                  0.22108474373817444,
                  -0.0690414160490036,
                  0.08725748211145401,
                  0.05459588021039963,
                  -0.026973329484462738,
                  -0.1542128175497055,
                  0.5105955004692078
                ],
                "sd": [
                  3.0616865158081055,
                  2.987229347229004,
                  4.7203168869018555,
                  5.073684215545654,
                  3.3100666999816895,
                  3.0433349609375,
                  3.2179055213928223,
                  4.36197566986084,
                  7.392317295074463,
                  15.919922828674316
                ]
              },
              "init": {
                "mode": "random_normal",
                "scale": 0.001966005664489474
              },
              "seeds": {
                "split_seed": 278051,
                "init_seed": 478051,
                "batch_seed": 378051
              }
            },
            "run_id": 9,
            "seed": 578051,
            "randomness": {
              "split_seed": 278051,
              "batch_seed": 378051,
              "init_seed": 478051
            }
          }
        ],
        "summary": {
          "n_runs": 10,
          "baseline_cent_sign": {
            "train_acc": {
              "mean": 0.41770835518836974,
              "std": 0.005570726075531634,
              "min": 0.4072916805744171,
              "max": 0.42604169249534607
            },
            "val_acc": {
              "mean": 0.408333358168602,
              "std": 0.02228290151575105,
              "min": 0.3750000298023224,
              "max": 0.45000001788139343
            }
          },
          "logreg": {
            "train_acc": {
              "mean": 0.7166667103767395,
              "std": 0.0035477976931893983,
              "min": 0.7125000357627869,
              "max": 0.7229167222976685
            },
            "val_acc": {
              "mean": 0.7166666984558105,
              "std": 0.011785101780616189,
              "min": 0.7000000476837158,
              "max": 0.7333333492279053
            },
            "train_nll": {
              "mean": 0.5566708743572235,
              "std": 0.005154978901684773,
              "min": 0.5462090373039246,
              "max": 0.5622364282608032
            },
            "val_nll": {
              "mean": 0.5433688700199127,
              "std": 0.021981670794053706,
              "min": 0.5209866762161255,
              "max": 0.5871180295944214
            }
          }
        },
        "randomness_config": {
          "vary_split": true,
          "vary_batch_order": true,
          "vary_init": true
        }
      },
      "k": 1.6,
      "nps_target": 7132,
      "nps_match_mode": "offby1"
    },
    {
      "nps": 12416,
      "baseline_cent_sign": {
        "train_acc": 0.4052083492279053,
        "val_acc": 0.40416669845581055
      },
      "logreg": {
        "train": {
          "acc": 0.8156250715255737,
          "nll": 0.4036421775817871
        },
        "val": {
          "acc": 0.7708333730697632,
          "nll": 0.4263908565044403
        },
        "params": {
          "w": [
            -0.018905527889728546,
            -0.0666871964931488,
            -0.4269292652606964,
            -0.5247429013252258,
            -0.8113672733306885,
            -0.9752804636955261,
            -0.8800451159477234,
            -0.5230404734611511,
            -0.3551423251628876,
            -0.1560688018798828
          ],
          "b": -0.0921473577618599
        },
        "standardize": {
          "mu": [
            0.8568271398544312,
            1.3977792263031006,
            0.004125162027776241,
            -0.14739078283309937,
            0.13016140460968018,
            -0.03585689887404442,
            -0.040692441165447235,
            -0.06317242234945297,
            0.009838859550654888,
            -0.07465857267379761
          ],
          "sd": [
            2.3830771446228027,
            2.385389804840088,
            3.866750717163086,
            3.258890390396118,
            2.158496618270874,
            1.8313581943511963,
            2.0475809574127197,
            2.5306639671325684,
            4.227214336395264,
            9.346967697143555
          ]
        },
        "init": {
          "mode": "random_normal",
          "scale": 0.001966005664489474
        },
        "seeds": {
          "split_seed": 288042,
          "init_seed": 488042,
          "batch_seed": 388042
        }
      },
      "independent_runs": {
        "per_run": [
          {
            "baseline_cent_sign": {
              "train_acc": 0.4052083492279053,
              "val_acc": 0.40416669845581055
            },
            "logreg": {
              "train": {
                "acc": 0.8156250715255737,
                "nll": 0.4036421775817871
              },
              "val": {
                "acc": 0.7708333730697632,
                "nll": 0.4263908565044403
              },
              "params": {
                "w": [
                  -0.018905527889728546,
                  -0.0666871964931488,
                  -0.4269292652606964,
                  -0.5247429013252258,
                  -0.8113672733306885,
                  -0.9752804636955261,
                  -0.8800451159477234,
                  -0.5230404734611511,
                  -0.3551423251628876,
                  -0.1560688018798828
                ],
                "b": -0.0921473577618599
              },
              "standardize": {
                "mu": [
                  0.8568271398544312,
                  1.3977792263031006,
                  0.004125162027776241,
                  -0.14739078283309937,
                  0.13016140460968018,
                  -0.03585689887404442,
                  -0.040692441165447235,
                  -0.06317242234945297,
                  0.009838859550654888,
                  -0.07465857267379761
                ],
                "sd": [
                  2.3830771446228027,
                  2.385389804840088,
                  3.866750717163086,
                  3.258890390396118,
                  2.158496618270874,
                  1.8313581943511963,
                  2.0475809574127197,
                  2.5306639671325684,
                  4.227214336395264,
                  9.346967697143555
                ]
              },
              "init": {
                "mode": "random_normal",
                "scale": 0.001966005664489474
              },
              "seeds": {
                "split_seed": 288042,
                "init_seed": 488042,
                "batch_seed": 388042
              }
            },
            "run_id": 0,
            "seed": 588042,
            "randomness": {
              "split_seed": 288042,
              "batch_seed": 388042,
              "init_seed": 488042
            }
          },
          {
            "baseline_cent_sign": {
              "train_acc": 0.40000003576278687,
              "val_acc": 0.42500001192092896
            },
            "logreg": {
              "train": {
                "acc": 0.8156250715255737,
                "nll": 0.3972211480140686
              },
              "val": {
                "acc": 0.7875000238418579,
                "nll": 0.4535645544528961
              },
              "params": {
                "w": [
                  0.03341636061668396,
                  -0.1295941174030304,
                  -0.4606028199195862,
                  -0.5119931697845459,
                  -0.7509324550628662,
                  -0.9024538397789001,
                  -0.7713825702667236,
                  -0.6329122185707092,
                  -0.29570379853248596,
                  -0.0608382374048233
                ],
                "b": 0.00678382208570838
              },
              "standardize": {
                "mu": [
                  0.9140378832817078,
                  1.424026608467102,
                  0.004302458371967077,
                  -0.2025652378797531,
                  -0.010823440738022327,
                  -0.029966766014695168,
                  -0.002157752402126789,
                  -0.07588612288236618,
                  0.06942567974328995,
                  -0.12200618535280228
                ],
                "sd": [
                  2.3655872344970703,
                  2.396510124206543,
                  3.807433843612671,
                  3.2492575645446777,
                  2.1879758834838867,
                  1.8608092069625854,
                  2.0611064434051514,
                  2.5683891773223877,
                  4.285337448120117,
                  9.332345008850098
                ]
              },
              "init": {
                "mode": "random_normal",
                "scale": 0.001966005664489474
              },
              "seeds": {
                "split_seed": 288043,
                "init_seed": 488043,
                "batch_seed": 388043
              }
            },
            "run_id": 1,
            "seed": 588043,
            "randomness": {
              "split_seed": 288043,
              "batch_seed": 388043,
              "init_seed": 488043
            }
          },
          {
            "baseline_cent_sign": {
              "train_acc": 0.4062500298023224,
              "val_acc": 0.40000003576278687
            },
            "logreg": {
              "train": {
                "acc": 0.8177083730697632,
                "nll": 0.4083027243614197
              },
              "val": {
                "acc": 0.7875000238418579,
                "nll": 0.40237677097320557
              },
              "params": {
                "w": [
                  0.0241053756326437,
                  -0.12036048620939255,
                  -0.4713897109031677,
                  -0.4960625469684601,
                  -0.8272979855537415,
                  -1.0639355182647705,
                  -0.8163340091705322,
                  -0.4941926598548889,
                  -0.27982017397880554,
                  -0.04305140674114227
                ],
                "b": -0.008023522794246674
              },
              "standardize": {
                "mu": [
                  0.8329518437385559,
                  1.4641857147216797,
                  0.012580212205648422,
                  -0.15072380006313324,
                  0.021300775930285454,
                  -0.020772816613316536,
                  0.03294900804758072,
                  -0.07377436012029648,
                  -0.03080044314265251,
                  -0.173017218708992
                ],
                "sd": [
                  2.3565125465393066,
                  2.340252161026001,
                  3.9046287536621094,
                  3.2478959560394287,
                  2.185511589050293,
                  1.8568494319915771,
                  2.076594114303589,
                  2.472306966781616,
                  4.318746566772461,
                  9.482624053955078
                ]
              },
              "init": {
                "mode": "random_normal",
                "scale": 0.001966005664489474
              },
              "seeds": {
                "split_seed": 288044,
                "init_seed": 488044,
                "batch_seed": 388044
              }
            },
            "run_id": 2,
            "seed": 588044,
            "randomness": {
              "split_seed": 288044,
              "batch_seed": 388044,
              "init_seed": 488044
            }
          },
          {
            "baseline_cent_sign": {
              "train_acc": 0.39791667461395264,
              "val_acc": 0.4333333671092987
            },
            "logreg": {
              "train": {
                "acc": 0.8083333969116211,
                "nll": 0.40679335594177246
              },
              "val": {
                "acc": 0.8458333611488342,
                "nll": 0.4113536477088928
              },
              "params": {
                "w": [
                  0.005851134657859802,
                  -0.04045039042830467,
                  -0.46559205651283264,
                  -0.5464017987251282,
                  -0.764102041721344,
                  -1.060386061668396,
                  -0.8457278609275818,
                  -0.5977453589439392,
                  -0.2486218810081482,
                  -0.04345183074474335
                ],
                "b": 0.031086817383766174
              },
              "standardize": {
                "mu": [
                  0.8411972522735596,
                  1.392340898513794,
                  -0.04525924101471901,
                  -0.15774448215961456,
                  0.02508215233683586,
                  -0.026743799448013306,
                  -0.009703127667307854,
                  -0.06844566762447357,
                  0.06339866667985916,
                  -0.1960974484682083
                ],
                "sd": [
                  2.3560822010040283,
                  2.386046886444092,
                  3.7602906227111816,
                  3.2673375606536865,
                  2.1423840522766113,
                  1.8384000062942505,
                  2.066195249557495,
                  2.5265915393829346,
                  4.175612926483154,
                  9.230500221252441
                ]
              },
              "init": {
                "mode": "random_normal",
                "scale": 0.001966005664489474
              },
              "seeds": {
                "split_seed": 288045,
                "init_seed": 488045,
                "batch_seed": 388045
              }
            },
            "run_id": 3,
            "seed": 588045,
            "randomness": {
              "split_seed": 288045,
              "batch_seed": 388045,
              "init_seed": 488045
            }
          },
          {
            "baseline_cent_sign": {
              "train_acc": 0.40416669845581055,
              "val_acc": 0.40833336114883423
            },
            "logreg": {
              "train": {
                "acc": 0.8166667222976685,
                "nll": 0.408006489276886
              },
              "val": {
                "acc": 0.8000000715255737,
                "nll": 0.4034953713417053
              },
              "params": {
                "w": [
                  0.029383115470409393,
                  -0.13674581050872803,
                  -0.4403003752231598,
                  -0.5321869254112244,
                  -0.854393482208252,
                  -1.0239516496658325,
                  -0.7691367864608765,
                  -0.5174438953399658,
                  -0.2942008972167969,
                  -0.05029081925749779
                ],
                "b": 0.047923699021339417
              },
              "standardize": {
                "mu": [
                  0.9073299169540405,
                  1.4088239669799805,
                  -0.057853829115629196,
                  -0.14618456363677979,
                  0.003802275750786066,
                  -0.038612399250268936,
                  -0.006327339448034763,
                  -0.03728931397199631,
                  -0.12321186065673828,
                  -0.20619860291481018
                ],
                "sd": [
                  2.3225455284118652,
                  2.3385486602783203,
                  3.764573335647583,
                  3.315406084060669,
                  2.1632018089294434,
                  1.8439418077468872,
                  2.085101842880249,
                  2.4631996154785156,
                  4.292061805725098,
                  9.159696578979492
                ]
              },
              "init": {
                "mode": "random_normal",
                "scale": 0.001966005664489474
              },
              "seeds": {
                "split_seed": 288046,
                "init_seed": 488046,
                "batch_seed": 388046
              }
            },
            "run_id": 4,
            "seed": 588046,
            "randomness": {
              "split_seed": 288046,
              "batch_seed": 388046,
              "init_seed": 488046
            }
          },
          {
            "baseline_cent_sign": {
              "train_acc": 0.4052083492279053,
              "val_acc": 0.40416669845581055
            },
            "logreg": {
              "train": {
                "acc": 0.8114583492279053,
                "nll": 0.4000898003578186
              },
              "val": {
                "acc": 0.7958333492279053,
                "nll": 0.43556785583496094
              },
              "params": {
                "w": [
                  0.052070774137973785,
                  -0.1351117044687271,
                  -0.41875189542770386,
                  -0.4943552315235138,
                  -0.8032736778259277,
                  -1.033712387084961,
                  -0.8706411123275757,
                  -0.5282238721847534,
                  -0.3169289529323578,
                  -0.08803762495517731
                ],
                "b": -0.02979622781276703
              },
              "standardize": {
                "mu": [
                  0.8774905204772949,
                  1.4002254009246826,
                  -0.04072735458612442,
                  -0.19531896710395813,
                  0.060646750032901764,
                  0.017354873940348625,
                  -0.03920523822307587,
                  -0.0623362772166729,
                  0.1794465184211731,
                  -0.1799795925617218
                ],
                "sd": [
                  2.3504323959350586,
                  2.3712079524993896,
                  3.8002912998199463,
                  3.2427334785461426,
                  2.19979190826416,
                  1.8643454313278198,
                  2.063392162322998,
                  2.495306968688965,
                  4.290824890136719,
                  9.235726356506348
                ]
              },
              "init": {
                "mode": "random_normal",
                "scale": 0.001966005664489474
              },
              "seeds": {
                "split_seed": 288047,
                "init_seed": 488047,
                "batch_seed": 388047
              }
            },
            "run_id": 5,
            "seed": 588047,
            "randomness": {
              "split_seed": 288047,
              "batch_seed": 388047,
              "init_seed": 488047
            }
          },
          {
            "baseline_cent_sign": {
              "train_acc": 0.4218750298023224,
              "val_acc": 0.3375000059604645
            },
            "logreg": {
              "train": {
                "acc": 0.8114583492279053,
                "nll": 0.4187557101249695
              },
              "val": {
                "acc": 0.8166667222976685,
                "nll": 0.3729343116283417
              },
              "params": {
                "w": [
                  0.04570167511701584,
                  -0.05801399052143097,
                  -0.3676072955131531,
                  -0.4829714298248291,
                  -0.7524055242538452,
                  -0.8590309023857117,
                  -0.7250546216964722,
                  -0.5342057347297668,
                  -0.26319342851638794,
                  -0.0679764449596405
                ],
                "b": -0.013803767040371895
              },
              "standardize": {
                "mu": [
                  0.8867599964141846,
                  1.4151040315628052,
                  0.02562219463288784,
                  -0.10850697755813599,
                  0.05643254518508911,
                  -0.01307333167642355,
                  0.030541319400072098,
                  -0.10064296424388885,
                  -0.051018986850976944,
                  0.11139374226331711
                ],
                "sd": [
                  2.4060142040252686,
                  2.380070686340332,
                  3.7665741443634033,
                  3.194446325302124,
                  2.1505465507507324,
                  1.8609319925308228,
                  2.0876107215881348,
                  2.494081735610962,
