{
  "feature_type": "hamming_rr_ii",
  "alpha": "all_ones",
  "setup": {
    "n": 12,
    "channel_type": "depolarizing",
    "strength": 0.05,
    "run_name": "n12_depolarizing_p0p05_fsfe10419a68ae4e9e_nps868cb8171dab3674"
  },
  "source": {
    "run_path": "/gpfs/home1/ypatel/data1/shadow-qml-ml/feat_data_all/feat_data/exp_s1_features_hamming_rr_ii_fsfe10419a68ae4e9e_fixed_alpha_all_ones_fixed_y_all_zeros_q_5_14/runs/n12_depolarizing_p0p05_fsfe10419a68ae4e9e_nps868cb8171dab3674",
    "dataset_ref": "/gpfs/home1/ypatel/data1/shadow-qml-ml/feat_data_all/feat_data/exp_s1_features_hamming_rr_ii_fsfe10419a68ae4e9e_fixed_alpha_all_ones_fixed_y_all_zeros_q_5_14/datasets/dataset_6a3a8ea5668403e7.npz"
  },
  "train_config": {
    "val_frac": 0.2,
    "batch_size": 128,
    "epochs": 180,
    "lr": 0.009739828014781909,
    "l2": 0.0003110860885177623,
    "n_independent_runs": 10,
    "init_mode": "random_normal",
    "init_scale": 0.0028569424932669363,
    "vary_split": true,
    "vary_batch_order": true,
    "vary_init": true
  },
  "k_grid_requested": [
    0.8,
    0.9,
    1.0,
    1.1,
    1.2,
    1.3,
    1.4,
    1.5,
    1.6,
    1.7,
    1.8,
    1.9,
    2.0,
    2.1,
    2.2,
    2.3,
    2.4
  ],
  "k_match_mode": "offby1",
  "k_nearest_max_abs_delta": 1,
  "per_nps_selected": [
    {
      "nps": 776,
      "baseline_cent_sign": {
        "train_acc": 0.5375000238418579,
        "val_acc": 0.5208333730697632
      },
      "logreg": {
        "train": {
          "acc": 0.5677083730697632,
          "nll": 0.6831340789794922
        },
        "val": {
          "acc": 0.5208333730697632,
          "nll": 0.6922555565834045
        },
        "params": {
          "w": [
            0.022482767701148987,
            0.01993313618004322,
            0.05516596883535385,
            -0.030436724424362183,
            -0.021545961499214172,
            -0.013158694840967655,
            -0.0166805200278759,
            0.021957462653517723,
            0.03246515244245529,
            -0.03465360403060913,
            0.008726205676794052,
            0.03206475079059601,
            -0.008782260119915009,
            0.0008010369492694736,
            -0.007806701119989157,
            0.033861927688121796,
            -0.009083067998290062,
            0.036636218428611755,
            -0.04468041658401489,
            0.0004621476400643587,
            0.03398318588733673,
            -0.0452021062374115,
            0.008166500367224216,
            0.02007119730114937,
            -0.06999249756336212
          ],
          "b": -0.021217960864305496
        },
        "standardize": {
          "mu": [
            0.8556399345397949,
            7.032164096832275,
            43.311851501464844,
            269.9163513183594,
            -753.137939453125,
            64.5499267578125,
            -75.81819152832031,
            150.26504516601562,
            -138.1375732421875,
            206.62709045410156,
            54.940040588378906,
            -164.17784118652344,
            -25.405576705932617,
            379.77423095703125,
            1879.533935546875,
            -253.23922729492188,
            -316.5774841308594,
            115.91082763671875,
            127.06709289550781,
            -22.546998977661133,
            117.78563690185547,
            -34.075374603271484,
            -178.79623413085938,
            -18.723308563232422,
            282.3678894042969
          ],
          "sd": [
            148.86195373535156,
            149.3245086669922,
            1184.3277587890625,
            36088.98828125,
            15827.1337890625,
            8167.5244140625,
            5273.43994140625,
            4521.67333984375,
            4055.95458984375,
            4469.44189453125,
            5451.43017578125,
            8150.60302734375,
            15181.900390625,
            37014.81640625,
            34882.69140625,
            15648.591796875,
            8257.2705078125,
            5656.17626953125,
            4424.0849609375,
            3919.75390625,
            4404.19970703125,
            5400.70263671875,
            8081.7314453125,
            15492.7216796875,
            36563.11328125
          ]
        },
        "init": {
          "mode": "random_normal",
          "scale": 0.0028569424932669363
        },
        "seeds": {
          "split_seed": 514042,
          "init_seed": 714042,
          "batch_seed": 614042
        }
      },
      "independent_runs": {
        "per_run": [
          {
            "baseline_cent_sign": {
              "train_acc": 0.5375000238418579,
              "val_acc": 0.5208333730697632
            },
            "logreg": {
              "train": {
                "acc": 0.5677083730697632,
                "nll": 0.6831340789794922
              },
              "val": {
                "acc": 0.5208333730697632,
                "nll": 0.6922555565834045
              },
              "params": {
                "w": [
                  0.022482767701148987,
                  0.01993313618004322,
                  0.05516596883535385,
                  -0.030436724424362183,
                  -0.021545961499214172,
                  -0.013158694840967655,
                  -0.0166805200278759,
                  0.021957462653517723,
                  0.03246515244245529,
                  -0.03465360403060913,
                  0.008726205676794052,
                  0.03206475079059601,
                  -0.008782260119915009,
                  0.0008010369492694736,
                  -0.007806701119989157,
                  0.033861927688121796,
                  -0.009083067998290062,
                  0.036636218428611755,
                  -0.04468041658401489,
                  0.0004621476400643587,
                  0.03398318588733673,
                  -0.0452021062374115,
                  0.008166500367224216,
                  0.02007119730114937,
                  -0.06999249756336212
                ],
                "b": -0.021217960864305496
              },
              "standardize": {
                "mu": [
                  0.8556399345397949,
                  7.032164096832275,
                  43.311851501464844,
                  269.9163513183594,
                  -753.137939453125,
                  64.5499267578125,
                  -75.81819152832031,
                  150.26504516601562,
                  -138.1375732421875,
                  206.62709045410156,
                  54.940040588378906,
                  -164.17784118652344,
                  -25.405576705932617,
                  379.77423095703125,
                  1879.533935546875,
                  -253.23922729492188,
                  -316.5774841308594,
                  115.91082763671875,
                  127.06709289550781,
                  -22.546998977661133,
                  117.78563690185547,
                  -34.075374603271484,
                  -178.79623413085938,
                  -18.723308563232422,
                  282.3678894042969
                ],
                "sd": [
                  148.86195373535156,
                  149.3245086669922,
                  1184.3277587890625,
                  36088.98828125,
                  15827.1337890625,
                  8167.5244140625,
                  5273.43994140625,
                  4521.67333984375,
                  4055.95458984375,
                  4469.44189453125,
                  5451.43017578125,
                  8150.60302734375,
                  15181.900390625,
                  37014.81640625,
                  34882.69140625,
                  15648.591796875,
                  8257.2705078125,
                  5656.17626953125,
                  4424.0849609375,
                  3919.75390625,
                  4404.19970703125,
                  5400.70263671875,
                  8081.7314453125,
                  15492.7216796875,
                  36563.11328125
                ]
              },
              "init": {
                "mode": "random_normal",
                "scale": 0.0028569424932669363
              },
              "seeds": {
                "split_seed": 514042,
                "init_seed": 714042,
                "batch_seed": 614042
              }
            },
            "run_id": 0,
            "seed": 814042,
            "randomness": {
              "split_seed": 514042,
              "batch_seed": 614042,
              "init_seed": 714042
            }
          },
          {
            "baseline_cent_sign": {
              "train_acc": 0.5385416746139526,
              "val_acc": 0.5166667103767395
            },
            "logreg": {
              "train": {
                "acc": 0.565625011920929,
                "nll": 0.6792559027671814
              },
              "val": {
                "acc": 0.5166667103767395,
                "nll": 0.6945968866348267
              },
              "params": {
                "w": [
                  0.011436267755925655,
                  0.02355370856821537,
                  0.04868532344698906,
                  0.019633730873465538,
                  -0.0567726194858551,
                  0.007226600777357817,
                  -0.005932193249464035,
                  0.03130050003528595,
                  0.06675659865140915,
                  -0.05930570513010025,
                  -0.022190073505043983,
                  0.045482344925403595,
                  -0.059232477098703384,
                  -0.004988337866961956,
                  -0.002370614791288972,
                  -0.01939282938838005,
                  -0.04187741503119469,
                  0.03902577608823776,
                  -0.04605355113744736,
                  -0.019088272005319595,
                  0.031240154057741165,
                  -0.04430096596479416,
                  -0.0245826318860054,
                  0.008069142699241638,
                  -0.05958372354507446
                ],
                "b": -0.019108524546027184
              },
              "standardize": {
                "mu": [
                  -3.047917366027832,
                  3.7685487270355225,
                  56.16438674926758,
                  705.8466796875,
                  -681.4630126953125,
                  116.67061614990234,
                  -180.10324096679688,
                  161.6090850830078,
                  -182.81680297851562,
                  248.45242309570312,
                  39.74925231933594,
                  -66.12335968017578,
                  143.39393615722656,
                  113.55924987792969,
                  1707.728271484375,
                  -495.69696044921875,
                  -285.37237548828125,
                  181.68551635742188,
                  80.19806671142578,
                  -43.51936721801758,
                  53.14179611206055,
                  -100.34437561035156,
                  -5.168652534484863,
                  -162.0139617919922,
                  614.1098022460938
                ],
                "sd": [
                  146.48870849609375,
                  149.0954132080078,
                  1187.3077392578125,
                  35331.87109375,
                  15587.998046875,
                  8210.3203125,
                  5347.88427734375,
                  4465.2099609375,
                  4158.36572265625,
                  4571.3466796875,
                  5474.900390625,
                  8117.564453125,
                  15144.4599609375,
                  36685.46875,
                  36018.4921875,
                  15610.962890625,
                  8258.9443359375,
                  5741.23583984375,
                  4465.08056640625,
                  4002.27001953125,
                  4338.177734375,
                  5551.8212890625,
                  8174.73876953125,
                  15023.650390625,
                  37210.2734375
                ]
              },
              "init": {
                "mode": "random_normal",
                "scale": 0.0028569424932669363
              },
              "seeds": {
                "split_seed": 514043,
                "init_seed": 714043,
                "batch_seed": 614043
              }
            },
            "run_id": 1,
            "seed": 814043,
            "randomness": {
              "split_seed": 514043,
              "batch_seed": 614043,
              "init_seed": 714043
            }
          },
          {
            "baseline_cent_sign": {
              "train_acc": 0.5281250476837158,
              "val_acc": 0.5583333373069763
            },
            "logreg": {
              "train": {
                "acc": 0.5802083611488342,
                "nll": 0.6782825589179993
              },
              "val": {
                "acc": 0.5208333730697632,
                "nll": 0.6982060074806213
              },
              "params": {
                "w": [
                  0.031432293355464935,
                  -0.02977869287133217,
                  0.04478742554783821,
                  0.007505403831601143,
                  -0.022015994414687157,
                  0.05479499325156212,
                  0.025475000962615013,
                  -0.024950889870524406,
                  0.1063949465751648,
                  -0.07124157249927521,
                  0.01238897256553173,
                  0.04046301916241646,
                  -0.0652867928147316,
                  -0.018659260123968124,
                  0.005094883963465691,
                  0.03342549502849579,
                  0.011360298842191696,
                  0.0030482972506433725,
                  -0.052398696541786194,
                  -0.002114775823429227,
                  0.0544823482632637,
                  -0.06505072116851807,
                  -0.059883102774620056,
                  -0.005733456462621689,
                  -0.0986822172999382
                ],
                "b": -0.03465474769473076
              },
              "standardize": {
                "mu": [
                  0.57493656873703,
                  6.742940902709961,
                  46.61180114746094,
                  -614.619873046875,
                  -874.5176391601562,
                  -226.8402862548828,
                  20.392017364501953,
                  123.92616271972656,
                  -47.33091735839844,
                  306.0085144042969,
                  108.85871887207031,
                  -9.325155258178711,
                  260.1690979003906,
                  -203.50039672851562,
                  1842.0186767578125,
                  -379.5692443847656,
                  9.276864051818848,
                  -63.59852981567383,
                  141.8341827392578,
                  -86.93169403076172,
                  77.6168441772461,
                  -123.74195861816406,
                  -125.8616943359375,
                  45.20562744140625,
                  537.02001953125
                ],
                "sd": [
                  149.56666564941406,
                  144.9931640625,
                  1207.36572265625,
                  35248.34765625,
                  15255.923828125,
                  8090.90478515625,
                  5377.22705078125,
                  4435.578125,
                  4151.74755859375,
                  4457.75048828125,
                  5488.22021484375,
                  8324.939453125,
                  15353.5712890625,
                  36855.33984375,
                  35771.58203125,
                  15337.595703125,
                  8210.173828125,
                  5685.46484375,
                  4380.8525390625,
                  4076.8583984375,
                  4429.7314453125,
                  5465.5224609375,
                  8125.93701171875,
                  15152.892578125,
                  35980.83984375
                ]
              },
              "init": {
                "mode": "random_normal",
                "scale": 0.0028569424932669363
              },
              "seeds": {
                "split_seed": 514044,
                "init_seed": 714044,
                "batch_seed": 614044
              }
            },
            "run_id": 2,
            "seed": 814044,
            "randomness": {
              "split_seed": 514044,
              "batch_seed": 614044,
              "init_seed": 714044
            }
          },
          {
            "baseline_cent_sign": {
              "train_acc": 0.5510417222976685,
              "val_acc": 0.46666669845581055
            },
            "logreg": {
              "train": {
                "acc": 0.5760416984558105,
                "nll": 0.681620180606842
              },
              "val": {
                "acc": 0.5,
                "nll": 0.6960533261299133
              },
              "params": {
                "w": [
                  0.005566786974668503,
                  0.02838299795985222,
                  0.05667437985539436,
                  -0.04016400873661041,
                  -0.05230025202035904,
                  0.013550586998462677,
                  0.005010222550481558,
                  -0.013988996855914593,
                  0.03220347687602043,
                  -0.04473573714494705,
                  0.007309474516659975,
                  0.019831720739603043,
                  -0.05988970398902893,
                  -0.032479554414749146,
                  -0.005858436692506075,
                  -0.017188429832458496,
                  -0.048192791640758514,
                  0.027058957144618034,
                  -0.0019327974878251553,
                  -0.023975202813744545,
                  0.003114384366199374,
                  -0.03798988088965416,
                  0.0004084342217538506,
                  -0.005896911025047302,
                  -0.05910298228263855
                ],
                "b": -0.0032764854840934277
              },
              "standardize": {
                "mu": [
                  -0.6331721544265747,
                  2.262516498565674,
                  16.2927188873291,
                  93.24603271484375,
                  -982.5452270507812,
                  36.12040328979492,
                  -73.94110107421875,
                  19.07176971435547,
                  -221.18789672851562,
                  207.43873596191406,
                  37.572357177734375,
                  -197.3782196044922,
                  322.7864685058594,
                  -301.093505859375,
                  509.46539306640625,
                  14.860320091247559,
                  -459.76519775390625,
                  98.05070495605469,
                  58.5334587097168,
                  95.99694061279297,
                  15.926010131835938,
                  -73.91990661621094,
                  -57.746456146240234,
                  -42.782684326171875,
                  924.5210571289062
                ],
                "sd": [
                  148.14549255371094,
                  151.04415893554688,
                  1182.0255126953125,
                  35522.43359375,
                  15815.322265625,
                  8131.1640625,
                  5412.83544921875,
                  4524.23681640625,
                  4135.2861328125,
                  4421.62060546875,
                  5567.25,
                  8306.00390625,
                  15268.837890625,
                  36415.47265625,
                  35460.0390625,
                  15620.9296875,
                  8185.45458984375,
                  5830.08984375,
                  4386.9384765625,
                  4027.803466796875,
                  4306.94140625,
                  5498.20751953125,
                  8228.7734375,
                  15135.10546875,
                  36407.19921875
                ]
              },
              "init": {
                "mode": "random_normal",
                "scale": 0.0028569424932669363
              },
              "seeds": {
                "split_seed": 514045,
                "init_seed": 714045,
                "batch_seed": 614045
              }
            },
            "run_id": 3,
            "seed": 814045,
            "randomness": {
              "split_seed": 514045,
              "batch_seed": 614045,
              "init_seed": 714045
            }
          },
          {
            "baseline_cent_sign": {
              "train_acc": 0.5395833849906921,
              "val_acc": 0.5125000476837158
            },
            "logreg": {
              "train": {
                "acc": 0.5791667103767395,
                "nll": 0.677185595035553
              },
              "val": {
                "acc": 0.5416666865348816,
                "nll": 0.6904078722000122
              },
              "params": {
                "w": [
                  0.025397783145308495,
                  0.021195774897933006,
                  0.07553848624229431,
                  -0.012237697839736938,
                  -0.024248186498880386,
                  -0.007132609840482473,
                  -0.010976504534482956,
                  -0.0280936136841774,
                  0.10317252576351166,
                  -0.05664949491620064,
                  -0.027759114280343056,
                  0.052708789706230164,
                  -0.0737864226102829,
                  0.019902778789401054,
                  0.02173437736928463,
                  0.015562927350401878,
                  -0.05141730234026909,
                  0.04618774726986885,
                  -0.043296705931425095,
                  0.0032722479663789272,
                  0.0666792169213295,
                  -0.07092994451522827,
                  -0.021902205422520638,
                  -0.04665399342775345,
                  -0.08453059941530228
                ],
                "b": 0.015253663063049316
              },
              "standardize": {
                "mu": [
                  1.085512399673462,
                  5.478024959564209,
                  69.15654754638672,
                  -697.4147338867188,
                  -673.9495239257812,
                  -108.36293029785156,
                  -137.2798614501953,
                  -38.857872009277344,
                  -120.89932250976562,
                  170.62774658203125,
                  261.5414733886719,
                  -64.80557250976562,
                  693.66064453125,
                  36.53945541381836,
                  1614.8824462890625,
                  54.187599182128906,
                  -345.36151123046875,
                  -48.97737121582031,
                  141.2823944091797,
                  -17.14337730407715,
                  52.020877838134766,
                  -27.950021743774414,
                  -189.78860473632812,
                  95.07145690917969,
                  996.1978149414062
                ],
                "sd": [
                  150.8416290283203,
                  148.1798553466797,
                  1211.7470703125,
                  35872.8671875,
                  15713.9248046875,
                  8298.88671875,
                  5247.9013671875,
                  4487.599609375,
                  4120.625,
                  4431.5888671875,
                  5444.31689453125,
                  8069.82421875,
                  15098.3564453125,
                  36928.1953125,
                  35698.453125,
                  15663.478515625,
                  8340.25390625,
                  5749.62548828125,
                  4428.55126953125,
                  4050.63427734375,
                  4380.267578125,
                  5486.1083984375,
                  8072.0888671875,
                  15177.2001953125,
                  36524.359375
                ]
              },
              "init": {
                "mode": "random_normal",
                "scale": 0.0028569424932669363
              },
              "seeds": {
                "split_seed": 514046,
                "init_seed": 714046,
                "batch_seed": 614046
              }
            },
            "run_id": 4,
            "seed": 814046,
            "randomness": {
              "split_seed": 514046,
              "batch_seed": 614046,
              "init_seed": 714046
            }
          },
          {
            "baseline_cent_sign": {
              "train_acc": 0.5427083373069763,
              "val_acc": 0.5
            },
            "logreg": {
              "train": {
                "acc": 0.5604166984558105,
                "nll": 0.6821433305740356
              },
              "val": {
                "acc": 0.5458333492279053,
                "nll": 0.6889975070953369
              },
              "params": {
                "w": [
                  0.0062345522455871105,
                  0.004454765003174543,
                  0.06086443364620209,
                  -0.015240799635648727,
                  -0.03437233716249466,
                  0.0001342656323686242,
                  -0.007397447247058153,
                  0.006918750703334808,
                  0.02605357952415943,
                  -0.03655969351530075,
                  0.019522860646247864,
                  0.02726573310792446,
                  -0.05772155523300171,
                  -0.013688371516764164,
                  0.024494243785738945,
                  0.015997115522623062,
                  -0.03844981640577316,
                  0.045672133564949036,
                  -0.061842724680900574,
                  0.002705806167796254,
                  0.026188086718320847,
                  -0.04077345132827759,
                  0.001871591666713357,
                  -0.03543525189161301,
                  -0.053463101387023926
                ],
                "b": 0.01453702338039875
              },
              "standardize": {
                "mu": [
                  -0.23526714742183685,
                  7.555156707763672,
                  34.62977981567383,
                  109.61888885498047,
                  -1117.1085205078125,
                  -44.922508239746094,
                  -14.720504760742188,
                  51.8304557800293,
                  -208.18780517578125,
                  338.75933837890625,
                  5.6840925216674805,
                  134.14840698242188,
                  308.7146301269531,
                  55.43691635131836,
                  728.7569580078125,
                  -319.11370849609375,
                  -229.1143035888672,
                  -4.870052337646484,
                  61.310890197753906,
                  -29.288192749023438,
                  118.05238342285156,
                  -97.32567596435547,
                  -174.08595275878906,
                  -251.14178466796875,
                  336.5635070800781
                ],
                "sd": [
                  148.44967651367188,
                  147.54209899902344,
                  1205.147705078125,
                  35204.42578125,
                  15656.3876953125,
                  8192.515625,
                  5297.2138671875,
                  4552.8701171875,
                  4139.861328125,
                  4486.9521484375,
                  5535.462890625,
                  8256.3671875,
                  15106.8623046875,
                  36420.3828125,
                  35295.33984375,
                  15501.392578125,
                  8423.1884765625,
                  5652.02001953125,
                  4424.30712890625,
                  4019.265869140625,
                  4342.9814453125,
                  5461.947265625,
                  8073.166015625,
                  15028.0830078125,
                  36940.9140625
                ]
              },
              "init": {
                "mode": "random_normal",
                "scale": 0.0028569424932669363
              },
              "seeds": {
                "split_seed": 514047,
                "init_seed": 714047,
                "batch_seed": 614047
              }
            },
            "run_id": 5,
            "seed": 814047,
            "randomness": {
              "split_seed": 514047,
              "batch_seed": 614047,
              "init_seed": 714047
            }
          },
          {
            "baseline_cent_sign": {
              "train_acc": 0.5385416746139526,
              "val_acc": 0.5166667103767395
            },
            "logreg": {
              "train": {
                "acc": 0.5593750476837158,
                "nll": 0.6818906664848328
              },
              "val": {
                "acc": 0.44166669249534607,
                "nll": 0.698306679725647
              },
              "params": {
                "w": [
                  -0.030355902388691902,
                  -0.029251687228679657,
                  0.05918506160378456,
                  0.0006596235907636583,
                  -0.03549698367714882,
                  0.0028891805559396744,
                  0.0028198999352753162,
                  -0.04107839614152908,
                  0.02904593199491501,
                  -0.016520770266652107,
                  -0.023118184879422188,
                  0.017781976610422134,
                  -0.04895259067416191,
                  -0.021883681416511536,
                  0.00564042292535305,
                  0.008220517076551914,
                  0.011904746294021606,
                  0.05289345234632492,
                  -0.05266760289669037,
                  -0.001092072925530374,
                  0.03149969130754471,
                  -0.048719245940446854,
                  -0.03502306714653969,
                  -0.021706217899918556,
                  -0.03659398853778839
                ],
                "b": -0.008611585944890976
              },
              "standardize": {
                "mu": [
                  -1.8431446552276611,
                  6.276076793670654,
                  31.540813446044922,
                  601.999755859375,
                  -676.8890380859375,
                  -154.34832763671875,
                  0.6909749507904053,
                  66.19032287597656,
                  -83.2974624633789,
                  231.6890106201172,
                  56.61281204223633,
                  64.662841796875,
                  331.5489196777344,
                  -525.2310791015625,
                  889.8299560546875,
                  -325.5711669921875,
                  -455.30963134765625,
                  45.88372802734375,
                  143.7338409423828,
                  11.408297538757324,
                  92.32806396484375,
                  -130.40167236328125,
                  93.95068359375,
                  -87.2937240600586,
                  876.7140502929688
                ],
                "sd": [
                  149.72998046875,
                  146.26699829101562,
                  1204.1593017578125,
                  35394.62890625,
                  15742.318359375,
                  8051.9677734375,
                  5320.72216796875,
                  4530.7607421875,
                  4158.64794921875,
                  4426.67626953125,
                  5530.6484375,
                  8226.4541015625,
                  15146.302734375,
                  35509.375,
                  34832.66796875,
                  15289.59765625,
                  8286.4189453125,
                  5724.1162109375,
                  4442.17333984375,
                  4022.9814453125,
                  4314.17578125,
                  5469.52734375,
                  8239.158203125,
                  14962.3671875,
                  35989.67578125
                ]
              },
              "init": {
                "mode": "random_normal",
                "scale": 0.0028569424932669363
              },
              "seeds": {
                "split_seed": 514048,
                "init_seed": 714048,
                "batch_seed": 614048
              }
            },
            "run_id": 6,
            "seed": 814048,
            "randomness": {
              "split_seed": 514048,
              "batch_seed": 614048,
              "init_seed": 714048
            }
          },
          {
            "baseline_cent_sign": {
              "train_acc": 0.5447916984558105,
              "val_acc": 0.491666704416275
            },
            "logreg": {
              "train": {
                "acc": 0.5802083611488342,
                "nll": 0.6822383403778076
              },
              "val": {
                "acc": 0.47083336114883423,
                "nll": 0.6931802034378052
              },
              "params": {
                "w": [
                  0.021913254633545876,
                  -0.006861845031380653,
                  0.013590788468718529,
                  -0.03156366944313049,
                  -0.0549464151263237,
                  0.034737635403871536,
                  0.018185967579483986,
                  -0.027855992317199707,
                  0.03139817714691162,
                  -0.05812695622444153,
                  -0.04936506599187851,
                  0.037953559309244156,
                  -0.02875979244709015,
                  0.0026672559324651957,
                  0.007529803551733494,
                  0.016110623255372047,
                  -0.0016677284147590399,
                  0.022708119824528694,
                  -0.03881201148033142,
                  0.012585090473294258,
                  0.030657930299639702,
                  -0.04196276515722275,
                  -0.033495914191007614,
                  -0.03202114254236221,
                  -0.06164314225316048
                ],
                "b": 0.00534861721098423
              },
              "standardize": {
                "mu": [
                  3.6680335998535156,
                  9.929030418395996,
                  57.422576904296875,
                  526.16015625,
                  -1046.6846923828125,
                  -83.58667755126953,
                  -222.44723510742188,
                  122.01032257080078,
                  -75.8396987915039,
                  247.7598419189453,
                  86.2204818725586,
                  -105.6597900390625,
                  691.795166015625,
                  -667.9732055664062,
                  797.5075073242188,
                  115.70140838623047,
                  -320.3906555175781,
                  46.68416976928711,
                  56.972251892089844,
                  52.74913024902344,
                  117.64749908447266,
                  24.52725601196289,
                  -131.84136962890625,
                  -260.9026794433594,
                  1241.120849609375
                ],
                "sd": [
                  146.3725128173828,
                  147.7340850830078,
                  1182.565673828125,
                  35824.7421875,
                  15703.8388671875,
                  8188.03173828125,
                  5264.3583984375,
                  4480.0537109375,
                  4161.94921875,
                  4474.5830078125,
                  5465.88232421875,
                  8229.3349609375,
                  15283.8173828125,
                  36379.08984375,
                  35431.9765625,
                  15508.27734375,
                  8448.8017578125,
                  5667.30126953125,
                  4406.82763671875,
                  4047.94091796875,
                  4295.5146484375,
                  5411.39306640625,
                  8187.62841796875,
                  15276.84765625,
                  36455.45703125
                ]
              },
              "init": {
                "mode": "random_normal",
                "scale": 0.0028569424932669363
              },
              "seeds": {
                "split_seed": 514049,
                "init_seed": 714049,
                "batch_seed": 614049
              }
            },
            "run_id": 7,
            "seed": 814049,
            "randomness": {
              "split_seed": 514049,
              "batch_seed": 614049,
              "init_seed": 714049
            }
          },
          {
            "baseline_cent_sign": {
              "train_acc": 0.5427083373069763,
              "val_acc": 0.5
            },
            "logreg": {
              "train": {
                "acc": 0.5552083849906921,
                "nll": 0.6855799555778503
              },
              "val": {
                "acc": 0.5208333730697632,
                "nll": 0.6876513957977295
              },
              "params": {
                "w": [
                  0.014905115589499474,
                  0.013065744191408157,
                  0.04557715356349945,
                  -0.007947826758027077,
                  0.0036809975281357765,
                  -0.006429370958358049,
                  -0.027655577287077904,
                  -0.0063837189227342606,
                  0.030872246250510216,
                  -0.03324945643544197,
                  -0.05141463875770569,
                  0.05301649123430252,
                  -0.0056472900323569775,
                  -0.017742859199643135,
                  0.016200829297304153,
                  0.03439506143331528,
                  -0.024264875799417496,
                  0.014901290647685528,
                  0.013984769582748413,
                  -0.0063970559276640415,
                  0.04011978581547737,
                  -0.0401105098426342,
                  0.003858338575810194,
                  -0.006310045253485441,
                  -0.056156985461711884
                ],
                "b": -0.01669945754110813
              },
              "standardize": {
                "mu": [
                  8.087020874023438,
                  7.742161273956299,
                  31.854507446289062,
                  307.6811218261719,
                  -603.1554565429688,
                  -61.78083038330078,
                  -17.243913650512695,
                  119.75077056884766,
                  -61.217315673828125,
                  400.59771728515625,
                  79.8014144897461,
                  -138.3758087158203,
                  228.72227478027344,
                  93.1063232421875,
                  1401.9027099609375,
                  -224.832275390625,
                  -551.3860473632812,
                  -15.687684059143066,
                  86.94149017333984,
                  26.050628662109375,
                  69.81403350830078,
                  -49.43014907836914,
                  -150.0445098876953,
                  -131.30946350097656,
                  1476.8336181640625
                ],
                "sd": [
                  146.38755798339844,
                  146.08482360839844,
                  1196.1724853515625,
                  35290.36328125,
                  15460.6591796875,
                  8192.4638671875,
                  5328.04931640625,
                  4524.05078125,
                  4129.30712890625,
                  4425.88623046875,
                  5483.8740234375,
                  8211.53515625,
                  15311.51953125,
                  36478.4921875,
                  34636.96484375,
                  15489.7978515625,
                  8064.935546875,
                  5613.1787109375,
                  4416.92578125,
                  4038.046630859375,
                  4331.45361328125,
                  5473.40966796875,
                  8018.58154296875,
                  15024.71484375,
                  35756.79296875
                ]
              },
              "init": {
                "mode": "random_normal",
                "scale": 0.0028569424932669363
              },
              "seeds": {
                "split_seed": 514050,
                "init_seed": 714050,
                "batch_seed": 614050
              }
            },
            "run_id": 8,
            "seed": 814050,
            "randomness": {
              "split_seed": 514050,
              "batch_seed": 614050,
              "init_seed": 714050
            }
          },
          {
            "baseline_cent_sign": {
              "train_acc": 0.5291666984558105,
              "val_acc": 0.5541666746139526
            },
            "logreg": {
              "train": {
                "acc": 0.5583333373069763,
                "nll": 0.6789857745170593
              },
              "val": {
                "acc": 0.5166667103767395,
                "nll": 0.6885887980461121
              },
              "params": {
                "w": [
                  0.006070221774280071,
                  0.022869830951094627,
                  0.044780582189559937,
                  -0.027142876759171486,
                  -0.08017286658287048,
                  0.024976490065455437,
                  -0.010181776247918606,
                  -0.02770501747727394,
                  0.05976349860429764,
                  -0.10261614620685577,
                  -0.010372218675911427,
                  0.046276967972517014,
                  -0.050275687128305435,
                  0.017635338008403778,
                  0.0006113867275416851,
                  -0.00526733323931694,
                  -0.07225268334150314,
                  0.06035539135336876,
                  -0.03719811886548996,
                  -0.04073546826839447,
                  0.037424225360155106,
                  -0.09386168420314789,
                  -0.018720384687185287,
                  0.004710397683084011,
                  -0.07854077219963074
                ],
                "b": 0.011282844468951225
              },
              "standardize": {
                "mu": [
                  0.9636528491973877,
                  8.081670761108398,
                  16.131633758544922,
                  -257.2082214355469,
                  -729.1229248046875,
                  -70.03662109375,
                  19.961801528930664,
                  5.012712001800537,
                  -129.07745361328125,
                  270.1900634765625,
                  51.15985107421875,
                  -195.99070739746094,
                  -310.6014404296875,
                  -499.3363342285156,
                  1416.424560546875,
                  -475.47076416015625,
                  -235.45138549804688,
                  38.973514556884766,
                  47.14752960205078,
                  -80.43663787841797,
                  24.237184524536133,
                  -134.72140502929688,
                  32.505184173583984,
                  16.122901916503906,
                  195.48744201660156
                ],
                "sd": [
                  150.01980590820312,
                  149.74771118164062,
                  1194.4415283203125,
                  36162.71875,
                  15371.9599609375,
                  8288.587890625,
                  5327.98974609375,
                  4501.20166015625,
                  4198.8603515625,
                  4482.3046875,
                  5370.828125,
                  8269.3359375,
                  15077.9111328125,
                  36218.62890625,
                  35499.93359375,
                  15839.98046875,
                  8452.9580078125,
                  5732.4501953125,
                  4376.8662109375,
                  4000.106201171875,
                  4316.3642578125,
                  5513.5986328125,
                  8180.248046875,
                  15261.837890625,
                  35839.0390625
                ]
              },
              "init": {
                "mode": "random_normal",
                "scale": 0.0028569424932669363
              },
              "seeds": {
                "split_seed": 514051,
                "init_seed": 714051,
                "batch_seed": 614051
              }
            },
            "run_id": 9,
            "seed": 814051,
            "randomness": {
              "split_seed": 514051,
              "batch_seed": 614051,
              "init_seed": 714051
            }
          }
        ],
        "summary": {
          "n_runs": 10,
          "baseline_cent_sign": {
            "train_acc": {
              "mean": 0.5392708599567413,
              "std": 0.006506039693100046,
              "min": 0.5281250476837158,
              "max": 0.5510417222976685
            },
            "val_acc": {
              "mean": 0.5137500256299973,
              "std": 0.026024155575335023,
              "min": 0.46666669845581055,
              "max": 0.5583333373069763
            }
          },
          "logreg": {
            "train_acc": {
              "mean": 0.5682291984558105,
              "std": 0.009389456005695617,
              "min": 0.5552083849906921,
              "max": 0.5802083611488342
            },
            "val_acc": {
              "mean": 0.5095833629369736,
              "std": 0.03004915069130657,
              "min": 0.44166669249534607,
              "max": 0.5458333492279053
            },
            "train_nll": {
              "mean": 0.6810316383838654,
              "std": 0.0024201658930369623,
              "min": 0.677185595035553,
              "max": 0.6855799555778503
            },
            "val_nll": {
              "mean": 0.6928244233131409,
              "std": 0.0037177944281883138,
              "min": 0.6876513957977295,
              "max": 0.698306679725647
            }
          }
        },
        "randomness_config": {
          "vary_split": true,
          "vary_batch_order": true,
          "vary_init": true
        }
      },
      "k": 0.8,
      "nps_target": 776,
      "nps_match_mode": "offby1"
    },
    {
      "nps": 1782,
      "baseline_cent_sign": {
        "train_acc": 0.48125001788139343,
        "val_acc": 0.5458333492279053
      },
      "logreg": {
        "train": {
          "acc": 0.5604166984558105,
          "nll": 0.6821480393409729
        },
        "val": {
          "acc": 0.5625,
          "nll": 0.6843181848526001
        },
        "params": {
          "w": [
            0.03044867515563965,
            0.025018392130732536,
            -0.06224909797310829,
            -0.03433886170387268,
            0.01792074926197529,
            -0.030671492218971252,
            0.022606605663895607,
            0.046592310070991516,
            0.016217313706874847,
            0.0184104535728693,
            0.13500739634037018,
            -0.04874918982386589,
            0.0669347494840622,
            -0.025726795196533203,
            -0.1663893312215805,
            -0.11069737374782562,
            -0.024692725390195847,
            -0.05026654526591301,
            -0.009541919454932213,
            0.005161822773516178,
            0.03273338824510574,
            0.04693043231964111,
            -0.0994841530919075,
            -0.028027867898344994,
            0.018043294548988342
          ],
          "b": 0.008737588301301003
        },
        "standardize": {
          "mu": [
            0.4665621817111969,
            3.102161169052124,
            -11.397095680236816,
            864.1175537109375,
            -373.4164123535156,
            -6.41782283782959,
            9.806419372558594,
            3.406338691711426,
            -48.9771728515625,
            -149.6719207763672,
            -53.285640716552734,
            -47.62812805175781,
            6.685742378234863,
            1177.421630859375,
            203.59661865234375,
            307.76690673828125,
            32.81001663208008,
            55.3640251159668,
            25.3656063079834,
            70.85625457763672,
            -83.40940856933594,
            -50.83246994018555,
            -96.67713928222656,
            -1.734285593032837,
            -578.4530639648438
          ],
          "sd": [
            97.36609649658203,
            96.82476043701172,
            791.628173828125,
            15480.7998046875,
            6200.42578125,
            3486.721435546875,
            2375.506103515625,
            1909.296142578125,
            1825.40380859375,
            1940.7755126953125,
            2397.28271484375,
            3438.580078125,
            6534.880859375,
            14883.373046875,
            15153.6376953125,
            6536.1396484375,
            3582.628173828125,
            2336.177734375,
            1832.0106201171875,
            1865.2022705078125,
            1927.513671875,
            2380.841552734375,
            3686.082763671875,
            6647.1044921875,
            15938.6650390625
          ]
        },
        "init": {
          "mode": "random_normal",
          "scale": 0.0028569424932669363
        },
        "seeds": {
          "split_seed": 524042,
          "init_seed": 724042,
          "batch_seed": 624042
        }
      },
      "independent_runs": {
        "per_run": [
          {
            "baseline_cent_sign": {
              "train_acc": 0.48125001788139343,
              "val_acc": 0.5458333492279053
            },
            "logreg": {
              "train": {
                "acc": 0.5604166984558105,
                "nll": 0.6821480393409729
              },
              "val": {
                "acc": 0.5625,
                "nll": 0.6843181848526001
              },
              "params": {
                "w": [
                  0.03044867515563965,
                  0.025018392130732536,
                  -0.06224909797310829,
                  -0.03433886170387268,
                  0.01792074926197529,
                  -0.030671492218971252,
                  0.022606605663895607,
                  0.046592310070991516,
                  0.016217313706874847,
                  0.0184104535728693,
                  0.13500739634037018,
                  -0.04874918982386589,
                  0.0669347494840622,
                  -0.025726795196533203,
                  -0.1663893312215805,
                  -0.11069737374782562,
                  -0.024692725390195847,
                  -0.05026654526591301,
                  -0.009541919454932213,
                  0.005161822773516178,
                  0.03273338824510574,
                  0.04693043231964111,
                  -0.0994841530919075,
                  -0.028027867898344994,
                  0.018043294548988342
                ],
                "b": 0.008737588301301003
              },
              "standardize": {
                "mu": [
                  0.4665621817111969,
                  3.102161169052124,
                  -11.397095680236816,
                  864.1175537109375,
                  -373.4164123535156,
                  -6.41782283782959,
                  9.806419372558594,
                  3.406338691711426,
                  -48.9771728515625,
                  -149.6719207763672,
                  -53.285640716552734,
                  -47.62812805175781,
                  6.685742378234863,
                  1177.421630859375,
                  203.59661865234375,
                  307.76690673828125,
                  32.81001663208008,
                  55.3640251159668,
                  25.3656063079834,
                  70.85625457763672,
                  -83.40940856933594,
                  -50.83246994018555,
                  -96.67713928222656,
                  -1.734285593032837,
                  -578.4530639648438
                ],
                "sd": [
                  97.36609649658203,
                  96.82476043701172,
                  791.628173828125,
                  15480.7998046875,
                  6200.42578125,
                  3486.721435546875,
                  2375.506103515625,
                  1909.296142578125,
                  1825.40380859375,
                  1940.7755126953125,
                  2397.28271484375,
                  3438.580078125,
                  6534.880859375,
                  14883.373046875,
                  15153.6376953125,
                  6536.1396484375,
                  3582.628173828125,
                  2336.177734375,
                  1832.0106201171875,
                  1865.2022705078125,
                  1927.513671875,
                  2380.841552734375,
                  3686.082763671875,
                  6647.1044921875,
                  15938.6650390625
                ]
              },
              "init": {
                "mode": "random_normal",
                "scale": 0.0028569424932669363
              },
              "seeds": {
                "split_seed": 524042,
                "init_seed": 724042,
                "batch_seed": 624042
              }
            },
            "run_id": 0,
            "seed": 824042,
            "randomness": {
              "split_seed": 524042,
              "batch_seed": 624042,
              "init_seed": 724042
            }
          },
          {
            "baseline_cent_sign": {
              "train_acc": 0.4906250238418579,
              "val_acc": 0.5083333849906921
            },
            "logreg": {
              "train": {
                "acc": 0.5447916984558105,
                "nll": 0.6877018213272095
              },
              "val": {
                "acc": 0.46666669845581055,
                "nll": 0.6897796988487244
              },
              "params": {
                "w": [
                  -0.009037223644554615,
                  -0.020848793908953667,
                  -0.011594453826546669,
                  -0.023212408646941185,
                  0.022230878472328186,
                  -0.011777138337492943,
                  0.009338680654764175,
                  0.008996106684207916,
                  0.01685153692960739,
                  -0.033281970769166946,
                  0.029575655236840248,
                  -0.017284130677580833,
                  0.03368967026472092,
                  0.0021072207018733025,
                  -0.04245591163635254,
                  -0.051680851727724075,
                  -0.015832476317882538,
                  0.019600844010710716,
                  -0.028236301615834236,
                  -0.006611200049519539,
                  0.0011561596766114235,
                  0.04119214043021202,
                  -0.016180234029889107,
                  -0.02116757072508335,
                  0.014554561115801334
                ],
                "b": 0.007601420395076275
              },
              "standardize": {
                "mu": [
                  -2.390463352203369,
                  -1.106310486793518,
                  6.861615180969238,
                  880.0991821289062,
                  -193.6273956298828,
                  51.0578727722168,
                  34.1603889465332,
                  0.9532837271690369,
                  -35.757686614990234,
                  -149.2159881591797,
                  -49.003536224365234,
                  -17.858726501464844,
                  123.59703063964844,
                  652.5493774414062,
                  357.28472900390625,
                  1.3428345918655396,
                  -27.688188552856445,
                  66.80397033691406,
                  48.70280456542969,
                  1.774300217628479,
                  -83.3777847290039,
                  -8.752954483032227,
                  -89.6532211303711,
                  15.066805839538574,
                  -878.8536987304688
                ],
                "sd": [
                  97.97828674316406,
                  96.86650085449219,
                  782.0810546875,
                  15453.1533203125,
                  6543.00439453125,
                  3427.141357421875,
                  2371.020751953125,
                  1900.5428466796875,
                  1826.3477783203125,
                  1941.815673828125,
                  2410.091796875,
                  3456.3984375,
                  6541.7568359375,
                  15101.6552734375,
                  15411.025390625,
                  6636.40966796875,
                  3531.896240234375,
                  2348.84912109375,
                  1888.55908203125,
                  1857.623779296875,
                  1989.09814453125,
                  2418.219970703125,
                  3629.760986328125,
                  6754.82177734375,
                  15983.07421875
                ]
              },
              "init": {
                "mode": "random_normal",
                "scale": 0.0028569424932669363
              },
              "seeds": {
                "split_seed": 524043,
                "init_seed": 724043,
                "batch_seed": 624043
              }
            },
            "run_id": 1,
            "seed": 824043,
            "randomness": {
              "split_seed": 524043,
              "batch_seed": 624043,
              "init_seed": 724043
            }
          },
          {
            "baseline_cent_sign": {
              "train_acc": 0.5,
              "val_acc": 0.47083336114883423
            },
            "logreg": {
              "train": {
                "acc": 0.5447916984558105,
                "nll": 0.6868384480476379
              },
              "val": {
                "acc": 0.5625,
                "nll": 0.6928830146789551
              },
              "params": {
                "w": [
                  -0.006780931726098061,
                  -0.013567520305514336,
                  0.004010653588920832,
                  0.0021342781838029623,
                  0.03934206813573837,
                  -0.008851733058691025,
                  -0.007275483570992947,
                  0.04726763069629669,
                  0.022975558415055275,
                  0.010950018651783466,
                  0.028044532984495163,
                  -0.030149228870868683,
                  0.034233320504426956,
                  -0.017387814819812775,
                  -0.026890678331255913,
                  -0.04880816116929054,
                  -0.0033103199675679207,
                  0.0005804065731354058,
                  -0.03135712072253227,
                  0.024191763252019882,
                  -0.013845172710716724,
                  0.036287255585193634,
                  -0.049380406737327576,
                  -0.018381766974925995,
                  0.0278403889387846
                ],
                "b": -0.048174820840358734
              },
              "standardize": {
                "mu": [
                  1.984194040298462,
                  2.9183456897735596,
                  -0.17196452617645264,
                  534.8314819335938,
                  -149.18423461914062,
                  -16.91357421875,
                  2.9883790016174316,
                  -62.4661979675293,
                  -40.16731262207031,
                  -179.80982971191406,
                  -123.35942840576172,
                  -70.53126525878906,
                  116.2037124633789,
                  451.16619873046875,
                  -13.208497047424316,
                  202.44285583496094,
                  -55.73125457763672,
                  166.91571044921875,
                  56.62971878051758,
                  26.286792755126953,
                  -95.70426940917969,
                  -46.17900085449219,
                  -65.25283813476562,
                  109.69398498535156,
                  -833.737060546875
                ],
                "sd": [
                  96.88848876953125,
                  98.0573959350586,
                  781.9105834960938,
                  15519.7451171875,
                  6426.4384765625,
                  3444.10009765625,
                  2403.188720703125,
                  1944.2744140625,
                  1793.02392578125,
                  1937.2169189453125,
                  2394.809814453125,
                  3497.335693359375,
                  6349.28515625,
                  15263.95703125,
                  15238.7958984375,
                  6647.10302734375,
                  3535.8349609375,
                  2336.40087890625,
                  1900.0262451171875,
                  1822.67236328125,
                  1971.80078125,
                  2394.00341796875,
                  3656.389404296875,
                  6565.5595703125,
                  16182.4443359375
                ]
              },
              "init": {
                "mode": "random_normal",
                "scale": 0.0028569424932669363
              },
              "seeds": {
                "split_seed": 524044,
                "init_seed": 724044,
                "batch_seed": 624044
              }
            },
            "run_id": 2,
            "seed": 824044,
            "randomness": {
              "split_seed": 524044,
              "batch_seed": 624044,
              "init_seed": 724044
            }
          },
          {
            "baseline_cent_sign": {
              "train_acc": 0.4947916865348816,
              "val_acc": 0.491666704416275
            },
            "logreg": {
              "train": {
                "acc": 0.5760416984558105,
                "nll": 0.6810923218727112
              },
              "val": {
                "acc": 0.5625,
                "nll": 0.6866527199745178
              },
              "params": {
                "w": [
                  0.05290040746331215,
                  0.006490143947303295,
                  -0.03512362018227577,
                  -0.05386723577976227,
                  0.0984286218881607,
                  -0.006407994776964188,
                  0.026158208027482033,
                  0.05956895276904106,
                  0.04166322201490402,
                  0.010296978056430817,
                  0.143301859498024,
                  -0.03933490067720413,
                  0.07068462669849396,
                  -0.002395639196038246,
                  -0.18953706324100494,
                  -0.15177153050899506,
                  -0.022095849737524986,
                  0.03012941963970661,
                  -0.02325044572353363,
                  -0.019591307267546654,
                  0.039007190614938736,
                  0.049108486622571945,
                  -0.06936897337436676,
                  -0.040532130748033524,
                  0.02590269222855568
                ],
                "b": -0.010004710406064987
              },
              "standardize": {
                "mu": [
                  0.8147498369216919,
                  6.670024394989014,
                  6.0910186767578125,
                  346.8829650878906,
                  -61.057464599609375,
                  68.27113342285156,
                  13.510547637939453,
                  -48.91068649291992,
                  -43.36818313598633,
                  -108.91627502441406,
                  4.123205661773682,
                  -102.59700012207031,
                  132.1563262939453,
                  611.58056640625,
                  531.768310546875,
                  6.202807903289795,
                  39.78678894042969,
                  97.89421081542969,
                  107.0099105834961,
                  25.01642417907715,
                  -108.91822052001953,
                  -34.825496673583984,
                  -13.745784759521484,
                  18.042020797729492,
                  -1076.7147216796875
                ],
                "sd": [
                  96.28658294677734,
                  97.32257080078125,
                  791.8460693359375,
                  15313.1708984375,
                  6306.61083984375,
                  3438.096435546875,
                  2344.85986328125,
                  1899.6806640625,
                  1810.8243408203125,
                  1909.601318359375,
                  2387.648193359375,
                  3519.180908203125,
                  6575.11865234375,
                  15577.412109375,
                  15415.3388671875,
                  6389.8310546875,
                  3612.560302734375,
                  2360.14501953125,
                  1884.1549072265625,
                  1891.0318603515625,
                  1970.9056396484375,
                  2372.75830078125,
                  3636.0107421875,
                  6593.556640625,
                  16025.4462890625
                ]
              },
              "init": {
                "mode": "random_normal",
                "scale": 0.0028569424932669363
              },
              "seeds": {
                "split_seed": 524045,
                "init_seed": 724045,
                "batch_seed": 624045
              }
            },
            "run_id": 3,
            "seed": 824045,
            "randomness": {
              "split_seed": 524045,
              "batch_seed": 624045,
              "init_seed": 724045
            }
          },
          {
            "baseline_cent_sign": {
              "train_acc": 0.491666704416275,
              "val_acc": 0.5041667222976685
            },
            "logreg": {
              "train": {
                "acc": 0.5729166865348816,
                "nll": 0.6826223731040955
              },
              "val": {
                "acc": 0.5333333611488342,
                "nll": 0.6909374594688416
              },
              "params": {
                "w": [
                  0.06058228760957718,
                  0.04089387133717537,
                  -0.01307638082653284,
                  -0.02033863216638565,
                  0.026546983048319817,
                  -0.025675248354673386,
                  0.037602219730615616,
                  0.04111528769135475,
                  0.02890300378203392,
                  0.004393196664750576,
                  0.0733325183391571,
                  -0.015167506411671638,
                  0.04950939863920212,
                  -0.011497095227241516,
                  -0.09061583876609802,
                  -0.05834774672985077,
                  0.009707801975309849,
                  -0.029375389218330383,
                  -0.020100051537156105,
                  -0.021455753594636917,
                  -0.0006570169352926314,
                  0.026766851544380188,
                  -0.0581493005156517,
                  -0.001973225735127926,
                  0.014994418248534203
                ],
                "b": 0.01300952211022377
              },
              "standardize": {
                "mu": [
                  0.2457362562417984,
                  3.0208609104156494,
                  1.2279521226882935,
                  425.2301330566406,
                  -194.54522705078125,
                  55.66310501098633,
                  22.753610610961914,
                  -29.41192626953125,
                  -38.77017593383789,
                  -157.81898498535156,
                  -63.10932540893555,
                  -23.030969619750977,
                  221.006103515625,
                  419.3326416015625,
                  -150.93832397460938,
                  56.25913619995117,
                  39.401954650878906,
                  143.0791473388672,
                  64.30675506591797,
                  -5.713132858276367,
                  -107.09291076660156,
                  -11.504191398620605,
                  -112.55476379394531,
                  270.1202697753906,
                  -857.905029296875
                ],
                "sd": [
                  97.4930191040039,
                  98.62622833251953,
                  797.1131591796875,
                  15289.6083984375,
                  6424.53466796875,
                  3462.696044921875,
                  2361.1611328125,
                  1896.14599609375,
                  1824.04052734375,
                  1935.3380126953125,
                  2387.193359375,
                  3439.46533203125,
                  6544.52587890625,
                  15118.55078125,
                  15094.7041015625,
                  6441.5458984375,
                  3570.631103515625,
                  2337.893798828125,
                  1833.4012451171875,
                  1890.328125,
                  1950.468994140625,
                  2420.60498046875,
                  3693.239501953125,
                  6702.62158203125,
                  15812.7724609375
                ]
              },
              "init": {
                "mode": "random_normal",
                "scale": 0.0028569424932669363
              },
              "seeds": {
                "split_seed": 524046,
                "init_seed": 724046,
                "batch_seed": 624046
              }
            },
            "run_id": 4,
            "seed": 824046,
            "randomness": {
              "split_seed": 524046,
              "batch_seed": 624046,
              "init_seed": 724046
            }
          },
          {
            "baseline_cent_sign": {
              "train_acc": 0.4843750298023224,
              "val_acc": 0.5333333611488342
            },
            "logreg": {
              "train": {
                "acc": 0.5479167103767395,
                "nll": 0.6825183033943176
              },
              "val": {
                "acc": 0.5750000476837158,
                "nll": 0.6841952204704285
              },
              "params": {
                "w": [
                  0.007866193540394306,
                  0.009806405752897263,
                  -0.08675626665353775,
                  -0.0628495067358017,
                  0.05918974056839943,
                  -0.0012145512737333775,
                  0.03391440212726593,
                  0.02357235550880432,
                  0.018756039440631866,
                  0.021359413862228394,
                  0.08663430064916611,
                  -0.043161094188690186,
                  0.05284007266163826,
                  0.005412305239588022,
                  -0.18384771049022675,
                  -0.08829057961702347,
                  -0.015252268873155117,
                  -0.019799837842583656,
                  -0.032301660627126694,
                  -0.0036576590500772,
                  0.04254917427897453,
                  0.034983519464731216,
                  -0.10684186220169067,
                  -0.030459122732281685,
                  0.032747384160757065
                ],
                "b": 0.016757985576987267
              },
              "standardize": {
                "mu": [
                  -1.6064215898513794,
                  3.012559175491333,
                  3.5341567993164062,
                  543.8312377929688,
                  -118.78478240966797,
                  53.981048583984375,
                  65.83692932128906,
                  -50.74686813354492,
                  -31.834856033325195,
                  -150.0286407470703,
                  -49.60960388183594,
                  -75.04566192626953,
                  50.87833023071289,
                  999.6650390625,
                  49.46087646484375,
                  109.40231323242188,
                  -97.83474731445312,
                  97.81097412109375,
                  -2.691878318786621,
                  -22.953563690185547,
                  -47.92660140991211,
                  18.419815063476562,
                  -131.4124298095703,
                  142.15509033203125,
                  -514.7291259765625
                ],
                "sd": [
                  97.82660675048828,
                  98.38661193847656,
                  780.99853515625,
                  15539.1806640625,
                  6568.5556640625,
                  3536.970458984375,
                  2380.035888671875,
                  1916.232421875,
                  1824.461181640625,
                  1941.7254638671875,
                  2398.73876953125,
                  3522.9306640625,
                  6625.12158203125,
                  15239.310546875,
                  15124.615234375,
                  6559.88232421875,
                  3562.778076171875,
                  2387.97705078125,
                  1864.5263671875,
                  1859.1485595703125,
                  1969.0595703125,
                  2381.15966796875,
                  3731.3525390625,
                  6642.53564453125,
                  15785.638671875
                ]
              },
              "init": {
                "mode": "random_normal",
                "scale": 0.0028569424932669363
              },
              "seeds": {
                "split_seed": 524047,
                "init_seed": 724047,
                "batch_seed": 624047
              }
            },
            "run_id": 5,
            "seed": 824047,
            "randomness": {
              "split_seed": 524047,
              "batch_seed": 624047,
              "init_seed": 724047
            }
          },
          {
            "baseline_cent_sign": {
              "train_acc": 0.4989583492279053,
              "val_acc": 0.4750000238418579
            },
            "logreg": {
              "train": {
                "acc": 0.5520833730697632,
                "nll": 0.6847648620605469
              },
              "val": {
                "acc": 0.5166667103767395,
                "nll": 0.6946222186088562
              },
              "params": {
                "w": [
                  -0.012444591149687767,
                  0.03397367522120476,
                  0.011116516776382923,
                  -0.009107770398259163,
                  0.018581870943307877,
                  -0.009284340776503086,
                  0.03516186773777008,
                  0.02886752039194107,
                  0.012477345764636993,
                  -0.0017889851005747914,
                  0.0445350706577301,
                  -0.013158201240003109,
                  0.04014144465327263,
                  -0.02555539458990097,
                  -0.06379549950361252,
                  -0.06208057701587677,
                  0.027455072849988937,
                  -0.007411421276628971,
                  0.0008095186203718185,
                  -0.03203662112355232,
                  0.04715212062001228,
                  0.018259096890687943,
                  -0.04277418926358223,
                  0.03502450883388519,
                  0.0018760939128696918
                ],
                "b": -0.02341494895517826
              },
              "standardize": {
                "mu": [
                  -1.2636827230453491,
                  2.9107916355133057,
                  -9.198564529418945,
                  743.3445434570312,
                  -139.97799682617188,
                  15.126498222351074,
                  20.799114227294922,
                  -28.136024475097656,
                  31.340808868408203,
                  -109.46036529541016,
                  8.919429779052734,
                  -50.12051010131836,
                  -21.853435516357422,
                  408.8970642089844,
                  482.8258056640625,
                  99.8222427368164,
                  27.28584098815918,
                  29.68204689025879,
                  55.11967468261719,
                  6.458215713500977,
                  -146.89053344726562,
                  -38.785133361816406,
                  -134.51596069335938,
                  173.47962951660156,
                  -1313.467041015625
                ],
                "sd": [
                  99.03935241699219,
                  98.02578735351562,
                  789.3095092773438,
                  15428.5263671875,
                  6495.5869140625,
                  3539.97607421875,
                  2383.622802734375,
                  1896.0098876953125,
                  1778.57470703125,
                  1921.0533447265625,
                  2366.759033203125,
                  3519.742431640625,
                  6499.52880859375,
                  15193.1025390625,
                  15234.7138671875,
                  6483.1708984375,
                  3607.655517578125,
                  2346.083740234375,
                  1892.6397705078125,
                  1830.4461669921875,
                  1947.5030517578125,
                  2408.91650390625,
                  3654.721435546875,
                  6613.7060546875,
                  15743.53515625
                ]
              },
              "init": {
                "mode": "random_normal",
                "scale": 0.0028569424932669363
              },
              "seeds": {
                "split_seed": 524048,
                "init_seed": 724048,
                "batch_seed": 624048
              }
            },
            "run_id": 6,
            "seed": 824048,
            "randomness": {
              "split_seed": 524048,
              "batch_seed": 624048,
              "init_seed": 724048
            }
          },
          {
            "baseline_cent_sign": {
              "train_acc": 0.49270835518836975,
              "val_acc": 0.5
            },
            "logreg": {
              "train": {
                "acc": 0.5593750476837158,
                "nll": 0.6831859946250916
              },
              "val": {
                "acc": 0.5041667222976685,
                "nll": 0.6983433365821838
              },
              "params": {
                "w": [
                  0.023807361721992493,
                  0.021757520735263824,
                  -0.019279098138213158,
                  -0.0012831444619223475,
                  0.015000916086137295,
                  -0.020854908972978592,
                  -0.0037370631471276283,
                  0.05689798668026924,
                  -0.00647107744589448,
                  -0.0024122833274304867,
                  0.04086941480636597,
                  -0.016715344041585922,
                  0.039892133325338364,
                  -0.00543102016672492,
                  -0.06893464922904968,
                  -0.0249062217772007,
                  -0.023882007226347923,
                  -0.009974852204322815,
                  -0.02691579982638359,
                  -0.015012573450803757,
                  0.04615689069032669,
                  0.033805251121520996,
                  -0.06141867861151695,
                  0.003968576434999704,
                  0.02755637839436531
                ],
                "b": 0.004160568583756685
              },
              "standardize": {
                "mu": [
                  -1.0480072498321533,
                  2.308915138244629,
                  -7.806745529174805,
                  612.52783203125,
                  -266.82000732421875,
                  27.888887405395508,
                  70.67878723144531,
                  -39.931697845458984,
                  -40.29348373413086,
                  -95.11797332763672,
                  -57.89496612548828,
                  -24.649839401245117,
                  153.5765380859375,
                  675.1925659179688,
                  128.42149353027344,
                  -82.49420928955078,
                  61.10735321044922,
                  40.004913330078125,
                  85.91546630859375,
                  68.86139678955078,
                  -115.17842102050781,
                  -73.30856323242188,
                  -55.06448745727539,
                  55.92646789550781,
                  -416.073486328125
                ],
                "sd": [
                  97.92259216308594,
                  94.40442657470703,
                  788.30615234375,
                  15553.0625,
                  6238.345703125,
                  3579.17236328125,
                  2350.16259765625,
                  1921.3975830078125,
                  1831.9049072265625,
                  1952.478759765625,
                  2415.5068359375,
                  3482.764404296875,
                  6656.5400390625,
                  15376.4814453125,
                  15043.015625,
                  6605.70166015625,
                  3626.705078125,
                  2370.448974609375,
                  1860.7178955078125,
                  1847.1580810546875,
                  2017.0445556640625,
                  2386.10595703125,
                  3655.7373046875,
                  6611.3974609375,
                  15706.2060546875
                ]
              },
              "init": {
                "mode": "random_normal",
                "scale": 0.0028569424932669363
              },
              "seeds": {
                "split_seed": 524049,
                "init_seed": 724049,
                "batch_seed": 624049
              }
            },
            "run_id": 7,
            "seed": 824049,
            "randomness": {
              "split_seed": 524049,
              "batch_seed": 624049,
              "init_seed": 724049
            }
          },
          {
            "baseline_cent_sign": {
              "train_acc": 0.49375003576278687,
              "val_acc": 0.4958333671092987
            },
            "logreg": {
              "train": {
                "acc": 0.5729166865348816,
                "nll": 0.6813406944274902
              },
              "val": {
                "acc": 0.5291666984558105,
                "nll": 0.6884537935256958
              },
              "params": {
                "w": [
                  0.057851117104291916,
                  0.06209420785307884,
                  -0.014192412607371807,
                  -0.05146976187825203,
                  0.07868146896362305,
                  -0.0524543859064579,
                  -0.0011645082850009203,
                  0.10599495470523834,
                  0.06168625131249428,
                  0.015905775129795074,
                  0.11961934715509415,
                  -0.03843361511826515,
                  0.061822984367609024,
                  -0.03352351859211922,
                  -0.18034958839416504,
                  -0.09174369275569916,
                  -0.012409348040819168,
                  -0.0034471836406737566,
                  -0.013506767340004444,
                  0.001394461840391159,
                  0.00995083898305893,
                  0.0628698393702507,
                  -0.05479424074292183,
                  -0.004605349153280258,
                  0.051002733409404755
                ],
                "b": 0.06172621250152588
              },
              "standardize": {
                "mu": [
                  -0.5952792167663574,
                  4.181229114532471,
                  -17.752826690673828,
                  555.9066162109375,
                  -175.057861328125,
                  -34.38031768798828,
                  -2.9351298809051514,
                  10.482956886291504,
                  -10.373712539672852,
                  -143.40719604492188,
                  -2.2194011211395264,
                  -75.46420288085938,
                  199.25401306152344,
                  750.4414672851562,
                  167.3906707763672,
                  125.77567291259766,
                  58.888633728027344,
                  73.86791229248047,
                  23.551254272460938,
                  -31.771408081054688,
                  -82.10753631591797,
                  14.669047355651855,
                  -147.91322326660156,
                  90.50064086914062,
                  -1110.794677734375
                ],
                "sd": [
                  100.07081604003906,
                  94.77967834472656,
                  793.2911987304688,
                  15649.0556640625,
                  6399.490234375,
                  3482.308349609375,
                  2403.669677734375,
                  1922.3841552734375,
                  1833.9788818359375,
                  1929.1900634765625,
                  2338.2529296875,
                  3410.501953125,
                  6606.42138671875,
                  15340.224609375,
                  15272.7724609375,
                  6574.0390625,
                  3602.974365234375,
                  2398.603515625,
                  1852.0089111328125,
                  1833.33056640625,
                  2030.7349853515625,
                  2412.0712890625,
                  3615.16650390625,
                  6651.38232421875,
                  16091.69921875
                ]
              },
              "init": {
                "mode": "random_normal",
                "scale": 0.0028569424932669363
              },
              "seeds": {
                "split_seed": 524050,
                "init_seed": 724050,
                "batch_seed": 624050
              }
            },
            "run_id": 8,
            "seed": 824050,
            "randomness": {
              "split_seed": 524050,
              "batch_seed": 624050,
              "init_seed": 724050
            }
          },
          {
            "baseline_cent_sign": {
              "train_acc": 0.4958333671092987,
              "val_acc": 0.48750001192092896
            },
            "logreg": {
              "train": {
                "acc": 0.5625,
                "nll": 0.6854455471038818
              },
              "val": {
                "acc": 0.5,
                "nll": 0.69456547498703
              },
              "params": {
                "w": [
                  0.015428251586854458,
                  0.0022812841925770044,
                  -0.010447557084262371,
                  0.005933491978794336,
                  0.052754051983356476,
                  -0.02615121193230152,
                  0.00047946919221431017,
                  -0.0006074504926800728,
                  0.011770090088248253,
                  0.04148995131254196,
                  0.044289108365774155,
                  -0.015620808117091656,
                  0.004532516002655029,
                  0.04010837525129318,
                  -0.05032046511769295,
                  -0.0424509160220623,
                  0.015268800780177116,
                  0.004821334965527058,
                  -0.043447792530059814,
                  -0.009644666686654091,
                  0.041694898158311844,
                  0.04412008821964264,
                  -0.037438977509737015,
                  -0.01574418880045414,
                  0.010342818684875965
                ],
                "b": 0.016489749774336815
              },
              "standardize": {
                "mu": [
                  -1.5293372869491577,
                  -0.4559580683708191,
                  -11.072690963745117,
                  464.8724060058594,
                  -358.80126953125,
                  -1.826302170753479,
                  56.103736877441406,
                  -23.113344192504883,
                  -38.35512924194336,
                  -194.22982788085938,
                  -45.58940887451172,
                  -151.5397186279297,
                  151.86187744140625,
                  440.52899169921875,
                  126.87275695800781,
                  17.054424285888672,
                  92.5947494506836,
                  145.20486450195312,
                  9.844368934631348,
                  0.8143229484558105,
                  -131.6990966796875,
                  -95.26860046386719,
                  -126.1085205078125,
                  161.07159423828125,
                  -584.594482421875
                ],
                "sd": [
                  97.88316345214844,
                  96.216064453125,
                  801.6971435546875,
                  15759.0078125,
                  6366.9345703125,
                  3528.114013671875,
                  2401.10986328125,
                  1842.8245849609375,
                  1784.836181640625,
                  1912.1463623046875,
                  2368.385498046875,
                  3445.855712890625,
                  6513.08056640625,
                  15216.537109375,
                  15368.7080078125,
                  6515.5927734375,
                  3529.845703125,
                  2358.834716796875,
                  1877.4549560546875,
                  1863.099853515625,
                  1954.5963134765625,
                  2378.260498046875,
                  3648.59033203125,
                  6562.85888671875,
                  16037.1875
                ]
              },
              "init": {
                "mode": "random_normal",
                "scale": 0.0028569424932669363
              },
              "seeds": {
                "split_seed": 524051,
                "init_seed": 724051,
                "batch_seed": 624051
              }
            },
            "run_id": 9,
            "seed": 824051,
            "randomness": {
              "split_seed": 524051,
              "batch_seed": 624051,
              "init_seed": 724051
            }
          }
        ],
        "summary": {
          "n_runs": 10,
          "baseline_cent_sign": {
            "train_acc": {
              "mean": 0.4923958569765091,
              "std": 0.005591137069630996,
              "min": 0.48125001788139343,
              "max": 0.5
            },
            "val_acc": {
              "mean": 0.5012500286102295,
              "std": 0.022364561271040667,
              "min": 0.47083336114883423,
              "max": 0.5458333492279053
            }
          },
          "logreg": {
            "train_acc": {
              "mean": 0.5593750298023223,
              "std": 0.011248065339154664,
              "min": 0.5447916984558105,
              "max": 0.5760416984558105
            },
            "val_acc": {
              "mean": 0.5312500238418579,
              "std": 0.033085006146300514,
              "min": 0.46666669845581055,
              "max": 0.5750000476837158
            },
            "train_nll": {
              "mean": 0.6837658405303955,
              "std": 0.002181713185442638,
              "min": 0.6810923218727112,
              "max": 0.6877018213272095
            },
            "val_nll": {
              "mean": 0.6904751121997833,
              "std": 0.004453931738401515,
              "min": 0.6841952204704285,
              "max": 0.6983433365821838
            }
          }
        },
        "randomness_config": {
          "vary_split": true,
          "vary_batch_order": true,
          "vary_init": true
        }
      },
      "k": 0.9,
      "nps_target": 1783,
      "nps_match_mode": "offby1"
    },
    {
      "nps": 4096,
      "baseline_cent_sign": {
        "train_acc": 0.4906250238418579,
        "val_acc": 0.4958333671092987
      },
      "logreg": {
        "train": {
          "acc": 0.5416666865348816,
          "nll": 0.6892090439796448
        },
        "val": {
          "acc": 0.5541666746139526,
          "nll": 0.6869339346885681
        },
        "params": {
          "w": [
            0.015335997566580772,
            -0.008174114860594273,
            -0.0018924479372799397,
            0.02881554700434208,
            0.007386961951851845,
            -0.037631284445524216,
            -0.030747851356863976,
            -0.019079964607954025,
            -0.019926536828279495,
            0.0031506372615695,
            0.029033703729510307,
            0.0035129340831190348,
            0.020086083561182022,
            0.024971332401037216,
            -0.010566545650362968,
            -0.013858492486178875,
            0.010274508967995644,
            0.04909694939851761,
            0.01854616217315197,
            0.028532128781080246,
            0.002787743229418993,
            -0.007383372168987989,
            -0.03319031372666359,
            -0.0046516903676092625,
            0.047819290310144424
          ],
          "b": 0.005553611554205418
        },
        "standardize": {
          "mu": [
            0.20639261603355408,
            -0.11343282461166382,
            -16.519527435302734,
            -221.9492950439453,
            -0.7819453477859497,
            -68.56853485107422,
            24.753021240234375,
            19.727275848388672,
            -24.466672897338867,
            -8.471689224243164,
            24.647140502929688,
            -30.77080535888672,
            -37.60856246948242,
            -288.8186950683594,
            8.84067440032959,
            -19.642982482910156,
            -12.15750789642334,
            43.920963287353516,
            32.19038009643555,
            -26.167551040649414,
            33.862159729003906,
            -37.56516647338867,
            11.452095031738281,
            43.91276168823242,
            237.79344177246094
          ],
          "sd": [
            63.364933013916016,
            64.8846435546875,
            509.7633972167969,
            6145.53515625,
            2887.785400390625,
            1542.8082275390625,
            1020.5691528320312,
            807.53369140625,
            749.693115234375,
            793.8278198242188,
            1047.6943359375,
            1624.3682861328125,
            3069.803955078125,
            6582.1025390625,
            6639.36767578125,
            3020.17578125,
            1561.5904541015625,
            1037.318603515625,
            826.628173828125,
            760.0613403320312,
            846.9877319335938,
            1069.960693359375,
            1683.6510009765625,
            2873.398193359375,
            6578.626953125
          ]
        },
        "init": {
          "mode": "random_normal",
          "scale": 0.0028569424932669363
        },
        "seeds": {
          "split_seed": 534042,
          "init_seed": 734042,
          "batch_seed": 634042
        }
      },
      "independent_runs": {
        "per_run": [
          {
            "baseline_cent_sign": {
              "train_acc": 0.4906250238418579,
              "val_acc": 0.4958333671092987
            },
            "logreg": {
              "train": {
                "acc": 0.5416666865348816,
                "nll": 0.6892090439796448
              },
              "val": {
                "acc": 0.5541666746139526,
                "nll": 0.6869339346885681
              },
              "params": {
                "w": [
                  0.015335997566580772,
                  -0.008174114860594273,
                  -0.0018924479372799397,
                  0.02881554700434208,
                  0.007386961951851845,
                  -0.037631284445524216,
                  -0.030747851356863976,
                  -0.019079964607954025,
                  -0.019926536828279495,
                  0.0031506372615695,
                  0.029033703729510307,
                  0.0035129340831190348,
                  0.020086083561182022,
                  0.024971332401037216,
                  -0.010566545650362968,
                  -0.013858492486178875,
                  0.010274508967995644,
                  0.04909694939851761,
                  0.01854616217315197,
                  0.028532128781080246,
                  0.002787743229418993,
                  -0.007383372168987989,
                  -0.03319031372666359,
                  -0.0046516903676092625,
                  0.047819290310144424
                ],
                "b": 0.005553611554205418
              },
              "standardize": {
                "mu": [
                  0.20639261603355408,
                  -0.11343282461166382,
                  -16.519527435302734,
                  -221.9492950439453,
                  -0.7819453477859497,
                  -68.56853485107422,
                  24.753021240234375,
                  19.727275848388672,
                  -24.466672897338867,
                  -8.471689224243164,
                  24.647140502929688,
                  -30.77080535888672,
                  -37.60856246948242,
                  -288.8186950683594,
                  8.84067440032959,
                  -19.642982482910156,
                  -12.15750789642334,
                  43.920963287353516,
                  32.19038009643555,
                  -26.167551040649414,
                  33.862159729003906,
                  -37.56516647338867,
                  11.452095031738281,
                  43.91276168823242,
                  237.79344177246094
                ],
                "sd": [
                  63.364933013916016,
                  64.8846435546875,
                  509.7633972167969,
                  6145.53515625,
                  2887.785400390625,
                  1542.8082275390625,
                  1020.5691528320312,
                  807.53369140625,
                  749.693115234375,
                  793.8278198242188,
                  1047.6943359375,
                  1624.3682861328125,
                  3069.803955078125,
                  6582.1025390625,
                  6639.36767578125,
                  3020.17578125,
                  1561.5904541015625,
                  1037.318603515625,
                  826.628173828125,
                  760.0613403320312,
                  846.9877319335938,
                  1069.960693359375,
                  1683.6510009765625,
                  2873.398193359375,
                  6578.626953125
                ]
              },
              "init": {
                "mode": "random_normal",
                "scale": 0.0028569424932669363
              },
              "seeds": {
                "split_seed": 534042,
                "init_seed": 734042,
                "batch_seed": 634042
              }
            },
            "run_id": 0,
            "seed": 834042,
            "randomness": {
              "split_seed": 534042,
              "batch_seed": 634042,
              "init_seed": 734042
            }
          },
          {
            "baseline_cent_sign": {
              "train_acc": 0.4906250238418579,
              "val_acc": 0.4958333671092987
            },
            "logreg": {
              "train": {
                "acc": 0.5635417103767395,
                "nll": 0.6855396628379822
              },
              "val": {
                "acc": 0.5333333611488342,
                "nll": 0.6850000023841858
              },
              "params": {
                "w": [
                  0.013752508908510208,
                  0.06464429199695587,
                  -0.040568795055150986,
                  0.0204118974506855,
                  0.026892229914665222,
                  0.0031517997849732637,
                  -0.03125575929880142,
                  -0.039992399513721466,
                  0.011836817488074303,
                  -0.007242806721478701,
                  0.044546373188495636,
                  -0.032352712005376816,
                  0.0428190678358078,
                  -0.003355709370225668,
                  -0.005361347459256649,
                  0.014300554059445858,
                  0.03730522096157074,
