{
  "feature_type": "hamming_baseline",
  "alpha": "all_ones",
  "setup": {
    "n": 15,
    "channel_type": "thermal",
    "strength": 0.01,
    "run_name": "n15_thermal_p0p01_fseaf7cc9c88492915_nps7db04a43d4415a69"
  },
  "source": {
    "run_path": "/gpfs/home1/ypatel/data1/shadow-qml-ml/feat_data_all/feat_data/exp_s1_features_hamming_baseline_fseaf7cc9c88492915_fixed_alpha_all_ones_fixed_y_all_zeros_q_15_15/runs/n15_thermal_p0p01_fseaf7cc9c88492915_nps7db04a43d4415a69",
    "dataset_ref": "/gpfs/home1/ypatel/data1/shadow-qml-ml/feat_data_all/feat_data/exp_s1_features_hamming_baseline_fseaf7cc9c88492915_fixed_alpha_all_ones_fixed_y_all_zeros_q_15_15/datasets/dataset_2a6199fcc8c91001.npz"
  },
  "train_config": {
    "val_frac": 0.2,
    "batch_size": 128,
    "epochs": 160,
    "lr": 0.023062905530795298,
    "l2": 0.0009140906016731205,
    "n_independent_runs": 10,
    "init_mode": "random_normal",
    "init_scale": 0.001966005664489474,
    "vary_split": true,
    "vary_batch_order": true,
    "vary_init": true
  },
  "k_grid_requested": [
    0.8,
    0.9,
    1.0,
    1.1,
    1.2,
    1.3,
    1.4,
    1.5,
    1.6,
    1.7,
    1.8,
    1.9,
    2.0,
    2.1,
    2.2,
    2.3,
    2.4
  ],
  "k_match_mode": "offby1",
  "k_nearest_max_abs_delta": 1,
  "per_nps_selected": [
    {
      "nps": 4096,
      "baseline_cent_sign": {
        "train_acc": 0.5062500238418579,
        "val_acc": 0.4791666865348816
      },
      "logreg": {
        "train": {
          "acc": 0.5458333492279053,
          "nll": 0.6863112449645996
        },
        "val": {
          "acc": 0.5,
          "nll": 0.7061762809753418
        },
        "params": {
          "w": [
            -0.016103364527225494,
            0.024871008470654488,
            0.01432793214917183,
            -0.04547460749745369,
            -0.00878903642296791,
            -0.06590444594621658,
            0.04328024014830589,
            -0.012360954657196999,
            -0.012236453592777252,
            0.03147640824317932,
            -0.0848894938826561,
            0.07577276229858398,
            -0.018673382699489594,
            0.10092130303382874,
            -0.08298555016517639,
            0.026869863271713257,
            -0.07453344017267227
          ],
          "b": 0.05571790039539337
        },
        "standardize": {
          "mu": [
            9.130647659301758,
            -1.7871084213256836,
            -125.29093933105469,
            30732.880859375,
            8305.41796875,
            -1261.7110595703125,
            -1078.809326171875,
            1563.337158203125,
            -357.1448669433594,
            1707.21044921875,
            -221.9302215576172,
            2509.113037109375,
            775.4151000976562,
            513.9803466796875,
            -2000.089111328125,
            5855.25048828125,
            14985.2783203125
          ],
          "sd": [
            518.76708984375,
            507.7154235839844,
            7486.95068359375,
            728931.875,
            271287.25,
            129622.6484375,
            75486.7890625,
            51537.296875,
            38035.66796875,
            33921.6015625,
            33318.015625,
            38397.2734375,
            50953.2578125,
            75434.1796875,
            131510.53125,
            257040.890625,
            689058.0
          ]
        },
        "init": {
          "mode": "random_normal",
          "scale": 0.001966005664489474
        },
        "seeds": {
          "split_seed": 187042,
          "init_seed": 387042,
          "batch_seed": 287042
        }
      },
      "independent_runs": {
        "per_run": [
          {
            "baseline_cent_sign": {
              "train_acc": 0.5062500238418579,
              "val_acc": 0.4791666865348816
            },
            "logreg": {
              "train": {
                "acc": 0.5458333492279053,
                "nll": 0.6863112449645996
              },
              "val": {
                "acc": 0.5,
                "nll": 0.7061762809753418
              },
              "params": {
                "w": [
                  -0.016103364527225494,
                  0.024871008470654488,
                  0.01432793214917183,
                  -0.04547460749745369,
                  -0.00878903642296791,
                  -0.06590444594621658,
                  0.04328024014830589,
                  -0.012360954657196999,
                  -0.012236453592777252,
                  0.03147640824317932,
                  -0.0848894938826561,
                  0.07577276229858398,
                  -0.018673382699489594,
                  0.10092130303382874,
                  -0.08298555016517639,
                  0.026869863271713257,
                  -0.07453344017267227
                ],
                "b": 0.05571790039539337
              },
              "standardize": {
                "mu": [
                  9.130647659301758,
                  -1.7871084213256836,
                  -125.29093933105469,
                  30732.880859375,
                  8305.41796875,
                  -1261.7110595703125,
                  -1078.809326171875,
                  1563.337158203125,
                  -357.1448669433594,
                  1707.21044921875,
                  -221.9302215576172,
                  2509.113037109375,
                  775.4151000976562,
                  513.9803466796875,
                  -2000.089111328125,
                  5855.25048828125,
                  14985.2783203125
                ],
                "sd": [
                  518.76708984375,
                  507.7154235839844,
                  7486.95068359375,
                  728931.875,
                  271287.25,
                  129622.6484375,
                  75486.7890625,
                  51537.296875,
                  38035.66796875,
                  33921.6015625,
                  33318.015625,
                  38397.2734375,
                  50953.2578125,
                  75434.1796875,
                  131510.53125,
                  257040.890625,
                  689058.0
                ]
              },
              "init": {
                "mode": "random_normal",
                "scale": 0.001966005664489474
              },
              "seeds": {
                "split_seed": 187042,
                "init_seed": 387042,
                "batch_seed": 287042
              }
            },
            "run_id": 0,
            "seed": 487042,
            "randomness": {
              "split_seed": 187042,
              "batch_seed": 287042,
              "init_seed": 387042
            }
          },
          {
            "baseline_cent_sign": {
              "train_acc": 0.5093750357627869,
              "val_acc": 0.46666669845581055
            },
            "logreg": {
              "train": {
                "acc": 0.5333333611488342,
                "nll": 0.6905187964439392
              },
              "val": {
                "acc": 0.550000011920929,
                "nll": 0.6853775978088379
              },
              "params": {
                "w": [
                  0.01813603565096855,
                  -0.007905121892690659,
                  0.023425953462719917,
                  0.013607584871351719,
                  -0.01648310013115406,
                  -0.04726171866059303,
                  0.03105907328426838,
                  -0.01834244653582573,
                  -0.014662252739071846,
                  -0.006642615422606468,
                  -0.08266621828079224,
                  0.06489522010087967,
                  -0.036281272768974304,
                  0.06847458332777023,
                  -0.03847175091505051,
                  -0.04298359900712967,
                  -0.018187208101153374
                ],
                "b": -0.0007534953765571117
              },
              "standardize": {
                "mu": [
                  6.465205192565918,
                  9.391945838928223,
                  -83.70797729492188,
                  26562.44921875,
                  3570.313720703125,
                  -1577.9276123046875,
                  -3193.44287109375,
                  1818.6717529296875,
                  547.34912109375,
                  1295.465087890625,
                  40.71979522705078,
                  2981.594482421875,
                  889.4923095703125,
                  -1437.236328125,
                  -4191.9931640625,
                  12984.08984375,
                  10368.2021484375
                ],
                "sd": [
                  522.1627807617188,
                  515.3374633789062,
                  7264.630859375,
                  728741.125,
                  268739.25,
                  132015.4375,
                  75105.03125,
                  51641.8515625,
                  39042.8828125,
                  35038.16015625,
                  33659.078125,
                  38296.890625,
                  50776.359375,
                  75810.5546875,
                  132353.875,
                  260684.984375,
                  691661.5625
                ]
              },
              "init": {
                "mode": "random_normal",
                "scale": 0.001966005664489474
              },
              "seeds": {
                "split_seed": 187043,
                "init_seed": 387043,
                "batch_seed": 287043
              }
            },
            "run_id": 1,
            "seed": 487043,
            "randomness": {
              "split_seed": 187043,
              "batch_seed": 287043,
              "init_seed": 387043
            }
          },
          {
            "baseline_cent_sign": {
              "train_acc": 0.4947916865348816,
              "val_acc": 0.5250000357627869
            },
            "logreg": {
              "train": {
                "acc": 0.5447916984558105,
                "nll": 0.6889782547950745
              },
              "val": {
                "acc": 0.5,
                "nll": 0.6926164627075195
              },
              "params": {
                "w": [
                  0.009270633570849895,
                  0.016327960416674614,
                  0.00014773570001125336,
                  9.455857798457146e-05,
                  -0.009616977535188198,
                  -0.08459609746932983,
                  0.00023440562654286623,
                  0.007048503961414099,
                  -0.02821790799498558,
                  -0.004096588119864464,
                  -0.04741356149315834,
                  0.09342404454946518,
                  -0.04837522655725479,
                  0.09442777186632156,
                  -0.09065446257591248,
                  -0.03784073516726494,
                  -0.07542483508586884
                ],
                "b": -0.008190141059458256
              },
              "standardize": {
                "mu": [
                  1.9263030290603638,
                  8.724681854248047,
                  -302.47784423828125,
                  7472.60888671875,
                  11848.404296875,
                  -1314.4287109375,
                  -1852.1380615234375,
                  3688.13427734375,
                  165.30918884277344,
                  341.0285339355469,
                  -509.52276611328125,
                  3199.904296875,
                  3081.974853515625,
                  637.4681396484375,
                  -7228.4130859375,
                  7096.826171875,
                  35556.71875
                ],
                "sd": [
                  530.3706665039062,
                  514.6067504882812,
                  7335.3408203125,
                  712721.8125,
                  275730.84375,
                  132059.0,
                  74095.515625,
                  51351.421875,
                  38765.86328125,
                  34593.75390625,
                  34506.40234375,
                  38344.46875,
                  50707.53515625,
                  75067.46875,
                  132489.015625,
                  257381.71875,
                  681284.4375
                ]
              },
              "init": {
                "mode": "random_normal",
                "scale": 0.001966005664489474
              },
              "seeds": {
                "split_seed": 187044,
                "init_seed": 387044,
                "batch_seed": 287044
              }
            },
            "run_id": 2,
            "seed": 487044,
            "randomness": {
              "split_seed": 187044,
              "batch_seed": 287044,
              "init_seed": 387044
            }
          },
          {
            "baseline_cent_sign": {
              "train_acc": 0.4906250238418579,
              "val_acc": 0.5416666865348816
            },
            "logreg": {
              "train": {
                "acc": 0.5562500357627869,
                "nll": 0.687803328037262
              },
              "val": {
                "acc": 0.5041667222976685,
                "nll": 0.6965847611427307
              },
              "params": {
                "w": [
                  0.017738115042448044,
                  -0.004348166286945343,
                  -0.0009081065654754639,
                  0.0024060537107288837,
                  -0.0008800534997135401,
                  -0.09944383800029755,
                  0.036368582397699356,
                  -0.030732575803995132,
                  -0.05792107805609703,
                  0.00325106643140316,
                  -0.08231709152460098,
                  0.050262413918972015,
                  -0.04857099801301956,
                  0.058032356202602386,
                  -0.06383463740348816,
                  0.01780616119503975,
                  -0.09509735554456711
                ],
                "b": -0.025027168914675713
              },
              "standardize": {
                "mu": [
                  1.3814698457717896,
                  10.485389709472656,
                  -13.689026832580566,
                  37702.3671875,
                  4747.63134765625,
                  -2292.688720703125,
                  -1625.3092041015625,
                  2730.746826171875,
                  281.2705078125,
                  1450.9837646484375,
                  -148.98695373535156,
                  2485.299072265625,
                  1182.4007568359375,
                  -166.24098205566406,
                  -6166.50146484375,
                  8804.095703125,
                  21498.21875
                ],
                "sd": [
                  518.2679443359375,
                  512.1224975585938,
                  7469.55078125,
                  725838.3125,
                  273513.8125,
                  130153.90625,
                  74679.890625,
                  50645.5234375,
                  38760.140625,
                  35544.4609375,
                  33793.4375,
                  38467.890625,
                  51111.6796875,
                  75451.1328125,
                  131077.9375,
                  261774.109375,
                  688526.75
                ]
              },
              "init": {
                "mode": "random_normal",
                "scale": 0.001966005664489474
              },
              "seeds": {
                "split_seed": 187045,
                "init_seed": 387045,
                "batch_seed": 287045
              }
            },
            "run_id": 3,
            "seed": 487045,
            "randomness": {
              "split_seed": 187045,
              "batch_seed": 287045,
              "init_seed": 387045
            }
          },
          {
            "baseline_cent_sign": {
              "train_acc": 0.503125011920929,
              "val_acc": 0.491666704416275
            },
            "logreg": {
              "train": {
                "acc": 0.5666667222976685,
                "nll": 0.6841400265693665
              },
              "val": {
                "acc": 0.46250003576278687,
                "nll": 0.7166529893875122
              },
              "params": {
                "w": [
                  0.0743500217795372,
                  0.003693430218845606,
                  0.04321889951825142,
                  0.020203031599521637,
                  0.0639224648475647,
                  -0.11629389971494675,
                  0.08843360841274261,
                  -0.026459045708179474,
                  -0.040102437138557434,
                  0.018052348867058754,
                  -0.0699506402015686,
                  0.08693203330039978,
                  -0.011398660019040108,
                  0.05231049284338951,
                  -0.0334823802113533,
                  -0.00475809071213007,
                  -0.07571828365325928
                ],
                "b": -0.012638630345463753
              },
              "standardize": {
                "mu": [
                  11.056879043579102,
                  4.594964981079102,
                  -62.77546691894531,
                  29898.30859375,
                  9791.70703125,
                  -3220.08740234375,
                  -2000.2578125,
                  2435.706787109375,
                  1101.225830078125,
                  616.4430541992188,
                  -471.6963195800781,
                  2901.556640625,
                  1793.17138671875,
                  238.44142150878906,
                  -4405.74072265625,
                  3341.367431640625,
                  16632.212890625
                ],
                "sd": [
                  526.9620361328125,
                  516.149658203125,
                  7318.0625,
                  712806.875,
                  267905.28125,
                  132146.6875,
                  75222.828125,
                  51951.6328125,
                  39231.7109375,
                  35090.82421875,
                  33868.04296875,
                  38118.09765625,
                  51398.8046875,
                  74810.015625,
                  130579.6015625,
                  264855.46875,
                  694790.8125
                ]
              },
              "init": {
                "mode": "random_normal",
                "scale": 0.001966005664489474
              },
              "seeds": {
                "split_seed": 187046,
                "init_seed": 387046,
                "batch_seed": 287046
              }
            },
            "run_id": 4,
            "seed": 487046,
            "randomness": {
              "split_seed": 187046,
              "batch_seed": 287046,
              "init_seed": 387046
            }
          },
          {
            "baseline_cent_sign": {
              "train_acc": 0.503125011920929,
              "val_acc": 0.491666704416275
            },
            "logreg": {
              "train": {
                "acc": 0.5395833849906921,
                "nll": 0.6890476942062378
              },
              "val": {
                "acc": 0.5125000476837158,
                "nll": 0.6935194134712219
              },
              "params": {
                "w": [
                  0.025347772985696793,
                  0.005463091190904379,
                  0.005142410285770893,
                  0.01988774724304676,
                  -0.03967166692018509,
                  -0.10064822435379028,
                  0.07573189586400986,
                  -0.03964652121067047,
                  -0.074073925614357,
                  -0.007223401218652725,
                  -0.04343044012784958,
                  0.08319400995969772,
                  -0.03212974965572357,
                  0.09099675714969635,
                  -0.06782425940036774,
                  0.013891719281673431,
                  -0.06108406186103821
                ],
                "b": -0.049203433096408844
              },
              "standardize": {
                "mu": [
                  18.466472625732422,
                  12.050797462463379,
                  118.52915954589844,
                  30467.6328125,
                  844.479736328125,
                  -1006.0264892578125,
                  -1468.323974609375,
                  1306.37353515625,
                  81.0132827758789,
                  687.887939453125,
                  851.5762329101562,
                  3107.8115234375,
                  996.0881958007812,
                  -1839.047119140625,
                  -4479.24609375,
                  7569.2783203125,
                  2928.22509765625
                ],
                "sd": [
                  522.60205078125,
                  520.4310302734375,
                  7349.20654296875,
                  729325.8125,
                  274548.96875,
                  132393.453125,
                  75669.9609375,
                  50859.7578125,
                  38938.7890625,
                  34891.73828125,
                  33293.46875,
                  38359.0625,
                  51687.0078125,
                  75424.6171875,
                  133108.875,
                  263928.875,
                  689574.875
                ]
              },
              "init": {
                "mode": "random_normal",
                "scale": 0.001966005664489474
              },
              "seeds": {
                "split_seed": 187047,
                "init_seed": 387047,
                "batch_seed": 287047
              }
            },
            "run_id": 5,
            "seed": 487047,
            "randomness": {
              "split_seed": 187047,
              "batch_seed": 287047,
              "init_seed": 387047
            }
          },
          {
            "baseline_cent_sign": {
              "train_acc": 0.503125011920929,
              "val_acc": 0.491666704416275
            },
            "logreg": {
              "train": {
                "acc": 0.5447916984558105,
                "nll": 0.6859127283096313
              },
              "val": {
                "acc": 0.4541666805744171,
                "nll": 0.7071117758750916
              },
              "params": {
                "w": [
                  0.033251214772462845,
                  0.020035024732351303,
                  0.0011727591045200825,
                  -0.03147060424089432,
                  -0.015239453874528408,
                  -0.1597585827112198,
                  0.06247211620211601,
                  -0.01468553114682436,
                  -0.04435399919748306,
                  -0.007117810659110546,
                  -0.04941768944263458,
                  0.06353512406349182,
                  -0.014711168594658375,
                  0.041215818375349045,
                  -0.045135948807001114,
                  0.0020361519418656826,
                  -0.03249549865722656
                ],
                "b": 0.0014403671957552433
              },
              "standardize": {
                "mu": [
                  6.127476692199707,
                  8.658927917480469,
                  -144.77395629882812,
                  20921.76953125,
                  2306.224853515625,
                  -313.6422119140625,
                  -2030.1558837890625,
                  1945.377197265625,
                  18.05439567565918,
                  978.5184326171875,
                  -465.8382263183594,
                  1489.5948486328125,
                  1654.2783203125,
                  -83.16224670410156,
                  -2754.1337890625,
                  13976.9638671875,
                  14796.0810546875
                ],
                "sd": [
                  526.3008422851562,
                  508.8361511230469,
                  7310.857421875,
                  729291.0625,
                  269663.75,
                  132024.3125,
                  75443.0859375,
                  50959.72265625,
                  39481.1875,
                  35136.171875,
                  33648.61328125,
                  38760.37890625,
                  51648.53125,
                  74630.7734375,
                  132148.03125,
                  259474.265625,
                  681004.75
                ]
              },
              "init": {
                "mode": "random_normal",
                "scale": 0.001966005664489474
              },
              "seeds": {
                "split_seed": 187048,
                "init_seed": 387048,
                "batch_seed": 287048
              }
            },
            "run_id": 6,
            "seed": 487048,
            "randomness": {
              "split_seed": 187048,
              "batch_seed": 287048,
              "init_seed": 387048
            }
          },
          {
            "baseline_cent_sign": {
              "train_acc": 0.5072916746139526,
              "val_acc": 0.4750000238418579
            },
            "logreg": {
              "train": {
                "acc": 0.5385416746139526,
                "nll": 0.6870934963226318
              },
              "val": {
                "acc": 0.491666704416275,
                "nll": 0.7065431475639343
              },
              "params": {
                "w": [
                  -0.04908590763807297,
                  -0.028647389262914658,
                  0.04443284869194031,
                  -0.017375851050019264,
                  -0.03895047679543495,
                  -0.07393015921115875,
                  -0.003378137946128845,
                  -0.021373845636844635,
                  0.010384862311184406,
                  0.046040479093790054,
                  -0.09662719815969467,
                  0.10547798126935959,
                  -0.021683724597096443,
                  0.12782022356987,
                  -0.037422340363264084,
                  0.015428544953465462,
                  -0.08516232669353485
                ],
                "b": 0.03400503844022751
              },
              "standardize": {
                "mu": [
                  -3.0456066131591797,
                  11.771305084228516,
                  -133.150146484375,
                  37275.40234375,
                  6805.0126953125,
                  -3748.4375,
                  -3515.870849609375,
                  2485.15087890625,
                  -299.14923095703125,
                  1399.44140625,
                  -118.47618103027344,
                  2508.275634765625,
                  1316.784912109375,
                  964.8381958007812,
                  -4524.41845703125,
                  2478.388671875,
                  29001.49609375
                ],
                "sd": [
                  522.6593017578125,
                  511.9385681152344,
                  7351.29736328125,
                  720664.6875,
                  269157.3125,
                  130676.0234375,
                  76019.6328125,
                  51750.69140625,
                  38630.703125,
                  35201.68359375,
                  34039.55078125,
                  38225.3828125,
                  51453.1640625,
                  74159.6015625,
                  133624.421875,
                  261786.296875,
                  702107.1875
                ]
              },
              "init": {
                "mode": "random_normal",
                "scale": 0.001966005664489474
              },
              "seeds": {
                "split_seed": 187049,
                "init_seed": 387049,
                "batch_seed": 287049
              }
            },
            "run_id": 7,
            "seed": 487049,
            "randomness": {
              "split_seed": 187049,
              "batch_seed": 287049,
              "init_seed": 387049
            }
          },
          {
            "baseline_cent_sign": {
              "train_acc": 0.5072916746139526,
              "val_acc": 0.4750000238418579
            },
            "logreg": {
              "train": {
                "acc": 0.5260416865348816,
                "nll": 0.687771201133728
              },
              "val": {
                "acc": 0.491666704416275,
                "nll": 0.69688481092453
              },
              "params": {
                "w": [
                  0.0028498624451458454,
                  -0.03305481746792793,
                  0.05243656411767006,
                  0.011783773079514503,
                  0.012735382653772831,
                  -0.08625409007072449,
                  0.07554991543292999,
                  -0.04081972315907478,
                  -0.028551965951919556,
                  0.018215198069810867,
                  -0.05086400359869003,
                  0.06356682628393173,
                  -0.050573430955410004,
                  0.06263715028762817,
                  -0.03332766145467758,
                  0.0038210307247936726,
                  -0.07572851330041885
                ],
                "b": 0.004494726657867432
              },
              "standardize": {
                "mu": [
                  1.367389440536499,
                  12.308196067810059,
                  -41.18301010131836,
                  34160.984375,
                  5893.1376953125,
                  -4685.38720703125,
                  -3431.2099609375,
                  1687.36572265625,
                  -239.27230834960938,
                  644.520751953125,
                  -1094.947998046875,
                  3248.5615234375,
                  907.3546752929688,
                  -51.136070251464844,
                  -6136.87744140625,
                  5012.2490234375,
                  34345.86328125
                ],
                "sd": [
                  531.1393432617188,
                  511.3070373535156,
                  7336.392578125,
                  718271.875,
                  270295.4375,
                  130932.7734375,
                  76224.78125,
                  50890.04296875,
                  38904.5625,
                  35275.88671875,
                  34048.8046875,
                  38101.44921875,
                  51509.28125,
                  75003.4375,
                  131496.640625,
                  260181.796875,
                  694687.0
                ]
              },
              "init": {
                "mode": "random_normal",
                "scale": 0.001966005664489474
              },
              "seeds": {
                "split_seed": 187050,
                "init_seed": 387050,
                "batch_seed": 287050
              }
            },
            "run_id": 8,
            "seed": 487050,
            "randomness": {
              "split_seed": 187050,
              "batch_seed": 287050,
              "init_seed": 387050
            }
          },
          {
            "baseline_cent_sign": {
              "train_acc": 0.5020833611488342,
              "val_acc": 0.4958333671092987
            },
            "logreg": {
              "train": {
                "acc": 0.5458333492279053,
                "nll": 0.6891627907752991
              },
              "val": {
                "acc": 0.5250000357627869,
                "nll": 0.6968328356742859
              },
              "params": {
                "w": [
                  -0.010014817118644714,
                  -0.03186299651861191,
                  0.017402097582817078,
                  0.03270096331834793,
                  0.0029060221277177334,
                  -0.11088646948337555,
                  0.048559922724962234,
                  -0.02115924283862114,
                  0.03440479561686516,
                  0.03352617472410202,
                  -0.08905602991580963,
                  0.08163765072822571,
                  0.01106018666177988,
                  0.06590067595243454,
                  -0.028347603976726532,
                  0.03750868886709213,
                  -0.021006349474191666
                ],
                "b": 0.020667772740125656
              },
              "standardize": {
                "mu": [
                  -6.0486345291137695,
                  20.004426956176758,
                  -254.63536071777344,
                  45447.46875,
                  6551.7978515625,
                  -2689.6943359375,
                  -1856.5615234375,
                  1624.483642578125,
                  -250.7420654296875,
                  1145.5006103515625,
                  -659.9071655273438,
                  3425.822509765625,
                  1030.58056640625,
                  -652.3883056640625,
                  -7297.12255859375,
                  7211.57568359375,
                  16921.408203125
                ],
                "sd": [
                  516.9774780273438,
                  511.2168884277344,
                  7535.6259765625,
                  709939.9375,
                  268481.96875,
                  131557.46875,
                  76206.3203125,
                  49770.1640625,
                  38512.07421875,
                  35388.83984375,
                  33496.86328125,
                  37812.95703125,
                  51587.390625,
                  74069.71875,
                  135519.3125,
                  259413.90625,
                  694154.5625
                ]
              },
              "init": {
                "mode": "random_normal",
                "scale": 0.001966005664489474
              },
              "seeds": {
                "split_seed": 187051,
                "init_seed": 387051,
                "batch_seed": 287051
              }
            },
            "run_id": 9,
            "seed": 487051,
            "randomness": {
              "split_seed": 187051,
              "batch_seed": 287051,
              "init_seed": 387051
            }
          }
        ],
        "summary": {
          "n_runs": 10,
          "baseline_cent_sign": {
            "train_acc": {
              "mean": 0.502708351612091,
              "std": 0.005555120571982821,
              "min": 0.4906250238418579,
              "max": 0.5093750357627869
            },
            "val_acc": {
              "mean": 0.49333336353302004,
              "std": 0.022220485976229658,
              "min": 0.46666669845581055,
              "max": 0.5416666865348816
            }
          },
          "logreg": {
            "train_acc": {
              "mean": 0.5441666960716247,
              "std": 0.010756949952621693,
              "min": 0.5260416865348816,
              "max": 0.5666667222976685
            },
            "val_acc": {
              "mean": 0.4991666942834854,
              "std": 0.026339134155841562,
              "min": 0.4541666805744171,
              "max": 0.550000011920929
            },
            "train_nll": {
              "mean": 0.687673956155777,
              "std": 0.0017806961247459556,
              "min": 0.6841400265693665,
              "max": 0.6905187964439392
            },
            "val_nll": {
              "mean": 0.6998300075531005,
              "std": 0.00866197508590637,
              "min": 0.6853775978088379,
              "max": 0.7166529893875122
            }
          }
        },
        "randomness_config": {
          "vary_split": true,
          "vary_batch_order": true,
          "vary_init": true
        }
      },
      "k": 0.8,
      "nps_target": 4096,
      "nps_match_mode": "offby1"
    },
    {
      "nps": 11585,
      "baseline_cent_sign": {
        "train_acc": 0.503125011920929,
        "val_acc": 0.48750001192092896
      },
      "logreg": {
        "train": {
          "acc": 0.5541666746139526,
          "nll": 0.6858980655670166
        },
        "val": {
          "acc": 0.5541666746139526,
          "nll": 0.683053731918335
        },
        "params": {
          "w": [
            0.06636375933885574,
            -0.009243637323379517,
            -0.02721952460706234,
            0.0071879792958498,
            0.043202050030231476,
            -0.008539295755326748,
            0.016152862459421158,
            0.0363280326128006,
            -0.021210918202996254,
            0.1499926596879959,
            0.05824050307273865,
            -0.05426482483744621,
            0.08194001019001007,
            0.14558623731136322,
            0.02574346959590912,
            0.014051282778382301,
            0.06273747235536575
          ],
          "b": -0.010227824561297894
        },
        "standardize": {
          "mu": [
            2.963876724243164,
            15.992924690246582,
            -256.23870849609375,
            6028.9296875,
            1852.6494140625,
            1359.01708984375,
            -1671.39990234375,
            231.29766845703125,
            -962.9939575195312,
            -490.97125244140625,
            9.781689643859863,
            -917.1514892578125,
            -140.4649658203125,
            673.6840209960938,
            -484.4804382324219,
            4777.86767578125,
            -5965.61572265625
          ],
          "sd": [
            294.6985168457031,
            302.52252197265625,
            4714.14111328125,
            251023.90625,
            93490.6015625,
            44904.71875,
            25912.798828125,
            18173.921875,
            13533.94921875,
            12330.6162109375,
            11777.10546875,
            14074.810546875,
            17967.625,
            26564.04296875,
            46355.8671875,
            95406.4140625,
            258345.265625
          ]
        },
        "init": {
          "mode": "random_normal",
          "scale": 0.001966005664489474
        },
        "seeds": {
          "split_seed": 197042,
          "init_seed": 397042,
          "batch_seed": 297042
        }
      },
      "independent_runs": {
        "per_run": [
          {
            "baseline_cent_sign": {
              "train_acc": 0.503125011920929,
              "val_acc": 0.48750001192092896
            },
            "logreg": {
              "train": {
                "acc": 0.5541666746139526,
                "nll": 0.6858980655670166
              },
              "val": {
                "acc": 0.5541666746139526,
                "nll": 0.683053731918335
              },
              "params": {
                "w": [
                  0.06636375933885574,
                  -0.009243637323379517,
                  -0.02721952460706234,
                  0.0071879792958498,
                  0.043202050030231476,
                  -0.008539295755326748,
                  0.016152862459421158,
                  0.0363280326128006,
                  -0.021210918202996254,
                  0.1499926596879959,
                  0.05824050307273865,
                  -0.05426482483744621,
                  0.08194001019001007,
                  0.14558623731136322,
                  0.02574346959590912,
                  0.014051282778382301,
                  0.06273747235536575
                ],
                "b": -0.010227824561297894
              },
              "standardize": {
                "mu": [
                  2.963876724243164,
                  15.992924690246582,
                  -256.23870849609375,
                  6028.9296875,
                  1852.6494140625,
                  1359.01708984375,
                  -1671.39990234375,
                  231.29766845703125,
                  -962.9939575195312,
                  -490.97125244140625,
                  9.781689643859863,
                  -917.1514892578125,
                  -140.4649658203125,
                  673.6840209960938,
                  -484.4804382324219,
                  4777.86767578125,
                  -5965.61572265625
                ],
                "sd": [
                  294.6985168457031,
                  302.52252197265625,
                  4714.14111328125,
                  251023.90625,
                  93490.6015625,
                  44904.71875,
                  25912.798828125,
                  18173.921875,
                  13533.94921875,
                  12330.6162109375,
                  11777.10546875,
                  14074.810546875,
                  17967.625,
                  26564.04296875,
                  46355.8671875,
                  95406.4140625,
                  258345.265625
                ]
              },
              "init": {
                "mode": "random_normal",
                "scale": 0.001966005664489474
              },
              "seeds": {
                "split_seed": 197042,
                "init_seed": 397042,
                "batch_seed": 297042
              }
            },
            "run_id": 0,
            "seed": 497042,
            "randomness": {
              "split_seed": 197042,
              "batch_seed": 297042,
              "init_seed": 397042
            }
          },
          {
            "baseline_cent_sign": {
              "train_acc": 0.4989583492279053,
              "val_acc": 0.5041667222976685
            },
            "logreg": {
              "train": {
                "acc": 0.5458333492279053,
                "nll": 0.6877914071083069
              },
              "val": {
                "acc": 0.5541666746139526,
                "nll": 0.6899362206459045
              },
              "params": {
                "w": [
                  0.07068485021591187,
                  0.01438871305435896,
                  -0.04856988415122032,
                  -0.01900634914636612,
                  0.049512773752212524,
                  0.024268006905913353,
                  0.05160118266940117,
                  0.01281244307756424,
                  0.0027122078463435173,
                  0.0828833132982254,
                  -0.05041682720184326,
                  0.006156728602945805,
                  0.04691139608621597,
                  0.0744243934750557,
                  0.016164708882570267,
                  0.0439307875931263,
                  0.020199298858642578
                ],
                "b": -0.021485090255737305
              },
              "standardize": {
                "mu": [
                  0.0036855062935501337,
                  14.030823707580566,
                  -260.2568359375,
                  5922.107421875,
                  810.909912109375,
                  2273.526611328125,
                  -271.3489990234375,
                  397.9073486328125,
                  -566.0306396484375,
                  -852.69482421875,
                  -39.371517181396484,
                  -1028.866943359375,
                  100.7950210571289,
                  512.4906005859375,
                  801.1190795898438,
                  3332.88623046875,
                  -9627.1259765625
                ],
                "sd": [
                  299.5990295410156,
                  300.4893493652344,
                  4616.2578125,
                  251510.140625,
                  95218.75,
                  45537.31640625,
                  25495.12109375,
                  18243.873046875,
                  13610.017578125,
                  12186.8984375,
                  11737.8388671875,
                  14062.869140625,
                  17553.28125,
                  26647.61328125,
                  45849.5234375,
                  94251.234375,
                  261386.890625
                ]
              },
              "init": {
                "mode": "random_normal",
                "scale": 0.001966005664489474
              },
              "seeds": {
                "split_seed": 197043,
                "init_seed": 397043,
                "batch_seed": 297043
              }
            },
            "run_id": 1,
            "seed": 497043,
            "randomness": {
              "split_seed": 197043,
              "batch_seed": 297043,
              "init_seed": 397043
            }
          },
          {
            "baseline_cent_sign": {
              "train_acc": 0.491666704416275,
              "val_acc": 0.5333333611488342
            },
            "logreg": {
              "train": {
                "acc": 0.5718750357627869,
                "nll": 0.6851857900619507
              },
              "val": {
                "acc": 0.5333333611488342,
                "nll": 0.6901372671127319
              },
              "params": {
                "w": [
                  0.12333249300718307,
                  -0.03351091593503952,
                  0.01838969998061657,
                  0.02772066555917263,
                  0.02973794937133789,
                  0.02934982441365719,
                  0.023525238037109375,
                  0.027670975774526596,
                  0.030278941616415977,
                  0.14559325575828552,
                  0.013510137796401978,
                  -0.034199703484773636,
                  0.020548349246382713,
                  0.09970805048942566,
                  0.06207234039902687,
                  0.01718631386756897,
                  0.012796454131603241
                ],
                "b": 0.0005767038092017174
              },
              "standardize": {
                "mu": [
                  0.6445364952087402,
                  10.716618537902832,
                  -247.23915100097656,
                  5523.28662109375,
                  2153.205078125,
                  2061.951904296875,
                  -1059.7779541015625,
                  270.3719787597656,
                  -1048.526123046875,
                  -481.7298278808594,
                  288.0616149902344,
                  -791.6011962890625,
                  565.7267456054688,
                  751.3878173828125,
                  -628.5718994140625,
                  4133.771484375,
                  -5710.8212890625
                ],
                "sd": [
                  297.2485656738281,
                  299.2942810058594,
                  4776.1240234375,
                  253159.640625,
                  96599.109375,
                  44660.01171875,
                  25741.126953125,
                  18081.6484375,
                  13627.0849609375,
                  12436.7900390625,
                  12099.2373046875,
                  14178.8916015625,
                  17807.859375,
                  26418.37890625,
                  46271.0,
                  93771.125,
                  262606.5
                ]
              },
              "init": {
                "mode": "random_normal",
                "scale": 0.001966005664489474
              },
              "seeds": {
                "split_seed": 197044,
                "init_seed": 397044,
                "batch_seed": 297044
              }
            },
            "run_id": 2,
            "seed": 497044,
            "randomness": {
              "split_seed": 197044,
              "batch_seed": 297044,
              "init_seed": 397044
            }
          },
          {
            "baseline_cent_sign": {
              "train_acc": 0.491666704416275,
              "val_acc": 0.5333333611488342
            },
            "logreg": {
              "train": {
                "acc": 0.5635417103767395,
                "nll": 0.6804226040840149
              },
              "val": {
                "acc": 0.4750000238418579,
                "nll": 0.7082017660140991
              },
              "params": {
                "w": [
                  0.05475294962525368,
                  0.02999456599354744,
                  -0.024710582569241524,
                  0.07702800631523132,
                  0.09121434390544891,
                  0.030371524393558502,
                  0.0761561393737793,
                  0.026514507830142975,
                  -0.02267574332654476,
                  0.13178326189517975,
                  0.0355052575469017,
                  -0.09151305258274078,
                  0.06678962707519531,
                  0.17488031089305878,
                  0.05171772092580795,
                  0.06078122556209564,
                  0.08627405762672424
                ],
                "b": -0.008194781839847565
              },
              "standardize": {
                "mu": [
                  2.3750758171081543,
                  13.64835262298584,
                  -202.42625427246094,
                  3021.992431640625,
                  609.9315185546875,
                  1896.4130859375,
                  -893.5448608398438,
                  413.4097595214844,
                  -984.9711303710938,
                  -520.8135986328125,
                  302.1250305175781,
                  -909.5794677734375,
                  115.99622344970703,
                  479.6413879394531,
                  547.902099609375,
                  3471.457763671875,
                  -6593.1259765625
                ],
                "sd": [
                  295.4646911621094,
                  300.2955322265625,
                  4715.3291015625,
                  248612.234375,
                  94435.0234375,
                  44464.80859375,
                  26296.787109375,
                  18008.82421875,
                  13753.2978515625,
                  12492.3076171875,
                  11847.9501953125,
                  14076.2109375,
                  17806.73828125,
                  26846.119140625,
                  45730.94140625,
                  94077.5546875,
                  264583.3125
                ]
              },
              "init": {
                "mode": "random_normal",
                "scale": 0.001966005664489474
              },
              "seeds": {
                "split_seed": 197045,
                "init_seed": 397045,
                "batch_seed": 297045
              }
            },
            "run_id": 3,
            "seed": 497045,
            "randomness": {
              "split_seed": 197045,
              "batch_seed": 297045,
              "init_seed": 397045
            }
          },
          {
            "baseline_cent_sign": {
              "train_acc": 0.5072916746139526,
              "val_acc": 0.47083336114883423
            },
            "logreg": {
              "train": {
                "acc": 0.5552083849906921,
                "nll": 0.6826847195625305
              },
              "val": {
                "acc": 0.550000011920929,
                "nll": 0.694733202457428
              },
              "params": {
                "w": [
                  0.09734296798706055,
                  -0.035530637949705124,
                  0.003333898726850748,
                  0.06746754050254822,
                  0.067657470703125,
                  0.020284250378608704,
                  0.046850476413965225,
                  0.028807703405618668,
                  0.03575100004673004,
                  0.12302202731370926,
                  0.052473053336143494,
                  -0.0456431619822979,
                  0.12217554450035095,
                  0.13231049478054047,
                  0.03407948091626167,
                  0.022802984341979027,
                  0.0799841657280922
                ],
                "b": 0.010898271575570107
              },
              "standardize": {
                "mu": [
                  4.213496208190918,
                  9.408455848693848,
                  -101.87517547607422,
                  6482.98681640625,
                  219.2544403076172,
                  455.1093444824219,
                  -760.754150390625,
                  8.51279354095459,
                  -1038.179931640625,
                  -710.1690063476562,
                  225.90440368652344,
                  -539.6431274414062,
                  -152.8865966796875,
                  309.5174255371094,
                  -617.36474609375,
                  2783.39501953125,
                  -7793.5087890625
                ],
                "sd": [
                  296.1495056152344,
                  305.85931396484375,
                  4710.25,
                  252146.359375,
                  93798.625,
                  45678.08203125,
                  26148.2890625,
                  17988.8671875,
                  13800.3447265625,
                  12398.4716796875,
                  11900.4345703125,
                  14375.39453125,
                  17652.345703125,
                  26600.912109375,
                  45843.16796875,
                  93909.859375,
                  265405.6875
                ]
              },
              "init": {
                "mode": "random_normal",
                "scale": 0.001966005664489474
              },
              "seeds": {
                "split_seed": 197046,
                "init_seed": 397046,
                "batch_seed": 297046
              }
            },
            "run_id": 4,
            "seed": 497046,
            "randomness": {
              "split_seed": 197046,
              "batch_seed": 297046,
              "init_seed": 397046
            }
          },
          {
            "baseline_cent_sign": {
              "train_acc": 0.503125011920929,
              "val_acc": 0.48750001192092896
            },
            "logreg": {
              "train": {
                "acc": 0.5572916865348816,
                "nll": 0.6841875910758972
              },
              "val": {
                "acc": 0.5333333611488342,
                "nll": 0.68817538022995
              },
              "params": {
                "w": [
                  0.0926903635263443,
                  0.019929129630327225,
                  -0.013909010216593742,
                  0.031362660229206085,
                  0.06574228405952454,
                  0.05202490836381912,
                  0.06560573726892471,
                  0.02450556680560112,
                  0.018078206107020378,
                  0.14749135076999664,
                  0.013013755902647972,
                  -0.09812961518764496,
                  0.09597974270582199,
                  0.15674996376037598,
                  0.0643903985619545,
                  -0.003747610840946436,
                  0.06161561608314514
                ],
                "b": -0.001147552626207471
              },
              "standardize": {
                "mu": [
                  8.011320114135742,
                  10.904577255249023,
                  -252.1841583251953,
                  4345.9921875,
                  1291.441650390625,
                  2039.736572265625,
                  -673.6244506835938,
                  172.13922119140625,
                  -918.9930419921875,
                  -581.603271484375,
                  177.97010803222656,
                  -351.8254699707031,
                  222.73301696777344,
                  658.8591918945312,
                  632.7246704101562,
                  1564.199462890625,
                  -9150.369140625
                ],
                "sd": [
                  301.6145324707031,
                  303.0159606933594,
                  4707.81884765625,
                  254400.3125,
                  93792.90625,
                  45485.13671875,
                  26473.216796875,
                  18225.205078125,
                  13508.884765625,
                  12252.79296875,
                  11608.7080078125,
                  14197.67578125,
                  17613.185546875,
                  26973.87890625,
                  45249.25390625,
                  94165.3125,
                  258993.078125
                ]
              },
              "init": {
                "mode": "random_normal",
                "scale": 0.001966005664489474
              },
              "seeds": {
                "split_seed": 197047,
                "init_seed": 397047,
                "batch_seed": 297047
              }
            },
            "run_id": 5,
            "seed": 497047,
            "randomness": {
              "split_seed": 197047,
              "batch_seed": 297047,
              "init_seed": 397047
            }
          },
          {
            "baseline_cent_sign": {
              "train_acc": 0.5104166865348816,
              "val_acc": 0.4583333432674408
            },
            "logreg": {
              "train": {
                "acc": 0.5604166984558105,
                "nll": 0.6849759221076965
              },
              "val": {
                "acc": 0.5333333611488342,
                "nll": 0.6898363828659058
              },
              "params": {
                "w": [
                  0.06485171616077423,
                  0.03748932108283043,
                  -0.018815789371728897,
                  0.03120647929608822,
                  0.034986674785614014,
                  0.06659885495901108,
                  0.040083784610033035,
                  0.02043243497610092,
                  -0.0019030009862035513,
                  0.16264300048351288,
                  0.010209961794316769,
                  -0.0552445612847805,
                  0.04041524976491928,
                  0.13091401755809784,
                  0.019073504954576492,
                  0.010277658700942993,
                  0.048340726643800735
                ],
                "b": -0.06170055270195007
              },
              "standardize": {
                "mu": [
                  1.4259967803955078,
                  14.504546165466309,
                  -84.570068359375,
                  3973.02099609375,
                  552.8795776367188,
                  2090.23681640625,
                  -449.6629333496094,
                  469.9204406738281,
                  -702.8152465820312,
                  -726.09130859375,
                  233.02822875976562,
                  -964.6150512695312,
                  -120.1667709350586,
                  343.1907653808594,
                  -94.41354370117188,
                  3852.619873046875,
                  -298.5291748046875
                ],
                "sd": [
                  303.0869445800781,
                  303.3569641113281,
                  4639.693359375,
                  250562.390625,
                  93775.328125,
                  46151.546875,
                  25898.484375,
                  18541.81640625,
                  13711.466796875,
                  12313.330078125,
                  11906.3388671875,
                  14075.3037109375,
                  17722.677734375,
                  26465.982421875,
                  46061.59375,
                  94491.4453125,
                  257243.8125
                ]
              },
              "init": {
                "mode": "random_normal",
                "scale": 0.001966005664489474
              },
              "seeds": {
                "split_seed": 197048,
                "init_seed": 397048,
                "batch_seed": 297048
              }
            },
            "run_id": 6,
            "seed": 497048,
            "randomness": {
              "split_seed": 197048,
              "batch_seed": 297048,
              "init_seed": 397048
            }
          },
          {
            "baseline_cent_sign": {
              "train_acc": 0.5072916746139526,
              "val_acc": 0.47083336114883423
            },
            "logreg": {
              "train": {
                "acc": 0.5666667222976685,
                "nll": 0.6833767294883728
              },
              "val": {
                "acc": 0.5208333730697632,
                "nll": 0.692116916179657
              },
              "params": {
                "w": [
                  0.05185045301914215,
                  -0.016995606943964958,
                  0.004764125682413578,
                  0.01841825060546398,
                  0.08276641368865967,
                  0.04988919943571091,
                  0.029486071318387985,
                  0.04810917004942894,
                  0.027059398591518402,
                  0.11362889409065247,
                  0.02153817191720009,
                  -0.04914325103163719,
                  0.08968513458967209,
                  0.12404991686344147,
                  0.06463458389043808,
                  0.020090507343411446,
                  0.09936283528804779
                ],
                "b": 0.0014444573316723108
              },
              "standardize": {
                "mu": [
                  6.018392086029053,
                  10.831649780273438,
                  -162.47132873535156,
                  9102.328125,
                  -2873.770263671875,
                  606.2745361328125,
                  -1121.4588623046875,
                  477.5459289550781,
                  -748.4244995117188,
                  -213.7637481689453,
                  112.18392181396484,
                  -920.3824462890625,
                  302.79217529296875,
                  159.63424682617188,
                  -461.5434875488281,
                  6407.19189453125,
                  -9800.455078125
                ],
                "sd": [
                  299.2796630859375,
                  302.1643981933594,
                  4659.18359375,
                  257602.421875,
                  93886.4765625,
                  45378.83984375,
                  26255.7421875,
                  18374.36328125,
                  13358.5634765625,
                  12431.9814453125,
                  11993.9970703125,
                  14148.220703125,
                  17699.697265625,
                  26491.021484375,
                  45708.875,
                  95661.03125,
                  263053.34375
                ]
              },
              "init": {
                "mode": "random_normal",
                "scale": 0.001966005664489474
              },
              "seeds": {
                "split_seed": 197049,
                "init_seed": 397049,
                "batch_seed": 297049
              }
            },
            "run_id": 7,
            "seed": 497049,
            "randomness": {
              "split_seed": 197049,
              "batch_seed": 297049,
              "init_seed": 397049
            }
          },
          {
            "baseline_cent_sign": {
              "train_acc": 0.5114583373069763,
              "val_acc": 0.4541666805744171
            },
            "logreg": {
              "train": {
                "acc": 0.5479167103767395,
                "nll": 0.6847220659255981
              },
              "val": {
                "acc": 0.5125000476837158,
                "nll": 0.689793586730957
              },
              "params": {
                "w": [
                  0.13708838820457458,
                  -0.011020192876458168,
                  -0.03832564130425453,
                  0.04790101945400238,
                  0.10544733703136444,
                  0.05617876350879669,
                  0.026778075844049454,
                  0.026580646634101868,
                  0.0470859557390213,
                  0.09338788688182831,
                  0.020647680386900902,
                  -0.03865378350019455,
                  0.06244150176644325,
                  0.17461833357810974,
                  0.03741773962974548,
                  0.02986178919672966,
                  0.054990142583847046
                ],
                "b": -0.031221065670251846
              },
              "standardize": {
                "mu": [
                  -0.7781453728675842,
                  15.458070755004883,
                  -191.53172302246094,
                  2547.066162109375,
                  -86.99798583984375,
                  1257.7662353515625,
                  -665.4318237304688,
                  510.6798400878906,
                  -732.9602661132812,
                  -816.6670532226562,
                  226.24209594726562,
                  -471.7815856933594,
                  212.320068359375,
                  42.32298278808594,
                  -699.2322387695312,
                  3114.682861328125,
                  -5330.87939453125
                ],
                "sd": [
                  292.1105041503906,
                  303.5838317871094,
                  4651.466796875,
                  255326.421875,
                  93182.4296875,
                  45374.3515625,
                  25831.6796875,
                  18035.884765625,
                  13639.9775390625,
                  12155.474609375,
                  11677.6611328125,
                  14030.912109375,
                  17522.498046875,
                  26579.40625,
                  46081.5703125,
                  95472.2109375,
                  260598.703125
                ]
              },
              "init": {
                "mode": "random_normal",
                "scale": 0.001966005664489474
              },
              "seeds": {
                "split_seed": 197050,
                "init_seed": 397050,
                "batch_seed": 297050
              }
            },
            "run_id": 8,
            "seed": 497050,
            "randomness": {
              "split_seed": 197050,
              "batch_seed": 297050,
              "init_seed": 397050
            }
          },
          {
            "baseline_cent_sign": {
              "train_acc": 0.5062500238418579,
              "val_acc": 0.4750000238418579
            },
            "logreg": {
              "train": {
                "acc": 0.5531250238418579,
                "nll": 0.6816617846488953
              },
              "val": {
                "acc": 0.5208333730697632,
                "nll": 0.7005496025085449
              },
              "params": {
                "w": [
                  0.1109008640050888,
                  0.010127881541848183,
                  0.0024962371680885553,
                  0.03809212148189545,
                  0.08619540929794312,
                  0.03877856209874153,
                  0.08088197559118271,
                  0.07250212877988815,
                  0.03081696480512619,
                  0.09691549092531204,
                  0.017301036044955254,
                  -0.06522143632173538,
                  0.09670376032590866,
                  0.1581612080335617,
                  0.06993100047111511,
                  0.007220503408461809,
                  0.10285289585590363
                ],
                "b": 0.01930864341557026
              },
              "standardize": {
                "mu": [
                  3.137200117111206,
                  5.339995384216309,
                  -342.7931823730469,
                  1846.667236328125,
                  407.29266357421875,
                  871.4904174804688,
                  -578.08251953125,
                  163.51673889160156,
                  -1083.7447509765625,
                  -516.0576171875,
                  373.1731262207031,
                  -815.6647338867188,
                  696.7999877929688,
                  600.04052734375,
                  -459.54559326171875,
                  4819.83154296875,
                  -1716.503173828125
                ],
                "sd": [
                  296.953369140625,
                  304.2214660644531,
                  4678.1357421875,
                  255611.046875,
                  95345.8828125,
                  45375.71875,
                  26328.58203125,
                  18071.705078125,
                  13813.734375,
                  12361.212890625,
                  11843.3642578125,
                  14217.8974609375,
                  17784.328125,
                  26973.185546875,
                  46531.76171875,
                  94163.671875,
                  257007.078125
                ]
              },
              "init": {
                "mode": "random_normal",
                "scale": 0.001966005664489474
              },
              "seeds": {
                "split_seed": 197051,
                "init_seed": 397051,
                "batch_seed": 297051
              }
            },
            "run_id": 9,
            "seed": 497051,
            "randomness": {
              "split_seed": 197051,
              "batch_seed": 297051,
              "init_seed": 397051
            }
          }
        ],
        "summary": {
          "n_runs": 10,
          "baseline_cent_sign": {
            "train_acc": {
              "mean": 0.5031250178813934,
              "std": 0.006686160227707819,
              "min": 0.491666704416275,
              "max": 0.5114583373069763
            },
            "val_acc": {
              "mean": 0.4875000238418579,
              "std": 0.02674468316239419,
              "min": 0.4541666805744171,
              "max": 0.5333333611488342
            }
          },
          "logreg": {
            "train_acc": {
              "mean": 0.5576041996479034,
              "std": 0.007739947144275572,
              "min": 0.5458333492279053,
              "max": 0.5718750357627869
            },
            "val_acc": {
              "mean": 0.5287500262260437,
              "std": 0.02255009124803094,
              "min": 0.4750000238418579,
              "max": 0.5541666746139526
            },
            "train_nll": {
              "mean": 0.684090667963028,
              "std": 0.0020296242739506836,
              "min": 0.6804226040840149,
              "max": 0.6877914071083069
            },
            "val_nll": {
              "mean": 0.6926534056663514,
              "std": 0.006713787955177188,
              "min": 0.683053731918335,
              "max": 0.7082017660140991
            }
          }
        },
        "randomness_config": {
          "vary_split": true,
          "vary_batch_order": true,
          "vary_init": true
        }
      },
      "k": 0.9,
      "nps_target": 11585,
      "nps_match_mode": "offby1"
    },
    {
      "nps": 32768,
      "baseline_cent_sign": {
        "train_acc": 0.4833333492279053,
        "val_acc": 0.45000001788139343
      },
      "logreg": {
        "train": {
          "acc": 0.5375000238418579,
          "nll": 0.6911453604698181
        },
        "val": {
          "acc": 0.5166667103767395,
          "nll": 0.6931403279304504
        },
        "params": {
          "w": [
            0.033502668142318726,
            -0.03763432800769806,
            0.02117440104484558,
            -0.06980408728122711,
            0.07179196178913116,
            -0.038955673575401306,
            0.03854542598128319,
            -0.06658514589071274,
            -0.08264698088169098,
            0.06851506978273392,
            0.02380460873246193,
            -0.06217397749423981,
            -0.022468052804470062,
            0.018322506919503212,
            0.06157604977488518,
            -0.004986280109733343,
            0.12208594381809235
          ],
          "b": 0.004573449492454529
        },
        "standardize": {
          "mu": [
            -1.4181467294692993,
            9.082158088684082,
            -120.99689483642578,
            1479.45654296875,
            1083.95703125,
            -184.1482696533203,
            108.33382415771484,
            241.7086944580078,
            -55.304893493652344,
            -18.884876251220703,
            167.06094360351562,
            3.9855308532714844,
            -343.0054016113281,
            -21.155941009521484,
            109.84529876708984,
            -2065.43505859375,
            4343.2099609375
          ],
          "sd": [
            175.03488159179688,
            180.57382202148438,
            2589.708984375,
            85126.5546875,
            33089.7890625,
            16038.4736328125,
            9078.373046875,
            6001.02783203125,
            4631.00634765625,
            4270.4375,
            4511.71826171875,
            4903.6337890625,
            6496.80615234375,
            9488.9873046875,
            15545.455078125,
            33747.5,
            89921.859375
          ]
        },
        "init": {
          "mode": "random_normal",
          "scale": 0.001966005664489474
        },
        "seeds": {
          "split_seed": 207042,
          "init_seed": 407042,
          "batch_seed": 307042
        }
      },
      "independent_runs": {
        "per_run": [
          {
            "baseline_cent_sign": {
              "train_acc": 0.4833333492279053,
              "val_acc": 0.45000001788139343
            },
            "logreg": {
              "train": {
                "acc": 0.5375000238418579,
                "nll": 0.6911453604698181
              },
              "val": {
                "acc": 0.5166667103767395,
                "nll": 0.6931403279304504
              },
              "params": {
                "w": [
                  0.033502668142318726,
                  -0.03763432800769806,
                  0.02117440104484558,
                  -0.06980408728122711,
                  0.07179196178913116,
                  -0.038955673575401306,
                  0.03854542598128319,
                  -0.06658514589071274,
                  -0.08264698088169098,
                  0.06851506978273392,
                  0.02380460873246193,
                  -0.06217397749423981,
                  -0.022468052804470062,
                  0.018322506919503212,
                  0.06157604977488518,
                  -0.004986280109733343,
                  0.12208594381809235
                ],
                "b": 0.004573449492454529
              },
              "standardize": {
                "mu": [
                  -1.4181467294692993,
                  9.082158088684082,
                  -120.99689483642578,
                  1479.45654296875,
                  1083.95703125,
                  -184.1482696533203,
                  108.33382415771484,
                  241.7086944580078,
                  -55.304893493652344,
                  -18.884876251220703,
                  167.06094360351562,
                  3.9855308532714844,
                  -343.0054016113281,
                  -21.155941009521484,
                  109.84529876708984,
                  -2065.43505859375,
                  4343.2099609375
                ],
                "sd": [
                  175.03488159179688,
                  180.57382202148438,
                  2589.708984375,
                  85126.5546875,
                  33089.7890625,
                  16038.4736328125,
                  9078.373046875,
                  6001.02783203125,
                  4631.00634765625,
                  4270.4375,
                  4511.71826171875,
                  4903.6337890625,
                  6496.80615234375,
                  9488.9873046875,
                  15545.455078125,
                  33747.5,
                  89921.859375
                ]
              },
              "init": {
                "mode": "random_normal",
                "scale": 0.001966005664489474
              },
              "seeds": {
                "split_seed": 207042,
                "init_seed": 407042,
                "batch_seed": 307042
              }
            },
            "run_id": 0,
            "seed": 507042,
            "randomness": {
              "split_seed": 207042,
              "batch_seed": 307042,
              "init_seed": 407042
            }
          },
          {
            "baseline_cent_sign": {
              "train_acc": 0.46666669845581055,
              "val_acc": 0.5166667103767395
            },
            "logreg": {
              "train": {
                "acc": 0.5583333373069763,
                "nll": 0.6873754262924194
              },
              "val": {
                "acc": 0.48750001192092896,
                "nll": 0.7010177373886108
              },
              "params": {
                "w": [
                  0.015485385432839394,
                  0.014459021389484406,
                  -0.06328149884939194,
                  -0.029535621404647827,
                  0.04556133970618248,
                  -0.04126720875501633,
                  0.03617040812969208,
                  0.016589689999818802,
                  -0.04620778188109398,
                  0.05310174077749252,
                  -0.014922901056706905,
                  -0.06262309104204178,
                  -0.06819590926170349,
                  0.01063547469675541,
                  0.04919644445180893,
                  -0.09063494950532913,
                  0.051258038729429245
                ],
                "b": -0.01950208842754364
              },
              "standardize": {
                "mu": [
                  -1.7663310766220093,
                  8.353419303894043,
                  -66.43175506591797,
                  960.4658203125,
                  1648.486083984375,
                  -5.695752143859863,
                  19.306055068969727,
                  81.73098754882812,
                  -156.0234832763672,
                  36.793182373046875,
                  230.108642578125,
                  145.64285278320312,
                  -203.43516540527344,
                  -338.3077697753906,
                  80.62591552734375,
                  -1143.91748046875,
                  4343.23193359375
                ],
                "sd": [
                  174.96983337402344,
                  178.47447204589844,
                  2554.257568359375,
                  83846.5546875,
                  33362.81640625,
                  15998.1220703125,
                  9179.138671875,
                  5995.33154296875,
                  4779.04052734375,
                  4176.65185546875,
                  4528.1123046875,
                  4861.27197265625,
                  6465.06787109375,
                  9485.265625,
                  15629.513671875,
                  33020.1328125,
                  90327.640625
                ]
              },
              "init": {
                "mode": "random_normal",
                "scale": 0.001966005664489474
              },
              "seeds": {
                "split_seed": 207043,
                "init_seed": 407043,
                "batch_seed": 307043
              }
            },
            "run_id": 1,
            "seed": 507043,
            "randomness": {
              "split_seed": 207043,
              "batch_seed": 307043,
              "init_seed": 407043
            }
          },
          {
            "baseline_cent_sign": {
              "train_acc": 0.4833333492279053,
              "val_acc": 0.45000001788139343
            },
            "logreg": {
              "train": {
                "acc": 0.5552083849906921,
                "nll": 0.6865864992141724
              },
              "val": {
                "acc": 0.491666704416275,
                "nll": 0.7063316106796265
              },
              "params": {
                "w": [
                  -0.030255669727921486,
                  -0.003124417271465063,
                  -0.03989275544881821,
                  -0.055863719433546066,
                  0.03603370860219002,
                  -0.10138637572526932,
                  -0.009001475758850574,
                  0.029447974637150764,
                  -0.09152062982320786,
                  0.04595403000712395,
                  -0.03272503614425659,
                  -0.010885884054005146,
                  0.005403368733823299,
                  0.004890429321676493,
                  0.07633841782808304,
                  -0.024177737534046173,
                  0.10034356266260147
                ],
                "b": -0.03967013210058212
              },
              "standardize": {
                "mu": [
                  -0.9927423596382141,
                  9.570463180541992,
                  -70.8621597290039,
                  318.1859436035156,
                  1200.1617431640625,
                  -691.6351928710938,
                  202.1763458251953,
                  288.1222839355469,
                  22.53340721130371,
                  67.91338348388672,
                  259.99566650390625,
                  153.59869384765625,
                  -211.871826171875,
                  -279.4920654296875,
                  309.1392822265625,
                  -441.41387939453125,
                  3473.17822265625
                ],
                "sd": [
                  175.8018035888672,
                  181.56881713867188,
                  2571.91357421875,
                  86073.8203125,
                  32570.5703125,
                  15486.9697265625,
                  9003.8310546875,
                  5891.67919921875,
                  4742.634765625,
                  4195.26904296875,
                  4578.32568359375,
                  4919.1064453125,
                  6326.78125,
                  9576.912109375,
                  15605.236328125,
                  33455.8203125,
                  91370.125
                ]
              },
              "init": {
                "mode": "random_normal",
                "scale": 0.001966005664489474
              },
              "seeds": {
                "split_seed": 207044,
                "init_seed": 407044,
                "batch_seed": 307044
              }
            },
            "run_id": 2,
            "seed": 507044,
            "randomness": {
              "split_seed": 207044,
              "batch_seed": 307044,
              "init_seed": 407044
            }
          },
          {
            "baseline_cent_sign": {
              "train_acc": 0.4791666865348816,
              "val_acc": 0.46666669845581055
            },
            "logreg": {
              "train": {
                "acc": 0.5552083849906921,
                "nll": 0.6871646642684937
              },
              "val": {
                "acc": 0.5041667222976685,
                "nll": 0.699799120426178
              },
              "params": {
                "w": [
                  0.014194092713296413,
                  0.011374257504940033,
                  -0.008643317967653275,
                  -0.040194228291511536,
                  0.022118445485830307,
                  -0.0805707797408104,
                  0.03530317172408104,
                  0.03710917755961418,
                  -0.07411465793848038,
                  0.08576586097478867,
                  0.013979465700685978,
                  -0.04968789219856262,
                  -0.03914954513311386,
                  0.021661391481757164,
                  0.02336762472987175,
                  -0.06405287235975266,
                  0.10045689344406128
                ],
                "b": -0.009172049351036549
              },
              "standardize": {
                "mu": [
                  0.7803598046302795,
                  12.602787971496582,
                  -108.80118560791016,
                  348.35302734375,
                  1158.6417236328125,
                  -367.1769104003906,
                  174.597412109375,
                  118.73426818847656,
                  -225.57188415527344,
                  76.42919158935547,
                  148.5262908935547,
                  156.8952178955078,
                  -37.45255661010742,
                  -177.4708709716797,
                  104.60781860351562,
                  -603.0244750976562,
                  4825.5283203125
                ],
                "sd": [
                  172.73455810546875,
                  180.86260986328125,
                  2565.0400390625,
                  86482.6015625,
                  32902.4765625,
                  16129.8603515625,
                  9127.3115234375,
                  6086.63232421875,
                  4643.11865234375,
                  4152.8896484375,
                  4456.6923828125,
                  4869.8427734375,
                  6378.67578125,
                  9376.9658203125,
                  15574.607421875,
                  33047.23828125,
                  92338.2109375
                ]
              },
              "init": {
                "mode": "random_normal",
                "scale": 0.001966005664489474
              },
              "seeds": {
                "split_seed": 207045,
                "init_seed": 407045,
                "batch_seed": 307045
              }
            },
            "run_id": 3,
            "seed": 507045,
            "randomness": {
              "split_seed": 207045,
              "batch_seed": 307045,
              "init_seed": 407045
            }
          },
          {
            "baseline_cent_sign": {
              "train_acc": 0.47187501192092896,
              "val_acc": 0.4958333671092987
            },
            "logreg": {
              "train": {
                "acc": 0.546875,
                "nll": 0.6885173916816711
              },
              "val": {
                "acc": 0.5541666746139526,
                "nll": 0.6947464346885681
              },
              "params": {
                "w": [
                  0.00480864429846406,
                  -9.213155135512352e-05,
                  -0.02728332206606865,
                  -0.06401956081390381,
                  0.028892897069454193,
                  -0.05991372466087341,
                  0.07465045899152756,
                  0.014146588742733002,
                  -0.08333885669708252,
                  0.07288527488708496,
                  -0.014038149267435074,
                  -0.019164493307471275,
                  -0.045415278524160385,
                  -0.023311248049139977,
                  -0.0037773256190121174,
                  -0.06611255556344986,
                  0.10856316238641739
                ],
                "b": -0.027014095336198807
              },
              "standardize": {
                "mu": [
                  0.26835861802101135,
                  13.604690551757812,
                  -98.9056167602539,
                  4877.740234375,
                  1270.34228515625,
                  -536.0995483398438,
                  244.25668334960938,
                  204.882568359375,
                  -79.13983917236328,
                  44.00284194946289,
                  109.93181610107422,
                  157.7176055908203,
                  -222.34707641601562,
                  -82.87625122070312,
                  -264.1444091796875,
                  -1389.6114501953125,
                  5536.54736328125
                ],
                "sd": [
                  174.2609405517578,
                  181.14901733398438,
                  2617.731689453125,
                  85398.2109375,
                  33216.53515625,
                  16054.8994140625,
                  9125.1396484375,
                  6055.72314453125,
                  4719.31396484375,
                  4161.67626953125,
                  4426.22998046875,
                  4884.0947265625,
                  6335.521484375,
                  9433.2705078125,
                  15852.849609375,
                  33560.5,
                  90834.4609375
                ]
              },
              "init": {
                "mode": "random_normal",
                "scale": 0.001966005664489474
              },
              "seeds": {
                "split_seed": 207046,
                "init_seed": 407046,
                "batch_seed": 307046
              }
            },
            "run_id": 4,
            "seed": 507046,
            "randomness": {
              "split_seed": 207046,
              "batch_seed": 307046,
              "init_seed": 407046
            }
          },
          {
            "baseline_cent_sign": {
              "train_acc": 0.48229169845581055,
              "val_acc": 0.4541666805744171
            },
            "logreg": {
              "train": {
                "acc": 0.5364583730697632,
                "nll": 0.6876043081283569
              },
              "val": {
                "acc": 0.5083333849906921,
                "nll": 0.7022334337234497
              },
              "params": {
                "w": [
                  0.0360632948577404,
                  -0.003227715380489826,
                  -0.06849450618028641,
                  -0.029214870184659958,
                  0.066776804625988,
                  -0.05695031210780144,
                  0.02772863209247589,
                  0.05501537024974823,
                  -0.0902610495686531,
                  0.047263432294130325,
                  -0.0020240452140569687,
                  0.015083388425409794,
                  -0.10143407434225082,
                  -0.02545863762497902,
                  0.0500921830534935,
                  -0.0347810797393322,
                  0.07501176744699478
                ],
                "b": 0.03200541064143181
              },
              "standardize": {
                "mu": [
                  -3.394341468811035,
                  10.893522262573242,
                  -135.98841857910156,
                  1799.038330078125,
                  524.9109497070312,
                  -39.9718132019043,
                  53.333370208740234,
                  35.38968276977539,
                  -140.90977478027344,
                  129.2797088623047,
                  276.41387939453125,
                  147.7774658203125,
                  -257.2428283691406,
                  -91.73151397705078,
                  167.448974609375,
                  -1565.9927978515625,
                  6795.90283203125
                ],
                "sd": [
                  175.5081024169922,
                  180.73199462890625,
                  2586.1162109375,
                  86239.375,
                  33120.359375,
                  16070.5048828125,
                  9200.0595703125,
                  6151.4248046875,
                  4668.8671875,
                  4217.8857421875,
                  4547.0478515625,
                  4921.998046875,
                  6444.50146484375,
                  9533.9326171875,
                  15631.169921875,
                  32953.90234375,
                  90367.140625
                ]
              },
              "init": {
                "mode": "random_normal",
                "scale": 0.001966005664489474
              },
              "seeds": {
                "split_seed": 207047,
                "init_seed": 407047,
                "batch_seed": 307047
              }
            },
            "run_id": 5,
            "seed": 507047,
            "randomness": {
              "split_seed": 207047,
              "batch_seed": 307047,
              "init_seed": 407047
            }
          },
          {
            "baseline_cent_sign": {
              "train_acc": 0.47187501192092896,
              "val_acc": 0.4958333671092987
            },
            "logreg": {
              "train": {
                "acc": 0.5479167103767395,
                "nll": 0.6874862909317017
              },
              "val": {
                "acc": 0.46250003576278687,
                "nll": 0.6992743611335754
              },
              "params": {
                "w": [
                  0.013671381399035454,
                  -0.0039245327934622765,
                  -0.03613083437085152,
                  -0.03873610496520996,
                  0.028827741742134094,
                  -0.08120304346084595,
                  -0.012156683951616287,
                  -0.03115505538880825,
                  -0.0825686827301979,
                  -0.011101589538156986,
                  -0.010946573689579964,
                  -0.052789732813835144,
                  -0.054298870265483856,
                  -0.002230957616120577,
                  0.036832503974437714,
                  -0.06455792486667633,
                  0.11497464030981064
                ],
                "b": 0.004894584883004427
              },
              "standardize": {
                "mu": [
                  -6.197381973266602,
                  12.0799560546875,
                  -79.20130920410156,
                  2818.203125,
                  827.8207397460938,
                  -12.61752986907959,
                  184.88067626953125,
                  111.76220703125,
                  -139.30126953125,
                  55.45418930053711,
                  207.9315643310547,
                  244.6312255859375,
                  -147.61260986328125,
                  -104.59185028076172,
                  -5.134652137756348,
                  -280.7599792480469,
                  2989.247314453125
                ],
                "sd": [
                  174.391357421875,
                  181.1288299560547,
                  2600.9921875,
                  86802.546875,
                  32920.23828125,
                  15827.185546875,
                  9084.513671875,
                  6177.54345703125,
                  4661.3974609375,
                  4217.2783203125,
                  4493.2001953125,
                  4901.27978515625,
                  6266.6328125,
                  9463.681640625,
                  15723.6015625,
                  33462.44921875,
                  91861.4921875
                ]
              },
              "init": {
                "mode": "random_normal",
                "scale": 0.001966005664489474
              },
              "seeds": {
                "split_seed": 207048,
                "init_seed": 407048,
                "batch_seed": 307048
              }
            },
            "run_id": 6,
            "seed": 507048,
            "randomness": {
              "split_seed": 207048,
              "batch_seed": 307048,
              "init_seed": 407048
            }
          },
          {
            "baseline_cent_sign": {
              "train_acc": 0.4739583432674408,
              "val_acc": 0.48750001192092896
            },
            "logreg": {
              "train": {
                "acc": 0.5395833849906921,
                "nll": 0.6874587535858154
              },
              "val": {
                "acc": 0.5208333730697632,
                "nll": 0.7004066705703735
              },
              "params": {
                "w": [
                  0.03827597573399544,
                  0.040056560188531876,
                  -0.03979029506444931,
                  -0.08820267021656036,
                  0.045073188841342926,
                  -0.061080072075128555,
                  0.05428195744752884,
                  0.013560447841882706,
                  -0.04467596113681793,
                  0.0873267725110054,
                  -0.021722828969359398,
                  -0.018233509734272957,
                  -0.043532393872737885,
                  0.00733965914696455,
                  0.01500773523002863,
                  -0.06464379280805588,
                  0.10005715489387512
                ],
                "b": -0.029056325554847717
              },
              "standardize": {
                "mu": [
                  -0.7204802632331848,
                  7.0517897605896,
                  -45.94001388549805,
                  969.2179565429688,
                  1660.901123046875,
                  -103.38081359863281,
                  -95.06525421142578,
                  227.0211639404297,
                  -96.07058715820312,
                  189.736328125,
                  249.31651306152344,
                  29.61172866821289,
                  -250.93484497070312,
                  -383.58563232421875,
                  210.23001098632812,
                  -1783.413330078125,
                  7111.9306640625
                ],
                "sd": [
                  174.78504943847656,
                  179.2749481201172,
                  2579.237548828125,
                  85960.6796875,
                  33073.578125,
                  15974.2001953125,
                  9041.1806640625,
                  6085.5,
                  4704.51806640625,
                  4196.5029296875,
                  4527.51611328125,
                  4865.64501953125,
                  6423.630859375,
                  9620.8642578125,
                  15611.8203125,
                  33091.90234375,
                  91828.0703125
                ]
              },
              "init": {
                "mode": "random_normal",
                "scale": 0.001966005664489474
              },
              "seeds": {
                "split_seed": 207049,
                "init_seed": 407049,
                "batch_seed": 307049
              }
            },
            "run_id": 7,
            "seed": 507049,
            "randomness": {
              "split_seed": 207049,
              "batch_seed": 307049,
              "init_seed": 407049
            }
          },
          {
            "baseline_cent_sign": {
              "train_acc": 0.4843750298023224,
              "val_acc": 0.44583335518836975
            },
            "logreg": {
              "train": {
                "acc": 0.5364583730697632,
                "nll": 0.6901505589485168
              },
              "val": {
                "acc": 0.5083333849906921,
                "nll": 0.6956287026405334
              },
              "params": {
                "w": [
                  0.06238287314772606,
                  -0.01243724673986435,
                  0.013035787269473076,
                  0.009728423319756985,
                  0.008652758784592152,
                  -0.020052727311849594,
                  0.0042534698732197285,
                  0.01792757213115692,
                  -0.07046225666999817,
                  0.046750374138355255,
                  -0.02412702515721321,
                  -0.04325254634022713,
                  -0.10160241276025772,
                  -0.018565531820058823,
                  0.034823812544345856,
                  -0.0513869971036911,
                  0.049189016222953796
                ],
                "b": 3.8304366171360016e-05
              },
              "standardize": {
                "mu": [
                  -2.027975082397461,
                  7.623401641845703,
                  -74.21268463134766,
                  1189.853759765625,
                  1335.113037109375,
                  50.82685852050781,
                  -39.35454177856445,
                  160.53688049316406,
                  -119.84723663330078,
                  -35.104061126708984,
                  315.12274169921875,
                  105.78263092041016,
                  -215.6109161376953,
                  -69.88118743896484,
                  349.4205017089844,
                  -527.1726684570312,
                  2630.39013671875
                ],
                "sd": [
                  176.46914672851562,
                  181.27520751953125,
                  2561.296875,
                  85459.5859375,
                  32549.55859375,
