{
  "feature_type": "hamming_rr_ii",
  "alpha": "all_ones",
  "setup": {
    "n": 12,
    "channel_type": "thermal",
    "strength": 0.1,
    "run_name": "n12_thermal_p0p1_fsfe10419a68ae4e9e_nps287e86c8b509fd7e"
  },
  "source": {
    "run_path": "/gpfs/home1/ypatel/data1/shadow-qml-ml/feat_data_all/feat_data/exp_s1_features_hamming_rr_ii_fsfe10419a68ae4e9e_fixed_alpha_all_ones_fixed_y_all_zeros_q_5_14/runs/n12_thermal_p0p1_fsfe10419a68ae4e9e_nps287e86c8b509fd7e",
    "dataset_ref": "/gpfs/home1/ypatel/data1/shadow-qml-ml/feat_data_all/feat_data/exp_s1_features_hamming_rr_ii_fsfe10419a68ae4e9e_fixed_alpha_all_ones_fixed_y_all_zeros_q_5_14/datasets/dataset_6a3a8ea5668403e7.npz"
  },
  "train_config": {
    "val_frac": 0.2,
    "batch_size": 128,
    "epochs": 180,
    "lr": 0.009739828014781909,
    "l2": 0.0003110860885177623,
    "n_independent_runs": 10,
    "init_mode": "random_normal",
    "init_scale": 0.0028569424932669363,
    "vary_split": true,
    "vary_batch_order": true,
    "vary_init": true
  },
  "k_grid_requested": [
    0.8,
    0.9,
    1.0,
    1.1,
    1.2,
    1.3,
    1.4,
    1.5,
    1.6,
    1.7,
    1.8,
    1.9,
    2.0,
    2.1,
    2.2,
    2.3,
    2.4
  ],
  "k_match_mode": "offby1",
  "k_nearest_max_abs_delta": 1,
  "per_nps_selected": [
    {
      "nps": 114104,
      "baseline_cent_sign": {
        "train_acc": 0.5333333611488342,
        "val_acc": 0.5291666984558105
      },
      "logreg": {
        "train": {
          "acc": 0.5791667103767395,
          "nll": 0.6823441386222839
        },
        "val": {
          "acc": 0.5333333611488342,
          "nll": 0.691253662109375
        },
        "params": {
          "w": [
            0.023920373991131783,
            0.01357418205589056,
            0.0632561445236206,
            0.01354612410068512,
            -0.011583141051232815,
            0.019350290298461914,
            -0.013386487029492855,
            0.00263164471834898,
            0.04064129292964935,
            -0.04994288086891174,
            -0.0329253226518631,
            0.04406747967004776,
            -0.041849277913570404,
            -0.0005845630075782537,
            0.030838070437312126,
            -0.010639936663210392,
            -0.024175822734832764,
            0.04361338168382645,
            -0.05482088401913643,
            0.0013828692026436329,
            -0.008088446222245693,
            -0.038143277168273926,
            0.0014092735946178436,
            -0.01654703915119171,
            -0.05391246825456619
          ],
          "b": 0.014887080527842045
        },
        "standardize": {
          "mu": [
            0.29934123158454895,
            3.35190486907959,
            3.7195491790771484,
            5.451788425445557,
            -4.307858943939209,
            0.6542659997940063,
            -0.7258872985839844,
            -0.5483967661857605,
            -0.3873661160469055,
            1.4432203769683838,
            1.079388976097107,
            -0.2929747402667999,
            1.3003050088882446,
            -3.34771990776062,
            13.285905838012695,
            -0.3870086669921875,
            -2.69482684135437,
            -0.26335427165031433,
            0.2714318633079529,
            0.22225964069366455,
            0.11663014441728592,
            0.8159449696540833,
            -0.886353075504303,
            -0.3673957884311676,
            4.80780553817749
          ],
          "sd": [
            12.457762718200684,
            11.920300483703613,
            95.76151275634766,
            243.90921020507812,
            106.01129913330078,
            55.4252815246582,
            36.54918670654297,
            30.40965461730957,
            28.2559871673584,
            30.639596939086914,
            36.69035339355469,
            56.59898376464844,
            105.92850494384766,
            249.7467498779297,
            238.23912048339844,
            106.92919158935547,
            57.08296585083008,
            38.70399856567383,
            29.189443588256836,
            27.612646102905273,
            29.385839462280273,
            37.601070404052734,
            56.10120391845703,
            104.10366821289062,
            249.04147338867188
          ]
        },
        "init": {
          "mode": "random_normal",
          "scale": 0.0028569424932669363
        },
        "seeds": {
          "split_seed": 521042,
          "init_seed": 721042,
          "batch_seed": 621042
        }
      },
      "independent_runs": {
        "per_run": [
          {
            "baseline_cent_sign": {
              "train_acc": 0.5333333611488342,
              "val_acc": 0.5291666984558105
            },
            "logreg": {
              "train": {
                "acc": 0.5791667103767395,
                "nll": 0.6823441386222839
              },
              "val": {
                "acc": 0.5333333611488342,
                "nll": 0.691253662109375
              },
              "params": {
                "w": [
                  0.023920373991131783,
                  0.01357418205589056,
                  0.0632561445236206,
                  0.01354612410068512,
                  -0.011583141051232815,
                  0.019350290298461914,
                  -0.013386487029492855,
                  0.00263164471834898,
                  0.04064129292964935,
                  -0.04994288086891174,
                  -0.0329253226518631,
                  0.04406747967004776,
                  -0.041849277913570404,
                  -0.0005845630075782537,
                  0.030838070437312126,
                  -0.010639936663210392,
                  -0.024175822734832764,
                  0.04361338168382645,
                  -0.05482088401913643,
                  0.0013828692026436329,
                  -0.008088446222245693,
                  -0.038143277168273926,
                  0.0014092735946178436,
                  -0.01654703915119171,
                  -0.05391246825456619
                ],
                "b": 0.014887080527842045
              },
              "standardize": {
                "mu": [
                  0.29934123158454895,
                  3.35190486907959,
                  3.7195491790771484,
                  5.451788425445557,
                  -4.307858943939209,
                  0.6542659997940063,
                  -0.7258872985839844,
                  -0.5483967661857605,
                  -0.3873661160469055,
                  1.4432203769683838,
                  1.079388976097107,
                  -0.2929747402667999,
                  1.3003050088882446,
                  -3.34771990776062,
                  13.285905838012695,
                  -0.3870086669921875,
                  -2.69482684135437,
                  -0.26335427165031433,
                  0.2714318633079529,
                  0.22225964069366455,
                  0.11663014441728592,
                  0.8159449696540833,
                  -0.886353075504303,
                  -0.3673957884311676,
                  4.80780553817749
                ],
                "sd": [
                  12.457762718200684,
                  11.920300483703613,
                  95.76151275634766,
                  243.90921020507812,
                  106.01129913330078,
                  55.4252815246582,
                  36.54918670654297,
                  30.40965461730957,
                  28.2559871673584,
                  30.639596939086914,
                  36.69035339355469,
                  56.59898376464844,
                  105.92850494384766,
                  249.7467498779297,
                  238.23912048339844,
                  106.92919158935547,
                  57.08296585083008,
                  38.70399856567383,
                  29.189443588256836,
                  27.612646102905273,
                  29.385839462280273,
                  37.601070404052734,
                  56.10120391845703,
                  104.10366821289062,
                  249.04147338867188
                ]
              },
              "init": {
                "mode": "random_normal",
                "scale": 0.0028569424932669363
              },
              "seeds": {
                "split_seed": 521042,
                "init_seed": 721042,
                "batch_seed": 621042
              }
            },
            "run_id": 0,
            "seed": 821042,
            "randomness": {
              "split_seed": 521042,
              "batch_seed": 621042,
              "init_seed": 721042
            }
          },
          {
            "baseline_cent_sign": {
              "train_acc": 0.5447916984558105,
              "val_acc": 0.4833333492279053
            },
            "logreg": {
              "train": {
                "acc": 0.5677083730697632,
                "nll": 0.6830229163169861
              },
              "val": {
                "acc": 0.550000011920929,
                "nll": 0.6884169578552246
              },
              "params": {
                "w": [
                  -0.017766714096069336,
                  0.030509227886795998,
                  0.05101389437913895,
                  0.009266317822039127,
                  -0.017000455409288406,
                  0.02452852576971054,
                  0.017770715057849884,
                  0.006745452526956797,
                  0.03675784170627594,
                  -0.0361589677631855,
                  -0.049332547932863235,
                  0.035417888313531876,
                  -0.06361455470323563,
                  0.005003202240914106,
                  -0.030944699421525,
                  0.024230951443314552,
                  -0.04290452599525452,
                  0.047568995505571365,
                  -0.022861270233988762,
                  -0.015188113786280155,
                  0.02454298920929432,
                  -0.03815353289246559,
                  0.004431710112839937,
                  0.0016730357892811298,
                  -0.059573881328105927
                ],
                "b": -0.018624361604452133
              },
              "standardize": {
                "mu": [
                  0.24204926192760468,
                  3.332348346710205,
                  6.378074645996094,
                  -0.0719502791762352,
                  -5.557939052581787,
                  0.12547138333320618,
                  -0.49542704224586487,
                  -0.16720686852931976,
                  -1.033511757850647,
                  1.848250389099121,
                  -0.2639920711517334,
                  -0.9110561609268188,
                  -0.8796047568321228,
                  -4.873743057250977,
                  8.463383674621582,
                  -0.9698804616928101,
                  -2.456606864929199,
                  0.5039430856704712,
                  1.1595797538757324,
                  -0.14770305156707764,
                  1.144670844078064,
                  -1.3945165872573853,
                  -0.8781170845031738,
                  -0.16997770965099335,
                  6.293122291564941
                ],
                "sd": [
                  12.278141975402832,
                  12.148454666137695,
                  98.73414611816406,
                  244.43115234375,
                  103.98497009277344,
                  54.55668258666992,
                  36.61796188354492,
                  30.496326446533203,
                  28.333351135253906,
                  30.450780868530273,
                  36.97661590576172,
                  55.0678596496582,
                  103.95561981201172,
                  252.6304473876953,
                  243.05682373046875,
                  108.37075805664062,
                  56.54658889770508,
                  39.2662353515625,
                  30.83478546142578,
                  27.76120948791504,
                  29.613800048828125,
                  36.59734344482422,
                  55.41712951660156,
                  102.9897689819336,
                  247.5237579345703
                ]
              },
              "init": {
                "mode": "random_normal",
                "scale": 0.0028569424932669363
              },
              "seeds": {
                "split_seed": 521043,
                "init_seed": 721043,
                "batch_seed": 621043
              }
            },
            "run_id": 1,
            "seed": 821043,
            "randomness": {
              "split_seed": 521043,
              "batch_seed": 621043,
              "init_seed": 721043
            }
          },
          {
            "baseline_cent_sign": {
              "train_acc": 0.53125,
              "val_acc": 0.5375000238418579
            },
            "logreg": {
              "train": {
                "acc": 0.5833333730697632,
                "nll": 0.6807100176811218
              },
              "val": {
                "acc": 0.5375000238418579,
                "nll": 0.6917930841445923
              },
              "params": {
                "w": [
                  0.009733805432915688,
                  0.03321881964802742,
                  0.05411003902554512,
                  -0.016467861831188202,
                  -0.04002277925610542,
                  -0.023027410730719566,
                  0.001908197533339262,
                  -0.035720083862543106,
                  0.05996517837047577,
                  -0.049366701394319534,
                  -0.008968275971710682,
                  0.03840489313006401,
                  -0.0580173060297966,
                  -0.004704009275883436,
                  0.01182599924504757,
                  -0.03746985271573067,
                  -0.032576784491539,
                  0.024088997393846512,
                  -0.05839463695883751,
                  0.004477054812014103,
                  0.02524571865797043,
                  -0.034631796181201935,
                  0.008278935216367245,
                  0.00632691103965044,
                  -0.06638485193252563
                ],
                "b": 0.031002404168248177
              },
              "standardize": {
                "mu": [
                  0.20676816999912262,
                  3.774409770965576,
                  2.2372801303863525,
                  -4.9597063064575195,
                  -7.046165466308594,
                  -0.2649109661579132,
                  -0.6234090328216553,
                  -0.305308997631073,
                  -1.2466657161712646,
                  1.9048413038253784,
                  0.4825971722602844,
                  -0.8435922265052795,
                  1.0762296915054321,
                  -2.5384974479675293,
                  8.688871383666992,
                  -3.7250752449035645,
                  -1.7277356386184692,
                  0.22271108627319336,
                  -0.014397431164979935,
                  0.20191225409507751,
                  0.3972742259502411,
                  -1.4607475996017456,
                  -0.9775239825248718,
                  -0.8556091785430908,
                  7.0617451667785645
                ],
                "sd": [
                  12.432236671447754,
                  12.321308135986328,
                  99.70549774169922,
                  244.096923828125,
                  107.0226821899414,
                  57.01203536987305,
                  36.378746032714844,
                  30.611392974853516,
                  28.075660705566406,
                  30.1677303314209,
                  36.37700271606445,
                  55.42251205444336,
                  103.46009826660156,
                  246.80104064941406,
                  236.9508056640625,
                  104.33601379394531,
                  55.61712646484375,
                  38.565155029296875,
                  30.220041275024414,
                  27.552059173583984,
                  29.770174026489258,
                  37.14854431152344,
                  55.62739181518555,
                  105.41123962402344,
                  246.30166625976562
                ]
              },
              "init": {
                "mode": "random_normal",
                "scale": 0.0028569424932669363
              },
              "seeds": {
                "split_seed": 521044,
                "init_seed": 721044,
                "batch_seed": 621044
              }
            },
            "run_id": 2,
            "seed": 821044,
            "randomness": {
              "split_seed": 521044,
              "batch_seed": 621044,
              "init_seed": 721044
            }
          },
          {
            "baseline_cent_sign": {
              "train_acc": 0.5333333611488342,
              "val_acc": 0.5291666984558105
            },
            "logreg": {
              "train": {
                "acc": 0.5750000476837158,
                "nll": 0.6824041604995728
              },
              "val": {
                "acc": 0.4791666865348816,
                "nll": 0.6994712948799133
              },
              "params": {
                "w": [
                  -0.023837652057409286,
                  0.04408964142203331,
                  0.044272057712078094,
                  -0.0036440351977944374,
                  -0.026846125721931458,
                  -0.013853362761437893,
                  -0.01448060292750597,
                  -0.04988653212785721,
                  0.022499799728393555,
                  -0.05831556022167206,
                  0.013347571715712547,
                  0.007535541895776987,
                  -0.03854275122284889,
                  0.031219473108649254,
                  0.012948665767908096,
                  0.019768107682466507,
                  -0.031855545938014984,
                  0.024785654619336128,
                  -0.02680710144340992,
                  0.00843378808349371,
                  -0.013553638942539692,
                  -0.02294987440109253,
                  -0.004014316480606794,
                  -0.00594034418463707,
                  -0.06599260121583939
                ],
                "b": -0.024267829954624176
              },
              "standardize": {
                "mu": [
                  0.13426193594932556,
                  3.821629762649536,
                  2.2582790851593018,
                  0.8097864985466003,
                  -6.000755786895752,
                  0.2728469967842102,
                  1.2625081539154053,
                  0.1475684940814972,
                  -1.682400107383728,
                  1.853983998298645,
                  0.8619602918624878,
                  -1.2421047687530518,
                  1.334591269493103,
                  2.6617510318756104,
                  12.311505317687988,
                  -1.848042368888855,
                  -0.47127845883369446,
                  0.5539491176605225,
                  0.6546291708946228,
                  0.15681864321231842,
                  0.6307966113090515,
                  -0.7455951571464539,
                  -0.3776565194129944,
                  -3.275919198989868,
                  10.344819068908691
                ],
                "sd": [
                  12.190011978149414,
                  12.024652481079102,
                  99.0185317993164,
                  239.69869995117188,
                  106.99910736083984,
                  56.874515533447266,
                  35.83599090576172,
                  30.805089950561523,
                  28.00481414794922,
                  30.460737228393555,
                  37.52571487426758,
                  55.90007019042969,
                  102.80331420898438,
                  245.0734405517578,
                  242.818115234375,
                  106.59965515136719,
                  56.10502624511719,
                  39.096397399902344,
                  29.427949905395508,
                  27.553152084350586,
                  29.69894027709961,
                  37.2121467590332,
                  55.60068893432617,
                  101.2745590209961,
                  248.43191528320312
                ]
              },
              "init": {
                "mode": "random_normal",
                "scale": 0.0028569424932669363
              },
              "seeds": {
                "split_seed": 521045,
                "init_seed": 721045,
                "batch_seed": 621045
              }
            },
            "run_id": 3,
            "seed": 821045,
            "randomness": {
              "split_seed": 521045,
              "batch_seed": 621045,
              "init_seed": 721045
            }
          },
          {
            "baseline_cent_sign": {
              "train_acc": 0.5250000357627869,
              "val_acc": 0.5625
            },
            "logreg": {
              "train": {
                "acc": 0.5791667103767395,
                "nll": 0.6796101331710815
              },
              "val": {
                "acc": 0.5208333730697632,
                "nll": 0.6960848569869995
              },
              "params": {
                "w": [
                  -0.008744888007640839,
                  0.029229028150439262,
                  0.021901462227106094,
                  -0.025562886148691177,
                  -0.04875363036990166,
                  0.015599898993968964,
                  0.010334967635571957,
                  -0.013471502810716629,
                  -0.0019432512344792485,
                  -0.0612393394112587,
                  0.006235509179532528,
                  0.05469117313623428,
                  -0.06436584144830704,
                  0.018110768869519234,
                  0.0012875801185145974,
                  0.0051989443600177765,
                  -0.013369828462600708,
                  0.017684102058410645,
                  -0.042921219021081924,
                  -0.022367658093571663,
                  0.05937513709068298,
                  -0.057196564972400665,
                  -0.02848958969116211,
                  -0.044305771589279175,
                  -0.07230763137340546
                ],
                "b": 0.012785067781805992
              },
              "standardize": {
                "mu": [
                  0.430134117603302,
                  3.771338701248169,
                  1.2256360054016113,
                  4.545461177825928,
                  -8.105216026306152,
                  0.6176902055740356,
                  -0.5499051809310913,
                  -0.21254262328147888,
                  -1.2166407108306885,
                  1.9914311170578003,
                  0.11947934329509735,
                  -2.278351306915283,
                  -1.6016323566436768,
                  -3.1853506565093994,
                  5.531473159790039,
                  -2.7751054763793945,
                  -2.397077798843384,
                  -0.1716965138912201,
                  -0.14425602555274963,
                  -0.09098205715417862,
                  1.3277441263198853,
                  -0.7186779379844666,
                  0.00624249828979373,
                  -2.852241039276123,
                  4.058286190032959
                ],
                "sd": [
                  12.11230182647705,
                  12.287320137023926,
                  98.46683502197266,
                  242.53811645507812,
                  107.1718978881836,
                  55.72640609741211,
                  35.92888641357422,
                  31.016475677490234,
                  27.868759155273438,
                  30.597761154174805,
                  37.18558883666992,
                  56.458560943603516,
                  103.02993774414062,
                  250.45057678222656,
                  241.0330810546875,
                  106.1887435913086,
                  56.94635772705078,
                  39.54450225830078,
                  30.08791732788086,
                  27.49678611755371,
                  29.332387924194336,
                  37.86217498779297,
                  55.51594161987305,
                  103.89134216308594,
                  247.19859313964844
                ]
              },
              "init": {
                "mode": "random_normal",
                "scale": 0.0028569424932669363
              },
              "seeds": {
                "split_seed": 521046,
                "init_seed": 721046,
                "batch_seed": 621046
              }
            },
            "run_id": 4,
            "seed": 821046,
            "randomness": {
              "split_seed": 521046,
              "batch_seed": 621046,
              "init_seed": 721046
            }
          },
          {
            "baseline_cent_sign": {
              "train_acc": 0.546875,
              "val_acc": 0.4750000238418579
            },
            "logreg": {
              "train": {
                "acc": 0.5687500238418579,
                "nll": 0.6804072260856628
              },
              "val": {
                "acc": 0.45000001788139343,
                "nll": 0.7023652791976929
              },
              "params": {
                "w": [
                  -0.01652270182967186,
                  -0.027987895533442497,
                  0.038030363619327545,
                  -0.027013732120394707,
                  -0.05616816133260727,
                  -0.0018711794400587678,
                  0.027733171358704567,
                  -0.03272668644785881,
                  0.05323123559355736,
                  -0.048110246658325195,
                  -0.029972409829497337,
                  0.04475335404276848,
                  -0.060801830142736435,
                  -0.006223122123628855,
                  0.024082137271761894,
                  0.023559287190437317,
                  -0.008471926674246788,
                  0.054990004748106,
                  -0.029184836894273758,
                  -0.03067958727478981,
                  0.03924510255455971,
                  -0.014183340594172478,
                  -0.0390772707760334,
                  0.0035631097853183746,
                  -0.022760115563869476
                ],
                "b": -0.04867345839738846
              },
              "standardize": {
                "mu": [
                  0.20522406697273254,
                  3.727367877960205,
                  3.1561965942382812,
                  -1.347930669784546,
                  -4.788630485534668,
                  -0.20867657661437988,
                  0.13451099395751953,
                  0.5393264293670654,
                  -1.2158499956130981,
                  1.5861144065856934,
                  0.4699648320674896,
                  -1.8194586038589478,
                  3.897925615310669,
                  -1.0923960208892822,
                  10.262979507446289,
                  -1.9374308586120605,
                  -3.127377986907959,
                  1.3267247676849365,
                  0.5686715841293335,
                  0.27784037590026855,
                  0.7793353199958801,
                  -0.43066370487213135,
                  -0.403628945350647,
                  -0.8714582324028015,
                  6.659553050994873
                ],
                "sd": [
                  11.969802856445312,
                  12.099944114685059,
                  98.7499771118164,
                  234.40582275390625,
                  105.02071380615234,
                  56.87135696411133,
                  36.112003326416016,
                  29.951196670532227,
                  27.952878952026367,
                  30.668102264404297,
                  37.051658630371094,
                  56.17045593261719,
                  102.87545013427734,
                  250.38539123535156,
                  245.61489868164062,
                  107.84345245361328,
                  56.13194274902344,
                  38.07841110229492,
                  30.212141036987305,
                  27.05484962463379,
                  29.253000259399414,
                  37.05855178833008,
                  55.18798828125,
                  102.65250396728516,
                  246.9940643310547
                ]
              },
              "init": {
                "mode": "random_normal",
                "scale": 0.0028569424932669363
              },
              "seeds": {
                "split_seed": 521047,
                "init_seed": 721047,
                "batch_seed": 621047
              }
            },
            "run_id": 5,
            "seed": 821047,
            "randomness": {
              "split_seed": 521047,
              "batch_seed": 621047,
              "init_seed": 721047
            }
          },
          {
            "baseline_cent_sign": {
              "train_acc": 0.518750011920929,
              "val_acc": 0.5875000357627869
            },
            "logreg": {
              "train": {
                "acc": 0.5760416984558105,
                "nll": 0.6782225370407104
              },
              "val": {
                "acc": 0.5666667222976685,
                "nll": 0.6912022829055786
              },
              "params": {
                "w": [
                  0.039245449006557465,
                  0.025679275393486023,
                  0.04345196485519409,
                  -0.049950361251831055,
                  -0.018161531537771225,
                  -0.015053899958729744,
                  -0.008484810590744019,
                  -0.03704920411109924,
                  0.10088852047920227,
                  -0.08194169402122498,
                  -0.03863145411014557,
                  0.06204288452863693,
                  -0.0641993060708046,
                  -0.015233584679663181,
                  0.0062848832458257675,
                  0.01283132005482912,
                  -0.023248931393027306,
                  0.019208574667572975,
                  -0.06249929592013359,
                  -0.0034997030161321163,
                  0.09298528730869293,
                  -0.05439542233943939,
                  -0.021021893247961998,
                  -0.05992010235786438,
                  -0.08368811011314392
                ],
                "b": -0.02186269871890545
              },
              "standardize": {
                "mu": [
                  0.038648780435323715,
                  3.2941653728485107,
                  2.6011526584625244,
                  2.1921467781066895,
                  -5.407546043395996,
                  -0.2534942626953125,
                  -0.07146428525447845,
                  0.40362536907196045,
                  -1.4068329334259033,
                  1.157399296760559,
                  0.9585963487625122,
                  -0.07411397993564606,
                  1.5692658424377441,
                  0.2852080166339874,
                  14.577278137207031,
                  0.537418782711029,
                  -2.7098569869995117,
                  1.5716358423233032,
                  0.7855679988861084,
                  -0.3392062187194824,
                  0.19961930811405182,
                  -1.4116764068603516,
                  -0.051430895924568176,
                  -1.7580605745315552,
                  7.5186614990234375
                ],
                "sd": [
                  12.212095260620117,
                  11.83182430267334,
                  98.53534698486328,
                  238.09153747558594,
                  107.08442687988281,
                  57.02683639526367,
                  36.75577926635742,
                  30.9710636138916,
                  28.126792907714844,
                  30.814056396484375,
                  37.099876403808594,
                  55.78594970703125,
                  103.51805877685547,
                  246.02716064453125,
                  240.37713623046875,
                  108.48219299316406,
                  56.65220260620117,
                  38.17454147338867,
                  30.17865753173828,
                  27.510761260986328,
                  29.029720306396484,
                  37.731021881103516,
                  55.39470291137695,
                  102.40848541259766,
                  249.8881072998047
                ]
              },
              "init": {
                "mode": "random_normal",
                "scale": 0.0028569424932669363
              },
              "seeds": {
                "split_seed": 521048,
                "init_seed": 721048,
                "batch_seed": 621048
              }
            },
            "run_id": 6,
            "seed": 821048,
            "randomness": {
              "split_seed": 521048,
              "batch_seed": 621048,
              "init_seed": 721048
            }
          },
          {
            "baseline_cent_sign": {
              "train_acc": 0.534375011920929,
              "val_acc": 0.5250000357627869
            },
            "logreg": {
              "train": {
                "acc": 0.5802083611488342,
                "nll": 0.6763715744018555
              },
              "val": {
                "acc": 0.5166667103767395,
                "nll": 0.6947040557861328
              },
              "params": {
                "w": [
                  0.01221082080155611,
                  0.02956925332546234,
                  0.034982725977897644,
                  0.00031492789275944233,
                  -0.0676499754190445,
                  0.02713611349463463,
                  0.005158067215234041,
                  -0.05354385823011398,
                  0.06204604357481003,
                  -0.08521880209445953,
                  -0.04267919063568115,
                  0.07209857553243637,
                  -0.07847318053245544,
                  -0.042199134826660156,
                  0.01647636853158474,
                  0.009454763494431973,
                  -0.03438165783882141,
                  0.03791593760251999,
                  -0.0767432451248169,
                  -0.0010626083239912987,
                  0.07080711424350739,
                  -0.08317197114229202,
                  -0.03219853714108467,
                  0.005359443370252848,
                  -0.08747775852680206
                ],
                "b": 0.04786363244056702
              },
              "standardize": {
                "mu": [
                  0.4876691401004791,
                  3.63517689704895,
                  3.7113986015319824,
                  0.3984731137752533,
                  -5.135546684265137,
                  0.609844982624054,
                  -1.015341877937317,
                  0.9032487869262695,
                  -1.1728476285934448,
                  2.5388731956481934,
                  0.2865092158317566,
                  0.8141604661941528,
                  1.5661611557006836,
                  -1.5764493942260742,
                  9.995251655578613,
                  -1.2047126293182373,
                  -0.5417737364768982,
                  0.8643420934677124,
                  0.9045043587684631,
                  -0.3975844085216522,
                  0.9303253889083862,
                  -1.3112913370132446,
                  -1.4539318084716797,
                  2.68908953666687,
                  0.18983764946460724
                ],
                "sd": [
                  12.26656723022461,
                  12.30235481262207,
                  97.72050476074219,
                  240.83970642089844,
                  106.84873962402344,
                  55.85399627685547,
                  35.45008087158203,
                  31.001314163208008,
                  28.263669967651367,
                  30.7028865814209,
                  36.94538879394531,
                  55.8306770324707,
                  104.89859008789062,
                  244.85740661621094,
                  243.83721923828125,
                  103.9021987915039,
                  56.383277893066406,
                  38.95086669921875,
                  29.907527923583984,
                  26.856597900390625,
                  29.67324447631836,
                  37.300254821777344,
                  54.809329986572266,
                  100.7072525024414,
                  248.9292449951172
                ]
              },
              "init": {
                "mode": "random_normal",
                "scale": 0.0028569424932669363
              },
              "seeds": {
                "split_seed": 521049,
                "init_seed": 721049,
                "batch_seed": 621049
              }
            },
            "run_id": 7,
            "seed": 821049,
            "randomness": {
              "split_seed": 521049,
              "batch_seed": 621049,
              "init_seed": 721049
            }
          },
          {
            "baseline_cent_sign": {
              "train_acc": 0.5375000238418579,
              "val_acc": 0.5125000476837158
            },
            "logreg": {
              "train": {
                "acc": 0.5687500238418579,
                "nll": 0.6833547949790955
              },
              "val": {
                "acc": 0.5166667103767395,
                "nll": 0.6984765529632568
              },
              "params": {
                "w": [
                  0.0019663884304463863,
                  -0.035384003072977066,
                  0.042763881385326385,
                  -0.02630171924829483,
                  -0.029277175664901733,
                  -0.0033185086213052273,
                  -0.010897386819124222,
                  -0.013201689347624779,
                  0.00023393938317894936,
                  -0.04021897539496422,
                  -0.013202959671616554,
                  0.047520965337753296,
                  -0.0518261082470417,
                  -0.01975710503757,
                  0.024187536910176277,
                  -0.003650907427072525,
                  -0.044025301933288574,
                  -0.010231414809823036,
                  -0.05527254939079285,
                  -0.010466916486620903,
                  -0.01757294125854969,
                  -0.034862220287323,
                  0.006420374382287264,
                  -0.03691507503390312,
                  -0.045012980699539185
                ],
                "b": -0.03932274878025055
              },
              "standardize": {
                "mu": [
                  0.245407372713089,
                  3.7840187549591064,
                  2.833841562271118,
                  -2.5363476276397705,
                  -7.018008708953857,
                  0.641200840473175,
                  -0.6139607429504395,
                  0.40393325686454773,
                  -1.043731689453125,
                  1.6586421728134155,
                  0.46047982573509216,
                  -1.8571385145187378,
                  0.41696882247924805,
                  -1.38817298412323,
                  7.661789417266846,
                  -2.835944652557373,
                  -1.444434404373169,
                  -0.6012510061264038,
                  0.9741495251655579,
                  0.10674987733364105,
                  0.2221173346042633,
                  -0.9413534998893738,
                  -1.282742977142334,
                  0.1390589475631714,
                  4.470855236053467
                ],
                "sd": [
                  12.346898078918457,
                  11.86090087890625,
                  99.21145629882812,
                  246.939453125,
                  106.64842224121094,
                  56.169525146484375,
                  36.29579162597656,
                  30.555068969726562,
                  28.451435089111328,
                  30.7217960357666,
                  36.7994499206543,
                  55.19658660888672,
                  101.90632629394531,
                  248.9705047607422,
                  242.63644409179688,
                  105.64926147460938,
                  56.694522857666016,
                  38.22041320800781,
                  29.74090576171875,
                  27.046276092529297,
                  29.613948822021484,
                  37.14249801635742,
                  54.7103385925293,
                  104.8238296508789,
                  243.90576171875
                ]
              },
              "init": {
                "mode": "random_normal",
                "scale": 0.0028569424932669363
              },
              "seeds": {
                "split_seed": 521050,
                "init_seed": 721050,
                "batch_seed": 621050
              }
            },
            "run_id": 8,
            "seed": 821050,
            "randomness": {
              "split_seed": 521050,
              "batch_seed": 621050,
              "init_seed": 721050
            }
          },
          {
            "baseline_cent_sign": {
              "train_acc": 0.5385416746139526,
              "val_acc": 0.5083333849906921
            },
            "logreg": {
              "train": {
                "acc": 0.5562500357627869,
                "nll": 0.6835104823112488
              },
              "val": {
                "acc": 0.5541666746139526,
                "nll": 0.6883320212364197
              },
              "params": {
                "w": [
                  -0.008740874007344246,
                  0.0316634327173233,
                  0.05427757650613785,
                  0.005530381575226784,
                  -0.05593518167734146,
                  0.03930645063519478,
                  -0.004070809576660395,
                  -0.03293236345052719,
                  0.05294916778802872,
                  -0.005414650309830904,
                  -0.03231911361217499,
                  0.0067171864211559296,
                  -0.05660373717546463,
                  -0.0030056165996938944,
                  -0.017825301736593246,
                  0.03261218219995499,
                  -0.002058396115899086,
                  0.0018192162970080972,
                  -0.03468920662999153,
                  -0.01140328124165535,
                  0.04491988569498062,
                  -0.042485445737838745,
                  -0.008052629418671131,
                  -0.025341542437672615,
                  -0.05545981600880623
                ],
                "b": 0.01610827073454857
              },
              "standardize": {
                "mu": [
                  0.2524958550930023,
                  3.6213157176971436,
                  3.636550188064575,
                  -0.7803446650505066,
                  -2.9156343936920166,
                  -0.7872733473777771,
                  -1.1652652025222778,
                  1.1627862453460693,
                  -1.0097565650939941,
                  2.7375504970550537,
                  0.5901452898979187,
                  -0.7187027335166931,
                  -0.7843815088272095,
                  -7.08937931060791,
                  10.243526458740234,
                  -2.4426448345184326,
                  -1.2952977418899536,
                  0.7600430846214294,
                  0.5784145593643188,
                  -0.09172319620847702,
                  0.4908375144004822,
                  -1.6504220962524414,
                  0.3350015878677368,
                  3.285820245742798,
                  7.489753246307373
                ],
                "sd": [
                  12.346960067749023,
                  11.893948554992676,
                  100.438720703125,
                  246.59878540039062,
                  104.98136901855469,
                  55.75422286987305,
                  36.73374938964844,
                  30.30913543701172,
                  28.33207130432129,
                  30.27709197998047,
                  37.237186431884766,
                  55.65707778930664,
                  104.38599395751953,
                  248.91500854492188,
                  242.9940643310547,
                  105.45154571533203,
                  56.30361557006836,
                  38.232913970947266,
                  29.870553970336914,
                  27.525888442993164,
                  30.226049423217773,
                  36.84242248535156,
                  55.75823211669922,
                  104.10107421875,
                  244.52346801757812
                ]
              },
              "init": {
                "mode": "random_normal",
                "scale": 0.0028569424932669363
              },
              "seeds": {
                "split_seed": 521051,
                "init_seed": 721051,
                "batch_seed": 621051
              }
            },
            "run_id": 9,
            "seed": 821051,
            "randomness": {
              "split_seed": 521051,
              "batch_seed": 621051,
              "init_seed": 721051
            }
          }
        ],
        "summary": {
          "n_runs": 10,
          "baseline_cent_sign": {
            "train_acc": {
              "mean": 0.5343750178813934,
              "std": 0.007974022905532825,
              "min": 0.518750011920929,
              "max": 0.546875
            },
            "val_acc": {
              "mean": 0.5250000298023224,
              "std": 0.03189609707250827,
              "min": 0.4750000238418579,
              "max": 0.5875000357627869
            }
          },
          "logreg": {
            "train_acc": {
              "mean": 0.5734375357627869,
              "std": 0.007686485934381357,
              "min": 0.5562500357627869,
              "max": 0.5833333730697632
            },
            "val_acc": {
              "mean": 0.5225000292062759,
              "std": 0.03355137309910304,
              "min": 0.45000001788139343,
              "max": 0.5666667222976685
            },
            "train_nll": {
              "mean": 0.6809957981109619,
              "std": 0.002263223243709048,
              "min": 0.6763715744018555,
              "max": 0.6835104823112488
            },
            "val_nll": {
              "mean": 0.6942100048065185,
              "std": 0.004559497849185447,
              "min": 0.6883320212364197,
              "max": 0.7023652791976929
            }
          }
        },
        "randomness_config": {
          "vary_split": true,
          "vary_batch_order": true,
          "vary_init": true
        }
      },
      "k": 1.4,
      "nps_target": 114105,
      "nps_match_mode": "offby1"
    },
    {
      "nps": 262144,
      "baseline_cent_sign": {
        "train_acc": 0.4947916865348816,
        "val_acc": 0.4791666865348816
      },
      "logreg": {
        "train": {
          "acc": 0.5614583492279053,
          "nll": 0.6836629509925842
        },
        "val": {
          "acc": 0.5,
          "nll": 0.6963893175125122
        },
        "params": {
          "w": [
            0.0013082188088446856,
            0.020908106118440628,
            -0.04890836402773857,
            -0.04722193256020546,
            0.004885110072791576,
            -0.02249009534716606,
            -0.004859713837504387,
            0.012976635247468948,
            -0.006946882698684931,
            -0.022520650178194046,
            0.0297049842774868,
            -0.048244815319776535,
            0.04229934886097908,
            0.016379468142986298,
            -0.06514520943164825,
            -0.048644714057445526,
            0.02170655131340027,
            -0.03664785251021385,
            -0.016171570867300034,
            -0.019872378557920456,
            0.003685791976749897,
            0.03400690108537674,
            -0.049239497631788254,
            -0.018393563106656075,
            0.04970404505729675
          ],
          "b": 0.011613253504037857
        },
        "standardize": {
          "mu": [
            0.0032346646767109632,
            3.2292869091033936,
            -0.07580948621034622,
            4.004432201385498,
            -1.603347897529602,
            0.240201935172081,
            -0.008561961352825165,
            -0.1898997724056244,
            -0.2977149784564972,
            -1.0217421054840088,
            -0.7544748783111572,
            -0.5528828501701355,
            1.5163969993591309,
            6.355484962463379,
            -1.4440827369689941,
            0.27598586678504944,
            -0.04959360882639885,
            0.3869391679763794,
            0.7311273217201233,
            -0.06652824580669403,
            -0.445389062166214,
            -0.23903663456439972,
            -1.073199987411499,
            0.35185351967811584,
            -6.66524076461792
          ],
          "sd": [
            8.037315368652344,
            7.861866474151611,
            64.13591766357422,
            105.14014434814453,
            42.31666946411133,
            23.996723175048828,
            16.07489776611328,
            12.837303161621094,
            12.184711456298828,
            13.350001335144043,
            16.006059646606445,
            23.770671844482422,
            45.76176834106445,
            104.58317565917969,
            104.35223388671875,
            44.6872444152832,
            24.674869537353516,
            16.192564010620117,
            12.788082122802734,
            12.50702953338623,
            13.575170516967773,
            16.2943115234375,
            25.23754119873047,
            44.4601936340332,
            108.27018737792969
          ]
        },
        "init": {
          "mode": "random_normal",
          "scale": 0.0028569424932669363
        },
        "seeds": {
          "split_seed": 531042,
          "init_seed": 731042,
          "batch_seed": 631042
        }
      },
      "independent_runs": {
        "per_run": [
          {
            "baseline_cent_sign": {
              "train_acc": 0.4947916865348816,
              "val_acc": 0.4791666865348816
            },
            "logreg": {
              "train": {
                "acc": 0.5614583492279053,
                "nll": 0.6836629509925842
              },
              "val": {
                "acc": 0.5,
                "nll": 0.6963893175125122
              },
              "params": {
                "w": [
                  0.0013082188088446856,
                  0.020908106118440628,
                  -0.04890836402773857,
                  -0.04722193256020546,
                  0.004885110072791576,
                  -0.02249009534716606,
                  -0.004859713837504387,
                  0.012976635247468948,
                  -0.006946882698684931,
                  -0.022520650178194046,
                  0.0297049842774868,
                  -0.048244815319776535,
                  0.04229934886097908,
                  0.016379468142986298,
                  -0.06514520943164825,
                  -0.048644714057445526,
                  0.02170655131340027,
                  -0.03664785251021385,
                  -0.016171570867300034,
                  -0.019872378557920456,
                  0.003685791976749897,
                  0.03400690108537674,
                  -0.049239497631788254,
                  -0.018393563106656075,
                  0.04970404505729675
                ],
                "b": 0.011613253504037857
              },
              "standardize": {
                "mu": [
                  0.0032346646767109632,
                  3.2292869091033936,
                  -0.07580948621034622,
                  4.004432201385498,
                  -1.603347897529602,
                  0.240201935172081,
                  -0.008561961352825165,
                  -0.1898997724056244,
                  -0.2977149784564972,
                  -1.0217421054840088,
                  -0.7544748783111572,
                  -0.5528828501701355,
                  1.5163969993591309,
                  6.355484962463379,
                  -1.4440827369689941,
                  0.27598586678504944,
                  -0.04959360882639885,
                  0.3869391679763794,
                  0.7311273217201233,
                  -0.06652824580669403,
                  -0.445389062166214,
                  -0.23903663456439972,
                  -1.073199987411499,
                  0.35185351967811584,
                  -6.66524076461792
                ],
                "sd": [
                  8.037315368652344,
                  7.861866474151611,
                  64.13591766357422,
                  105.14014434814453,
                  42.31666946411133,
                  23.996723175048828,
                  16.07489776611328,
                  12.837303161621094,
                  12.184711456298828,
                  13.350001335144043,
                  16.006059646606445,
                  23.770671844482422,
                  45.76176834106445,
                  104.58317565917969,
                  104.35223388671875,
                  44.6872444152832,
                  24.674869537353516,
                  16.192564010620117,
                  12.788082122802734,
                  12.50702953338623,
                  13.575170516967773,
                  16.2943115234375,
                  25.23754119873047,
                  44.4601936340332,
                  108.27018737792969
                ]
              },
              "init": {
                "mode": "random_normal",
                "scale": 0.0028569424932669363
              },
              "seeds": {
                "split_seed": 531042,
                "init_seed": 731042,
                "batch_seed": 631042
              }
            },
            "run_id": 0,
            "seed": 831042,
            "randomness": {
              "split_seed": 531042,
              "batch_seed": 631042,
              "init_seed": 731042
            }
          },
          {
            "baseline_cent_sign": {
              "train_acc": 0.49687501788139343,
              "val_acc": 0.47083336114883423
            },
            "logreg": {
              "train": {
                "acc": 0.5635417103767395,
                "nll": 0.6844307780265808
              },
              "val": {
                "acc": 0.4833333492279053,
                "nll": 0.6987572908401489
              },
              "params": {
                "w": [
                  -0.011242290958762169,
                  0.02614765800535679,
                  -0.015000025741755962,
                  0.0005359649658203125,
                  0.05659746006131172,
                  -0.05086871609091759,
                  0.0036530981305986643,
                  -0.023570334538817406,
                  0.021214764565229416,
                  -0.035665322095155716,
                  0.018214348703622818,
                  -0.024428758770227432,
                  0.0395774282515049,
                  0.007286401931196451,
                  -0.05656316131353378,
                  -0.06564714759588242,
                  0.022925548255443573,
                  -0.006537280045449734,
                  -0.015546481125056744,
                  -0.02331630140542984,
                  0.013424515724182129,
                  0.047552429139614105,
                  -0.013081883080303669,
                  -0.022517740726470947,
                  0.02186339534819126
                ],
                "b": 0.012777860276401043
              },
              "standardize": {
                "mu": [
                  0.1762286275625229,
                  3.257383346557617,
                  -3.1576807498931885,
                  5.280030250549316,
                  -0.9495243430137634,
                  0.09509634226560593,
                  0.18857449293136597,
                  0.17011195421218872,
                  -0.55133455991745,
                  -0.8395298719406128,
                  -0.017406782135367393,
                  -0.28579181432724,
                  0.46682798862457275,
                  5.465703010559082,
                  -1.4077481031417847,
                  0.4983457922935486,
                  0.4468725323677063,
                  0.32690247893333435,
                  0.1344030499458313,
                  0.1435757279396057,
                  -0.5330684781074524,
                  0.1559995859861374,
                  -0.5055581331253052,
                  -0.028912227600812912,
                  -5.193673133850098
                ],
                "sd": [
                  8.0960111618042,
                  7.904437065124512,
                  65.3427963256836,
                  104.3487548828125,
                  43.18263626098633,
                  23.62377166748047,
                  16.0421199798584,
                  12.936868667602539,
                  12.592074394226074,
                  13.075819969177246,
                  16.202381134033203,
                  24.24221420288086,
                  44.4013557434082,
                  103.75318908691406,
                  102.64842224121094,
                  44.04579544067383,
                  24.471233367919922,
                  16.013690948486328,
                  12.689271926879883,
                  12.760766983032227,
                  13.495944023132324,
                  16.263099670410156,
                  24.93585777282715,
                  44.72575759887695,
                  108.61463165283203
                ]
              },
              "init": {
                "mode": "random_normal",
                "scale": 0.0028569424932669363
              },
              "seeds": {
                "split_seed": 531043,
                "init_seed": 731043,
                "batch_seed": 631043
              }
            },
            "run_id": 1,
            "seed": 831043,
            "randomness": {
              "split_seed": 531043,
              "batch_seed": 631043,
              "init_seed": 731043
            }
          },
          {
            "baseline_cent_sign": {
              "train_acc": 0.49270835518836975,
              "val_acc": 0.48750001192092896
            },
            "logreg": {
              "train": {
                "acc": 0.5437500476837158,
                "nll": 0.6875458359718323
              },
              "val": {
                "acc": 0.5,
                "nll": 0.6929844617843628
              },
              "params": {
                "w": [
                  0.006416741758584976,
                  0.005493670701980591,
                  -0.016593491658568382,
                  0.025679785758256912,
                  0.005275028292089701,
                  -0.02240605279803276,
                  -0.004004457499831915,
                  0.01666690781712532,
                  -0.020312460139393806,
                  0.0004807375371456146,
                  0.014423925429582596,
                  -0.003119423985481262,
                  0.001355296466499567,
                  -0.036564696580171585,
                  -0.05756017938256264,
                  -0.06377896666526794,
                  0.005693348124623299,
                  -0.011192040517926216,
                  -0.005945396609604359,
                  -0.031179165467619896,
                  0.030493957921862602,
                  -0.013626409694552422,
                  -0.027698718011379242,
                  -0.018233997747302055,
                  0.01684398017823696
                ],
                "b": 0.01250508613884449
              },
              "standardize": {
                "mu": [
                  0.2244766354560852,
                  3.420903444290161,
                  -0.3761482536792755,
                  3.4093971252441406,
                  -0.735795795917511,
                  0.23621807992458344,
                  0.1428968757390976,
                  -0.1563967764377594,
                  -0.2734713554382324,
                  -0.8365812301635742,
                  -0.39712169766426086,
                  -0.26669153571128845,
                  0.458605021238327,
                  3.7189292907714844,
                  -0.7559540271759033,
                  -0.7231099605560303,
                  -0.34508517384529114,
                  0.8497137427330017,
                  0.21392783522605896,
                  0.04927460476756096,
                  -0.9195600152015686,
                  -0.055305611342191696,
                  -0.15658865869045258,
                  1.2608157396316528,
                  -5.356522083282471
                ],
                "sd": [
                  8.10977840423584,
                  7.930566787719727,
                  64.11388397216797,
                  104.77224731445312,
                  43.67028045654297,
                  24.04914665222168,
                  16.27141571044922,
                  12.973052024841309,
                  12.450993537902832,
                  12.955266952514648,
                  16.2468318939209,
                  24.04438018798828,
                  44.76567077636719,
                  104.16572570800781,
                  102.95195007324219,
                  44.38825607299805,
                  24.27385902404785,
                  16.113107681274414,
                  13.014890670776367,
                  12.4483003616333,
                  13.483943939208984,
                  16.490924835205078,
                  24.86421012878418,
                  45.19221878051758,
                  107.40135955810547
                ]
              },
              "init": {
                "mode": "random_normal",
                "scale": 0.0028569424932669363
              },
              "seeds": {
                "split_seed": 531044,
                "init_seed": 731044,
                "batch_seed": 631044
              }
            },
            "run_id": 2,
            "seed": 831044,
            "randomness": {
              "split_seed": 531044,
              "batch_seed": 631044,
              "init_seed": 731044
            }
          },
          {
            "baseline_cent_sign": {
              "train_acc": 0.4958333671092987,
              "val_acc": 0.4750000238418579
            },
            "logreg": {
              "train": {
                "acc": 0.5750000476837158,
                "nll": 0.6826881170272827
              },
              "val": {
                "acc": 0.5375000238418579,
                "nll": 0.6915914416313171
              },
              "params": {
                "w": [
                  0.021747242659330368,
                  -0.004396846517920494,
                  -0.022242244333028793,
                  -0.020864591002464294,
                  0.0502314567565918,
                  -0.05733359232544899,
                  0.02034427784383297,
                  0.022555140778422356,
                  -0.014200985431671143,
                  -0.041109174489974976,
                  0.11814610660076141,
                  -0.06469270586967468,
                  0.06509369611740112,
                  -0.03902164474129677,
                  -0.122980497777462,
                  -0.1052226722240448,
                  -6.395229138433933e-05,
                  0.006632352713495493,
                  -0.03529801219701767,
                  0.05211297795176506,
                  0.08087875694036484,
                  0.03740561380982399,
                  -0.10266711562871933,
                  -0.06107837334275246,
                  0.015629760921001434
                ],
                "b": 0.016077209264039993
              },
              "standardize": {
                "mu": [
                  0.19320279359817505,
                  3.231449604034424,
                  -1.1809860467910767,
                  3.95873761177063,
                  -1.2249677181243896,
                  0.04262315481901169,
                  0.24908031523227692,
                  0.01544839609414339,
                  -0.3027559220790863,
                  -0.7772990465164185,
                  -0.3915413022041321,
                  -0.6522800922393799,
                  0.5998061895370483,
                  3.67653751373291,
                  1.0010712146759033,
                  0.22534587979316711,
                  0.44086870551109314,
                  0.3002379536628723,
                  0.2581271827220917,
                  0.37924495339393616,
                  -0.8662921786308289,
                  -0.4218478798866272,
                  -0.42868268489837646,
                  1.1899373531341553,
                  -5.466938018798828
                ],
                "sd": [
                  8.095948219299316,
                  7.819141864776611,
                  65.83101654052734,
                  106.24518585205078,
                  43.537601470947266,
                  24.3311710357666,
                  16.214872360229492,
                  13.065572738647461,
                  12.16408634185791,
                  12.951358795166016,
                  16.28483009338379,
                  23.61309242248535,
                  44.916893005371094,
                  104.06652069091797,
                  100.68360900878906,
                  45.034584045410156,
                  24.517431259155273,
                  16.017179489135742,
                  12.817885398864746,
                  12.396576881408691,
                  13.323957443237305,
                  16.065526962280273,
                  24.935211181640625,
                  44.88328552246094,
                  108.07818603515625
                ]
              },
              "init": {
                "mode": "random_normal",
                "scale": 0.0028569424932669363
              },
              "seeds": {
                "split_seed": 531045,
                "init_seed": 731045,
                "batch_seed": 631045
              }
            },
            "run_id": 3,
            "seed": 831045,
            "randomness": {
              "split_seed": 531045,
              "batch_seed": 631045,
              "init_seed": 731045
            }
          },
          {
            "baseline_cent_sign": {
              "train_acc": 0.4895833730697632,
              "val_acc": 0.5
            },
            "logreg": {
              "train": {
                "acc": 0.5406250357627869,
                "nll": 0.6852552890777588
              },
              "val": {
                "acc": 0.4833333492279053,
                "nll": 0.7018446922302246
              },
              "params": {
                "w": [
                  0.04292496666312218,
                  0.02919134683907032,
                  -0.024489808827638626,
                  -0.03626237437129021,
                  0.014142461121082306,
                  -0.0459945946931839,
                  0.0022067150566726923,
                  0.03185368329286575,
                  -0.00034736678935587406,
                  -0.043197162449359894,
                  -0.023668035864830017,
                  0.0171891450881958,
                  0.04529672488570213,
                  0.0015199393965303898,
                  -0.061610158532857895,
                  -0.05600744113326073,
                  -0.022040333598852158,
                  0.002876837505027652,
                  -0.0390935093164444,
                  -0.034008756279945374,
                  0.023617178201675415,
                  0.031810443848371506,
                  -0.007341254036873579,
                  -0.019848033785820007,
                  -0.0012119377497583628
                ],
                "b": 0.049716830253601074
              },
              "standardize": {
                "mu": [
                  0.009959030896425247,
                  3.1517717838287354,
                  0.02915903925895691,
                  5.004554271697998,
                  -2.5786173343658447,
                  0.8660711050033569,
                  -0.03790845349431038,
                  -0.2053125500679016,
                  -0.2005241960287094,
                  -0.8631935715675354,
                  -0.13454316556453705,
                  -0.5294164419174194,
                  0.4455632269382477,
                  5.142890453338623,
                  -2.12591814994812,
                  -0.2484050840139389,
                  -0.062488432973623276,
                  0.20160739123821259,
                  0.040656425058841705,
                  0.08325251936912537,
                  -0.7600913047790527,
                  0.10874131321907043,
                  -1.055232286453247,
                  1.4366823434829712,
                  -3.797379970550537
                ],
                "sd": [
                  8.017136573791504,
                  7.850951671600342,
                  64.67530822753906,
                  105.87899017333984,
                  42.507633209228516,
                  23.73577308654785,
                  16.25482940673828,
                  13.052194595336914,
                  12.291881561279297,
                  12.931897163391113,
                  16.28568458557129,
                  23.553781509399414,
                  44.5850944519043,
                  105.85977172851562,
                  105.03913879394531,
                  43.39541244506836,
                  24.651952743530273,
                  16.092655181884766,
                  12.731749534606934,
                  12.477872848510742,
                  13.13521957397461,
                  16.34711456298828,
                  24.680156707763672,
                  44.00669860839844,
                  108.14047241210938
                ]
              },
              "init": {
                "mode": "random_normal",
                "scale": 0.0028569424932669363
              },
              "seeds": {
                "split_seed": 531046,
                "init_seed": 731046,
                "batch_seed": 631046
              }
            },
            "run_id": 4,
            "seed": 831046,
            "randomness": {
              "split_seed": 531046,
              "batch_seed": 631046,
              "init_seed": 731046
            }
          },
          {
            "baseline_cent_sign": {
              "train_acc": 0.4947916865348816,
              "val_acc": 0.4791666865348816
            },
            "logreg": {
              "train": {
                "acc": 0.5708333849906921,
                "nll": 0.6858705282211304
              },
              "val": {
                "acc": 0.5041667222976685,
                "nll": 0.6932752728462219
              },
              "params": {
                "w": [
                  0.04355238005518913,
                  0.031894750893116,
                  -0.010174386203289032,
                  0.015011295676231384,
                  0.03139186277985573,
                  -0.02940302900969982,
                  0.005742639768868685,
                  0.02091655135154724,
                  0.019949957728385925,
                  -0.024913053959608078,
                  0.05369076505303383,
                  -0.044378940016031265,
                  0.009700469672679901,
                  -0.039725881069898605,
                  -0.06151314824819565,
                  -0.036889683455228806,
                  -0.006260314024984837,
                  -0.02250482700765133,
                  -0.031047657132148743,
                  -0.025570206344127655,
                  0.0362834557890892,
                  0.030661575496196747,
                  -0.017572669312357903,
                  -0.003031963249668479,
                  0.013801440596580505
                ],
                "b": 0.006131867878139019
              },
              "standardize": {
                "mu": [
                  0.15527763962745667,
                  3.2697877883911133,
                  -1.6331807374954224,
                  3.0070583820343018,
                  -1.6493843793869019,
                  0.04666443169116974,
                  -0.5629018545150757,
                  -0.20187047123908997,
                  -0.2087193876504898,
                  -1.2119011878967285,
                  -0.4271259903907776,
                  0.40126973390579224,
                  -0.024537978693842888,
                  4.588158130645752,
                  2.342973470687866,
                  0.8032724261283875,
                  0.051302436739206314,
                  0.6647936701774597,
                  0.10324250161647797,
                  0.23835806548595428,
                  -0.5725337266921997,
                  -0.6423383355140686,
                  -0.6425368785858154,
                  1.2892823219299316,
                  -5.730157852172852
                ],
                "sd": [
                  8.130730628967285,
                  7.979937553405762,
                  65.57414245605469,
                  106.69588470458984,
                  43.336605072021484,
                  23.587814331054688,
                  16.401002883911133,
                  12.888206481933594,
                  12.418143272399902,
                  13.126493453979492,
                  16.166250228881836,
                  23.522647857666016,
                  45.42427444458008,
                  103.85961151123047,
                  105.01349639892578,
                  44.44710159301758,
                  23.85153579711914,
                  16.098163604736328,
                  12.815390586853027,
                  12.310993194580078,
                  13.616780281066895,
                  16.277585983276367,
                  25.016677856445312,
                  44.91206741333008,
                  107.39341735839844
                ]
              },
              "init": {
                "mode": "random_normal",
                "scale": 0.0028569424932669363
              },
              "seeds": {
                "split_seed": 531047,
                "init_seed": 731047,
                "batch_seed": 631047
              }
            },
            "run_id": 5,
            "seed": 831047,
            "randomness": {
              "split_seed": 531047,
              "batch_seed": 631047,
              "init_seed": 731047
            }
          },
          {
            "baseline_cent_sign": {
              "train_acc": 0.48854169249534607,
              "val_acc": 0.5041667222976685
            },
            "logreg": {
              "train": {
                "acc": 0.5697916746139526,
                "nll": 0.6833012104034424
              },
              "val": {
                "acc": 0.4750000238418579,
                "nll": 0.7055734395980835
              },
              "params": {
                "w": [
                  0.002640926279127598,
                  0.005544334650039673,
                  -0.0271243117749691,
                  -0.04480299353599548,
                  0.014189183712005615,
                  -0.05444607138633728,
                  -0.022112371399998665,
                  -0.014056490734219551,
                  -0.028719834983348846,
                  -0.017526943236589432,
                  0.04662372171878815,
                  -0.021094175055623055,
                  0.005354518070816994,
                  0.003838770091533661,
                  -0.07098568975925446,
                  -0.019739437848329544,
                  -0.009103456512093544,
                  -0.04644349217414856,
                  -0.019003447145223618,
                  -0.01173150073736906,
                  0.04801270738244057,
                  0.04789497330784798,
                  0.01620742864906788,
                  -0.02091827616095543,
                  0.04798861965537071
                ],
                "b": 0.020333940163254738
              },
              "standardize": {
                "mu": [
                  0.18010511994361877,
                  3.2787673473358154,
                  -0.336974173784256,
                  3.2784361839294434,
                  -2.248389482498169,
                  0.1442786604166031,
                  0.5503638386726379,
                  -0.12346956878900528,
                  -0.30112001299858093,
                  -0.8165199756622314,
                  -0.2520691156387329,
                  0.3157595694065094,
                  1.0145245790481567,
                  2.7426764965057373,
                  2.051283359527588,
                  -0.0355021171271801,
                  -0.03065306507050991,
                  0.8278579115867615,
                  0.33342328667640686,
                  0.042044851928949356,
                  -0.6032881140708923,
                  -0.2617259621620178,
                  -0.9163591265678406,
                  1.5455421209335327,
                  -6.305618762969971
                ],
                "sd": [
                  8.134172439575195,
                  7.970081329345703,
                  65.3541030883789,
                  105.71106719970703,
                  43.2408561706543,
                  23.849502563476562,
                  15.974038124084473,
                  12.786911964416504,
                  12.538801193237305,
                  13.131921768188477,
                  16.018857955932617,
                  23.92641258239746,
                  45.03565979003906,
                  104.24344635009766,
                  103.67994689941406,
                  44.225990295410156,
                  24.067611694335938,
                  16.02814292907715,
                  12.844009399414062,
                  12.823966026306152,
                  13.277566909790039,
                  16.518022537231445,
                  24.64139747619629,
                  45.33781051635742,
                  108.50839233398438
                ]
              },
              "init": {
                "mode": "random_normal",
                "scale": 0.0028569424932669363
              },
              "seeds": {
                "split_seed": 531048,
                "init_seed": 731048,
                "batch_seed": 631048
              }
            },
            "run_id": 6,
            "seed": 831048,
            "randomness": {
              "split_seed": 531048,
              "batch_seed": 631048,
              "init_seed": 731048
            }
          },
          {
            "baseline_cent_sign": {
              "train_acc": 0.4958333671092987,
              "val_acc": 0.4750000238418579
            },
            "logreg": {
              "train": {
                "acc": 0.5697916746139526,
                "nll": 0.6861839294433594
              },
              "val": {
                "acc": 0.5041667222976685,
                "nll": 0.694216787815094
              },
              "params": {
                "w": [
                  0.013104617595672607,
                  0.007038502488285303,
                  -0.021876610815525055,
                  -0.02994401380419731,
                  0.009547700174152851,
                  -0.04903457686305046,
                  -0.01724923402070999,
                  -0.009479617699980736,
                  -0.027752146124839783,
                  -0.02089814282953739,
                  0.03417349234223366,
                  -0.029035286977887154,
                  0.026791298761963844,
                  0.015078948810696602,
                  -0.06245381385087967,
                  -0.007503395900130272,
                  -0.022546932101249695,
                  0.010110035538673401,
                  -0.02367224358022213,
                  0.0018979590386152267,
                  0.059752460569143295,
                  0.02630378119647503,
                  -0.02224944531917572,
                  -0.015221920795738697,
                  0.0021388258319348097
                ],
                "b": 0.010014807805418968
              },
              "standardize": {
                "mu": [
                  0.19966475665569305,
                  3.226813793182373,
                  0.020949682220816612,
                  6.168313026428223,
                  -1.7458535432815552,
                  0.8698346018791199,
                  -0.04925772547721863,
                  0.11564337462186813,
                  -0.18745768070220947,
                  -1.084219217300415,
                  -0.4677683413028717,
                  -0.8272781372070312,
                  1.143570065498352,
                  6.106113910675049,
                  -0.6225232481956482,
                  0.9523057341575623,
                  0.01886936090886593,
                  0.47310057282447815,
                  0.04768538847565651,
                  0.19707617163658142,
                  -0.8055117726325989,
                  -0.1692894697189331,
                  -0.7638953328132629,
                  0.6252515316009521,
                  -4.712527751922607
                ],
                "sd": [
                  8.08337116241455,
                  7.954329013824463,
                  64.85057830810547,
                  105.67630767822266,
                  43.4588508605957,
                  24.049673080444336,
                  16.174842834472656,
                  12.696224212646484,
                  12.234890937805176,
                  13.156112670898438,
                  15.98886489868164,
                  23.82927703857422,
                  45.84101104736328,
                  103.63896942138672,
                  104.02344512939453,
                  44.777252197265625,
                  23.972305297851562,
                  16.232084274291992,
                  12.857197761535645,
                  12.697932243347168,
                  13.458174705505371,
                  16.522369384765625,
                  25.11432456970215,
                  45.36264419555664,
                  110.28357696533203
                ]
              },
              "init": {
                "mode": "random_normal",
                "scale": 0.0028569424932669363
              },
              "seeds": {
                "split_seed": 531049,
                "init_seed": 731049,
                "batch_seed": 631049
              }
            },
            "run_id": 7,
            "seed": 831049,
            "randomness": {
              "split_seed": 531049,
              "batch_seed": 631049,
              "init_seed": 731049
            }
          },
          {
            "baseline_cent_sign": {
              "train_acc": 0.48229169845581055,
              "val_acc": 0.5291666984558105
            },
            "logreg": {
              "train": {
                "acc": 0.5604166984558105,
                "nll": 0.6860224008560181
              },
              "val": {
                "acc": 0.4958333671092987,
                "nll": 0.6930262446403503
              },
              "params": {
                "w": [
                  0.013018268160521984,
                  -0.00040887005161494017,
                  -0.03256436437368393,
                  -0.030933592468500137,
                  0.00012208917178213596,
                  -0.03372305631637573,
                  -4.698289558291435e-05,
                  0.01561180129647255,
                  -0.02227664180099964,
                  -0.013350061140954494,
                  0.04087431728839874,
                  -0.054432645440101624,
                  -0.015481991693377495,
                  -0.007223132997751236,
                  -0.060562871396541595,
                  -0.05661405995488167,
                  -0.019870970398187637,
                  -0.024050377309322357,
                  0.005743537098169327,
                  -0.03507695347070694,
                  0.0030725218821316957,
                  0.020426252856850624,
                  -0.04076751694083214,
                  -0.012240792624652386,
                  -0.01072892639786005
                ],
                "b": 0.01689966395497322
              },
              "standardize": {
                "mu": [
                  -0.1299581527709961,
                  3.0615251064300537,
                  -1.4996025562286377,
                  4.7997660636901855,
                  -1.3699506521224976,
                  0.5638267993927002,
                  -0.16318216919898987,
                  -0.4267142117023468,
                  -0.1051914244890213,
                  -1.006484031677246,
                  0.2664736807346344,
                  -1.2393794059753418,
                  1.0317485332489014,
                  3.097724199295044,
                  -0.3398219048976898,
                  -0.3030414879322052,
                  0.04393806681036949,
                  0.5540483593940735,
                  0.20700955390930176,
                  0.013932880945503712,
                  -0.6407321095466614,
                  -0.018133478239178658,
                  -0.21328681707382202,
                  -0.14355288445949554,
                  -6.0455708503723145
                ],
                "sd": [
                  8.099691390991211,
                  7.815914630889893,
                  65.36617279052734,
                  104.90591430664062,
                  42.895179748535156,
                  24.249378204345703,
                  16.263065338134766,
                  12.79127311706543,
                  12.297272682189941,
                  13.204324722290039,
                  16.335020065307617,
                  23.743824005126953,
                  44.964996337890625,
                  101.97136688232422,
                  105.69514465332031,
                  44.70814514160156,
                  24.615236282348633,
                  15.914048194885254,
                  12.635927200317383,
                  12.635385513305664,
                  13.4017972946167,
                  16.614200592041016,
                  24.92810821533203,
                  45.13277816772461,
                  107.71844482421875
                ]
              },
              "init": {
                "mode": "random_normal",
                "scale": 0.0028569424932669363
              },
              "seeds": {
                "split_seed": 531050,
                "init_seed": 731050,
                "batch_seed": 631050
              }
            },
            "run_id": 8,
            "seed": 831050,
            "randomness": {
              "split_seed": 531050,
              "batch_seed": 631050,
              "init_seed": 731050
            }
          },
          {
            "baseline_cent_sign": {
              "train_acc": 0.49375003576278687,
              "val_acc": 0.4833333492279053
            },
            "logreg": {
              "train": {
                "acc": 0.5458333492279053,
                "nll": 0.6846791505813599
              },
              "val": {
                "acc": 0.4958333671092987,
                "nll": 0.7055379748344421
              },
              "params": {
                "w": [
                  0.0188385508954525,
                  0.03618831932544708,
                  -0.023426976054906845,
                  -0.025054901838302612,
                  0.02705444023013115,
                  -0.053655289113521576,
                  -0.0212300643324852,
                  -0.019634857773780823,
                  -0.04928024858236313,
                  0.024308599531650543,
                  0.03307158499956131,
                  -0.026188809424638748,
                  0.03094460815191269,
                  -0.014807933941483498,
                  -0.041412338614463806,
                  -0.037341292947530746,
                  -0.010588030330836773,
                  0.01916337199509144,
                  -0.03822411969304085,
                  -0.051912494003772736,
                  0.020972847938537598,
                  -0.02523042820394039,
                  -0.015359025448560715,
                  0.0025081918574869633,
                  0.02033843845129013
                ],
                "b": -0.04519100487232208
              },
              "standardize": {
                "mu": [
                  0.1266060471534729,
                  3.3042848110198975,
                  -2.1810882091522217,
                  0.42983755469322205,
                  -1.4435163736343384,
                  0.1783115416765213,
                  -0.1296909749507904,
                  -0.20514938235282898,
                  -0.1315864622592926,
                  -1.0487889051437378,
                  0.003417253727093339,
                  -0.2722266912460327,
                  1.719076156616211,
                  5.237228870391846,
                  -2.3048388957977295,
                  -0.17709669470787048,
                  0.31319260597229004,
                  0.7264215350151062,
                  0.33418765664100647,
                  -0.12640327215194702,
                  -0.7799450159072876,
                  -0.15244853496551514,
                  -0.2917095422744751,
                  1.8976808786392212,
                  -6.218957901000977
                ],
                "sd": [
                  8.127243995666504,
                  7.779195308685303,
                  64.31249237060547,
                  104.96802520751953,
                  44.06055450439453,
                  23.867176055908203,
                  16.201805114746094,
                  12.619810104370117,
                  12.199148178100586,
                  13.014140129089355,
                  16.169048309326172,
                  24.0626277923584,
                  44.82820510864258,
                  103.10551452636719,
                  104.14140319824219,
                  44.645259857177734,
                  24.640121459960938,
                  15.850982666015625,
                  13.00673770904541,
                  12.745560646057129,
                  13.284274101257324,
                  16.22213363647461,
                  25.324846267700195,
                  44.06155014038086,
                  110.73815155029297
                ]
              },
              "init": {
                "mode": "random_normal",
                "scale": 0.0028569424932669363
              },
              "seeds": {
                "split_seed": 531051,
                "init_seed": 731051,
                "batch_seed": 631051
              }
            },
            "run_id": 9,
            "seed": 831051,
            "randomness": {
              "split_seed": 531051,
              "batch_seed": 631051,
              "init_seed": 731051
            }
          }
        ],
        "summary": {
          "n_runs": 10,
          "baseline_cent_sign": {
            "train_acc": {
              "mean": 0.492500028014183,
              "std": 0.004264474657389092,
              "min": 0.48229169845581055,
              "max": 0.49687501788139343
            },
            "val_acc": {
              "mean": 0.48833335638046266,
              "std": 0.01705791144179874,
              "min": 0.47083336114883423,
              "max": 0.5291666984558105
            }
          },
          "logreg": {
            "train_acc": {
              "mean": 0.5601041972637176,
              "std": 0.011785572492260567,
              "min": 0.5406250357627869,
              "max": 0.5750000476837158
            },
            "val_acc": {
              "mean": 0.4979166924953461,
              "std": 0.01616430697270862,
              "min": 0.4750000238418579,
              "max": 0.5375000238418579
            },
            "train_nll": {
              "mean": 0.6849640190601349,
              "std": 0.0014206922916309298,
              "min": 0.6826881170272827,
              "max": 0.6875458359718323
            },
            "val_nll": {
              "mean": 0.6973196923732757,
              "std": 0.005050728071937534,
              "min": 0.6915914416313171,
              "max": 0.7055734395980835
            }
          }
        },
        "randomness_config": {
          "vary_split": true,
          "vary_batch_order": true,
          "vary_init": true
        }
      },
      "k": 1.5,
      "nps_target": 262144,
      "nps_match_mode": "offby1"
    },
    {
      "nps": 602248,
      "baseline_cent_sign": {
        "train_acc": 0.49375003576278687,
        "val_acc": 0.45000001788139343
      },
      "logreg": {
        "train": {
          "acc": 0.5770833492279053,
          "nll": 0.6791070103645325
        },
        "val": {
          "acc": 0.5166667103767395,
          "nll": 0.6952985525131226
        },
        "params": {
          "w": [
            0.04333561286330223,
            0.04695563390851021,
            -0.0007086233235895634,
            0.020617129281163216,
            -0.06641095131635666,
            -0.029147539287805557,
            -0.051377419382333755,
            -0.0633399486541748,
            -0.06216340884566307,
            -0.05391192063689232,
            0.008256304077804089,
            -0.03252168372273445,
            0.04181327298283577,
            -0.010262656956911087,
            -0.00948392879217863,
            -0.007970605976879597,
            0.0008636629208922386,
            0.06129691004753113,
            0.02226981893181801,
            0.010867422446608543,
            0.022707875818014145,
            -0.037975721061229706,
            -0.04171719402074814,
            -0.020509403198957443,
            0.05187618359923363
          ],
          "b": 0.009702407754957676
        },
        "standardize": {
          "mu": [
            0.2916347086429596,
            3.0585503578186035,
            -1.7456297874450684,
            -2.3305158615112305,
            -0.353064626455307,
            -0.5121772289276123,
            0.10114564746618271,
            0.06943568587303162,
            -0.12143157422542572,
            -0.08241388201713562,
            0.050705436617136,
            -0.4153442978858948,
            -0.26700401306152344,
            -3.3369576930999756,
            -0.7545382380485535,
            -0.4685128629207611,
            0.09672375023365021,
            0.17389968037605286,
            0.18448637425899506,
            -0.3187142312526703,
            0.2630468010902405,
            0.09012755006551743,
            0.2465297281742096,
            0.28024688363075256,
            0.3162519037723541
          ],
          "sd": [
            5.217116355895996,
            5.436668872833252,
            41.276023864746094,
            43.13911819458008,
            19.583589553833008,
            10.651350975036621,
            7.012907028198242,
            5.500704288482666,
            5.1077141761779785,
            5.449499607086182,
            7.136136054992676,
            10.923528671264648,
            19.943681716918945,
            44.81293869018555,
            45.84587860107422,
            20.57489585876465,
            10.611717224121094,
            7.130066394805908,
            5.686090469360352,
            5.299714088439941,
            5.786975383758545,
            7.257153511047363,
            11.289767265319824,
            19.331865310668945,
            43.883209228515625
          ]
        },
        "init": {
          "mode": "random_normal",
          "scale": 0.0028569424932669363
        },
        "seeds": {
          "split_seed": 541042,
          "init_seed": 741042,
          "batch_seed": 641042
        }
      },
      "independent_runs": {
        "per_run": [
          {
            "baseline_cent_sign": {
              "train_acc": 0.49375003576278687,
              "val_acc": 0.45000001788139343
            },
            "logreg": {
              "train": {
                "acc": 0.5770833492279053,
                "nll": 0.6791070103645325
              },
              "val": {
                "acc": 0.5166667103767395,
                "nll": 0.6952985525131226
              },
              "params": {
                "w": [
                  0.04333561286330223,
                  0.04695563390851021,
                  -0.0007086233235895634,
                  0.020617129281163216,
                  -0.06641095131635666,
                  -0.029147539287805557,
                  -0.051377419382333755,
                  -0.0633399486541748,
                  -0.06216340884566307,
                  -0.05391192063689232,
                  0.008256304077804089,
                  -0.03252168372273445,
                  0.04181327298283577,
                  -0.010262656956911087,
                  -0.00948392879217863,
                  -0.007970605976879597,
                  0.0008636629208922386,
                  0.06129691004753113,
                  0.02226981893181801,
                  0.010867422446608543,
                  0.022707875818014145,
                  -0.037975721061229706,
                  -0.04171719402074814,
                  -0.020509403198957443,
                  0.05187618359923363
                ],
                "b": 0.009702407754957676
              },
              "standardize": {
                "mu": [
                  0.2916347086429596,
                  3.0585503578186035,
                  -1.7456297874450684,
                  -2.3305158615112305,
                  -0.353064626455307,
                  -0.5121772289276123,
                  0.10114564746618271,
                  0.06943568587303162,
                  -0.12143157422542572,
                  -0.08241388201713562,
                  0.050705436617136,
                  -0.4153442978858948,
                  -0.26700401306152344,
                  -3.3369576930999756,
                  -0.7545382380485535,
                  -0.4685128629207611,
                  0.09672375023365021,
                  0.17389968037605286,
                  0.18448637425899506,
                  -0.3187142312526703,
                  0.2630468010902405,
                  0.09012755006551743,
                  0.2465297281742096,
                  0.28024688363075256,
                  0.3162519037723541
                ],
                "sd": [
                  5.217116355895996,
                  5.436668872833252,
                  41.276023864746094,
                  43.13911819458008,
                  19.583589553833008,
                  10.651350975036621,
                  7.012907028198242,
                  5.500704288482666,
                  5.1077141761779785,
                  5.449499607086182,
                  7.136136054992676,
                  10.923528671264648,
                  19.943681716918945,
                  44.81293869018555,
                  45.84587860107422,
                  20.57489585876465,
                  10.611717224121094,
                  7.130066394805908,
                  5.686090469360352,
                  5.299714088439941,
                  5.786975383758545,
                  7.257153511047363,
                  11.289767265319824,
                  19.331865310668945,
                  43.883209228515625
                ]
              },
              "init": {
                "mode": "random_normal",
